{"learner":{"attributes":{"scikit_learn":"{\"_estimator_type\": \"regressor\"}"},"feature_names":[],"feature_types":[],"gradient_booster":{"model":{"cats":{"enc":[],"feature_segments":[],"sorted_idx":[]},"gbtree_model_param":{"num_parallel_tree":"1","num_trees":"300"},"iteration_indptr":[0,1,2,3,4,5,6,7,8,9,10,11,12,13,14,15,16,17,18,19,20,21,22,23,24,25,26,27,28,29,30,31,32,33,34,35,36,37,38,39,40,41,42,43,44,45,46,47,48,49,50,51,52,53,54,55,56,57,58,59,60,61,62,63,64,65,66,67,68,69,70,71,72,73,74,75,76,77,78,79,80,81,82,83,84,85,86,87,88,89,90,91,92,93,94,95,96,97,98,99,100,101,102,103,104,105,106,107,108,109,110,111,112,113,114,115,116,117,118,119,120,121,122,123,124,125,126,127,128,129,130,131,132,133,134,135,136,137,138,139,140,141,142,143,144,145,146,147,148,149,150,151,152,153,154,155,156,157,158,159,160,161,162,163,164,165,166,167,168,169,170,171,172,173,174,175,176,177,178,179,180,181,182,183,184,185,186,187,188,189,190,191,192,193,194,195,196,197,198,199,200,201,202,203,204,205,206,207,208,209,210,211,212,213,214,215,216,217,218,219,220,221,222,223,224,225,226,227,228,229,230,231,232,233,234,235,236,237,238,239,240,241,242,243,244,245,246,247,248,249,250,251,252,253,254,255,256,257,258,259,260,261,262,263,264,265,266,267,268,269,270,271,272,273,274,275,276,277,278,279,280,281,282,283,284,285,286,287,288,289,290,291,292,293,294,295,296,297,298,299,300],"tree_info":[0,0,0,0,0,0,0,0,0,0,0,0,0,0,0,0,0,0,0,0,0,0,0,0,0,0,0,0,0,0,0,0,0,0,0,0,0,0,0,0,0,0,0,0,0,0,0,0,0,0,0,0,0,0,0,0,0,0,0,0,0,0,0,0,0,0,0,0,0,0,0,0,0,0,0,0,0,0,0,0,0,0,0,0,0,0,0,0,0,0,0,0,0,0,0,0,0,0,0,0,0,0,0,0,0,0,0,0,0,0,0,0,0,0,0,0,0,0,0,0,0,0,0,0,0,0,0,0,0,0,0,0,0,0,0,0,0,0,0,0,0,0,0,0,0,0,0,0,0,0,0,0,0,0,0,0,0,0,0,0,0,0,0,0,0,0,0,0,0,0,0,0,0,0,0,0,0,0,0,0,0,0,0,0,0,0,0,0,0,0,0,0,0,0,0,0,0,0,0,0,0,0,0,0,0,0,0,0,0,0,0,0,0,0,0,0,0,0,0,0,0,0,0,0,0,0,0,0,0,0,0,0,0,0,0,0,0,0,0,0,0,0,0,0,0,0,0,0,0,0,0,0,0,0,0,0,0,0,0,0,0,0,0,0,0,0,0,0,0,0,0,0,0,0,0,0,0,0,0,0,0,0,0,0,0,0,0,0,0,0,0,0,0,0,0,0,0,0,0,0],"trees":[{"base_weights":[1.8213892E-2,-3.176888E0,2.2861452E0,-2.1087018E-1,-2.6885698E0,8.775291E-1,3.2970414E0,-1.3992053E-1,-4.4612493E-2,1.11292996E-1,1.3656943E0,-1.6197638E-1,3.4453382E0,2.1598794E-2,-1.6197638E-1,7.463674E-2,-1.2148229E-1,1.4247064E-1,2.18937E-1],"categories":[],"categories_nodes":[],"categories_segments":[],"categories_sizes":[],"default_left":[0,0,0,0,0,0,0,0,0,0,0,0,0,0,0,0,0,0,0],"id":0,"left_children":[1,3,5,-1,7,9,11,-1,-1,13,15,-1,17,-1,-1,-1,-1,-1,-1],"loss_changes":[2.3912861E3,5.827124E1,2.719319E2,0E0,1.6444824E1,3.0520088E1,1.1972888E2,0E0,0E0,3.6859577E1,2.7734917E1,0E0,4.870935E1,0E0,0E0,0E0,0E0,0E0,0E0],"parents":[2147483647,0,0,1,1,2,2,4,4,5,5,6,6,9,9,10,10,12,12],"right_children":[2,4,6,-1,8,10,12,-1,-1,14,16,-1,18,-1,-1,-1,-1,-1,-1],"split_conditions":[4.81E0,1.87E0,7.65E0,-2.1087018E-1,3.84E0,6.05E0,6.1E1,-1.3992053E-1,-4.4612493E-2,5.93E0,7.6E0,-1.6197638E-1,9.15E0,2.1598794E-2,-1.6197638E-1,7.463674E-2,-1.2148229E-1,1.4247064E-1,2.18937E-1],"split_indices":[0,9,1,0,0,3,32,0,0,0,0,0,1,0,0,0,0,0,0],"split_type":[0,0,0,0,0,0,0,0,0,0,0,0,0,0,0,0,0,0,0],"sum_hessian":[3.28E2,1.36E2,1.92E2,4.1E1,9.5E1,8.1E1,1.11E2,8.9E1,6E0,3.2E1,4.9E1,2E0,1.09E2,3E1,2E0,4.8E1,1E0,6.9E1,4E1],"tree_param":{"num_deleted":"0","num_feature":"36","num_nodes":"19","size_leaf_vector":"1"}},{"base_weights":[-3.127314E-2,-2.9920793E0,2.1974587E0,-1.9913031E-1,-2.5560424E0,5.251802E-1,2.951107E0,-1.3192151E-1,-4.1278295E-2,6.842679E-1,-1.32982E0,-1.5657717E-1,3.0725105E0,-1.17432885E-1,3.919634E-2,-1.6052073E-1,4.970239E-2,1.2676081E-1,2.1030426E-1],"categories":[],"categories_nodes":[],"categories_segments":[],"categories_sizes":[],"default_left":[0,0,0,0,0,0,0,0,0,0,0,0,0,0,0,0,0,0,0],"id":1,"left_children":[1,3,5,-1,7,9,11,-1,-1,13,15,-1,17,-1,-1,-1,-1,-1,-1],"loss_changes":[2.151199E3,5.028723E1,2.3286786E2,0E0,1.2078796E1,1.8321304E1,1.0414404E2,0E0,0E0,1.8465376E1,2.5042572E1,0E0,6.607849E1,0E0,0E0,0E0,0E0,0E0,0E0],"parents":[2147483647,0,0,1,1,2,2,4,4,5,5,6,6,9,9,10,10,12,12],"right_children":[2,4,6,-1,8,10,12,-1,-1,14,16,-1,18,-1,-1,-1,-1,-1,-1],"split_conditions":[4.81E0,1.87E0,6.77E0,-1.9913031E-1,3.55E0,6.73E0,6.1E1,-1.3192151E-1,-4.1278295E-2,-6.113014E-2,1.621E3,-1.5657717E-1,9.15E0,-1.17432885E-1,3.919634E-2,-1.6052073E-1,4.970239E-2,1.2676081E-1,2.1030426E-1],"split_indices":[0,9,3,0,0,19,32,0,0,5,4,0,1,0,0,0,0,0,0],"split_type":[0,0,0,0,0,0,0,0,0,0,0,0,0,0,0,0,0,0,0],"sum_hessian":[3.24E2,1.39E2,1.85E2,4E1,9.9E1,5.8E1,1.27E2,9.4E1,5E0,5.4E1,4E0,2E0,1.25E2,1E0,5.3E1,2E0,2E0,8.7E1,3.8E1],"tree_param":{"num_deleted":"0","num_feature":"36","num_nodes":"19","size_leaf_vector":"1"}},{"base_weights":[-9.5868975E-2,-2.8603964E0,2.019594E0,-1.9086784E-1,-2.4394386E0,4.2304796E-1,2.854255E0,-1.2670928E-1,-4.093146E-2,5.9994274E-1,-1.6868965E-1,-1.5135793E-1,2.979594E0,8.8327704E-4,6.309625E-2,1.2357271E-1,1.972766E-1],"categories":[],"categories_nodes":[],"categories_segments":[],"categories_sizes":[],"default_left":[0,0,0,0,0,0,0,0,0,0,0,0,0,0,0,0,0],"id":2,"left_children":[1,3,5,-1,7,9,11,-1,-1,13,-1,-1,15,-1,-1,-1,-1],"loss_changes":[1.888915E3,4.708545E1,2.4265363E2,0E0,1.3282166E1,4.5009125E1,9.748016E1,0E0,0E0,2.3876045E1,0E0,0E0,4.816687E1,0E0,0E0,0E0,0E0],"parents":[2147483647,0,0,1,1,2,2,4,4,5,5,6,6,9,9,12,12],"right_children":[2,4,6,-1,8,10,12,-1,-1,14,-1,-1,16,-1,-1,-1,-1],"split_conditions":[4.85E0,1.87E0,7.15E0,-1.9086784E-1,3.88E0,7.25E0,6.1E1,-1.2670928E-1,-4.093146E-2,6.05E0,-1.6868965E-1,-1.5135793E-1,9.15E0,8.8327704E-4,6.309625E-2,1.2357271E-1,1.972766E-1],"split_indices":[1,9,21,0,1,15,32,0,0,3,0,0,1,0,0,0,0],"split_type":[0,0,0,0,0,0,0,0,0,0,0,0,0,0,0,0,0],"sum_hessian":[3.21E2,1.39E2,1.82E2,4E1,9.9E1,6.3E1,1.19E2,9.3E1,6E0,6.1E1,2E0,2E0,1.17E2,3.3E1,2.8E1,7.9E1,3.8E1],"tree_param":{"num_deleted":"0","num_feature":"36","num_nodes":"17","size_leaf_vector":"1"}},{"base_weights":[-2.2479173E-2,-2.7245595E0,1.9527596E0,-1.8155931E-1,-2.3026178E0,7.7354723E-1,2.8224967E0,-1.1951556E-1,-3.9177265E-2,8.421388E-1,-1.2470358E-1,-1.4631267E-1,2.9524405E0,2.9249523E-2,9.930109E-2,1.2219949E-1,1.8804589E-1],"categories":[],"categories_nodes":[],"categories_segments":[],"categories_sizes":[],"default_left":[0,0,0,0,0,0,0,0,0,0,0,0,0,0,0,0,0],"id":3,"left_children":[1,3,5,-1,7,9,11,-1,-1,13,-1,-1,15,-1,-1,-1,-1],"loss_changes":[1.8199868E3,4.6725098E1,1.9986084E2,0E0,1.1581543E1,2.115149E1,9.3052185E1,0E0,0E0,2.3546597E1,0E0,0E0,3.6437256E1,0E0,0E0,0E0,0E0],"parents":[2147483647,0,0,1,1,2,2,4,4,5,5,6,6,9,9,12,12],"right_children":[2,4,6,-1,8,10,12,-1,-1,14,-1,-1,16,-1,-1,-1,-1],"split_conditions":[4.81E0,1.87E0,7.65E0,-1.8155931E-1,3.55E0,7.6E0,6.1E1,-1.1951556E-1,-3.9177265E-2,7.15E0,-1.2470358E-1,-1.4631267E-1,9.15E0,2.9249523E-2,9.930109E-2,1.2219949E-1,1.8804589E-1],"split_indices":[0,9,1,0,0,0,32,0,0,21,0,0,1,0,0,0,0],"split_type":[0,0,0,0,0,0,0,0,0,0,0,0,0,0,0,0,0],"sum_hessian":[3.39E2,1.43E2,1.96E2,4.3E1,1E2,8.4E1,1.12E2,9.4E1,6E0,8.3E1,1E0,2E0,1.1E2,6.9E1,1.4E1,7E1,4E1],"tree_param":{"num_deleted":"0","num_feature":"36","num_nodes":"17","size_leaf_vector":"1"}},{"base_weights":[-2.447496E-2,-2.6038606E0,1.8291764E0,-1.7254452E-1,-2.2174633E0,7.5302744E-1,2.6755555E0,-1.1430069E-1,-3.755384E-2,-5.932931E-1,9.309578E-1,-1.4143558E-1,2.8025026E0,4.2014595E-2,-1.2408268E-1,2.9509379E-2,9.5336035E-2,-4.2976525E-2,1.4394926E-1],"categories":[],"categories_nodes":[],"categories_segments":[],"categories_sizes":[],"default_left":[0,0,0,0,0,0,0,0,0,0,0,0,0,0,0,0,0,0,0],"id":4,"left_children":[1,3,5,-1,7,9,11,-1,-1,13,15,-1,17,-1,-1,-1,-1,-1,-1],"loss_changes":[1.63518E3,3.915027E1,1.7924042E2,0E0,8.435699E0,2.1872398E1,8.548889E1,0E0,0E0,3.186369E1,2.5143036E1,0E0,3.3003296E1,0E0,0E0,0E0,0E0,0E0,0E0],"parents":[2147483647,0,0,1,1,2,2,4,4,5,5,6,6,9,9,10,10,12,12],"right_children":[2,4,6,-1,8,10,12,-1,-1,14,16,-1,18,-1,-1,-1,-1,-1,-1],"split_conditions":[4.81E0,1.87E0,7.65E0,-1.7254452E-1,3.84E0,3E2,6.1E1,-1.1430069E-1,-3.755384E-2,1.12249725E-1,6.78E0,-1.4143558E-1,1.1E1,4.2014595E-2,-1.2408268E-1,2.9509379E-2,9.5336035E-2,-4.2976525E-2,1.4394926E-1],"split_indices":[0,9,1,0,0,34,32,0,0,10,16,0,4,0,0,0,0,0,0],"split_type":[0,0,0,0,0,0,0,0,0,0,0,0,0,0,0,0,0,0,0],"sum_hessian":[3.4E2,1.42E2,1.98E2,4.2E1,1E2,8.8E1,1.1E2,9.5E1,5E0,1E1,7.8E1,2E0,1.08E2,6E0,4E0,5.9E1,1.9E1,2E0,1.06E2],"tree_param":{"num_deleted":"0","num_feature":"36","num_nodes":"19","size_leaf_vector":"1"}},{"base_weights":[-3.631919E-2,-2.4664173E0,1.764408E0,-1.6359466E-1,-2.099072E0,7.219103E-1,2.578208E0,-1.08937815E-1,-3.5888787E-2,4.0686995E-2,1.2115774E0,-1.5721585E-1,2.7158434E0,1.5125412E-2,-1.5137284E-1,-4.0539004E-2,7.271506E-2,-1.0254079E-1,1.390386E-1],"categories":[],"categories_nodes":[],"categories_segments":[],"categories_sizes":[],"default_left":[0,0,0,0,0,0,0,0,0,0,0,0,0,0,0,0,0,0,0],"id":5,"left_children":[1,3,5,-1,7,9,11,-1,-1,13,15,-1,17,-1,-1,-1,-1,-1,-1],"loss_changes":[1.470293E3,3.544403E1,1.6187701E2,0E0,9.5529785E0,2.863795E1,9.360272E1,0E0,0E0,3.0638119E1,2.5722816E1,0E0,3.850891E1,0E0,0E0,0E0,0E0,0E0,0E0],"parents":[2147483647,0,0,1,1,2,2,4,4,5,5,6,6,9,9,10,10,12,12],"right_children":[2,4,6,-1,8,10,12,-1,-1,14,16,-1,18,-1,-1,-1,-1,-1,-1],"split_conditions":[4.81E0,1.85E0,7.65E0,-1.6359466E-1,3.84E0,6.05E0,7.1E1,-1.08937815E-1,-3.5888787E-2,5.93E0,3.35E2,-1.5721585E-1,3.1E1,1.5125412E-2,-1.5137284E-1,-4.0539004E-2,7.271506E-2,-1.0254079E-1,1.390386E-1],"split_indices":[0,12,1,0,0,3,4,0,0,0,32,0,32,0,0,0,0,0,0],"split_type":[0,0,0,0,0,0,0,0,0,0,0,0,0,0,0,0,0,0,0],"sum_hessian":[3.34E2,1.42E2,1.92E2,4.2E1,1E2,8.5E1,1.07E2,9.4E1,6E0,3.6E1,4.9E1,2E0,1.05E2,3.4E1,2E0,5E0,4.4E1,1E0,1.04E2],"tree_param":{"num_deleted":"0","num_feature":"36","num_nodes":"19","size_leaf_vector":"1"}},{"base_weights":[8.044505E-2,-2.3515017E0,1.7255412E0,-1.541918E-1,-1.9914818E0,7.2685564E-1,2.4363337E0,-1.0153283E-1,-3.0119363E-2,7.927953E-1,-1.20301805E-1,-1.3239178E-1,2.5477788E0,-1.189157E-1,4.298279E-2,1.0313149E-1,1.6560768E-1],"categories":[],"categories_nodes":[],"categories_segments":[],"categories_sizes":[],"default_left":[0,0,0,0,0,0,0,0,0,0,0,0,0,0,0,0,0],"id":6,"left_children":[1,3,5,-1,7,9,11,-1,-1,13,-1,-1,15,-1,-1,-1,-1],"loss_changes":[1.3483218E3,2.9715698E1,1.4091064E2,0E0,3.8919678E0,1.9466934E1,7.303894E1,0E0,0E0,1.9854385E1,0E0,0E0,3.581433E1,0E0,0E0,0E0,0E0],"parents":[2147483647,0,0,1,1,2,2,4,4,5,5,6,6,9,9,12,12],"right_children":[2,4,6,-1,8,10,12,-1,-1,14,-1,-1,16,-1,-1,-1,-1],"split_conditions":[4.49E0,1.83E0,7.65E0,-1.541918E-1,3.84E0,7.6E0,6.1E1,-1.0153283E-1,-3.0119363E-2,1.1E1,-1.20301805E-1,-1.3239178E-1,9.15E0,-1.189157E-1,4.298279E-2,1.0313149E-1,1.6560768E-1],"split_indices":[0,0,1,0,0,0,32,0,0,33,0,0,1,0,0,0,0],"split_type":[0,0,0,0,0,0,0,0,0,0,0,0,0,0,0,0,0],"sum_hessian":[3.35E2,1.35E2,2E2,4.2E1,9.3E1,8.4E1,1.16E2,9E1,3E0,8.3E1,1E0,2E0,1.14E2,1E0,8.2E1,7.2E1,4.2E1],"tree_param":{"num_deleted":"0","num_feature":"36","num_nodes":"17","size_leaf_vector":"1"}},{"base_weights":[8.1104704E-4,-2.2243617E0,1.6264511E0,-1.4860599E-1,-1.9093157E0,3.686359E-1,2.2049215E0,-9.898371E-2,-3.3582024E-2,6.1250013E-1,-2.0095139E0,-1.2797873E-1,2.2979105E0,9.1373585E-3,6.439457E-2,-1.8065263E-1,3.9918795E-2,9.378472E-2,1.5689473E-1],"categories":[],"categories_nodes":[],"categories_segments":[],"categories_sizes":[],"default_left":[0,0,0,0,0,0,0,0,0,0,0,0,0,0,0,0,0,0,0],"id":7,"left_children":[1,3,5,-1,7,9,11,-1,-1,13,15,-1,17,-1,-1,-1,-1,-1,-1],"loss_changes":[1.2081886E3,2.754181E1,1.3961569E2,0E0,7.552582E0,3.7187458E1,6.436371E1,0E0,0E0,1.6308971E1,2.9899933E1,0E0,4.021936E1,0E0,0E0,0E0,0E0,0E0,0E0],"parents":[2147483647,0,0,1,1,2,2,4,4,5,5,6,6,9,9,10,10,12,12],"right_children":[2,4,6,-1,8,10,12,-1,-1,14,16,-1,18,-1,-1,-1,-1,-1,-1],"split_conditions":[4.81E0,1.41E0,6.99E0,-1.4860599E-1,3.84E0,6.92E0,6.1E1,-9.898371E-2,-3.3582024E-2,6.06E0,1.621E3,-1.2797873E-1,8.98E0,9.1373585E-3,6.439457E-2,-1.8065263E-1,3.9918795E-2,9.378472E-2,1.5689473E-1],"split_indices":[0,0,21,0,0,24,32,0,0,2,4,0,0,0,0,0,0,0,0],"split_type":[0,0,0,0,0,0,0,0,0,0,0,0,0,0,0,0,0,0,0],"sum_hessian":[3.32E2,1.4E2,1.92E2,3.9E1,1.01E2,6.1E1,1.31E2,9.5E1,6E0,5.6E1,5E0,2E0,1.29E2,3.5E1,2.1E1,3E0,2E0,8.8E1,4.1E1],"tree_param":{"num_deleted":"0","num_feature":"36","num_nodes":"19","size_leaf_vector":"1"}},{"base_weights":[-3.3211585E-2,-2.1253424E0,1.461337E0,-1.408867E-1,-1.7998508E0,3.4134632E-1,2.067148E0,-9.341597E-2,-3.2142784E-2,4.928168E-1,-1.6028836E-1,-1.2371277E-1,2.1596045E0,-2.1189451E-3,5.3086646E-2,8.897911E-2,1.4914124E-1],"categories":[],"categories_nodes":[],"categories_segments":[],"categories_sizes":[],"default_left":[0,0,0,0,0,0,0,0,0,0,0,0,0,0,0,0,0],"id":8,"left_children":[1,3,5,-1,7,9,11,-1,-1,13,-1,-1,15,-1,-1,-1,-1],"loss_changes":[1.0505808E3,2.647998E1,1.3228098E2,0E0,6.562317E0,3.9189667E1,5.8668457E1,0E0,0E0,2.0749733E1,0E0,0E0,3.379706E1,0E0,0E0,0E0,0E0],"parents":[2147483647,0,0,1,1,2,2,4,4,5,5,6,6,9,9,12,12],"right_children":[2,4,6,-1,8,10,12,-1,-1,14,-1,-1,16,-1,-1,-1,-1],"split_conditions":[4.81E0,1.87E0,7.15E0,-1.408867E-1,3.84E0,7.25E0,6.1E1,-9.341597E-2,-3.2142784E-2,6.05E0,-1.6028836E-1,-1.2371277E-1,9.15E0,-2.1189451E-3,5.3086646E-2,8.897911E-2,1.4914124E-1],"split_indices":[0,9,21,0,0,15,32,0,0,3,0,0,1,0,0,0,0],"split_type":[0,0,0,0,0,0,0,0,0,0,0,0,0,0,0,0,0],"sum_hessian":[3.34E2,1.39E2,1.95E2,4.2E1,9.7E1,6.9E1,1.26E2,9.1E1,6E0,6.7E1,2E0,2E0,1.24E2,3.5E1,3.2E1,8.7E1,3.7E1],"tree_param":{"num_deleted":"0","num_feature":"36","num_nodes":"17","size_leaf_vector":"1"}},{"base_weights":[-3.1371217E-2,-1.9974164E0,1.4078546E0,-1.3341455E-1,-1.7081686E0,3.1846976E-1,1.9800617E0,-8.850316E-2,-3.0765245E-2,4.6897984E-1,-1.5494542E-1,-1.1958901E-1,2.0691454E0,-4.3260257E-4,5.0426036E-2,3.2243207E-3,1.1214514E-1],"categories":[],"categories_nodes":[],"categories_segments":[],"categories_sizes":[],"default_left":[0,0,0,0,0,0,0,0,0,0,0,0,0,0,0,0,0],"id":9,"left_children":[1,3,5,-1,7,9,11,-1,-1,13,-1,-1,15,-1,-1,-1,-1],"loss_changes":[9.507223E2,2.299707E1,1.2030005E2,0E0,5.8103943E0,3.642911E1,5.441034E1,0E0,0E0,1.7017052E1,0E0,0E0,4.3395935E1,0E0,0E0,0E0,0E0],"parents":[2147483647,0,0,1,1,2,2,4,4,5,5,6,6,9,9,12,12],"right_children":[2,4,6,-1,8,10,12,-1,-1,14,-1,-1,16,-1,-1,-1,-1],"split_conditions":[4.81E0,1.83E0,7.15E0,-1.3341455E-1,3.84E0,7.25E0,6.1E1,-8.850316E-2,-3.0765245E-2,6.05E0,-1.5494542E-1,-1.1958901E-1,3.9E2,-4.3260257E-4,5.0426036E-2,3.2243207E-3,1.1214514E-1],"split_indices":[0,0,21,0,0,15,32,0,0,3,0,0,34,0,0,0,0],"split_type":[0,0,0,0,0,0,0,0,0,0,0,0,0,0,0,0,0],"sum_hessian":[3.34E2,1.41E2,1.93E2,4E1,1.01E2,6.7E1,1.26E2,9.5E1,6E0,6.5E1,2E0,2E0,1.24E2,3.5E1,3E1,1E1,1.14E2],"tree_param":{"num_deleted":"0","num_feature":"36","num_nodes":"17","size_leaf_vector":"1"}},{"base_weights":[-3.646839E-2,-1.9109178E0,1.321737E0,-1.2812762E-1,-1.6302516E0,5.2194476E-1,1.955315E0,-8.445996E-2,-2.9446742E-2,-1.8342845E-1,8.899555E-1,-1.15602694E-1,2.0566869E0,1.4629285E-2,-1.3586096E-1,2.8327904E-3,6.170441E-2,-1.0787457E-3,1.10119045E-1],"categories":[],"categories_nodes":[],"categories_segments":[],"categories_sizes":[],"default_left":[0,0,0,0,0,0,0,0,0,0,0,0,0,0,0,0,0,0,0],"id":10,"left_children":[1,3,5,-1,7,9,11,-1,-1,13,15,-1,17,-1,-1,-1,-1,-1,-1],"loss_changes":[8.604898E2,2.179303E1,9.8298645E1,0E0,5.266266E0,2.3006716E1,5.1907593E1,0E0,0E0,3.8184746E1,1.6562489E1,0E0,3.2446075E1,0E0,0E0,0E0,0E0,0E0,0E0],"parents":[2147483647,0,0,1,1,2,2,4,4,5,5,6,6,9,9,10,10,12,12],"right_children":[2,4,6,-1,8,10,12,-1,-1,14,16,-1,18,-1,-1,-1,-1,-1,-1],"split_conditions":[4.85E0,1.87E0,7.65E0,-1.2812762E-1,3.88E0,1.621E3,6.1E1,-8.445996E-2,-2.9446742E-2,1.504E3,5.62E0,-1.15602694E-1,-9.3516415E-1,1.4629285E-2,-1.3586096E-1,2.8327904E-3,6.170441E-2,-1.0787457E-3,1.10119045E-1],"split_indices":[1,9,1,0,1,4,32,0,0,4,1,0,7,0,0,0,0,0,0],"split_type":[0,0,0,0,0,0,0,0,0,0,0,0,0,0,0,0,0,0,0],"sum_hessian":[3.36E2,1.41E2,1.95E2,4E1,1.01E2,8.7E1,1.08E2,9.5E1,6E0,3E1,5.7E1,2E0,1.06E2,2.6E1,4E0,1.7E1,4E1,7E0,9.9E1],"tree_param":{"num_deleted":"0","num_feature":"36","num_nodes":"19","size_leaf_vector":"1"}},{"base_weights":[5.177049E-2,-1.8238939E0,1.3434181E0,-1.2178018E-1,-1.5591457E0,1.0021392E0,1.3246761E-1,-8.0334276E-2,-2.8517256E-2,3.3888164E-1,1.3665307E0,2.4702912E-2,-6.8688326E-2,-2.8302241E-2,8.045119E-2],"categories":[],"categories_nodes":[],"categories_segments":[],"categories_sizes":[],"default_left":[0,0,0,0,0,0,0,0,0,0,0,0,0,0,0],"id":11,"left_children":[1,3,5,-1,7,9,-1,-1,-1,11,13,-1,-1,-1,-1],"loss_changes":[8.0194037E2,1.8065643E1,8.469977E1,0E0,3.643341E0,3.748152E1,0E0,0E0,0E0,1.5827206E1,4.8243027E1,0E0,0E0,0E0,0E0],"parents":[2147483647,0,0,1,1,2,2,4,4,5,5,9,9,10,10],"right_children":[2,4,6,-1,8,10,-1,-1,-1,12,14,-1,-1,-1,-1],"split_conditions":[4.81E0,1.87E0,9.15E0,-1.2178018E-1,3.84E0,6.77E0,1.3246761E-1,-8.0334276E-2,-2.8517256E-2,6.73E0,3.9E2,2.4702912E-2,-6.8688326E-2,-2.8302241E-2,8.045119E-2],"split_indices":[0,9,1,0,0,3,0,0,0,19,34,0,0,0,0],"split_type":[0,0,0,0,0,0,0,0,0,0,0,0,0,0,0],"sum_hessian":[3.29E2,1.34E2,1.95E2,3.8E1,9.6E1,1.56E2,3.9E1,9.1E1,5E0,5.6E1,1E2,5.2E1,4E0,1.1E1,8.9E1],"tree_param":{"num_deleted":"0","num_feature":"36","num_nodes":"15","size_leaf_vector":"1"}},{"base_weights":[-1.1403466E-3,-1.7385174E0,1.2698941E0,-1.1541808E-1,-1.4931946E0,8.4356093E-1,1.2745439E-1,-7.631524E-2,-2.794208E-2,-1.473239E-1,9.1769165E-1,1.3593574E-2,7.220549E-2],"categories":[],"categories_nodes":[],"categories_segments":[],"categories_sizes":[],"default_left":[0,0,0,0,0,0,0,0,0,0,0,0,0],"id":12,"left_children":[1,3,5,-1,7,9,-1,-1,-1,-1,11,-1,-1],"loss_changes":[7.2651904E2,1.5984802E1,1.0146857E2,0E0,2.2406769E0,4.316194E1,0E0,0E0,0E0,0E0,4.788334E1,0E0,0E0],"parents":[2147483647,0,0,1,1,2,2,4,4,5,5,10,10],"right_children":[2,4,6,-1,8,10,-1,-1,-1,-1,12,-1,-1],"split_conditions":[4.85E0,1.53E0,8.85E0,-1.1541808E-1,3.88E0,7.1E1,1.2745439E-1,-7.631524E-2,-2.794208E-2,-1.473239E-1,7.1E0,1.3593574E-2,7.220549E-2],"split_indices":[1,1,1,0,1,4,0,0,0,0,11,0,0],"split_type":[0,0,0,0,0,0,0,0,0,0,0,0,0],"sum_hessian":[3.27E2,1.38E2,1.89E2,3.9E1,9.9E1,1.43E2,4.6E1,9.5E1,4E0,2E0,1.41E2,6.4E1,7.7E1],"tree_param":{"num_deleted":"0","num_feature":"36","num_nodes":"13","size_leaf_vector":"1"}},{"base_weights":[9.2230533E-4,-1.6726693E0,1.1602284E0,-1.0983105E-1,-1.4236941E0,2.4438964E-1,1.6491628E0,-7.3125966E-2,-2.2393374E-2,3.8732475E-1,-1.4908232E-1,-7.706404E-1,1.75641E0,5.0792554E-3,6.024759E-2,8.085155E-2,-1.848661E-1,6.7343466E-2,1.2045237E-1],"categories":[],"categories_nodes":[],"categories_segments":[],"categories_sizes":[],"default_left":[0,0,0,0,0,0,0,0,0,0,0,0,0,0,0,0,0,0,0],"id":13,"left_children":[1,3,5,-1,7,9,11,-1,-1,13,-1,15,17,-1,-1,-1,-1,-1,-1],"loss_changes":[6.305671E2,1.4222656E1,8.557172E1,0E0,2.8684387E0,3.2510605E1,3.3793182E1,0E0,0E0,1.5297072E1,0E0,4.7906403E1,2.8829132E1,0E0,0E0,0E0,0E0,0E0,0E0],"parents":[2147483647,0,0,1,1,2,2,4,4,5,5,6,6,9,9,11,11,12,12],"right_children":[2,4,6,-1,8,10,12,-1,-1,14,-1,16,18,-1,-1,-1,-1,-1,-1],"split_conditions":[4.49E0,1.5E0,7.15E0,-1.0983105E-1,3.84E0,7.25E0,2.04E2,-7.3125966E-2,-2.2393374E-2,2.0388722E-1,-1.4908232E-1,1.82E2,8.74E0,5.0792554E-3,6.024759E-2,8.085155E-2,-1.848661E-1,6.7343466E-2,1.2045237E-1],"split_indices":[0,0,21,0,0,15,34,0,0,10,0,34,0,0,0,0,0,0,0],"split_type":[0,0,0,0,0,0,0,0,0,0,0,0,0,0,0,0,0,0,0],"sum_hessian":[3.23E2,1.32E2,1.91E2,4E1,9.2E1,6.7E1,1.24E2,8.8E1,4E0,6.5E1,2E0,5E0,1.19E2,4.9E1,1.6E1,3E0,2E0,7.5E1,4.4E1],"tree_param":{"num_deleted":"0","num_feature":"36","num_nodes":"19","size_leaf_vector":"1"}},{"base_weights":[-6.344542E-2,-1.5776668E0,1.0526305E0,-1.04240514E-1,-1.3154956E0,7.4026746E-1,1.1215277E-1,-6.821163E-2,-2.5395636E-2,4.720937E-2,1.1001856E0,1.634097E-2,-1.0987695E-1,2.714889E-3,6.972417E-2],"categories":[],"categories_nodes":[],"categories_segments":[],"categories_sizes":[],"default_left":[0,0,0,0,0,0,0,0,0,0,0,0,0,0,0],"id":14,"left_children":[1,3,5,-1,7,9,-1,-1,-1,11,13,-1,-1,-1,-1],"loss_changes":[5.5766614E2,1.5871613E1,6.8990036E1,0E0,3.0462036E0,3.786357E1,0E0,0E0,0E0,3.3983868E1,3.0704544E1,0E0,0E0,0E0,0E0],"parents":[2147483647,0,0,1,1,2,2,4,4,5,5,9,9,10,10],"right_children":[2,4,6,-1,8,10,-1,-1,-1,12,14,-1,-1,-1,-1],"split_conditions":[4.81E0,1.83E0,8.98E0,-1.04240514E-1,3.84E0,1.621E3,1.1215277E-1,-6.821163E-2,-2.5395636E-2,8.59E0,6.1E0,1.634097E-2,-1.0987695E-1,2.714889E-3,6.972417E-2],"split_indices":[0,0,0,0,0,4,0,0,0,15,3,0,0,0,0],"split_type":[0,0,0,0,0,0,0,0,0,0,0,0,0,0,0],"sum_hessian":[3.28E2,1.39E2,1.89E2,4.5E1,9.4E1,1.51E2,3.8E1,8.8E1,6E0,5.2E1,9.9E1,4.7E1,5E0,2.2E1,7.7E1],"tree_param":{"num_deleted":"0","num_feature":"36","num_nodes":"15","size_leaf_vector":"1"}},{"base_weights":[2.5626287E-2,-1.4714451E0,1.0636675E0,-9.996292E-2,-1.243324E0,3.3640832E-1,1.6141798E0,-6.5129556E-2,-2.927941E-2,4.3308544E-1,-1.7779135E0,-2.2894472E-1,1.7380555E0,-1.1229809E-1,2.4621144E-2,4.4726636E-2,-1.4834532E-1,7.980662E-2,-1.901392E-1,-9.173851E-2,8.947782E-2],"categories":[],"categories_nodes":[],"categories_segments":[],"categories_sizes":[],"default_left":[0,0,0,0,0,0,0,0,0,0,0,0,0,0,0,0,0,0,0,0,0],"id":15,"left_children":[1,3,5,-1,7,9,11,-1,-1,13,15,17,19,-1,-1,-1,-1,-1,-1,-1,-1],"loss_changes":[5.237165E2,1.4130188E1,7.912964E1,0E0,3.0964355E0,1.855336E1,2.6197815E1,0E0,0E0,1.4459261E1,1.5364074E1,5.8250004E1,2.2787842E1,0E0,0E0,0E0,0E0,0E0,0E0,0E0,0E0],"parents":[2147483647,0,0,1,1,2,2,4,4,5,5,6,6,9,9,10,10,11,11,12,12],"right_children":[2,4,6,-1,8,10,12,-1,-1,14,16,18,20,-1,-1,-1,-1,-1,-1,-1,-1],"split_conditions":[4.81E0,1.87E0,7.65E0,-9.996292E-2,2.54E0,7.48E0,-9.3516415E-1,-6.5129556E-2,-2.927941E-2,-6.113014E-2,-2.4539132E-1,4.08E3,3.1E1,-1.1229809E-1,2.4621144E-2,4.4726636E-2,-1.4834532E-1,7.980662E-2,-1.901392E-1,-9.173851E-2,8.947782E-2],"split_indices":[0,9,1,0,0,3,7,0,0,5,7,32,32,0,0,0,0,0,0,0,0],"split_type":[0,0,0,0,0,0,0,0,0,0,0,0,0,0,0,0,0,0,0,0,0],"sum_hessian":[3.35E2,1.37E2,1.98E2,3.9E1,9.8E1,8.6E1,1.12E2,8.9E1,9E0,8.3E1,3E0,7E0,1.05E2,1E0,8.2E1,1E0,2E0,5E0,2E0,1E0,1.04E2],"tree_param":{"num_deleted":"0","num_feature":"36","num_nodes":"21","size_leaf_vector":"1"}},{"base_weights":[2.071542E-3,-1.1544367E0,1.2581329E0,-1.4462545E0,-2.437087E-1,-1.0184557E0,1.3758731E0,-9.4336465E-2,-6.2231004E-2,-3.724368E-2,-1.423259E-1,6.406792E-2,-1.8193047E-1,-1.0677484E0,1.4898548E0,-1.3085405E-2,2.4480516E-2,-1.4606106E-1,5.2633073E-2,5.845958E-2,1.06328845E-1],"categories":[],"categories_nodes":[],"categories_segments":[],"categories_sizes":[],"default_left":[0,0,0,0,0,0,0,0,0,0,0,0,0,0,0,0,0,0,0,0,0],"id":16,"left_children":[1,3,5,7,9,11,13,-1,-1,15,-1,-1,-1,17,19,-1,-1,-1,-1,-1,-1],"loss_changes":[4.5758307E2,4.3233276E1,4.187616E1,8.664764E0,2.1926933E1,5.2869293E1,4.1698883E1,0E0,0E0,4.7402744E0,0E0,0E0,0E0,3.058591E1,2.5689545E1,0E0,0E0,0E0,0E0,0E0,0E0],"parents":[2147483647,0,0,1,1,2,2,3,3,4,4,5,5,6,6,9,9,13,13,14,14],"right_children":[2,4,6,8,10,12,14,-1,-1,16,-1,-1,-1,18,20,-1,-1,-1,-1,-1,-1],"split_conditions":[6.05E0,2.67E0,2.04E2,1.61E0,5.87E0,1.21E2,2E2,-9.4336465E-2,-6.2231004E-2,5.19E0,-1.423259E-1,6.406792E-2,-1.8193047E-1,9.92E2,8.85E0,-1.3085405E-2,2.4480516E-2,-1.4606106E-1,5.2633073E-2,5.845958E-2,1.06328845E-1],"split_indices":[3,8,34,12,0,34,32,0,0,0,0,0,0,31,1,0,0,0,0,0,0],"split_type":[0,0,0,0,0,0,0,0,0,0,0,0,0,0,0,0,0,0,0,0,0],"sum_hessian":[3.13E2,1.63E2,1.5E2,1.23E2,4E1,7E0,1.43E2,3.6E1,8.7E1,3.8E1,2E0,4E0,3E0,6E0,1.37E2,2.7E1,1.1E1,3E0,3E0,9.3E1,4.4E1],"tree_param":{"num_deleted":"0","num_feature":"36","num_nodes":"21","size_leaf_vector":"1"}},{"base_weights":[3.5470687E-2,-1.1053529E0,1.1904211E0,-1.3792635E0,-1.5010439E-1,8.6162895E-1,1.0021069E-1,-8.903309E-2,-5.917364E-2,7.717254E-2,-1.3758169E-1,9.7067064E-1,-2.4069448E0,-6.6699698E-3,2.743647E-2,-2.7477022E-3,6.039786E-2,5.433469E-2,-1.9668612E-1],"categories":[],"categories_nodes":[],"categories_segments":[],"categories_sizes":[],"default_left":[0,0,0,0,0,0,0,0,0,0,0,0,0,0,0,0,0,0,0],"id":17,"left_children":[1,3,5,7,9,11,-1,-1,-1,13,-1,15,17,-1,-1,-1,-1,-1,-1],"loss_changes":[4.2162848E2,4.1919067E1,4.081653E1,7.7164E0,2.2089252E1,4.3323578E1,0E0,0E0,0E0,3.5485828E0,0E0,2.7323479E1,2.5610785E1,0E0,0E0,0E0,0E0,0E0,0E0],"parents":[2147483647,0,0,1,1,2,2,3,3,4,4,5,5,9,9,11,11,12,12],"right_children":[2,4,6,8,10,12,-1,-1,-1,14,-1,16,18,-1,-1,-1,-1,-1,-1],"split_conditions":[6.05E0,3.95E0,9.15E0,1.5E0,5.87E0,8.8E0,1.0021069E-1,-8.903309E-2,-5.917364E-2,5.28E0,-1.3758169E-1,8.36E2,8.81E0,-6.6699698E-3,2.743647E-2,-2.7477022E-3,6.039786E-2,5.433469E-2,-1.9668612E-1],"split_indices":[3,1,1,0,0,11,0,0,0,0,0,34,1,0,0,0,0,0,0],"split_type":[0,0,0,0,0,0,0,0,0,0,0,0,0,0,0,0,0,0,0],"sum_hessian":[3.18E2,1.6E2,1.58E2,1.24E2,3.6E1,1.14E2,4.4E1,3.8E1,8.6E1,3.4E1,2E0,1.11E2,3E0,2.4E1,1E1,2.1E1,9E1,1E0,2E0],"tree_param":{"num_deleted":"0","num_feature":"36","num_nodes":"19","size_leaf_vector":"1"}},{"base_weights":[-2.1999415E-2,-1.2549261E0,9.435834E-1,-8.461262E-2,-1.059714E0,4.2111626E-1,1.5512906E0,-5.5892583E-2,-3.1537277E-1,-9.026034E-1,5.4208845E-1,-1.227029E0,1.6310985E0,-5.030783E-3,-1.8117914E-2,3.509133E-2,-1.5417987E-1,-5.710761E-2,3.143361E-2,-1.392948E-1,4.7267627E-2,-8.572482E-2,8.4566884E-2],"categories":[],"categories_nodes":[],"categories_segments":[],"categories_sizes":[],"default_left":[0,0,0,0,0,0,0,0,0,0,0,0,0,0,0,0,0,0,0,0,0,0,0],"id":18,"left_children":[1,3,5,-1,7,9,11,-1,13,15,17,19,21,-1,-1,-1,-1,-1,-1,-1,-1,-1,-1],"loss_changes":[4.011897E2,1.0841675E1,5.9355576E1,0E0,4.191269E0,1.6983017E1,2.1292068E1,0E0,5.4355323E-2,3.3657425E1,1.4571674E1,1.2793016E1,2.0030334E1,0E0,0E0,0E0,0E0,0E0,0E0,0E0,0E0,0E0,0E0],"parents":[2147483647,0,0,1,1,2,2,4,4,5,5,6,6,8,8,9,9,10,10,11,11,12,12],"right_children":[2,4,6,-1,8,10,12,-1,14,16,18,20,22,-1,-1,-1,-1,-1,-1,-1,-1,-1,-1],"split_conditions":[4.87E0,1.59E0,7.92E0,-8.461262E-2,3.84E0,2.04E2,1.3277037E-2,-5.5892583E-2,4.866E3,1.12249725E-1,2E2,8.98E0,3.1E1,-5.030783E-3,-1.8117914E-2,3.509133E-2,-1.5417987E-1,-5.710761E-2,3.143361E-2,-1.392948E-1,4.7267627E-2,-8.572482E-2,8.4566884E-2],"split_indices":[3,0,1,0,0,34,6,0,4,10,32,0,32,0,0,0,0,0,0,0,0,0,0],"split_type":[0,0,0,0,0,0,0,0,0,0,0,0,0,0,0,0,0,0,0,0,0,0,0],"sum_hessian":[3.35E2,1.47E2,1.88E2,4.3E1,1.04E2,1.02E2,8.6E1,9.6E1,8E0,8E0,9.4E1,2E0,8.4E1,2E0,6E0,5E0,3E0,4E0,9E1,1E0,1E0,1E0,8.3E1],"tree_param":{"num_deleted":"0","num_feature":"36","num_nodes":"23","size_leaf_vector":"1"}},{"base_weights":[-1.6763818E-2,-1.0068395E0,1.0806243E0,-1.2442765E0,-1.5303774E-1,-1.1053213E-1,1.1373545E0,-8.1387125E-2,-5.337717E-2,5.104108E-2,-1.3094987E-1,8.9226806E-1,9.217254E-2,-7.942692E-3,2.807988E-2,4.9555924E-2,-1.0740171E-1],"categories":[],"categories_nodes":[],"categories_segments":[],"categories_sizes":[],"default_left":[0,0,0,0,0,0,0,0,0,0,0,0,0,0,0,0,0],"id":19,"left_children":[1,3,5,7,9,-1,11,-1,-1,13,-1,15,-1,-1,-1,-1,-1],"loss_changes":[3.596321E2,3.5083588E1,3.1828415E1,7.479187E0,1.9760431E1,0E0,2.5178604E1,0E0,0E0,4.054251E0,0E0,3.7291542E1,0E0,0E0,0E0,0E0,0E0],"parents":[2147483647,0,0,1,1,2,2,3,3,4,4,6,6,9,9,11,11],"right_children":[2,4,6,8,10,-1,12,-1,-1,14,-1,16,-1,-1,-1,-1,-1],"split_conditions":[6.05E0,3.73E0,6.1E1,1.85E0,5.93E0,-1.1053213E-1,8.98E0,-8.1387125E-2,-5.337717E-2,5.28E0,-1.3094987E-1,8.92E0,9.217254E-2,-7.942692E-3,2.807988E-2,4.9555924E-2,-1.0740171E-1],"split_indices":[3,2,32,12,0,0,0,0,0,0,0,18,0,0,0,0,0],"split_type":[0,0,0,0,0,0,0,0,0,0,0,0,0,0,0,0,0],"sum_hessian":[3.29E2,1.73E2,1.56E2,1.35E2,3.8E1,2E0,1.54E2,4E1,9.5E1,3.6E1,2E0,1.16E2,3.8E1,2.6E1,1E1,1.13E2,3E0],"tree_param":{"num_deleted":"0","num_feature":"36","num_nodes":"17","size_leaf_vector":"1"}},{"base_weights":[4.8424885E-2,-9.2400986E-1,1.1000623E0,-1.1897138E0,-1.4769617E-1,-1.06847726E-1,1.1549094E0,-7.700392E-2,-5.094395E-2,2.2064293E-2,-1.2658487E-1,9.25461E-1,8.70846E-2,-1.1637473E-2,2.3330467E-2,5.1598817E-2,-1.1441666E-1],"categories":[],"categories_nodes":[],"categories_segments":[],"categories_sizes":[],"default_left":[0,0,0,0,0,0,0,0,0,0,0,0,0,0,0,0,0],"id":20,"left_children":[1,3,5,7,9,-1,11,-1,-1,13,-1,15,-1,-1,-1,-1,-1],"loss_changes":[3.3849057E2,3.5302673E1,3.0696991E1,6.092209E0,1.8267769E1,0E0,1.9526016E1,0E0,0E0,4.9794793E0,0E0,4.1728104E1,0E0,0E0,0E0,0E0,0E0],"parents":[2147483647,0,0,1,1,2,2,3,3,4,4,6,6,9,9,11,11],"right_children":[2,4,6,8,10,-1,12,-1,-1,14,-1,16,-1,-1,-1,-1,-1],"split_conditions":[6.05E0,2.67E0,6.1E1,1.53E0,5.93E0,-1.06847726E-1,9.15E0,-7.700392E-2,-5.094395E-2,5.26E0,-1.2658487E-1,8.82E0,8.70846E-2,-1.1637473E-2,2.3330467E-2,5.1598817E-2,-1.1441666E-1],"split_indices":[3,8,32,11,0,0,1,0,0,1,0,11,0,0,0,0,0],"split_type":[0,0,0,0,0,0,0,0,0,0,0,0,0,0,0,0,0],"sum_hessian":[3.29E2,1.71E2,1.58E2,1.27E2,4.4E1,2E0,1.56E2,3.9E1,8.8E1,4.2E1,2E0,1.14E2,4.2E1,2.7E1,1.5E1,1.11E2,3E0],"tree_param":{"num_deleted":"0","num_feature":"36","num_nodes":"17","size_leaf_vector":"1"}},{"base_weights":[-2.7467802E-2,-1.0417992E0,8.123258E-1,-1.132146E0,-2.2003256E-1,5.9799963E-1,8.5753955E-2,-7.4467406E-2,-9.698277E-1,-2.7335054E-1,-4.80629E-2,-3.3653376E-1,8.015898E-1,-4.725106E-2,-8.2540974E-2,-1.5332698E-2,-3.5611154E-3,-3.984817E-3,-2.0424526E-5,9.142661E-3,-1.6843611E-1,1.2872897E-2,5.2862223E-2],"categories":[],"categories_nodes":[],"categories_segments":[],"categories_sizes":[],"default_left":[0,0,0,0,0,0,0,0,0,0,0,0,0,0,0,0,0,0,0,0,0,0,0],"id":21,"left_children":[1,3,5,7,9,11,-1,-1,13,15,17,19,21,-1,-1,-1,-1,-1,-1,-1,-1,-1,-1],"loss_changes":[2.802462E2,1.0813248E1,3.380143E1,6.324951E0,1.3356715E-1,2.8238232E1,0E0,0E0,4.4776917E-2,5.8938086E-2,7.5048096E-3,4.3137722E1,1.6560097E1,0E0,0E0,0E0,0E0,0E0,0E0,0E0,0E0,0E0,0E0],"parents":[2147483647,0,0,1,1,2,2,3,3,4,4,5,5,8,8,9,9,10,10,11,11,12,12],"right_children":[2,4,6,8,10,12,-1,-1,14,16,18,20,22,-1,-1,-1,-1,-1,-1,-1,-1,-1,-1],"split_conditions":[5E0,4.02E0,9.07E0,1.87E0,-2.3866359E-3,8.36E2,8.5753955E-2,-7.4467406E-2,3.95E0,5.2E0,4.95E0,8.28E0,6.77E0,-4.725106E-2,-8.2540974E-2,-1.5332698E-2,-3.5611154E-3,-3.984817E-3,-2.0424526E-5,9.142661E-3,-1.6843611E-1,1.2872897E-2,5.2862223E-2],"split_indices":[3,0,13,9,5,34,0,0,13,22,1,0,3,0,0,0,0,0,0,0,0,0,0],"split_type":[0,0,0,0,0,0,0,0,0,0,0,0,0,0,0,0,0,0,0,0,0,0,0],"sum_hessian":[3.27E2,1.48E2,1.79E2,1.33E2,1.5E1,1.46E2,3.3E1,3.9E1,9.4E1,1.1E1,4E0,2.6E1,1.2E2,9.3E1,1E0,9E0,2E0,2E0,2E0,2.3E1,3E0,3.9E1,8.1E1],"tree_param":{"num_deleted":"0","num_feature":"36","num_nodes":"23","size_leaf_vector":"1"}},{"base_weights":[-1.5796724E-3,-9.661458E-1,8.183103E-1,-1.0922542E0,-2.0587E-1,4.980797E-1,1.3909458E0,-7.0705466E-2,-9.29919E-1,-1.8525397E-2,-1.2596792E-1,-1.3490045E-1,5.771248E-1,-1.6208707E-1,8.07851E-2,-4.4270005E-2,-6.37781E-2,-9.2223575E-3,-3.865112E-3,7.7207573E-3,4.3882843E-2,-1.16485216E-1,6.550028E-2],"categories":[],"categories_nodes":[],"categories_segments":[],"categories_sizes":[],"default_left":[0,0,0,0,0,0,0,0,0,0,0,0,0,0,0,0,0,0,0,0,0,0,0],"id":22,"left_children":[1,3,5,7,9,11,13,-1,15,-1,17,-1,19,21,-1,-1,-1,-1,-1,-1,-1,-1,-1],"loss_changes":[2.6334888E2,1.4444321E1,3.231478E1,5.529541E0,2.5589097E-1,3.1115404E1,2.2601318E1,0E0,2.555008E-1,0E0,3.4122646E-2,0E0,1.4473824E1,3.1770329E1,0E0,0E0,0E0,0E0,0E0,0E0,0E0,0E0,0E0],"parents":[2147483647,0,0,1,1,2,2,3,3,4,4,5,5,6,6,8,8,10,10,12,12,13,13],"right_children":[2,4,6,8,10,12,14,-1,16,-1,18,-1,20,22,-1,-1,-1,-1,-1,-1,-1,-1,-1],"split_conditions":[5.26E0,3.88E0,8.2E0,1.87E0,4.85E0,7.1E1,6.204837E-2,-7.0705466E-2,2.25E0,-1.8525397E-2,-2.1687597E-2,-1.3490045E-1,7.15E0,6.2E2,8.07851E-2,-4.4270005E-2,-6.37781E-2,-9.2223575E-3,-3.865112E-3,7.7207573E-3,4.3882843E-2,-1.16485216E-1,6.550028E-2],"split_indices":[1,1,26,9,1,4,10,0,8,0,5,0,21,4,0,0,0,0,0,0,0,0,0],"split_type":[0,0,0,0,0,0,0,0,0,0,0,0,0,0,0,0,0,0,0,0,0,0,0],"sum_hessian":[3.31E2,1.52E2,1.79E2,1.3E2,2.2E1,1.16E2,6.3E1,4.1E1,8.9E1,6E0,1.6E1,2E0,1.14E2,8E0,5.5E1,8.2E1,7E0,6E0,1E1,4.8E1,6.6E1,3E0,5E0],"tree_param":{"num_deleted":"0","num_feature":"36","num_nodes":"23","size_leaf_vector":"1"}},{"base_weights":[-2.7698357E-2,-8.4289765E-1,8.928666E-1,-1.0247155E0,-1.825913E-1,-9.984295E-2,9.436922E-1,-6.6968404E-2,-8.7638086E-1,6.9815726E-3,-1.22989655E-1,7.272886E-1,7.585524E-2,-4.26196E-2,-7.888299E-2,-7.692884E-3,1.7744241E-2,4.331717E-2,-7.51081E-2],"categories":[],"categories_nodes":[],"categories_segments":[],"categories_sizes":[],"default_left":[0,0,0,0,0,0,0,0,0,0,0,0,0,0,0,0,0,0,0],"id":23,"left_children":[1,3,5,7,9,-1,11,-1,13,15,-1,17,-1,-1,-1,-1,-1,-1,-1],"loss_changes":[2.4764865E2,2.0822617E1,2.4649559E1,5.22052E0,1.6853308E1,0E0,1.7882187E1,0E0,2.7021027E-1,2.1249924E0,0E0,3.6333183E1,0E0,0E0,0E0,0E0,0E0,0E0,0E0],"parents":[2147483647,0,0,1,1,2,2,3,3,4,4,6,6,8,8,9,9,11,11],"right_children":[2,4,6,8,10,-1,12,-1,14,16,-1,18,-1,-1,-1,-1,-1,-1,-1],"split_conditions":[6.05E0,3.95E0,6.1E1,1.85E0,5.93E0,-9.984295E-2,9.15E0,-6.6968404E-2,3.95E0,5.26E0,-1.22989655E-1,8.7E0,7.585524E-2,-4.26196E-2,-7.888299E-2,-7.692884E-3,1.7744241E-2,4.331717E-2,-7.51081E-2],"split_indices":[3,1,32,11,0,0,1,0,13,1,0,15,0,0,0,0,0,0,0],"split_type":[0,0,0,0,0,0,0,0,0,0,0,0,0,0,0,0,0,0,0],"sum_hessian":[3.28E2,1.74E2,1.54E2,1.36E2,3.8E1,2E0,1.52E2,4.1E1,9.5E1,3.6E1,2E0,1.12E2,4E1,9.4E1,1E0,2.5E1,1.1E1,1.06E2,6E0],"tree_param":{"num_deleted":"0","num_feature":"36","num_nodes":"19","size_leaf_vector":"1"}},{"base_weights":[-1.49057135E-2,-7.717225E-1,8.276822E-1,-9.7284144E-1,-1.0210596E-1,-4.2546604E-2,9.9035585E-1,-6.323654E-2,-8.242825E-1,7.1123734E-2,-1.1889E-1,-1.6772014E-1,5.3527826E-1,7.568394E-1,7.5079E-2,-7.691092E-2,-3.999013E-2,-6.4724223E-3,2.2643063E-2,-1.2645577E-1,4.7377966E-2,4.132252E-2,-1.4292443E-1],"categories":[],"categories_nodes":[],"categories_segments":[],"categories_sizes":[],"default_left":[0,0,0,0,0,0,0,0,0,0,0,0,0,0,0,0,0,0,0,0,0,0,0],"id":24,"left_children":[1,3,5,7,9,11,13,-1,15,17,-1,-1,19,21,-1,-1,-1,-1,-1,-1,-1,-1,-1],"loss_changes":[2.142631E2,2.3737717E1,2.2550705E1,4.854843E0,1.6726265E1,5.155103E1,1.4860352E1,0E0,3.9509583E-1,3.121259E0,0E0,0E0,3.1454494E1,2.6019032E1,0E0,0E0,0E0,0E0,0E0,0E0,0E0,0E0,0E0],"parents":[2147483647,0,0,1,1,2,2,3,3,4,4,5,5,6,6,8,8,9,9,12,12,13,13],"right_children":[2,4,6,8,10,12,14,-1,16,18,-1,-1,20,22,-1,-1,-1,-1,-1,-1,-1,-1,-1],"split_conditions":[6.05E0,3.95E0,6E2,1.59E0,5.93E0,3.9E2,8.85E0,-6.323654E-2,-6.016852E-2,5.28E0,-1.1889E-1,-1.6772014E-1,2E2,8.71E0,7.5079E-2,-7.691092E-2,-3.999013E-2,-6.4724223E-3,2.2643063E-2,-1.2645577E-1,4.7377966E-2,4.132252E-2,-1.4292443E-1],"split_indices":[3,1,31,0,0,34,1,0,5,0,0,0,32,0,0,0,0,0,0,0,0,0,0],"split_type":[0,0,0,0,0,0,0,0,0,0,0,0,0,0,0,0,0,0,0,0,0,0,0],"sum_hessian":[3.34E2,1.76E2,1.58E2,1.35E2,4.1E1,2.5E1,1.33E2,4.3E1,9.2E1,3.9E1,2E0,3E0,2.2E1,9.3E1,4E1,1E0,9.1E1,2.6E1,1.3E1,2E0,2E1,9.2E1,1E0],"tree_param":{"num_deleted":"0","num_feature":"36","num_nodes":"23","size_leaf_vector":"1"}},{"base_weights":[1.1756779E-3,-7.4075985E-1,8.033861E-1,-9.1342294E-1,-1.24085985E-1,5.259042E-1,1.2335042E0,-5.972891E-2,-7.824673E-1,5.557477E-2,-1.14926994E-1,6.144277E-1,-1.2558286E-1,-1.7515299E-1,1.4454378E0,-7.498815E-2,-3.794408E-2,-6.9076754E-3,2.3534408E-2,-9.098411E-2,3.29369E-2,-1.08242944E-1,5.9025493E-2,7.332875E-2,2.9862413E-2],"categories":[],"categories_nodes":[],"categories_segments":[],"categories_sizes":[],"default_left":[0,0,0,0,0,0,0,0,0,0,0,0,0,0,0,0,0,0,0,0,0,0,0,0,0],"id":25,"left_children":[1,3,5,7,9,11,13,-1,15,17,-1,19,-1,21,23,-1,-1,-1,-1,-1,-1,-1,-1,-1,-1],"loss_changes":[1.9819766E2,1.8307152E1,1.8447289E1,4.0358276E0,1.5363638E1,2.8163889E1,1.8762756E1,0E0,4.69059E-1,3.0405374E0,0E0,1.1660748E1,0E0,2.683197E1,9.222412E-2,0E0,0E0,0E0,0E0,0E0,0E0,0E0,0E0,0E0,0E0],"parents":[2147483647,0,0,1,1,2,2,3,3,4,4,5,5,6,6,8,8,9,9,11,11,13,13,14,14],"right_children":[2,4,6,8,10,12,14,-1,16,18,-1,20,-1,22,24,-1,-1,-1,-1,-1,-1,-1,-1,-1,-1],"split_conditions":[6.05E0,4.02E0,8.2E0,1.5E0,5.93E0,8.242E0,6.204837E-2,-5.972891E-2,-6.016852E-2,5.28E0,-1.14926994E-1,1.1E1,-1.2558286E-1,6.2E2,2.829325E-2,-7.498815E-2,-3.794408E-2,-6.9076754E-3,2.3534408E-2,-9.098411E-2,3.29369E-2,-1.08242944E-1,5.9025493E-2,7.332875E-2,2.9862413E-2],"split_indices":[3,0,26,0,0,8,10,0,5,0,0,33,0,4,6,0,0,0,0,0,0,0,0,0,0],"split_type":[0,0,0,0,0,0,0,0,0,0,0,0,0,0,0,0,0,0,0,0,0,0,0,0,0],"sum_hessian":[3.31E2,1.72E2,1.59E2,1.34E2,3.8E1,9.8E1,6.1E1,4E1,9.4E1,3.6E1,2E0,9.6E1,2E0,8E0,5.3E1,1E0,9.3E1,2.5E1,1.1E1,1E0,9.5E1,3E0,5E0,5.1E1,2E0],"tree_param":{"num_deleted":"0","num_feature":"36","num_nodes":"25","size_leaf_vector":"1"}},{"base_weights":[-5.0010495E-2,-8.720745E-1,5.571153E-1,-5.783927E-2,-7.353464E-1,9.751101E-2,9.2474604E-1,-7.591141E-1,-3.1792107E-1,-5.1634073E-1,3.721191E-1,-9.355186E-2,9.9650186E-1,-3.6418524E-2,-7.141934E-2,-4.490912E-3,-1.7048424E-2,-5.4579247E-3,-1.1430555E-1,5.8690654E-3,3.7466746E-2,-9.900475E-3,5.4905355E-2],"categories":[],"categories_nodes":[],"categories_segments":[],"categories_sizes":[],"default_left":[0,0,0,0,0,0,0,0,0,0,0,0,0,0,0,0,0,0,0,0,0,0,0],"id":26,"left_children":[1,3,5,-1,7,9,11,13,15,17,19,-1,21,-1,-1,-1,-1,-1,-1,-1,-1,-1,-1],"loss_changes":[1.656867E2,4.6382065E0,3.2182076E1,0E0,7.309418E-1,1.4689045E1,2.312954E1,8.5258865E-1,6.175041E-3,1.920716E1,5.6775093E0,0E0,1.2839767E1,0E0,0E0,0E0,0E0,0E0,0E0,0E0,0E0,0E0,0E0],"parents":[2147483647,0,0,1,1,2,2,4,4,5,5,6,6,7,7,8,8,9,9,10,10,12,12],"right_children":[2,4,6,-1,8,10,12,14,16,18,20,-1,22,-1,-1,-1,-1,-1,-1,-1,-1,-1,-1],"split_conditions":[4.81E0,1.85E0,7.48E0,-5.783927E-2,3.84E0,1.621E3,6.1E1,2.74E0,3.87E0,1.504E3,6.4E0,-9.355186E-2,-9.3516415E-1,-3.6418524E-2,-7.141934E-2,-4.490912E-3,-1.7048424E-2,-5.4579247E-3,-1.1430555E-1,5.8690654E-3,3.7466746E-2,-9.900475E-3,5.4905355E-2],"split_indices":[0,11,2,0,0,4,32,3,0,4,3,0,7,0,0,0,0,0,0,0,0,0,0],"split_type":[0,0,0,0,0,0,0,0,0,0,0,0,0,0,0,0,0,0,0,0,0,0,0],"sum_hessian":[3.3E2,1.4E2,1.9E2,4.3E1,9.7E1,8.5E1,1.05E2,9.1E1,6E0,2.6E1,5.9E1,2E0,1.03E2,8.9E1,2E0,1E0,5E0,2.2E1,4E0,3.6E1,2.3E1,8E0,9.5E1],"tree_param":{"num_deleted":"0","num_feature":"36","num_nodes":"23","size_leaf_vector":"1"}},{"base_weights":[-2.7964838E-2,-6.979357E-1,6.9695944E-1,-8.49637E-1,-1.2146798E-1,4.274099E-1,1.1345927E0,-5.5199947E-2,-7.201578E-1,5.8943264E-2,-1.0928883E-1,5.0940144E-1,-1.1967255E-1,-1.157398E-1,1.2322906E0,-3.4523275E-2,-6.90387E-2,-5.7361065E-3,2.2413945E-2,-1.876262E-3,3.6990654E-2,8.19851E-3,6.750694E-2],"categories":[],"categories_nodes":[],"categories_segments":[],"categories_sizes":[],"default_left":[0,0,0,0,0,0,0,0,0,0,0,0,0,0,0,0,0,0,0,0,0,0,0],"id":27,"left_children":[1,3,5,7,9,11,13,-1,15,17,-1,19,-1,-1,21,-1,-1,-1,-1,-1,-1,-1,-1],"loss_changes":[1.6076021E2,1.4938347E1,1.8271309E1,3.684044E0,1.3908542E1,2.4347908E1,2.307241E1,0E0,8.70842E-1,2.4179215E0,0E0,1.2377548E1,0E0,0E0,7.2066956E0,0E0,0E0,0E0,0E0,0E0,0E0,0E0,0E0],"parents":[2147483647,0,0,1,1,2,2,3,3,4,4,5,5,6,6,8,8,9,9,11,11,14,14],"right_children":[2,4,6,8,10,12,14,-1,16,18,-1,20,-1,-1,22,-1,-1,-1,-1,-1,-1,-1,-1],"split_conditions":[6.05E0,3.84E0,8.2E0,1.85E0,5.93E0,8.242E0,1.3277037E-2,-5.5199947E-2,2.75E0,5.28E0,-1.0928883E-1,1.577E3,-1.1967255E-1,-1.157398E-1,4.8270073E-2,-3.4523275E-2,-6.90387E-2,-5.7361065E-3,2.2413945E-2,-1.876262E-3,3.6990654E-2,8.19851E-3,6.750694E-2],"split_indices":[3,0,26,12,0,8,6,0,3,0,0,4,0,0,10,0,0,0,0,0,0,0,0],"split_type":[0,0,0,0,0,0,0,0,0,0,0,0,0,0,0,0,0,0,0,0,0,0,0],"sum_hessian":[3.29E2,1.71E2,1.58E2,1.35E2,3.6E1,9.9E1,5.9E1,4.3E1,9.2E1,3.4E1,2E0,9.7E1,2E0,1E0,5.8E1,9E1,2E0,2.4E1,1E1,2.9E1,6.8E1,6E0,5.2E1],"tree_param":{"num_deleted":"0","num_feature":"36","num_nodes":"23","size_leaf_vector":"1"}},{"base_weights":[-2.6155163E-2,-7.1592146E-1,5.924063E-1,-7.9084843E-1,-1.340347E-1,4.137703E-1,6.2132966E-2,-5.198077E-2,-6.711836E-1,-1.743486E-1,-6.9869414E-2,-9.164688E-2,6.843444E-1,-6.9602E-2,-3.244713E-2,-9.812539E-3,-2.5262914E-3,-1.0553002E-4,-5.1698526E-3,4.072375E-3,-1.386455E-1,-6.5100186E-2,3.6064606E-2],"categories":[],"categories_nodes":[],"categories_segments":[],"categories_sizes":[],"default_left":[0,0,0,0,0,0,0,0,0,0,0,0,0,0,0,0,0,0,0,0,0,0,0],"id":28,"left_children":[1,3,5,7,9,11,-1,-1,13,15,17,19,21,-1,-1,-1,-1,-1,-1,-1,-1,-1,-1],"loss_changes":[1.4079619E2,6.695442E0,1.9697426E1,3.4103012E0,3.696665E-2,1.8934607E1,0E0,0E0,6.357689E-1,1.9916147E-2,2.022791E-2,2.2967312E1,7.5443306E0,0E0,0E0,0E0,0E0,0E0,0E0,0E0,0E0,0E0,0E0],"parents":[2147483647,0,0,1,1,2,2,3,3,4,4,5,5,8,8,9,9,10,10,11,11,12,12],"right_children":[2,4,6,8,10,12,-1,-1,14,16,18,20,22,-1,-1,-1,-1,-1,-1,-1,-1,-1,-1],"split_conditions":[5.11E0,4.116E0,9.07E0,1.82E0,-5.4024984E-3,1.621E3,6.2132966E-2,-5.198077E-2,-6.016852E-2,5.2E0,7.713624E-2,2.7212564E-2,3.1E1,-6.9602E-2,-3.244713E-2,-9.812539E-3,-2.5262914E-3,-1.0553002E-4,-5.1698526E-3,4.072375E-3,-1.386455E-1,-6.5100186E-2,3.6064606E-2],"split_indices":[3,8,13,2,5,4,0,0,5,22,10,5,32,0,0,0,0,0,0,0,0,0,0],"split_type":[0,0,0,0,0,0,0,0,0,0,0,0,0,0,0,0,0,0,0,0,0,0,0],"sum_hessian":[3.28E2,1.55E2,1.73E2,1.37E2,1.8E1,1.37E2,3.6E1,4.2E1,9.5E1,1E1,8E0,4.8E1,8.9E1,1E0,9.4E1,8E0,2E0,3E0,5E0,4.6E1,2E0,1E0,8.8E1],"tree_param":{"num_deleted":"0","num_feature":"36","num_nodes":"23","size_leaf_vector":"1"}},{"base_weights":[-2.163404E-2,-5.4954857E-1,7.3645496E-1,-4.9556E-1,-1.5422986E-1,-8.739051E-2,7.8512406E-1,-7.615484E-1,1.4399825E-1,-5.59369E-1,8.832621E-1,-4.934352E-2,-3.2399796E-2,-5.2088074E-4,3.7483092E-2,1.4055759E-2,-1.307102E-1,-4.161049E-2,4.584151E-2],"categories":[],"categories_nodes":[],"categories_segments":[],"categories_sizes":[],"default_left":[0,0,0,0,0,0,0,0,0,0,0,0,0,0,0,0,0,0,0],"id":29,"left_children":[1,3,5,7,-1,-1,9,11,13,15,17,-1,-1,-1,-1,-1,-1,-1,-1],"loss_changes":[1.3647482E2,2.598101E1,1.829924E1,3.3792446E1,0E0,0E0,1.8702599E1,2.9425354E0,5.525729E0,1.8005455E1,8.191483E0,0E0,0E0,0E0,0E0,0E0,0E0,0E0,0E0],"parents":[2147483647,0,0,1,1,2,2,3,3,6,6,7,7,8,8,9,9,10,10],"right_children":[2,4,6,8,-1,-1,10,12,14,16,18,-1,-1,-1,-1,-1,-1,-1,-1],"split_conditions":[6.79E0,6.92E0,6.1E1,4.116E0,-1.5422986E-1,-8.739051E-2,2.04E2,1.87E0,4.1649237E-2,1.9247886E-2,1.1E1,-4.934352E-2,-3.2399796E-2,-5.2088074E-4,3.7483092E-2,1.4055759E-2,-1.307102E-1,-4.161049E-2,4.584151E-2],"split_indices":[12,24,32,8,0,0,34,16,5,6,4,0,0,0,0,0,0,0,0],"split_type":[0,0,0,0,0,0,0,0,0,0,0,0,0,0,0,0,0,0,0],"sum_hessian":[3.39E2,2E2,1.39E2,1.97E2,3E0,2E0,1.37E2,1.39E2,5.8E1,9E0,1.28E2,4.4E1,9.5E1,4.7E1,1.1E1,7E0,2E0,2E0,1.26E2],"tree_param":{"num_deleted":"0","num_feature":"36","num_nodes":"19","size_leaf_vector":"1"}},{"base_weights":[-4.6061352E-2,-5.144866E-1,6.711202E-1,-4.6256584E-1,-1.4844625E-1,-1.4787378E0,7.3258E-1,-7.204255E-1,1.3259909E-1,-1.1915189E-1,3.0854046E-2,5.0594985E-1,1.1443796E0,-4.7498293E-2,-3.073499E-2,-4.682424E-2,9.235593E-3,3.1818807E-2,-1.6355807E-1,4.8157934E-2,6.5281235E-2],"categories":[],"categories_nodes":[],"categories_segments":[],"categories_sizes":[],"default_left":[0,0,0,0,0,0,0,0,0,0,0,0,0,0,0,0,0,0,0,0,0],"id":30,"left_children":[1,3,5,7,-1,9,11,13,15,-1,-1,17,19,-1,-1,-1,-1,-1,-1,-1,-1],"loss_changes":[1.12215294E2,2.4368832E1,1.8524433E1,3.0635868E1,0E0,9.051522E0,1.1460083E1,2.7893448E0,3.5714664E0,0E0,0E0,4.3955643E1,5.7422638E-2,0E0,0E0,0E0,0E0,0E0,0E0,0E0,0E0],"parents":[2147483647,0,0,1,1,2,2,3,3,5,5,6,6,7,7,8,8,11,11,12,12],"right_children":[2,4,6,8,-1,10,12,14,16,-1,-1,18,20,-1,-1,-1,-1,-1,-1,-1,-1],"split_conditions":[6.79E0,6.92E0,1.66E2,4.116E0,-1.4844625E-1,6.2E2,8.72E0,1.87E0,1.66E2,-1.1915189E-1,3.0854046E-2,8.93E0,2.53E3,-4.7498293E-2,-3.073499E-2,-4.682424E-2,9.235593E-3,3.1818807E-2,-1.6355807E-1,4.8157934E-2,6.5281235E-2],"split_indices":[12,24,31,8,0,4,12,9,34,0,0,23,35,0,0,0,0,0,0,0,0],"split_type":[0,0,0,0,0,0,0,0,0,0,0,0,0,0,0,0,0,0,0,0,0],"sum_hessian":[3.32E2,2.01E2,1.31E2,1.98E2,3E0,3E0,1.28E2,1.38E2,6E1,2E0,1E0,8.4E1,4.4E1,4.1E1,9.7E1,2E0,5.8E1,8.2E1,2E0,2.4E1,2E1],"tree_param":{"num_deleted":"0","num_feature":"36","num_nodes":"21","size_leaf_vector":"1"}},{"base_weights":[-3.703606E-3,-5.529283E-1,5.933028E-1,-6.913236E-1,-1.1200978E-1,-1.7041007E-1,7.349442E-1,-4.4695504E-2,-5.7757014E-1,2.957187E-2,-1.00481115E-1,-1.4679243E-1,3.1794485E-1,4.7897434E-1,1.0608884E0,-2.7686685E-2,-6.6283576E-2,-4.2115697E-3,2.2178238E-2,-1.1146041E-1,3.3334184E-2,-9.296629E-3,3.074081E-2,-1.5004602E-2,5.826625E-2],"categories":[],"categories_nodes":[],"categories_segments":[],"categories_sizes":[],"default_left":[0,0,0,0,0,0,0,0,0,0,0,0,0,0,0,0,0,0,0,0,0,0,0,0,0],"id":31,"left_children":[1,3,5,7,9,11,13,-1,15,17,-1,-1,19,21,23,-1,-1,-1,-1,-1,-1,-1,-1,-1,-1],"loss_changes":[1.1017143E2,1.0601246E1,1.7541153E1,2.5486832E0,1.1612115E1,3.604684E1,1.0838593E1,0E0,8.351555E-1,1.9690254E0,0E0,0E0,2.1916872E1,7.1594467E0,8.735748E0,0E0,0E0,0E0,0E0,0E0,0E0,0E0,0E0,0E0,0E0],"parents":[2147483647,0,0,1,1,2,2,3,3,4,4,5,5,6,6,8,8,9,9,12,12,13,13,14,14],"right_children":[2,4,6,8,10,12,14,-1,16,18,-1,-1,20,22,24,-1,-1,-1,-1,-1,-1,-1,-1,-1,-1],"split_conditions":[6.05E0,3.84E0,6E2,1.87E0,5.93E0,3.9E2,8.04E0,-4.4695504E-2,3.55E0,5.62E0,-1.00481115E-1,-1.4679243E-1,2E2,1.004E3,4.8270073E-2,-2.7686685E-2,-6.6283576E-2,-4.2115697E-3,2.2178238E-2,-1.1146041E-1,3.3334184E-2,-9.296629E-3,3.074081E-2,-1.5004602E-2,5.826625E-2],"split_indices":[3,0,31,0,0,34,3,0,0,1,0,0,32,35,10,0,0,0,0,0,0,0,0,0,0],"split_type":[0,0,0,0,0,0,0,0,0,0,0,0,0,0,0,0,0,0,0,0,0,0,0,0,0],"sum_hessian":[3.34E2,1.74E2,1.6E2,1.32E2,4.2E1,2.5E1,1.35E2,4.5E1,8.7E1,4E1,2E0,3E0,2.2E1,7.7E1,5.8E1,8.6E1,1E0,3.2E1,8E0,2E0,2E1,1.3E1,6.4E1,4E0,5.4E1],"tree_param":{"num_deleted":"0","num_feature":"36","num_nodes":"25","size_leaf_vector":"1"}},{"base_weights":[-2.7404083E-2,-5.338954E-1,5.506911E-1,-6.524978E-1,-9.445338E-2,-8.213538E-2,5.898438E-1,-4.3200735E-2,-5.5617255E-1,5.7951987E-2,-9.713175E-2,-2.5867856E-1,6.8327194E-1,-5.4767694E-2,-2.6688157E-2,-5.3885034E-3,1.54097825E-2,-1.4128771E-1,2.7554462E-2,2.1779886E-2,4.6411134E-2],"categories":[],"categories_nodes":[],"categories_segments":[],"categories_sizes":[],"default_left":[0,0,0,0,0,0,0,0,0,0,0,0,0,0,0,0,0,0,0,0,0],"id":32,"left_children":[1,3,5,7,9,-1,11,-1,13,15,-1,17,19,-1,-1,-1,-1,-1,-1,-1,-1],"loss_changes":[9.779648E1,9.215538E0,1.4365803E1,2.3718758E0,1.1097817E1,0E0,1.2385235E1,0E0,6.115322E-1,1.5676373E0,0E0,3.4817E1,8.028519E0,0E0,0E0,0E0,0E0,0E0,0E0,0E0,0E0],"parents":[2147483647,0,0,1,1,2,2,3,3,4,4,6,6,8,8,9,9,11,11,12,12],"right_children":[2,4,6,8,10,-1,12,-1,14,16,-1,18,20,-1,-1,-1,-1,-1,-1,-1,-1],"split_conditions":[6.1E0,4.116E0,6.1E1,1.87E0,6.02E0,-8.213538E-2,3.9E2,-4.3200735E-2,-6.016852E-2,5.28E0,-9.713175E-2,5.92E2,7.89E0,-5.4767694E-2,-2.6688157E-2,-5.3885034E-3,1.54097825E-2,-1.4128771E-1,2.7554462E-2,2.1779886E-2,4.6411134E-2],"split_indices":[3,8,32,9,0,0,34,0,5,0,0,31,3,0,0,0,0,0,0,0,0],"split_type":[0,0,0,0,0,0,0,0,0,0,0,0,0,0,0,0,0,0,0,0,0],"sum_hessian":[3.32E2,1.77E2,1.55E2,1.39E2,3.8E1,2E0,1.53E2,4.1E1,9.8E1,3.6E1,2E0,1.5E1,1.38E2,2E0,9.6E1,2.2E1,1.4E1,3E0,1.2E1,7E1,6.8E1],"tree_param":{"num_deleted":"0","num_feature":"36","num_nodes":"21","size_leaf_vector":"1"}},{"base_weights":[5.913002E-3,-4.280369E-1,6.326857E-1,-3.8813233E-1,-1.4262761E-1,-1.1006628E0,6.804184E-1,-6.173923E-1,1.06229715E-1,-1.0253682E-1,4.373895E-2,-1.6802041E-1,7.3651135E-1,-4.049042E-2,-2.6246542E-2,-3.2290597E-2,1.1480139E-2,-1.4321956E-1,5.0578494E-2,2.818874E-2,4.9913276E-2],"categories":[],"categories_nodes":[],"categories_segments":[],"categories_sizes":[],"default_left":[0,0,0,0,0,0,0,0,0,0,0,0,0,0,0,0,0,0,0,0,0],"id":33,"left_children":[1,3,5,7,-1,9,11,13,15,-1,-1,17,19,-1,-1,-1,-1,-1,-1,-1,-1],"loss_changes":[8.975485E1,1.7758938E1,1.1918449E1,2.1939705E1,0E0,9.301201E0,6.405819E0,1.9233246E0,5.9007435E0,0E0,0E0,3.1523045E1,5.0438004E0,0E0,0E0,0E0,0E0,0E0,0E0,0E0,0E0],"parents":[2147483647,0,0,1,1,2,2,3,3,5,5,6,6,7,7,8,8,11,11,12,12],"right_children":[2,4,6,8,-1,10,12,14,16,-1,-1,18,20,-1,-1,-1,-1,-1,-1,-1,-1],"split_conditions":[6.79E0,6.73E0,7.1E1,4.116E0,-1.4262761E-1,8.39E0,2.04E2,1.82E0,-2.9558802E-2,-1.0253682E-1,4.373895E-2,6E2,8.93E0,-4.049042E-2,-2.6246542E-2,-3.2290597E-2,1.1480139E-2,-1.4321956E-1,5.0578494E-2,2.818874E-2,4.9913276E-2],"split_indices":[12,12,4,8,0,0,34,26,5,0,0,35,22,0,0,0,0,0,0,0,0],"split_type":[0,0,0,0,0,0,0,0,0,0,0,0,0,0,0,0,0,0,0,0,0],"sum_hessian":[3.28E2,1.94E2,1.34E2,1.92E2,2E0,3E0,1.31E2,1.31E2,6.1E1,2E0,1E0,8E0,1.23E2,4E1,9.1E1,8E0,5.3E1,2E0,6E0,7.6E1,4.7E1],"tree_param":{"num_deleted":"0","num_feature":"36","num_nodes":"21","size_leaf_vector":"1"}},{"base_weights":[1.8314358E-2,-4.2120332E-1,6.213144E-1,-3.8125712E-1,-1.3787335E-1,-1.0603291E0,6.668761E-1,-5.9455764E-1,4.462413E-2,-9.9118926E-2,4.264548E-2,3.7049645E-1,8.623011E-1,-3.7962455E-2,-2.4887769E-2,-4.9260226E-3,3.0137936E-2,-3.5905596E-2,2.592254E-2,-1.6870856E-2,4.6494197E-2],"categories":[],"categories_nodes":[],"categories_segments":[],"categories_sizes":[],"default_left":[0,0,0,0,0,0,0,0,0,0,0,0,0,0,0,0,0,0,0,0,0],"id":34,"left_children":[1,3,5,7,-1,9,11,13,15,-1,-1,17,19,-1,-1,-1,-1,-1,-1,-1,-1],"loss_changes":[8.6131165E1,1.649377E1,1.1203831E1,1.6922901E1,0E0,8.747192E0,7.441799E0,1.5989494E0,5.0927024E0,0E0,0E0,9.2308445E0,6.8001823E0,0E0,0E0,0E0,0E0,0E0,0E0,0E0,0E0],"parents":[2147483647,0,0,1,1,2,2,3,3,5,5,6,6,7,7,8,8,11,11,12,12],"right_children":[2,4,6,8,-1,10,12,14,16,-1,-1,18,20,-1,-1,-1,-1,-1,-1,-1,-1],"split_conditions":[6.79E0,6.77E0,7.1E1,2.67E0,-1.3787335E-1,8.39E0,7.89E0,1.92E0,4.1649237E-2,-9.9118926E-2,4.264548E-2,2.5E2,-9.3516415E-1,-3.7962455E-2,-2.4887769E-2,-4.9260226E-3,3.0137936E-2,-3.5905596E-2,2.592254E-2,-1.6870856E-2,4.6494197E-2],"split_indices":[12,9,4,8,0,1,3,3,5,0,0,33,7,0,0,0,0,0,0,0,0],"split_type":[0,0,0,0,0,0,0,0,0,0,0,0,0,0,0,0,0,0,0,0,0],"sum_hessian":[3.23E2,1.87E2,1.36E2,1.85E2,2E0,3E0,1.33E2,1.23E2,6.2E1,2E0,1E0,5.4E1,7.9E1,4.3E1,8E1,5E1,1.2E1,6E0,4.8E1,4E0,7.5E1],"tree_param":{"num_deleted":"0","num_feature":"36","num_nodes":"21","size_leaf_vector":"1"}},{"base_weights":[-3.3908866E-2,-4.5931488E-1,4.6077678E-1,-5.690104E-1,-9.913825E-2,-3.763524E-1,5.6740123E-1,-3.7060607E-2,-4.7956857E-1,3.161618E-2,-9.2653476E-2,6.1408883E-1,-2.020487E0,-7.728132E-2,6.101544E-1,-2.2572353E-2,-5.8636554E-2,-5.412386E-3,1.4063172E-2,6.200153E-3,3.818363E-2,-1.5782952E-1,2.7325725E-2,2.2886302E-2,4.6838805E-2],"categories":[],"categories_nodes":[],"categories_segments":[],"categories_sizes":[],"default_left":[0,0,0,0,0,0,0,0,0,0,0,0,0,0,0,0,0,0,0,0,0,0,0,0,0],"id":35,"left_children":[1,3,5,7,9,11,13,-1,15,17,-1,19,21,-1,23,-1,-1,-1,-1,-1,-1,-1,-1,-1,-1],"loss_changes":[7.007847E1,7.015835E0,1.3959343E1,1.7546158E0,9.919962E0,3.0552296E1,1.3319469E1,0E0,1.2834015E0,1.4620283E0,0E0,7.850089E-1,2.213978E1,0E0,6.2923813E0,0E0,0E0,0E0,0E0,0E0,0E0,0E0,0E0,0E0,0E0],"parents":[2147483647,0,0,1,1,2,2,3,3,4,4,5,5,6,6,8,8,9,9,11,11,12,12,14,14],"right_children":[2,4,6,8,10,12,14,-1,16,18,-1,20,22,-1,24,-1,-1,-1,-1,-1,-1,-1,-1,-1,-1],"split_conditions":[6.1E0,3.84E0,6E2,1.87E0,6.02E0,3.35E2,6.1E1,-3.7060607E-2,2.75E0,5.28E0,-9.2653476E-2,6.77E0,1.383E3,-7.728132E-2,8.74E0,-2.2572353E-2,-5.8636554E-2,-5.412386E-3,1.4063172E-2,6.200153E-3,3.818363E-2,-1.5782952E-1,2.7325725E-2,2.2886302E-2,4.6838805E-2],"split_indices":[3,0,35,9,0,35,32,0,3,0,0,0,31,0,0,0,0,0,0,0,0,0,0,0,0],"split_type":[0,0,0,0,0,0,0,0,0,0,0,0,0,0,0,0,0,0,0,0,0,0,0,0,0],"sum_hessian":[3.31E2,1.78E2,1.53E2,1.36E2,4.2E1,1.7E1,1.36E2,4.4E1,9.2E1,4E1,2E0,1.1E1,6E0,2E0,1.34E2,9E1,2E0,2.6E1,1.4E1,3E0,8E0,4E0,2E0,9.3E1,4.1E1],"tree_param":{"num_deleted":"0","num_feature":"36","num_nodes":"25","size_leaf_vector":"1"}},{"base_weights":[-2.0644866E-2,-4.3242818E-1,4.3818113E-1,-5.4413766E-1,-8.493302E-2,1.5161204E-2,6.4555734E-1,-3.5370868E-2,-4.5826605E-1,3.8972583E-2,-8.9565024E-2,1.558385E-1,-1.1907033E-1,-6.14217E-2,6.7510426E-1,-2.147917E-2,-5.7343412E-2,-3.931776E-3,1.6977292E-2,-8.52076E-2,1.5379553E-2,2.3386313E-2,4.759877E-2],"categories":[],"categories_nodes":[],"categories_segments":[],"categories_sizes":[],"default_left":[0,0,0,0,0,0,0,0,0,0,0,0,0,0,0,0,0,0,0,0,0,0,0],"id":36,"left_children":[1,3,5,7,9,11,13,-1,15,17,-1,19,-1,-1,21,-1,-1,-1,-1,-1,-1,-1,-1],"loss_changes":[6.310547E1,6.785839E0,1.3850647E1,1.5406189E0,9.372665E0,1.8239677E1,6.6986084E0,0E0,1.2849102E0,1.511394E0,0E0,1.49193535E1,0E0,0E0,5.583519E0,0E0,0E0,0E0,0E0,0E0,0E0,0E0,0E0],"parents":[2147483647,0,0,1,1,2,2,3,3,4,4,5,5,6,6,8,8,9,9,11,11,14,14],"right_children":[2,4,6,8,10,12,14,-1,16,18,-1,20,-1,-1,22,-1,-1,-1,-1,-1,-1,-1,-1],"split_conditions":[6.06E0,2.67E0,1.577E3,1.87E0,6.02E0,2.7212564E-2,3.1E1,-3.5370868E-2,2.29E0,5.62E0,-8.9565024E-2,1.4176234E-2,-1.1907033E-1,-6.14217E-2,8.09E0,-2.147917E-2,-5.7343412E-2,-3.931776E-3,1.6977292E-2,-8.52076E-2,1.5379553E-2,2.3386313E-2,4.759877E-2],"split_indices":[2,8,4,9,0,5,32,0,0,1,0,6,0,0,2,0,0,0,0,0,0,0,0],"split_type":[0,0,0,0,0,0,0,0,0,0,0,0,0,0,0,0,0,0,0,0,0,0,0],"sum_hessian":[3.32E2,1.75E2,1.57E2,1.32E2,4.3E1,5.2E1,1.05E2,4.3E1,8.9E1,4.1E1,2E0,5E1,2E0,1E0,1.04E2,8.7E1,2E0,3E1,1.1E1,3E0,4.7E1,6.1E1,4.3E1],"tree_param":{"num_deleted":"0","num_feature":"36","num_nodes":"23","size_leaf_vector":"1"}},{"base_weights":[1.7488623E-2,-3.4891072E-1,5.6695515E-1,-5.084038E-1,-2.9478015E-2,-7.3937915E-2,6.098027E-1,-3.1986903E-2,-4.3071634E-1,8.600652E-2,-1.8698611E0,2.1844005E-2,7.102475E-1,-2.0355914E-2,-6.091377E-2,-2.7048582E-2,9.92194E-3,4.4497135E-3,-1.276239E-1,3.657473E-2,-3.80478E-2,2.5020568E-2,4.5740027E-2],"categories":[],"categories_nodes":[],"categories_segments":[],"categories_sizes":[],"default_left":[0,0,0,0,0,0,0,0,0,0,0,0,0,0,0,0,0,0,0,0,0,0,0],"id":37,"left_children":[1,3,5,7,9,-1,11,-1,13,15,17,19,21,-1,-1,-1,-1,-1,-1,-1,-1,-1,-1],"loss_changes":[6.643347E1,1.0072575E1,1.2472057E1,1.0712585E0,1.4400719E1,0E0,7.6619453E0,0E0,1.102314E0,4.618875E0,5.5757446E0,1.1666924E1,4.306637E0,0E0,0E0,0E0,0E0,0E0,0E0,0E0,0E0,0E0,0E0],"parents":[2147483647,0,0,1,1,2,2,3,3,4,4,6,6,8,8,9,9,10,10,11,11,12,12],"right_children":[2,4,6,8,10,-1,12,-1,14,16,18,20,22,-1,-1,-1,-1,-1,-1,-1,-1,-1,-1],"split_conditions":[6.78E0,3.84E0,6.1E1,1.94E0,6.73E0,-7.3937915E-2,6.2E2,-3.1986903E-2,3.55E0,-2.9558802E-2,6.6E0,2.75E2,8.17E0,-2.0355914E-2,-6.091377E-2,-2.7048582E-2,9.92194E-3,4.4497135E-3,-1.276239E-1,3.657473E-2,-3.80478E-2,2.5020568E-2,4.5740027E-2],"split_indices":[16,0,32,3,16,0,35,0,0,5,0,35,3,0,0,0,0,0,0,0,0,0,0],"split_type":[0,0,0,0,0,0,0,0,0,0,0,0,0,0,0,0,0,0,0,0,0,0,0],"sum_hessian":[3.28E2,1.97E2,1.31E2,1.31E2,6.6E1,2E0,1.29E2,4.6E1,8.5E1,6.3E1,3E0,1.9E1,1.1E2,8.4E1,1E0,9E0,5.4E1,1E0,2E0,1E1,9E0,5.6E1,5.4E1],"tree_param":{"num_deleted":"0","num_feature":"36","num_nodes":"23","size_leaf_vector":"1"}},{"base_weights":[-1.4845602E-2,-4.285894E-1,3.5901865E-1,-4.8981285E-1,-1.1113364E-1,-6.3715947E-1,4.292921E-1,-3.15052E-2,-4.133756E-1,-1.7464508E-1,-3.968409E-2,6.609834E-1,-1.6588306E0,-8.5383826E-1,4.8308218E-1,-1.9553859E-2,-5.939093E-2,-9.229277E-3,-1.1354805E-3,-4.097608E-3,7.1457116E-4,9.912741E-3,3.569391E-2,3.6372304E-2,-1.0888922E-1,-9.6714996E-2,2.2004152E-2,1.5750878E-2,3.7396174E-2],"categories":[],"categories_nodes":[],"categories_segments":[],"categories_sizes":[],"default_left":[0,0,0,0,0,0,0,0,0,0,0,0,0,0,0,0,0,0,0,0,0,0,0,0,0,0,0,0,0],"id":38,"left_children":[1,3,5,7,9,11,13,-1,15,17,19,21,23,25,27,-1,-1,-1,-1,-1,-1,-1,-1,-1,-1,-1,-1,-1,-1],"loss_changes":[5.1818333E1,3.0358467E0,1.2594385E1,1.1657505E0,1.15591705E-1,1.7011763E1,1.1800716E1,0E0,1.0723991E0,1.6952455E-2,3.311138E-2,5.325556E-3,1.025279E1,1.063748E1,6.8415527E0,0E0,0E0,0E0,0E0,0E0,0E0,0E0,0E0,0E0,0E0,0E0,0E0,0E0,0E0],"parents":[2147483647,0,0,1,1,2,2,3,3,4,4,5,5,6,6,8,8,9,9,10,10,11,11,12,12,13,13,14,14],"right_children":[2,4,6,8,10,12,14,-1,16,18,20,22,24,26,28,-1,-1,-1,-1,-1,-1,-1,-1,-1,-1,-1,-1,-1,-1],"split_conditions":[5.26E0,3.95E0,2.04E2,1.87E0,-1.6142053E-3,1.21E2,2E2,-3.15052E-2,3.94E0,9.99E3,-3.4610352E-1,6.68E0,6.19E2,9.92E2,8.39E0,-1.9553859E-2,-5.939093E-2,-9.229277E-3,-1.1354805E-3,-4.097608E-3,7.1457116E-4,9.912741E-3,3.569391E-2,3.6372304E-2,-1.0888922E-1,-9.6714996E-2,2.2004152E-2,1.5750878E-2,3.7396174E-2],"split_indices":[1,12,34,16,5,34,32,0,12,35,7,1,4,31,1,0,0,0,0,0,0,0,0,0,0,0,0,0,0],"split_type":[0,0,0,0,0,0,0,0,0,0,0,0,0,0,0,0,0,0,0,0,0,0,0,0,0,0,0,0,0],"sum_hessian":[3.33E2,1.58E2,1.75E2,1.32E2,2.6E1,1.1E1,1.64E2,4.4E1,8.8E1,1.3E1,1.3E1,5E0,6E0,6E0,1.58E2,8.7E1,1E0,1.2E1,1E0,7E0,6E0,1E0,4E0,1E0,5E0,3E0,3E0,9.8E1,6E1],"tree_param":{"num_deleted":"0","num_feature":"36","num_nodes":"29","size_leaf_vector":"1"}},{"base_weights":[-1.962007E-2,-3.2416898E-1,4.5774096E-1,-2.8304788E-1,-1.8630574E0,-5.572981E-1,5.215957E-1,-4.6447858E-1,7.86042E-2,-1.211048E-1,9.327424E-3,6.3737786E-1,-1.9113185E0,2.8156668E-1,7.733239E-1,-2.9802427E-2,-1.939058E-2,-3.9293673E-2,6.612199E-3,6.9553615E-3,3.6358435E-2,-1.4993352E-1,3.3768415E-2,-3.4299124E-2,1.884017E-2,4.752812E-2,3.235191E-2],"categories":[],"categories_nodes":[],"categories_segments":[],"categories_sizes":[],"default_left":[0,0,0,0,0,0,0,0,0,0,0,0,0,0,0,0,0,0,0,0,0,0,0,0,0,0,0],"id":39,"left_children":[1,3,5,7,9,11,13,15,17,-1,-1,19,21,23,25,-1,-1,-1,-1,-1,-1,-1,-1,-1,-1,-1,-1],"loss_changes":[4.7396812E1,1.20655365E1,8.522202E0,1.2831393E1,6.1808834E0,1.4159157E1,7.0329056E0,1.080164E0,3.1643734E0,0E0,0E0,1.22546196E-1,1.3275759E1,6.06369E0,6.831436E-1,0E0,0E0,0E0,0E0,0E0,0E0,0E0,0E0,0E0,0E0,0E0,0E0],"parents":[2147483647,0,0,1,1,2,2,3,3,4,4,5,5,6,6,7,7,8,8,11,11,12,12,13,13,14,14],"right_children":[2,4,6,8,10,12,14,16,18,-1,-1,20,22,24,26,-1,-1,-1,-1,-1,-1,-1,-1,-1,-1,-1,-1],"split_conditions":[6.78E0,6.92E0,-9.3516415E-1,2.67E0,1.621E3,4.08E3,8.17E0,1.92E0,-6.113014E-2,-1.211048E-1,9.327424E-3,7.85E0,8.74E0,2.04E2,9.1E0,-2.9802427E-2,-1.939058E-2,-3.9293673E-2,6.612199E-3,6.9553615E-3,3.6358435E-2,-1.4993352E-1,3.3768415E-2,-3.4299124E-2,1.884017E-2,4.752812E-2,3.235191E-2],"split_indices":[16,24,7,8,4,32,3,3,5,0,0,0,0,34,1,0,0,0,0,0,0,0,0,0,0,0,0],"split_type":[0,0,0,0,0,0,0,0,0,0,0,0,0,0,0,0,0,0,0,0,0,0,0,0,0,0,0],"sum_hessian":[3.24E2,1.98E2,1.26E2,1.94E2,4E0,7E0,1.19E2,1.29E2,6.5E1,3E0,1E0,4E0,3E0,6.2E1,5.7E1,4.5E1,8.4E1,3E0,6.2E1,1E0,3E0,2E0,1E0,5E0,5.7E1,2.1E1,3.6E1],"tree_param":{"num_deleted":"0","num_feature":"36","num_nodes":"27","size_leaf_vector":"1"}},{"base_weights":[-2.8560467E-2,-3.2378018E-1,4.0026638E-1,-2.804966E-1,-1.1656337E-1,-8.2157016E-1,4.7350407E-1,-4.3426356E-1,1.0343798E-1,-1.8957813E0,3.6329318E-2,-6.935562E-2,5.140465E-1,-3.2035116E-2,-1.925913E-2,-6.6027E-2,7.6669157E-3,2.160026E-2,-1.2928645E-1,-1.6779132E-2,2.872462E-2],"categories":[],"categories_nodes":[],"categories_segments":[],"categories_sizes":[],"default_left":[0,0,0,0,0,0,0,0,0,0,0,0,0,0,0,0,0,0,0,0,0],"id":40,"left_children":[1,3,5,7,-1,9,11,13,15,17,-1,-1,19,-1,-1,-1,-1,-1,-1,-1,-1],"loss_changes":[4.1906982E1,1.6376766E1,1.2469423E1,1.1438954E1,0E0,1.4681826E1,1.0368578E1,1.1514587E0,4.1816792E0,9.147305E0,0E0,0E0,6.663727E0,0E0,0E0,0E0,0E0,0E0,0E0,0E0,0E0],"parents":[2147483647,0,0,1,1,2,2,3,3,5,5,6,6,7,7,8,8,9,9,12,12],"right_children":[2,4,6,8,-1,10,12,14,16,18,-1,-1,20,-1,-1,-1,-1,-1,-1,-1,-1],"split_conditions":[6.79E0,6.92E0,2.04E2,4.81E0,-1.1656337E-1,1.383E3,6.1E1,6.458E3,-6.113014E-2,6.8E0,3.6329318E-2,-6.935562E-2,-9.3516415E-1,-3.2035116E-2,-1.925913E-2,-6.6027E-2,7.6669157E-3,2.160026E-2,-1.2928645E-1,-1.6779132E-2,2.872462E-2],"split_indices":[12,24,34,0,0,31,32,4,5,0,0,0,7,0,0,0,0,0,0,0,0],"split_type":[0,0,0,0,0,0,0,0,0,0,0,0,0,0,0,0,0,0,0,0,0],"sum_hessian":[3.29E2,1.95E2,1.34E2,1.92E2,3E0,7E0,1.27E2,1.37E2,5.5E1,4E0,3E0,2E0,1.25E2,2.4E1,1.13E2,1E0,5.4E1,1E0,3E0,8E0,1.17E2],"tree_param":{"num_deleted":"0","num_feature":"36","num_nodes":"21","size_leaf_vector":"1"}},{"base_weights":[-1.5874224E-3,-3.3815768E-1,3.7407866E-1,-3.1460077E-1,-7.840912E-2,-6.704377E-2,4.0526026E-1,-4.105817E-1,3.2137226E-2,-5.122483E-1,4.6616182E-1,-3.0681103E-2,-1.8149106E-2,-4.3451716E-3,1.2120715E-2,1.2283663E-2,-8.552744E-2,1.3314465E-2,3.7480023E-2],"categories":[],"categories_nodes":[],"categories_segments":[],"categories_sizes":[],"default_left":[0,0,0,0,0,0,0,0,0,0,0,0,0,0,0,0,0,0,0],"id":41,"left_children":[1,3,5,7,-1,-1,9,11,13,15,17,-1,-1,-1,-1,-1,-1,-1,-1],"loss_changes":[4.1471733E1,4.5194244E0,8.832026E0,5.704115E0,0E0,0E0,8.78808E0,1.0723267E0,9.722644E-1,9.502413E0,7.9582157E0,0E0,0E0,0E0,0E0,0E0,0E0,0E0,0E0],"parents":[2147483647,0,0,1,1,2,2,3,3,6,6,7,7,8,8,9,9,10,10],"right_children":[2,4,6,8,-1,-1,10,12,14,16,18,-1,-1,-1,-1,-1,-1,-1,-1],"split_conditions":[6.1E0,6.02E0,6.1E1,4.116E0,-7.840912E-2,-6.704377E-2,2.04E2,6.458E3,5.28E0,1.66E2,8.39E0,-3.0681103E-2,-1.8149106E-2,-4.3451716E-3,1.2120715E-2,1.2283663E-2,-8.552744E-2,1.3314465E-2,3.7480023E-2],"split_indices":[3,0,32,8,0,0,34,4,0,34,1,0,0,0,0,0,0,0,0],"split_type":[0,0,0,0,0,0,0,0,0,0,0,0,0,0,0,0,0,0,0],"sum_hessian":[3.26E2,1.72E2,1.54E2,1.7E2,2E0,2E0,1.52E2,1.33E2,3.7E1,9E0,1.43E2,2.3E1,1.1E2,2.4E1,1.3E1,6E0,3E0,8.5E1,5.8E1],"tree_param":{"num_deleted":"0","num_feature":"36","num_nodes":"19","size_leaf_vector":"1"}},{"base_weights":[-3.4512047E-2,-3.3444393E-1,3.062784E-1,-3.1215173E-1,-7.579548E-2,-2.2985016E-1,4.1114816E-1,-3.9469755E-1,5.25046E-2,-1.1716886E-1,1.4771324E-1,-5.339805E-2,4.3089288E-1,-2.5967076E-2,-1.6172031E-2,-2.5796592E-3,1.485444E-2,-8.133914E-2,1.9708937E-2,1.1095704E-2,2.8919939E-2],"categories":[],"categories_nodes":[],"categories_segments":[],"categories_sizes":[],"default_left":[0,0,0,0,0,0,0,0,0,0,0,0,0,0,0,0,0,0,0,0,0],"id":42,"left_children":[1,3,5,7,-1,9,11,13,15,-1,17,-1,19,-1,-1,-1,-1,-1,-1,-1,-1],"loss_changes":[3.383303E1,4.162197E0,8.809168E0,5.258274E0,0E0,2.10939E1,4.2567787E0,1.0932312E0,8.5553E-1,0E0,1.070034E1,0E0,3.8481464E0,0E0,0E0,0E0,0E0,0E0,0E0,0E0,0E0],"parents":[2147483647,0,0,1,1,2,2,3,3,5,5,6,6,7,7,8,8,10,10,12,12],"right_children":[2,4,6,8,-1,10,12,14,16,-1,18,-1,20,-1,-1,-1,-1,-1,-1,-1,-1],"split_conditions":[6.1E0,6.02E0,6E2,4.81E0,-7.579548E-2,3.9E2,3.1E1,1.94E0,5.62E0,-1.1716886E-1,2E2,-5.339805E-2,7.86E0,-2.5967076E-2,-1.6172031E-2,-2.5796592E-3,1.485444E-2,-8.133914E-2,1.9708937E-2,1.1095704E-2,2.8919939E-2],"split_indices":[3,0,31,0,0,34,32,3,1,0,32,0,3,0,0,0,0,0,0,0,0],"split_type":[0,0,0,0,0,0,0,0,0,0,0,0,0,0,0,0,0,0,0,0,0],"sum_hessian":[3.29E2,1.75E2,1.54E2,1.73E2,2E0,2.5E1,1.29E2,1.41E2,3.2E1,3E0,2.2E1,1E0,1.28E2,4.9E1,9.2E1,2.3E1,9E0,2E0,2E1,5.4E1,7.4E1],"tree_param":{"num_deleted":"0","num_feature":"36","num_nodes":"21","size_leaf_vector":"1"}},{"base_weights":[-3.913253E-2,-2.7939987E-1,3.3846802E-1,-2.498798E-1,-1.670793E0,-2.5609675E-1,4.3808857E-1,-3.856563E-1,5.417273E-2,2.9774667E-3,-1.13371186E-1,-1.1277503E-1,2.5976023E-1,-5.2063096E-2,4.6121347E-1,-1.8599613E-2,-5.6099255E-2,-3.407287E-2,5.1563885E-3,-4.178193E-2,1.9424802E-2,1.7994624E-2,3.707337E-2],"categories":[],"categories_nodes":[],"categories_segments":[],"categories_sizes":[],"default_left":[0,0,0,0,0,0,0,0,0,0,0,0,0,0,0,0,0,0,0,0,0,0,0],"id":43,"left_children":[1,3,5,7,9,11,13,15,17,-1,-1,-1,19,-1,21,-1,-1,-1,-1,-1,-1,-1,-1],"loss_changes":[2.9852394E1,7.83838E0,7.6937485E0,8.194962E0,4.2645245E0,2.0182611E1,4.2433205E0,9.6102333E-1,2.303071E0,0E0,0E0,0E0,2.580915E0,0E0,2.8282738E0,0E0,0E0,0E0,0E0,0E0,0E0,0E0,0E0],"parents":[2147483647,0,0,1,1,2,2,3,3,4,4,5,5,6,6,7,7,8,8,12,12,14,14],"right_children":[2,4,6,8,10,12,14,16,18,-1,-1,-1,20,-1,22,-1,-1,-1,-1,-1,-1,-1,-1],"split_conditions":[6.78E0,6.73E0,5.92E2,4.116E0,6.6E0,3.9E2,3.1E1,3.94E0,-6.113014E-2,2.9774667E-3,-1.13371186E-1,-1.1277503E-1,7.1E1,-5.2063096E-2,1.6713481E-2,-1.8599613E-2,-5.6099255E-2,-3.407287E-2,5.1563885E-3,-4.178193E-2,1.9424802E-2,1.7994624E-2,3.707337E-2],"split_indices":[16,16,31,8,0,34,32,12,5,0,0,0,4,0,5,0,0,0,0,0,0,0,0],"split_type":[0,0,0,0,0,0,0,0,0,0,0,0,0,0,0,0,0,0,0,0,0,0,0],"sum_hessian":[3.27E2,2E2,1.27E2,1.97E2,3E0,1.8E1,1.09E2,1.36E2,6.1E1,1E0,2E0,3E0,1.5E1,1E0,1.08E2,1.35E2,1E0,3E0,5.8E1,1E0,1.4E1,8.1E1,2.7E1],"tree_param":{"num_deleted":"0","num_feature":"36","num_nodes":"23","size_leaf_vector":"1"}},{"base_weights":[-1.9287206E-2,-2.5440264E-1,3.6269456E-1,-2.3762985E-1,-9.1062665E-2,-6.099927E-2,3.9834777E-1,-3.6123666E-1,6.1781064E-4,6.9472805E-2,5.181633E-1,-1.7369926E-2,-5.4696776E-2,-4.784198E-3,2.3702502E-2,2.2520756E-2,-7.321106E-2,1.8963574E-2,3.213857E-2],"categories":[],"categories_nodes":[],"categories_segments":[],"categories_sizes":[],"default_left":[0,0,0,0,0,0,0,0,0,0,0,0,0,0,0,0,0,0,0],"id":44,"left_children":[1,3,5,7,-1,-1,9,11,13,15,17,-1,-1,-1,-1,-1,-1,-1,-1],"loss_changes":[2.946008E1,4.9021482E0,7.5394306E0,5.948929E0,0E0,0E0,4.8107357E0,9.6847916E-1,3.2368245E0,2.052397E1,1.3138504E0,0E0,0E0,0E0,0E0,0E0,0E0,0E0,0E0],"parents":[2147483647,0,0,1,1,2,2,3,3,6,6,7,7,8,8,9,9,10,10],"right_children":[2,4,6,8,-1,-1,10,12,14,16,18,-1,-1,-1,-1,-1,-1,-1,-1],"split_conditions":[7.19E0,7.12E0,6.1E1,3.95E0,-9.1062665E-2,-6.099927E-2,1.093E3,3.94E0,2.9852964E-2,4.082E3,8.36E0,-1.7369926E-2,-5.4696776E-2,-4.784198E-3,2.3702502E-2,2.2520756E-2,-7.321106E-2,1.8963574E-2,3.213857E-2],"split_indices":[3,2,32,12,0,0,4,12,5,32,1,0,0,0,0,0,0,0,0],"split_type":[0,0,0,0,0,0,0,0,0,0,0,0,0,0,0,0,0,0,0],"sum_hessian":[3.26E2,2.02E2,1.24E2,2.01E2,1E0,2E0,1.22E2,1.32E2,6.9E1,3.3E1,8.9E1,1.31E2,1E0,5.8E1,1.1E1,2.7E1,6E0,4.4E1,4.5E1],"tree_param":{"num_deleted":"0","num_feature":"36","num_nodes":"19","size_leaf_vector":"1"}},{"base_weights":[-2.6590372E-2,-2.7552786E-1,2.5969878E-1,-2.537759E-1,-7.262755E-2,-4.9075094E-1,3.208575E-1,-3.3417088E-1,7.894926E-4,4.3754563E-2,-1.2830584E0,-3.3055228E-1,3.9977702E-1,-2.3506885E-2,-1.3199261E-2,-2.834287E-3,1.5223718E-2,1.8097395E-2,-1.1712259E-1,-5.997631E-2,1.5539232E-2,4.2121866E-4,2.3608586E-2],"categories":[],"categories_nodes":[],"categories_segments":[],"categories_sizes":[],"default_left":[0,0,0,0,0,0,0,0,0,0,0,0,0,0,0,0,0,0,0,0,0,0,0],"id":45,"left_children":[1,3,5,7,-1,9,11,13,15,-1,17,19,21,-1,-1,-1,-1,-1,-1,-1,-1,-1,-1],"loss_changes":[2.3590029E1,4.1630344E0,7.2255287E0,3.5817766E0,0E0,1.4108797E1,7.4836264E0,1.1450996E0,7.6779675E-1,0E0,1.4789517E1,9.289675E0,3.6225014E0,0E0,0E0,0E0,0E0,0E0,0E0,0E0,0E0,0E0,0E0],"parents":[2147483647,0,0,1,1,2,2,3,3,5,5,6,6,7,7,8,8,10,10,11,11,12,12],"right_children":[2,4,6,8,-1,10,12,14,16,-1,18,20,22,-1,-1,-1,-1,-1,-1,-1,-1,-1,-1],"split_conditions":[6.19E0,6.34E0,-8.886488E-1,3.95E0,-7.262755E-2,7.58E2,3.35E2,1.87E0,4.1649237E-2,4.3754563E-2,-2.9498546E-3,9.92E2,6.34E2,-2.3506885E-2,-1.3199261E-2,-2.834287E-3,1.5223718E-2,1.8097395E-2,-1.1712259E-1,-5.997631E-2,1.5539232E-2,4.2121866E-4,2.3608586E-2],"split_indices":[3,12,7,12,0,32,32,12,5,0,5,31,35,0,0,0,0,0,0,0,0,0,0],"split_type":[0,0,0,0,0,0,0,0,0,0,0,0,0,0,0,0,0,0,0,0,0,0,0],"sum_hessian":[3.29E2,1.76E2,1.53E2,1.74E2,2E0,1.1E1,1.42E2,1.32E2,4.2E1,4E0,7E0,1.5E1,1.27E2,4.3E1,8.9E1,3.6E1,6E0,3E0,4E0,6E0,9E0,2E1,1.07E2],"tree_param":{"num_deleted":"0","num_feature":"36","num_nodes":"23","size_leaf_vector":"1"}},{"base_weights":[2.1488743E-3,-2.8077444E-1,3.061463E-1,-2.5942445E-1,-7.0206635E-2,-2.3692834E-1,3.983756E-1,-3.3874798E-1,3.5129522E-4,-1.04744256E-1,1.282505E-1,-4.7737133E-2,4.152213E-1,-1.6252311E-2,-5.2999374E-2,-4.0074456E-3,8.066331E-3,-7.294636E-2,1.8605372E-2,1.5920918E-2,3.062954E-2],"categories":[],"categories_nodes":[],"categories_segments":[],"categories_sizes":[],"default_left":[0,0,0,0,0,0,0,0,0,0,0,0,0,0,0,0,0,0,0,0,0],"id":46,"left_children":[1,3,5,7,-1,9,11,13,15,-1,17,-1,19,-1,-1,-1,-1,-1,-1,-1,-1],"loss_changes":[2.8726608E1,3.784913E0,8.158457E0,3.5238008E0,0E0,1.6552347E1,3.5420303E0,9.500284E-1,5.442305E-1,0E0,8.670808E0,0E0,2.4224548E0,0E0,0E0,0E0,0E0,0E0,0E0,0E0,0E0],"parents":[2147483647,0,0,1,1,2,2,3,3,5,5,6,6,7,7,8,8,10,10,12,12],"right_children":[2,4,6,8,-1,10,12,14,16,-1,18,-1,20,-1,-1,-1,-1,-1,-1,-1,-1],"split_conditions":[6.19E0,6.34E0,6E2,3.95E0,-7.0206635E-2,3.9E2,3.1E1,3.94E0,5.43E0,-1.04744256E-1,2E2,-4.7737133E-2,2.1042813E-1,-1.6252311E-2,-5.2999374E-2,-4.0074456E-3,8.066331E-3,-7.294636E-2,1.8605372E-2,1.5920918E-2,3.062954E-2],"split_indices":[3,12,31,12,0,34,32,12,21,0,32,0,10,0,0,0,0,0,0,0,0],"split_type":[0,0,0,0,0,0,0,0,0,0,0,0,0,0,0,0,0,0,0,0,0],"sum_hessian":[3.32E2,1.72E2,1.6E2,1.7E2,2E0,2.3E1,1.37E2,1.3E2,4E1,3E0,2E1,1E0,1.36E2,1.29E2,1E0,2.7E1,1.3E1,2E0,1.8E1,9.3E1,4.3E1],"tree_param":{"num_deleted":"0","num_feature":"36","num_nodes":"21","size_leaf_vector":"1"}},{"base_weights":[-3.1128433E-3,-2.8454134E-1,2.566857E-1,-3.9074814E-1,-2.1223222E-1,1.3524586E-1,5.5999774E-1,-2.101901E-2,-1.5078045E-2,-1.8658958E-1,-5.614998E-1,-9.98621E-1,1.9223693E-1,6.9974387E-1,3.2936594E-1,-2.8506992E-2,-8.340519E-3,-4.9960553E-3,-4.948857E-2,2.5864178E-2,-1.3434766E-1,1.6158137E-2,-8.281681E-3,2.2202268E-2,3.9630294E-2,2.1765035E-2,4.8174063E-4],"categories":[],"categories_nodes":[],"categories_segments":[],"categories_sizes":[],"default_left":[0,0,0,0,0,0,0,0,0,0,0,0,0,0,0,0,0,0,0,0,0,0,0,0,0,0,0],"id":47,"left_children":[1,3,5,7,9,11,13,-1,-1,15,17,19,21,23,25,-1,-1,-1,-1,-1,-1,-1,-1,-1,-1,-1,-1],"loss_changes":[2.3762203E1,1.1151056E0,6.1492367E0,3.708458E-2,7.460637E-1,8.075647E0,1.3165627E0,0E0,0E0,5.876632E-1,1.0871872E0,1.6746021E1,5.535503E0,3.3664227E-1,6.732187E-1,0E0,0E0,0E0,0E0,0E0,0E0,0E0,0E0,0E0,0E0,0E0,0E0],"parents":[2147483647,0,0,1,1,2,2,3,3,4,4,5,5,6,6,9,9,10,10,11,11,12,12,13,13,14,14],"right_children":[2,4,6,8,10,12,14,-1,-1,16,18,20,22,24,26,-1,-1,-1,-1,-1,-1,-1,-1,-1,-1,-1,-1],"split_conditions":[5.26E0,2E0,2.1011901E-1,1.87E0,5.0353885E-2,-9.3516415E-1,2.6678191E-2,-2.101901E-2,-1.5078045E-2,-6.016852E-2,2.06E0,3.605E3,1.4335988E0,4.192E3,2.2693E4,-2.8506992E-2,-8.340519E-3,-4.9960553E-3,-4.948857E-2,2.5864178E-2,-1.3434766E-1,1.6158137E-2,-8.281681E-3,2.2202268E-2,3.9630294E-2,2.1765035E-2,4.8174063E-4],"split_indices":[1,3,10,9,5,7,6,0,0,5,0,32,7,31,31,0,0,0,0,0,0,0,0,0,0,0,0],"split_type":[0,0,0,0,0,0,0,0,0,0,0,0,0,0,0,0,0,0,0,0,0,0,0,0,0,0,0],"sum_hessian":[3.23E2,1.55E2,1.68E2,6.1E1,9.4E1,1.21E2,4.7E1,4.3E1,1.8E1,8.9E1,5E0,5E0,1.16E2,2.8E1,1.9E1,3E0,8.6E1,3E0,2E0,3E0,2E0,8.5E1,3.1E1,9E0,1.9E1,1.4E1,5E0],"tree_param":{"num_deleted":"0","num_feature":"36","num_nodes":"27","size_leaf_vector":"1"}},{"base_weights":[-1.645123E-2,-2.3722415E-1,3.0910626E-1,-2.078892E-1,-1.0422391E-1,-4.157683E-1,3.5199603E-1,-2.9884827E-1,2.0762015E-2,2.567665E-1,-1.280878E-1,-3.0339235E-1,3.9241844E-1,-2.3155743E-2,-1.3059716E-2,5.1892437E-3,-3.511149E-2,-6.6716336E-2,3.7216824E-2,-1.1457898E-1,3.7063327E-2,1.2072588E-2,2.7093852E-2],"categories":[],"categories_nodes":[],"categories_segments":[],"categories_sizes":[],"default_left":[0,0,0,0,0,0,0,0,0,0,0,0,0,0,0,0,0,0,0,0,0,0,0],"id":48,"left_children":[1,3,5,7,-1,9,11,13,15,17,-1,19,21,-1,-1,-1,-1,-1,-1,-1,-1,-1,-1],"loss_changes":[2.4007463E1,1.0350291E1,4.343458E0,4.1033916E0,0E0,1.2203784E1,3.5100822E0,7.511625E-1,3.4942975E0,6.4235725E0,0E0,1.831449E1,2.5993156E0,0E0,0E0,0E0,0E0,0E0,0E0,0E0,0E0,0E0,0E0],"parents":[2147483647,0,0,1,1,2,2,3,3,5,5,6,6,7,7,8,8,9,9,11,11,12,12],"right_children":[2,4,6,8,-1,10,12,14,16,18,-1,20,22,-1,-1,-1,-1,-1,-1,-1,-1,-1,-1],"split_conditions":[6.78E0,6.73E0,-9.3516415E-1,4.03E0,-1.0422391E-1,-9.47798E-1,2.04E2,6.458E3,3.5030127E-2,5.5E2,-1.280878E-1,6E2,8.21E0,-2.3155743E-2,-1.3059716E-2,5.1892437E-3,-3.511149E-2,-6.6716336E-2,3.7216824E-2,-1.1457898E-1,3.7063327E-2,1.2072588E-2,2.7093852E-2],"split_indices":[16,16,7,0,0,7,34,4,6,31,0,35,11,0,0,0,0,0,0,0,0,0,0],"split_type":[0,0,0,0,0,0,0,0,0,0,0,0,0,0,0,0,0,0,0,0,0,0,0],"sum_hessian":[3.32E2,1.98E2,1.34E2,1.96E2,2E0,7E0,1.27E2,1.4E2,5.6E1,6E0,1E0,7E0,1.2E2,2.4E1,1.16E2,5.1E1,5E0,1E0,5E0,2E0,5E0,6.1E1,5.9E1],"tree_param":{"num_deleted":"0","num_feature":"36","num_nodes":"23","size_leaf_vector":"1"}},{"base_weights":[-1.6467357E-2,-2.0007117E-1,2.7019063E-1,-1.7396343E-1,-1.475021E0,-7.3327124E-1,3.2379413E-1,-2.7702844E-1,7.629194E-2,-1.0074977E-1,3.6225559E-3,-2.2912502E-2,-1.248856E-1,-3.2729068E-1,3.7667492E-1,-1.9579297E-2,-1.0963039E-2,-5.48941E-2,5.7400684E-3,-6.504842E-2,2.4644619E-2,2.0492552E-2,-7.67733E-2,1.1718334E-2,2.611807E-2],"categories":[],"categories_nodes":[],"categories_segments":[],"categories_sizes":[],"default_left":[0,0,0,0,0,0,0,0,0,0,0,0,0,0,0,0,0,0,0,0,0,0,0,0,0],"id":49,"left_children":[1,3,5,7,9,11,13,15,17,-1,-1,19,-1,21,23,-1,-1,-1,-1,-1,-1,-1,-1,-1,-1],"loss_changes":[1.7790874E1,6.6003275E0,7.3375874E0,5.2570267E0,3.488369E0,8.716472E0,4.4614477E0,8.6709213E-1,2.839044E0,0E0,0E0,4.596602E0,0E0,9.535276E0,2.3032665E0,0E0,0E0,0E0,0E0,0E0,0E0,0E0,0E0,0E0,0E0],"parents":[2147483647,0,0,1,1,2,2,3,3,4,4,5,5,6,6,7,7,8,8,11,11,13,13,14,14],"right_children":[2,4,6,8,10,12,14,16,18,-1,-1,20,-1,22,24,-1,-1,-1,-1,-1,-1,-1,-1,-1,-1],"split_conditions":[6.78E0,6.92E0,-9.3516415E-1,4.84E0,1.577E3,2.5E2,2.04E2,1.88E0,-6.113014E-2,-1.0074977E-1,3.6225559E-3,1.1E1,-1.248856E-1,1.82E2,8.36E0,-1.9579297E-2,-1.0963039E-2,-5.48941E-2,5.7400684E-3,-6.504842E-2,2.4644619E-2,2.0492552E-2,-7.67733E-2,1.1718334E-2,2.611807E-2],"split_indices":[16,24,7,18,4,4,34,16,5,0,0,4,0,34,21,0,0,0,0,0,0,0,0,0,0],"split_type":[0,0,0,0,0,0,0,0,0,0,0,0,0,0,0,0,0,0,0,0,0,0,0,0,0],"sum_hessian":[3.36E2,2.05E2,1.31E2,2.02E2,3E0,6E0,1.25E2,1.43E2,5.9E1,2E0,1E0,5E0,1E0,9E0,1.16E2,4.6E1,9.7E1,1E0,5.8E1,1E0,4E0,6E0,3E0,6E1,5.6E1],"tree_param":{"num_deleted":"0","num_feature":"36","num_nodes":"25","size_leaf_vector":"1"}},{"base_weights":[-2.8008949E-2,-2.1977505E-1,2.0800078E-1,-2.012512E-1,-9.937744E-1,-2.7297545E-2,3.5568544E-1,-2.650837E-1,2.719388E-2,-6.5972775E-2,-4.1828156E-4,7.038646E-2,-9.208166E-2,3.2015502E-1,4.028369E-2,-1.7463462E-2,-1.04891835E-2,-1.0068178E-3,1.49377305E-2,-2.4523977E-2,1.2567855E-2,2.9193624E-3,1.8298568E-2],"categories":[],"categories_nodes":[],"categories_segments":[],"categories_sizes":[],"default_left":[0,0,0,0,0,0,0,0,0,0,0,0,0,0,0,0,0,0,0,0,0,0,0],"id":50,"left_children":[1,3,5,7,9,11,13,15,17,-1,-1,19,-1,21,-1,-1,-1,-1,-1,-1,-1,-1,-1],"loss_changes":[1.4935816E1,2.409421E0,5.152701E0,2.6174269E0,1.2726784E0,1.0409059E1,1.1969929E0,5.784931E-1,5.201372E-1,0E0,0E0,5.8073015E0,0E0,1.0100508E0,0E0,0E0,0E0,0E0,0E0,0E0,0E0,0E0,0E0],"parents":[2147483647,0,0,1,1,2,2,3,3,4,4,5,5,6,6,7,7,8,8,11,11,13,13],"right_children":[2,4,6,8,10,12,14,16,18,-1,-1,20,-1,22,-1,-1,-1,-1,-1,-1,-1,-1,-1],"split_conditions":[6.3E0,6.16E0,1.686E3,4.84E0,6.06E0,2.7212564E-2,9.48E0,1.98E0,5.7059556E-2,-6.5972775E-2,-4.1828156E-4,6E2,-9.208166E-2,9.92E2,4.028369E-2,-1.7463462E-2,-1.04891835E-2,-1.0068178E-3,1.49377305E-2,-2.4523977E-2,1.2567855E-2,2.9193624E-3,1.8298568E-2],"split_indices":[3,26,4,28,2,5,26,3,5,0,0,35,0,31,0,0,0,0,0,0,0,0,0],"split_type":[0,0,0,0,0,0,0,0,0,0,0,0,0,0,0,0,0,0,0,0,0,0,0],"sum_hessian":[3.28E2,1.81E2,1.47E2,1.78E2,3E0,5.7E1,9E1,1.39E2,3.9E1,2E0,1E0,5.5E1,2E0,8.5E1,5E0,5.3E1,8.6E1,3.4E1,5E0,1.3E1,4.2E1,1.3E1,7.2E1],"tree_param":{"num_deleted":"0","num_feature":"36","num_nodes":"23","size_leaf_vector":"1"}},{"base_weights":[1.9453824E-2,-2.293915E-1,2.4959545E-1,-1.784814E-2,-1.78365E-1,-1.7812729E-1,3.3284453E-1,-1.1240852E-1,-2.4352059E-1,-6.949826E-1,2.2759306E-1,2.1734522E-1,5.5025625E-1,-1.0021112E-2,-2.8089473E-3,-9.492174E-3,-3.3854082E-2,-7.409478E-3,-9.441098E-2,4.0536504E-3,1.500714E-2,1.195972E-2,-4.7004417E-2,5.814616E-3,2.8295768E-2],"categories":[],"categories_nodes":[],"categories_segments":[],"categories_sizes":[],"default_left":[0,0,0,0,0,0,0,0,0,0,0,0,0,0,0,0,0,0,0,0,0,0,0,0,0],"id":51,"left_children":[1,3,5,-1,7,9,11,13,15,17,19,21,23,-1,-1,-1,-1,-1,-1,-1,-1,-1,-1,-1,-1],"loss_changes":[1.9185326E1,9.843626E-1,6.2549963E0,0E0,4.754262E-1,6.239435E0,3.5465984E0,2.8567886E-1,1.2212541E0,8.202083E0,1.5637642E-1,2.677895E0,2.7396202E-1,0E0,0E0,0E0,0E0,0E0,0E0,0E0,0E0,0E0,0E0,0E0,0E0],"parents":[2147483647,0,0,1,1,2,2,4,4,5,5,6,6,7,7,8,8,9,9,10,10,11,11,12,12],"right_children":[2,4,6,-1,8,10,12,14,16,18,20,22,24,-1,-1,-1,-1,-1,-1,-1,-1,-1,-1,-1,-1],"split_conditions":[5.26E0,1.88E0,6E2,-1.784814E-2,2.2534E4,2.8768134E0,8.21E0,2.13E0,9.471008E-2,6E2,7.54E0,8.21E0,2.75E2,-1.0021112E-2,-2.8089473E-3,-9.492174E-3,-3.3854082E-2,-7.409478E-3,-9.441098E-2,4.0536504E-3,1.500714E-2,1.195972E-2,-4.7004417E-2,5.814616E-3,2.8295768E-2],"split_indices":[1,16,31,0,33,7,11,3,10,4,0,0,32,0,0,0,0,0,0,0,0,0,0,0,0],"split_type":[0,0,0,0,0,0,0,0,0,0,0,0,0,0,0,0,0,0,0,0,0,0,0,0,0],"sum_hessian":[3.33E2,1.6E2,1.73E2,4.4E1,1.16E2,2.8E1,1.45E2,5.9E1,5.7E1,1.2E1,1.6E1,9.6E1,4.9E1,2.2E1,3.7E1,5.2E1,5E0,9E0,3E0,6E0,1E1,9.5E1,1E0,2E0,4.7E1],"tree_param":{"num_deleted":"0","num_feature":"36","num_nodes":"25","size_leaf_vector":"1"}},{"base_weights":[-2.526911E-2,-1.7139724E-1,2.4367218E-1,-2.1080962E-1,3.3689636E-1,-2.9640362E-1,2.85645E-1,-1.8662629E-1,-8.7638095E-2,1.0631459E-2,5.3159213E-1,2.804712E-1,-1.22785054E-1,-4.5829307E-2,3.050837E-1,-1.072305E-2,9.924828E-3,7.307116E-3,-3.6400675E-3,2.9027391E-2,2.2747756E-3,-6.262387E-2,3.391946E-2,-3.367532E-3,1.826156E-2],"categories":[],"categories_nodes":[],"categories_segments":[],"categories_sizes":[],"default_left":[0,0,0,0,0,0,0,0,0,0,0,0,0,0,0,0,0,0,0,0,0,0,0,0,0],"id":52,"left_children":[1,3,5,7,9,11,13,15,-1,17,19,21,-1,-1,23,-1,-1,-1,-1,-1,-1,-1,-1,-1,-1],"loss_changes":[1.3167927E1,4.4181952E0,2.75955E0,7.2053757E0,1.0107069E0,1.1899552E1,2.8503122E0,2.1865277E0,0E0,8.978173E-2,2.1155953E-1,5.7295704E0,0E0,0E0,2.4663067E0,0E0,0E0,0E0,0E0,0E0,0E0,0E0,0E0,0E0,0E0],"parents":[2147483647,0,0,1,1,2,2,3,3,4,4,5,5,6,6,7,7,9,9,10,10,11,11,14,14],"right_children":[2,4,6,8,10,12,14,16,-1,18,20,22,-1,-1,24,-1,-1,-1,-1,-1,-1,-1,-1,-1,-1],"split_conditions":[7.25E0,5.659567E-2,-9.3516415E-1,7.12E0,5.35E0,-9.47798E-1,3.1E1,6.88E0,-8.7638095E-2,5.194E3,1.3802329E0,5.5E2,-1.22785054E-1,-4.5829307E-2,6.2E2,-1.072305E-2,9.924828E-3,7.307116E-3,-3.6400675E-3,2.9027391E-2,2.2747756E-3,-6.262387E-2,3.391946E-2,-3.367532E-3,1.826156E-2],"split_indices":[11,5,7,2,13,7,32,25,0,33,7,31,0,0,35,0,0,0,0,0,0,0,0,0,0],"split_type":[0,0,0,0,0,0,0,0,0,0,0,0,0,0,0,0,0,0,0,0,0,0,0,0,0],"sum_hessian":[3.33E2,2.16E2,1.17E2,2.01E2,1.5E1,8E0,1.09E2,1.99E2,2E0,6E0,9E0,7E0,1E0,1E0,1.08E2,1.86E2,1.3E1,2E0,4E0,8E0,1E0,1E0,6E0,1.5E1,9.3E1],"tree_param":{"num_deleted":"0","num_feature":"36","num_nodes":"25","size_leaf_vector":"1"}},{"base_weights":[-6.538913E-3,-1.6127288E-1,2.4807614E-1,-1.468276E-1,-7.734167E-2,-6.616515E-1,2.7609956E-1,-2.4015313E-1,2.630851E-2,-6.568789E-2,3.236668E-2,-4.3649554E-1,3.1057778E-1,-1.1355317E-2,-4.873209E-2,-3.508598E-2,2.856694E-3,3.747496E-2,-9.361617E-2,-1.0986256E-2,1.7075045E-2],"categories":[],"categories_nodes":[],"categories_segments":[],"categories_sizes":[],"default_left":[0,0,0,0,0,0,0,0,0,0,0,0,0,0,0,0,0,0,0,0,0],"id":53,"left_children":[1,3,5,7,-1,9,11,13,15,-1,-1,17,19,-1,-1,-1,-1,-1,-1,-1,-1],"loss_changes":[1.2923022E1,3.855906E0,3.3438983E0,3.286396E0,0E0,4.264829E0,3.1084146E0,1.0435715E0,1.6558969E0,0E0,0E0,1.1620609E1,1.9772758E0,0E0,0E0,0E0,0E0,0E0,0E0,0E0,0E0],"parents":[2147483647,0,0,1,1,2,2,3,3,5,5,6,6,7,7,8,8,11,11,12,12],"right_children":[2,4,6,8,-1,10,12,14,16,-1,-1,18,20,-1,-1,-1,-1,-1,-1,-1,-1],"split_conditions":[7.27E0,7.12E0,7.1E1,3.84E0,-7.734167E-2,8.39E0,2.04E2,3.55E0,1.6733201E-2,-6.568789E-2,3.236668E-2,8.24E2,-9.3516415E-1,-1.1355317E-2,-4.873209E-2,-3.508598E-2,2.856694E-3,3.747496E-2,-9.361617E-2,-1.0986256E-2,1.7075045E-2],"split_indices":[1,2,4,0,0,0,34,0,10,0,0,4,7,0,0,0,0,0,0,0,0],"split_type":[0,0,0,0,0,0,0,0,0,0,0,0,0,0,0,0,0,0,0,0,0],"sum_hessian":[3.26E2,2.03E2,1.23E2,2.02E2,1E0,3E0,1.2E2,1.31E2,7.1E1,2E0,1E0,5E0,1.15E2,1.3E2,1E0,2E0,6.9E1,3E0,2E0,6E0,1.09E2],"tree_param":{"num_deleted":"0","num_feature":"36","num_nodes":"21","size_leaf_vector":"1"}},{"base_weights":[-1.9960502E-2,-1.6584638E-1,1.9043356E-1,-1.3954768E-1,-9.05607E-2,-5.3961206E-2,2.1743758E-1,-1.6705158E-1,3.832294E-1,-4.7667906E-1,2.6529166E-1,-7.473214E-3,-3.8515087E-2,6.890259E-3,2.6193902E-2,-1.0496097E-1,1.433962E-2,-1.4369446E-2,1.5259852E-2],"categories":[],"categories_nodes":[],"categories_segments":[],"categories_sizes":[],"default_left":[0,0,0,0,0,0,0,0,0,0,0,0,0,0,0,0,0,0,0],"id":54,"left_children":[1,3,5,7,-1,-1,9,11,13,15,17,-1,-1,-1,-1,-1,-1,-1,-1],"loss_changes":[1.0191139E1,8.228372E0,4.8975425E0,2.8534315E0,0E0,0E0,4.5774436E0,1.8476334E0,2.729926E-1,1.175091E1,2.8666306E0,0E0,0E0,0E0,0E0,0E0,0E0,0E0,0E0],"parents":[2147483647,0,0,1,1,2,2,3,3,6,6,7,7,8,8,9,9,10,10],"right_children":[2,4,6,8,-1,-1,10,12,14,16,18,-1,-1,-1,-1,-1,-1,-1,-1],"split_conditions":[6.78E0,6.8E0,6.1E1,6.46E0,-9.05607E-2,-5.3961206E-2,2.04E2,6.48E0,-1.4781968E-3,6E2,-9.3516415E-1,-7.473214E-3,-3.8515087E-2,6.890259E-3,2.6193902E-2,-1.0496097E-1,1.433962E-2,-1.4369446E-2,1.5259852E-2],"split_indices":[16,14,32,0,0,0,34,19,5,35,7,0,0,0,0,0,0,0,0],"split_type":[0,0,0,0,0,0,0,0,0,0,0,0,0,0,0,0,0,0,0],"sum_hessian":[3.3E2,1.95E2,1.35E2,1.93E2,2E0,2E0,1.33E2,1.84E2,9E0,8E0,1.25E2,1.8E2,4E0,4E0,5E0,2E0,6E0,8E0,1.17E2],"tree_param":{"num_deleted":"0","num_feature":"36","num_nodes":"19","size_leaf_vector":"1"}},{"base_weights":[-4.964972E-3,-1.14771046E-1,3.21928E-1,-1.4456108E-1,3.3552894E-1,-4.376142E-2,3.4659925E-1,-1.2467076E-1,-7.8313184E-1,2.067164E-2,5.223762E-1,-4.5504004E-2,4.3249854E-1,-1.2341683E-2,-1.983485E-3,-6.678637E-2,-1.4747406E-2,7.217423E-3,-2.8834392E-3,1.9032479E-3,2.8597955E-2,-6.0566396E-2,1.5835568E-2,2.5533548E-2,1.211408E-2],"categories":[],"categories_nodes":[],"categories_segments":[],"categories_sizes":[],"default_left":[0,0,0,0,0,0,0,0,0,0,0,0,0,0,0,0,0,0,0,0,0,0,0,0,0],"id":55,"left_children":[1,3,5,7,9,-1,11,13,15,17,19,21,23,-1,-1,-1,-1,-1,-1,-1,-1,-1,-1,-1,-1],"loss_changes":[1.2133508E1,3.442361E0,2.813857E0,2.9252954E0,9.304851E-1,0E0,2.848917E0,2.3992903E0,1.4944062E0,7.614666E-2,2.18364E-1,7.1401105E0,9.0228367E-1,0E0,0E0,0E0,0E0,0E0,0E0,0E0,0E0,0E0,0E0,0E0,0E0],"parents":[2147483647,0,0,1,1,2,2,3,3,4,4,6,6,7,7,8,8,9,9,10,10,11,11,12,12],"right_children":[2,4,6,8,10,-1,12,14,16,18,20,22,24,-1,-1,-1,-1,-1,-1,-1,-1,-1,-1,-1,-1],"split_conditions":[7.91E0,5.659567E-2,3.1E1,5.0353885E-2,5.35E0,-4.376142E-2,7.19E2,2.1E0,2.7969595E-2,5.194E3,-7.319322E-1,3.9E2,2.3366487E-2,-1.2341683E-2,-1.983485E-3,-6.678637E-2,-1.4747406E-2,7.217423E-3,-2.8834392E-3,1.9032479E-3,2.8597955E-2,-6.0566396E-2,1.5835568E-2,2.5533548E-2,1.211408E-2],"split_indices":[1,5,32,5,13,0,31,3,6,33,7,34,6,0,0,0,0,0,0,0,0,0,0,0,0],"split_type":[0,0,0,0,0,0,0,0,0,0,0,0,0,0,0,0,0,0,0,0,0,0,0,0,0],"sum_hessian":[3.36E2,2.52E2,8.4E1,2.37E2,1.5E1,1E0,8.3E1,2.31E2,6E0,6E0,9E0,1.5E1,6.8E1,9.4E1,1.37E2,2E0,4E0,2E0,4E0,1E0,8E0,3E0,1.2E1,4.7E1,2.1E1],"tree_param":{"num_deleted":"0","num_feature":"36","num_nodes":"25","size_leaf_vector":"1"}},{"base_weights":[-1.352041E-2,-1.7684244E-1,1.8058376E-1,-1.574143E-1,-6.256018E-2,-6.845127E-1,2.216683E-1,-1.9404586E-1,1.0616179E-1,-6.760972E-2,1.5429711E-1,-1.7543662E-1,2.6957464E-1,-1.4760077E-2,-7.609998E-3,2.536352E-3,1.714682E-2,8.83902E-3,2.1711828E-3,-7.459338E-2,1.93848E-2,9.901244E-3,2.2701735E-2],"categories":[],"categories_nodes":[],"categories_segments":[],"categories_sizes":[],"default_left":[0,0,0,0,0,0,0,0,0,0,0,0,0,0,0,0,0,0,0,0,0,0,0],"id":56,"left_children":[1,3,5,7,-1,9,11,13,15,-1,17,19,21,-1,-1,-1,-1,-1,-1,-1,-1,-1,-1],"loss_changes":[1.0334919E1,3.4975367E0,5.4475074E0,1.7102609E0,0E0,4.129045E0,2.7677016E0,6.0694456E-1,2.7136576E-1,0E0,2.2947416E-3,1.2439593E1,1.5994434E0,0E0,0E0,0E0,0E0,0E0,0E0,0E0,0E0,0E0,0E0],"parents":[2147483647,0,0,1,1,2,2,3,3,5,5,6,6,7,7,8,8,10,10,11,11,12,12],"right_children":[2,4,6,8,-1,10,12,14,16,-1,18,20,22,-1,-1,-1,-1,-1,-1,-1,-1,-1,-1],"split_conditions":[6.11E0,6.3E0,2E2,5.11E0,-6.256018E-2,9.92E2,3.9E2,1.83E0,2.4121474E-2,-6.760972E-2,7.87E0,6E2,1.6713481E-2,-1.4760077E-2,-7.609998E-3,2.536352E-3,1.714682E-2,8.83902E-3,2.1711828E-3,-7.459338E-2,1.93848E-2,9.901244E-3,2.2701735E-2],"split_indices":[3,9,32,3,0,31,34,28,6,0,0,35,5,0,0,0,0,0,0,0,0,0,0],"split_type":[0,0,0,0,0,0,0,0,0,0,0,0,0,0,0,0,0,0,0,0,0,0,0],"sum_hessian":[3.24E2,1.76E2,1.48E2,1.74E2,2E0,6E0,1.42E2,1.53E2,2.1E1,3E0,3E0,1.5E1,1.27E2,4.3E1,1.1E2,1.8E1,3E0,2E0,1E0,4E0,1.1E1,9.3E1,3.4E1],"tree_param":{"num_deleted":"0","num_feature":"36","num_nodes":"23","size_leaf_vector":"1"}},{"base_weights":[-7.002391E-3,-1.6965403E-1,1.8280274E-1,-1.5138079E-1,-6.047484E-2,1.01608396E-1,4.0076813E-1,-1.9933341E-1,6.0341414E-3,1.6558209E-1,-1.17096834E-1,3.271933E-1,3.609502E-2,-9.20777E-3,-4.1047916E-2,-1.1414161E-3,1.1497727E-2,-1.0507091E-2,1.1261757E-2,3.5983883E-2,1.4146949E-2],"categories":[],"categories_nodes":[],"categories_segments":[],"categories_sizes":[],"default_left":[0,0,0,0,0,0,0,0,0,0,0,0,0,0,0,0,0,0,0,0,0],"id":57,"left_children":[1,3,5,7,-1,9,11,13,15,17,-1,19,-1,-1,-1,-1,-1,-1,-1,-1,-1],"loss_changes":[1.0434916E1,3.2751398E0,2.720097E0,1.3599253E0,0E0,1.836488E1,7.5614357E-1,1.1508493E0,2.8315392E-1,2.5800097E0,0E0,4.2166376E-1,0E0,0E0,0E0,0E0,0E0,0E0,0E0,0E0,0E0],"parents":[2147483647,0,0,1,1,2,2,3,3,5,5,6,6,7,7,8,8,9,9,11,11],"right_children":[2,4,6,8,-1,10,12,14,16,18,-1,20,-1,-1,-1,-1,-1,-1,-1,-1,-1],"split_conditions":[6.19E0,6.34E0,9E0,3.84E0,-6.047484E-2,8.79E0,2.558906E-1,2.75E0,5.7059556E-2,6E2,-1.17096834E-1,9.07E0,3.609502E-2,-9.20777E-3,-4.1047916E-2,-1.1414161E-3,1.1497727E-2,-1.0507091E-2,1.1261757E-2,3.5983883E-2,1.4146949E-2],"split_indices":[3,12,14,0,0,14,10,3,5,31,0,24,0,0,0,0,0,0,0,0,0],"split_type":[0,0,0,0,0,0,0,0,0,0,0,0,0,0,0,0,0,0,0,0,0],"sum_hessian":[3.36E2,1.81E2,1.55E2,1.79E2,2E0,1.14E2,4.1E1,1.37E2,4.2E1,1.12E2,2E0,3.5E1,6E0,1.35E2,2E0,3.8E1,4E0,1.5E1,9.7E1,2E0,3.3E1],"tree_param":{"num_deleted":"0","num_feature":"36","num_nodes":"21","size_leaf_vector":"1"}},{"base_weights":[-1.7586155E-2,-1.1900377E-1,2.0672265E-1,-1.0425499E-1,-8.4093384E-2,-3.097272E-1,3.015047E-1,-2.2030786E-1,-1.9120846E-2,-1.3288984E0,2.743414E-1,-4.125869E-2,3.2474104E-1,-1.4052329E-2,-8.23885E-3,-3.8241707E-2,5.5512186E-4,9.084574E-3,-1.06480815E-1,2.2569716E-3,1.7732486E-2,7.1783536E-3,2.0638216E-2],"categories":[],"categories_nodes":[],"categories_segments":[],"categories_sizes":[],"default_left":[0,0,0,0,0,0,0,0,0,0,0,0,0,0,0,0,0,0,0,0,0,0,0],"id":58,"left_children":[1,3,5,7,-1,9,11,13,15,17,19,-1,21,-1,-1,-1,-1,-1,-1,-1,-1,-1,-1],"loss_changes":[7.3042374E0,4.9187813E0,4.9884024E0,2.1694007E0,0E0,9.888827E0,2.4932566E0,2.6736736E-1,2.8933432E0,7.64427E0,1.8646628E-1,0E0,1.2803326E0,0E0,0E0,0E0,0E0,0E0,0E0,0E0,0E0,0E0,0E0],"parents":[2147483647,0,0,1,1,2,2,3,3,5,5,6,6,7,7,8,8,9,9,10,10,12,12],"right_children":[2,4,6,8,-1,10,12,14,16,18,20,-1,22,-1,-1,-1,-1,-1,-1,-1,-1,-1,-1],"split_conditions":[7.49E0,7.62E0,6.204837E-2,2.08E0,-8.4093384E-2,6.2E2,3.1E1,1.61E0,-6.016852E-2,7.87E0,7.99E0,-4.125869E-2,8.17E0,-1.4052329E-2,-8.23885E-3,-3.8241707E-2,5.5512186E-4,9.084574E-3,-1.06480815E-1,2.2569716E-3,1.7732486E-2,7.1783536E-3,2.0638216E-2],"split_indices":[2,26,10,3,0,4,32,12,5,3,20,0,3,0,0,0,0,0,0,0,0,0,0],"split_type":[0,0,0,0,0,0,0,0,0,0,0,0,0,0,0,0,0,0,0,0,0,0,0],"sum_hessian":[3.19E2,2.2E2,9.9E1,2.19E2,1E0,1.5E1,8.4E1,9.2E1,1.27E2,5E0,1E1,1E0,8.3E1,4.2E1,5E1,4E0,1.23E2,2E0,3E0,3E0,7E0,2.8E1,5.5E1],"tree_param":{"num_deleted":"0","num_feature":"36","num_nodes":"23","size_leaf_vector":"1"}},{"base_weights":[-3.5692544E-3,-1.2957403E-1,2.0121638E-1,-1.1590868E-1,-7.3957495E-2,-4.669668E-2,2.2664681E-1,-1.3857546E-1,2.639745E-1,-1.7805651E-1,2.8713143E-1,-2.9050147E-2,-6.077308E-3,1.7636392E-2,3.4587122E-3,-9.017162E-2,7.944455E-3,-1.6463114E-2,1.5674893E-2],"categories":[],"categories_nodes":[],"categories_segments":[],"categories_sizes":[],"default_left":[0,0,0,0,0,0,0,0,0,0,0,0,0,0,0,0,0,0,0],"id":59,"left_children":[1,3,5,7,-1,-1,9,11,13,15,17,-1,-1,-1,-1,-1,-1,-1,-1],"loss_changes":[8.670402E0,3.6645753E0,3.906694E0,1.8190012E0,0E0,0E0,3.1353946E0,1.4060912E0,1.8307036E-1,9.596821E0,1.8909521E0,0E0,0E0,0E0,0E0,0E0,0E0,0E0,0E0],"parents":[2147483647,0,0,1,1,2,2,3,3,6,6,7,7,8,8,9,9,10,10],"right_children":[2,4,6,8,-1,-1,10,12,14,16,18,-1,-1,-1,-1,-1,-1,-1,-1],"split_conditions":[7.25E0,7.12E0,6.1E1,5.659567E-2,-7.3957495E-2,-4.669668E-2,5E2,-6.016852E-2,1.0002E4,4.85E2,1.66E2,-2.9050147E-2,-6.077308E-3,1.7636392E-2,3.4587122E-3,-9.017162E-2,7.944455E-3,-1.6463114E-2,1.5674893E-2],"split_indices":[3,2,32,5,0,0,33,5,35,35,31,0,0,0,0,0,0,0,0],"split_type":[0,0,0,0,0,0,0,0,0,0,0,0,0,0,0,0,0,0,0],"sum_hessian":[3.34E2,2.07E2,1.27E2,2.06E2,1E0,2E0,1.25E2,1.95E2,1.1E1,1.6E1,1.09E2,6E0,1.89E2,7E0,4E0,2E0,1.4E1,4E0,1.05E2],"tree_param":{"num_deleted":"0","num_feature":"36","num_nodes":"19","size_leaf_vector":"1"}},{"base_weights":[9.345228E-3,-1.5612343E-1,1.543102E-1,-2.5000432E-1,-1.1208373E-1,7.8468084E-2,3.640304E-1,-3.9458472E-1,-2.2838417E-1,-4.660976E-2,-1.79149E-1,6.210928E-1,4.76995E-2,4.19527E-1,-1.3025352E-2,-2.5979329E-2,-6.9027306E-3,-1.6154299E-2,-1.0423466E-2,-6.263122E-3,2.8284392E-5,-5.8398563E-3,-2.8610228E-2,1.5019787E-2,3.9325833E-2,-6.380288E-2,4.5180353E-3,1.5981764E-2,3.0504553E-2,-3.7750364E-3,9.045673E-3],"categories":[],"categories_nodes":[],"categories_segments":[],"categories_sizes":[],"default_left":[0,0,0,0,0,0,0,0,0,0,0,0,0,0,0,0,0,0,0,0,0,0,0,0,0,0,0,0,0,0,0],"id":60,"left_children":[1,3,5,7,9,11,13,15,17,19,21,23,25,27,29,-1,-1,-1,-1,-1,-1,-1,-1,-1,-1,-1,-1,-1,-1,-1,-1],"loss_changes":[8.011815E0,6.169584E-1,2.8026361E0,6.3049555E-2,4.65881E-1,2.174219E0,9.8895454E-1,8.860242E-2,1.751542E-2,2.0785749E-1,1.2320786E0,1.3509035E-1,7.230913E0,5.854597E-1,9.847389E-2,0E0,0E0,0E0,0E0,0E0,0E0,0E0,0E0,0E0,0E0,0E0,0E0,0E0,0E0,0E0,0E0],"parents":[2147483647,0,0,1,1,2,2,3,3,4,4,5,5,6,6,7,7,8,8,9,9,10,10,11,11,12,12,13,13,14,14],"right_children":[2,4,6,8,10,12,14,16,18,20,22,24,26,28,30,-1,-1,-1,-1,-1,-1,-1,-1,-1,-1,-1,-1,-1,-1,-1,-1],"split_conditions":[5.26E0,1.94E0,2.1042813E-1,1.255E3,2.2534E4,1.82E2,1.5127E4,1.0954451E-2,5.6E-1,2.13E0,2.29E0,8.34E2,2.04E2,6.458E3,3.5384692E-2,-2.5979329E-2,-6.9027306E-3,-1.6154299E-2,-1.0423466E-2,-6.263122E-3,2.8284392E-5,-5.8398563E-3,-2.8610228E-2,1.5019787E-2,3.9325833E-2,-6.380288E-2,4.5180353E-3,1.5981764E-2,3.0504553E-2,-3.7750364E-3,9.045673E-3],"split_indices":[1,3,10,35,33,34,35,10,0,3,0,32,34,35,6,0,0,0,0,0,0,0,0,0,0,0,0,0,0,0,0],"split_type":[0,0,0,0,0,0,0,0,0,0,0,0,0,0,0,0,0,0,0,0,0,0,0,0,0,0,0,0,0,0,0],"sum_hessian":[3.32E2,1.55E2,1.77E2,4.8E1,1.07E2,1.31E2,4.6E1,4E0,4.4E1,5.5E1,5.2E1,6E0,1.25E2,4E1,6E0,2E0,2E0,5E0,3.9E1,2E1,3.5E1,4.6E1,6E0,3E0,3E0,3E0,1.22E2,2.8E1,1.2E1,5E0,1E0],"tree_param":{"num_deleted":"0","num_feature":"36","num_nodes":"31","size_leaf_vector":"1"}},{"base_weights":[-1.5023795E-2,-9.560965E-2,2.1742983E-1,-6.818464E-1,-7.550249E-2,-3.2526064E-1,3.0249545E-1,-8.335574E-2,-7.557117E-2,-1.2973486E-1,1.1624701E-1,6.2925816E-2,-1.1488279E-1,-3.9172754E-2,3.2810375E-1,-1.6475825E-2,6.68903E-3,-5.650744E-3,-4.311202E-2,-2.8270984E-2,8.422771E-3,-5.877316E-2,1.5215552E-2,5.7841334E-3,1.8610014E-2],"categories":[],"categories_nodes":[],"categories_segments":[],"categories_sizes":[],"default_left":[0,0,0,0,0,0,0,0,0,0,0,0,0,0,0,0,0,0,0,0,0,0,0,0,0],"id":61,"left_children":[1,3,5,7,9,11,13,-1,15,17,19,21,-1,-1,23,-1,-1,-1,-1,-1,-1,-1,-1,-1,-1],"loss_changes":[6.1837716E0,2.83647E0,4.0223556E0,4.652765E0,2.4900503E0,9.332467E0,2.3149462E0,0E0,3.6306632E-1,2.1805854E0,1.9814506E0,3.6459234E0,0E0,0E0,6.407366E-1,0E0,0E0,0E0,0E0,0E0,0E0,0E0,0E0,0E0,0E0],"parents":[2147483647,0,0,1,1,2,2,3,3,4,4,5,5,6,6,8,8,9,9,10,10,11,11,14,14],"right_children":[2,4,6,8,10,12,14,-1,16,18,20,22,-1,-1,24,-1,-1,-1,-1,-1,-1,-1,-1,-1,-1],"split_conditions":[7.92E0,2.5E2,6.204837E-2,1.577E3,6.48E0,7.524E3,3.1E1,-8.335574E-2,3.2093614E-2,6.16E0,-8.886488E-1,1.3277037E-2,-1.1488279E-1,-3.9172754E-2,7.71E0,-1.6475825E-2,6.68903E-3,-5.650744E-3,-4.311202E-2,-2.8270984E-2,8.422771E-3,-5.877316E-2,1.5215552E-2,5.7841334E-3,1.8610014E-2],"split_indices":[1,33,10,32,1,31,32,0,10,26,7,6,0,0,20,0,0,0,0,0,0,0,0,0,0],"split_type":[0,0,0,0,0,0,0,0,0,0,0,0,0,0,0,0,0,0,0,0,0,0,0,0,0],"sum_hessian":[3.28E2,2.44E2,8.4E1,7E0,2.37E2,1.1E1,7.3E1,2E0,5E0,1.85E2,5.2E1,1E1,1E0,1E0,7.2E1,2E0,3E0,1.82E2,3E0,3E0,4.9E1,1E0,9E0,1.3E1,5.9E1],"tree_param":{"num_deleted":"0","num_feature":"36","num_nodes":"25","size_leaf_vector":"1"}},{"base_weights":[-3.6529187E-2,-1.23338394E-1,1.4473234E-1,-1.1018987E-1,-7.60578E-2,-4.4778224E-2,1.730767E-1,-7.813982E-1,-9.7427204E-2,-4.049409E-1,2.1849573E-1,1.2777674E-2,-6.061166E-2,-6.1956984E-3,1.0261289E-2,2.7537609E-2,-1.09067336E-1,-1.5238724E-2,1.2200241E-2],"categories":[],"categories_nodes":[],"categories_segments":[],"categories_sizes":[],"default_left":[0,0,0,0,0,0,0,0,0,0,0,0,0,0,0,0,0,0,0],"id":62,"left_children":[1,3,5,7,-1,-1,9,11,13,15,17,-1,-1,-1,-1,-1,-1,-1,-1],"loss_changes":[5.194721E0,3.9309556E0,3.3100624E0,1.8256123E0,0E0,0E0,2.8450422E0,2.0968108E0,1.7809994E0,1.4782972E1,1.3824854E0,0E0,0E0,0E0,0E0,0E0,0E0,0E0,0E0],"parents":[2147483647,0,0,1,1,2,2,3,3,6,6,7,7,8,8,9,9,10,10],"right_children":[2,4,6,8,-1,-1,10,12,14,16,18,-1,-1,-1,-1,-1,-1,-1,-1],"split_conditions":[7.49E0,7.89E0,6.1E1,1.66E2,-7.60578E-2,-4.4778224E-2,-9.3516415E-1,9.96E2,7.27E0,4.08E3,1.66E2,1.2777674E-2,-6.061166E-2,-6.1956984E-3,1.0261289E-2,2.7537609E-2,-1.09067336E-1,-1.5238724E-2,1.2200241E-2],"split_indices":[2,20,32,34,0,0,7,4,1,32,31,0,0,0,0,0,0,0,0],"split_type":[0,0,0,0,0,0,0,0,0,0,0,0,0,0,0,0,0,0,0],"sum_hessian":[3.28E2,2.22E2,1.06E2,2.21E2,1E0,2E0,1.04E2,3E0,2.18E2,7E0,9.7E1,1E0,2E0,2.01E2,1.7E1,5E0,2E0,4E0,9.3E1],"tree_param":{"num_deleted":"0","num_feature":"36","num_nodes":"19","size_leaf_vector":"1"}},{"base_weights":[-1.6691562E-2,-1.24441944E-1,1.3942982E-1,-9.161097E-2,-8.305054E-2,-5.114537E-2,1.6479029E-1,-1.14767075E-1,3.3899134E-1,-3.707398E-2,1.7736854E-1,-2.6569208E-2,-4.8772497E-3,4.9387156E-3,2.1391546E-2,7.315365E-3,2.5145883E-2],"categories":[],"categories_nodes":[],"categories_segments":[],"categories_sizes":[],"default_left":[0,0,0,0,0,0,0,0,0,0,0,0,0,0,0,0,0],"id":63,"left_children":[1,3,5,7,-1,-1,9,11,13,-1,15,-1,-1,-1,-1,-1,-1],"loss_changes":[5.5181904E0,9.634563E0,4.1185384E0,1.9433802E0,0E0,0E0,1.63622E0,1.2540188E0,1.711489E-1,0E0,1.2510853E0,0E0,0E0,0E0,0E0,0E0,0E0],"parents":[2147483647,0,0,1,1,2,2,3,3,6,6,7,7,8,8,10,10],"right_children":[2,4,6,8,-1,-1,10,12,14,-1,16,-1,-1,-1,-1,-1,-1],"split_conditions":[6.79E0,6.92E0,7.1E1,6.4E0,-8.305054E-2,-5.114537E-2,3.1E1,-6.016852E-2,6.208E0,-3.707398E-2,9.39E0,-2.6569208E-2,-4.8772497E-3,4.9387156E-3,2.1391546E-2,7.315365E-3,2.5145883E-2],"split_indices":[12,24,4,3,0,0,32,5,8,0,26,0,0,0,0,0,0],"split_type":[0,0,0,0,0,0,0,0,0,0,0,0,0,0,0,0,0],"sum_hessian":[3.26E2,1.93E2,1.33E2,1.9E2,3E0,2E0,1.31E2,1.81E2,9E0,1E0,1.3E2,6E0,1.75E2,3E0,6E0,1.2E2,1E1],"tree_param":{"num_deleted":"0","num_feature":"36","num_nodes":"17","size_leaf_vector":"1"}},{"base_weights":[-1.6109366E-2,-1.1907116E-1,1.2622714E-1,-8.712578E-2,-7.993615E-2,-1.9762583E-1,1.760369E-1,-1.13713644E-1,3.5345194E-1,-7.408317E-2,1.3573515E-1,7.2315156E-1,1.4120351E-1,-3.0940121E-2,-4.7821635E-3,-2.1135807E-4,2.1670295E-2,-2.6575817E-2,1.0782651E-2,3.857479E-2,1.082716E-2,-4.032233E-2,8.255638E-3],"categories":[],"categories_nodes":[],"categories_segments":[],"categories_sizes":[],"default_left":[0,0,0,0,0,0,0,0,0,0,0,0,0,0,0,0,0,0,0,0,0,0,0],"id":64,"left_children":[1,3,5,7,-1,9,11,13,15,-1,17,19,21,-1,-1,-1,-1,-1,-1,-1,-1,-1,-1],"loss_changes":[4.8512535E0,8.936175E0,2.277003E0,2.2541428E0,0E0,8.334026E0,2.2038891E0,1.5745754E0,3.164084E-1,0E0,9.6782804E-1,4.3787956E-3,2.7387803E0,0E0,0E0,0E0,0E0,0E0,0E0,0E0,0E0,0E0,0E0],"parents":[2147483647,0,0,1,1,2,2,3,3,5,5,6,6,7,7,8,8,10,10,11,11,12,12],"right_children":[2,4,6,8,-1,10,12,14,16,-1,18,20,22,-1,-1,-1,-1,-1,-1,-1,-1,-1,-1],"split_conditions":[6.79E0,6.73E0,5.92E2,6.4E0,-7.993615E-2,3.9E2,1.82E2,-6.016852E-2,1.226E3,-7.408317E-2,7.1E1,8.28E0,2.04E2,-3.0940121E-2,-4.7821635E-3,-2.1135807E-4,2.1670295E-2,-2.6575817E-2,1.0782651E-2,3.857479E-2,1.082716E-2,-4.032233E-2,8.255638E-3],"split_indices":[12,19,31,3,0,34,34,5,35,0,4,0,34,0,0,0,0,0,0,0,0,0,0],"split_type":[0,0,0,0,0,0,0,0,0,0,0,0,0,0,0,0,0,0,0,0,0,0,0],"sum_hessian":[3.29E2,1.91E2,1.38E2,1.88E2,3E0,1.8E1,1.2E2,1.78E2,1E1,3E0,1.5E1,6E0,1.14E2,5E0,1.73E2,2E0,8E0,1E0,1.4E1,5E0,1E0,2E0,1.12E2],"tree_param":{"num_deleted":"0","num_feature":"36","num_nodes":"23","size_leaf_vector":"1"}},{"base_weights":[-1.3832891E-2,-1.017393E-1,1.3543317E-1,-8.91681E-2,-6.728517E-2,-4.04051E-1,1.7178482E-1,-2.673861E-1,-4.5947213E-2,-1.2772152E0,3.942085E-2,-3.635352E-2,1.8604733E-1,-1.103917E-2,-5.2122284E-2,-2.4104524E-2,-1.3349537E-3,-8.510419E-2,1.0556484E-2,6.770339E-3,2.086438E-2],"categories":[],"categories_nodes":[],"categories_segments":[],"categories_sizes":[],"default_left":[0,0,0,0,0,0,0,0,0,0,0,0,0,0,0,0,0,0,0,0,0],"id":65,"left_children":[1,3,5,7,-1,9,11,13,15,17,-1,-1,19,-1,-1,-1,-1,-1,-1,-1,-1],"loss_changes":[4.3176126E0,3.1170971E0,2.4619694E0,1.5744791E0,0E0,9.3367405E0,1.609561E0,1.2146397E0,1.3890843E0,3.5211153E0,0E0,0E0,1.2784522E0,0E0,0E0,0E0,0E0,0E0,0E0,0E0,0E0],"parents":[2147483647,0,0,1,1,2,2,3,3,5,5,6,6,7,7,8,8,9,9,12,12],"right_children":[2,4,6,8,-1,10,12,14,16,18,-1,-1,20,-1,-1,-1,-1,-1,-1,-1,-1],"split_conditions":[7.25E0,7.12E0,2.04E2,1.6733201E-2,-6.728517E-2,1.16E3,3.1E1,2.1E0,-6.016852E-2,9.15E0,3.942085E-2,-3.635352E-2,2.519025E-2,-1.103917E-2,-5.2122284E-2,-2.4104524E-2,-1.3349537E-3,-8.510419E-2,1.0556484E-2,6.770339E-3,2.086438E-2],"split_indices":[3,2,34,10,0,35,32,1,5,1,0,0,5,0,0,0,0,0,0,0,0],"split_type":[0,0,0,0,0,0,0,0,0,0,0,0,0,0,0,0,0,0,0,0,0],"sum_hessian":[3.27E2,2.06E2,1.21E2,2.05E2,1E0,7E0,1.14E2,3.9E1,1.66E2,4E0,3E0,1E0,1.13E2,3.8E1,1E0,6E0,1.6E2,3E0,1E0,9.4E1,1.9E1],"tree_param":{"num_deleted":"0","num_feature":"36","num_nodes":"21","size_leaf_vector":"1"}},{"base_weights":[-9.421387E-3,-1.3688615E-1,8.1768036E-2,-1.2370868E-1,-5.4740405E-1,1.993051E-2,3.1053323E-1,-1.373074E-1,1.2865992E-2,-3.557406E-2,-1.379317E-3,-4.101691E-2,3.64926E-2,3.6909378E-1,-9.258556E-2,-6.165666E-3,-4.8913475E-2,6.063258E-3,-5.683943E-3,1.3550443E-2,2.9850682E-2,-5.035424E-3,-1.299274E-3],"categories":[],"categories_nodes":[],"categories_segments":[],"categories_sizes":[],"default_left":[0,0,0,0,0,0,0,0,0,0,0,0,0,0,0,0,0,0,0,0,0,0,0],"id":66,"left_children":[1,3,5,7,9,11,13,15,-1,-1,-1,-1,17,19,21,-1,-1,-1,-1,-1,-1,-1,-1],"loss_changes":[3.8469272E0,6.7880416E-1,2.7240415E0,7.348349E-1,3.2153356E-1,2.1591768E0,1.0020537E0,1.4210396E0,0E0,0E0,0E0,0E0,1.9360783E0,6.430025E-1,6.289631E-4,0E0,0E0,0E0,0E0,0E0,0E0,0E0,0E0],"parents":[2147483647,0,0,1,1,2,2,3,3,4,4,5,5,6,6,7,7,12,12,13,13,14,14],"right_children":[2,4,6,8,10,12,14,16,-1,-1,-1,-1,18,20,22,-1,-1,-1,-1,-1,-1,-1,-1],"split_conditions":[3.87E0,2.75E0,2.3360223E-1,2.54E0,3.84E0,6.1E1,1.5127E4,2.29E0,1.2865992E-2,-3.557406E-2,-1.379317E-3,-4.101691E-2,4.082E3,8.12E0,3.7919234E-2,-6.165666E-3,-4.8913475E-2,6.063258E-3,-5.683943E-3,1.3550443E-2,2.9850682E-2,-5.035424E-3,-1.299274E-3],"split_indices":[0,3,10,0,0,32,35,0,0,0,0,0,32,20,5,0,0,0,0,0,0,0,0],"split_type":[0,0,0,0,0,0,0,0,0,0,0,0,0,0,0,0,0,0,0,0,0,0,0],"sum_hessian":[3.29E2,1.37E2,1.92E2,1.34E2,3E0,1.52E2,4E1,1.3E2,4E0,2E0,1E0,2E0,1.5E2,3.5E1,5E0,1.29E2,1E0,9.6E1,5.4E1,2.6E1,9E0,4E0,1E0],"tree_param":{"num_deleted":"0","num_feature":"36","num_nodes":"23","size_leaf_vector":"1"}},{"base_weights":[-1.0423868E-2,-6.4707845E-2,2.3855141E-1,-5.3434007E-2,-5.3452875E-2,-3.7648922E-1,2.7752703E-1,-1.3512963E-1,2.629508E-2,-5.298397E-2,2.044673E-1,3.9123364E-2,2.3498468E-1,-6.082408E-3,-3.4388255E-2,-2.3322297E-2,2.408094E-3,1.4359009E-2,9.76038E-4,2.0271387E-2,7.285775E-3],"categories":[],"categories_nodes":[],"categories_segments":[],"categories_sizes":[],"default_left":[0,0,0,0,0,0,0,0,0,0,0,0,0,0,0,0,0,0,0,0,0],"id":67,"left_children":[1,3,5,7,-1,9,11,13,15,-1,17,-1,19,-1,-1,-1,-1,-1,-1,-1,-1],"loss_changes":[4.5295687E0,3.0566654E0,1.5427821E0,1.7817435E0,0E0,1.8042848E0,1.0405693E0,9.221308E-1,1.5201439E0,0E0,4.0286407E-2,0E0,7.6254964E-1,0E0,0E0,0E0,0E0,0E0,0E0,0E0,0E0],"parents":[2147483647,0,0,1,1,2,2,3,3,5,5,6,6,7,7,8,8,10,10,12,12],"right_children":[2,4,6,8,-1,10,12,14,16,-1,18,-1,20,-1,-1,-1,-1,-1,-1,-1,-1],"split_conditions":[8.2E0,8.242E0,1.66E2,3.84E0,-5.3452875E-2,6.2E2,-9.47798E-1,2.75E0,2E2,-5.298397E-2,8.28E0,3.9123364E-2,9.07E0,-6.082408E-3,-3.4388255E-2,-2.3322297E-2,2.408094E-3,1.4359009E-2,9.76038E-4,2.0271387E-2,7.285775E-3],"split_indices":[26,8,31,0,0,4,7,3,32,0,0,0,1,0,0,0,0,0,0,0,0],