{"learner":{"attributes":{"scikit_learn":"{\"_estimator_type\": \"regressor\"}"},"feature_names":[],"feature_types":[],"gradient_booster":{"model":{"cats":{"enc":[],"feature_segments":[],"sorted_idx":[]},"gbtree_model_param":{"num_parallel_tree":"1","num_trees":"300"},"iteration_indptr":[0,1,2,3,4,5,6,7,8,9,10,11,12,13,14,15,16,17,18,19,20,21,22,23,24,25,26,27,28,29,30,31,32,33,34,35,36,37,38,39,40,41,42,43,44,45,46,47,48,49,50,51,52,53,54,55,56,57,58,59,60,61,62,63,64,65,66,67,68,69,70,71,72,73,74,75,76,77,78,79,80,81,82,83,84,85,86,87,88,89,90,91,92,93,94,95,96,97,98,99,100,101,102,103,104,105,106,107,108,109,110,111,112,113,114,115,116,117,118,119,120,121,122,123,124,125,126,127,128,129,130,131,132,133,134,135,136,137,138,139,140,141,142,143,144,145,146,147,148,149,150,151,152,153,154,155,156,157,158,159,160,161,162,163,164,165,166,167,168,169,170,171,172,173,174,175,176,177,178,179,180,181,182,183,184,185,186,187,188,189,190,191,192,193,194,195,196,197,198,199,200,201,202,203,204,205,206,207,208,209,210,211,212,213,214,215,216,217,218,219,220,221,222,223,224,225,226,227,228,229,230,231,232,233,234,235,236,237,238,239,240,241,242,243,244,245,246,247,248,249,250,251,252,253,254,255,256,257,258,259,260,261,262,263,264,265,266,267,268,269,270,271,272,273,274,275,276,277,278,279,280,281,282,283,284,285,286,287,288,289,290,291,292,293,294,295,296,297,298,299,300],"tree_info":[0,0,0,0,0,0,0,0,0,0,0,0,0,0,0,0,0,0,0,0,0,0,0,0,0,0,0,0,0,0,0,0,0,0,0,0,0,0,0,0,0,0,0,0,0,0,0,0,0,0,0,0,0,0,0,0,0,0,0,0,0,0,0,0,0,0,0,0,0,0,0,0,0,0,0,0,0,0,0,0,0,0,0,0,0,0,0,0,0,0,0,0,0,0,0,0,0,0,0,0,0,0,0,0,0,0,0,0,0,0,0,0,0,0,0,0,0,0,0,0,0,0,0,0,0,0,0,0,0,0,0,0,0,0,0,0,0,0,0,0,0,0,0,0,0,0,0,0,0,0,0,0,0,0,0,0,0,0,0,0,0,0,0,0,0,0,0,0,0,0,0,0,0,0,0,0,0,0,0,0,0,0,0,0,0,0,0,0,0,0,0,0,0,0,0,0,0,0,0,0,0,0,0,0,0,0,0,0,0,0,0,0,0,0,0,0,0,0,0,0,0,0,0,0,0,0,0,0,0,0,0,0,0,0,0,0,0,0,0,0,0,0,0,0,0,0,0,0,0,0,0,0,0,0,0,0,0,0,0,0,0,0,0,0,0,0,0,0,0,0,0,0,0,0,0,0,0,0,0,0,0,0,0,0,0,0,0,0,0,0,0,0,0,0,0,0,0,0,0,0],"trees":[{"base_weights":[-6.3855955E-3,-5.2613074E-1,2.9044527E-1,-7.6089495E-1,-3.936038E-1,7.3287845E-2,5.5441254E-1,-3.6319964E-2,-1.0825232E0,-4.7080413E-1,-2.6169977E-1,8.196783E-2,-4.6775695E-2,4.454409E-1,3.151985E-2,-7.016354E-2,-1.4700927E-2,-2.5484977E-2,-1.9358704E-2,-1.5446939E-2,-9.349336E-3,1.3879464E-3,1.1318303E-2,1.3337177E-2,2.3673257E-2],"categories":[],"categories_nodes":[],"categories_segments":[],"categories_sizes":[],"default_left":[0,0,0,0,0,0,0,0,0,0,0,0,0,0,0,0,0,0,0,0,0,0,0,0,0],"id":0,"left_children":[1,3,5,7,9,11,13,-1,15,17,19,21,-1,23,-1,-1,-1,-1,-1,-1,-1,-1,-1,-1,-1],"loss_changes":[9.88897E1,6.949745E0,2.3346931E1,1.3452148E-1,1.4144287E0,2.0468674E0,1.2427444E0,0E0,1.104878E0,1.0842323E-1,1.4693594E-1,1.7471142E0,0E0,2.693262E-1,0E0,0E0,0E0,0E0,0E0,0E0,0E0,0E0,0E0,0E0,0E0],"parents":[2147483647,0,0,1,1,2,2,3,3,4,4,5,5,6,6,8,8,9,9,10,10,11,11,13,13],"right_children":[2,4,6,8,10,12,14,-1,16,18,20,22,-1,24,-1,-1,-1,-1,-1,-1,-1,-1,-1,-1,-1],"split_conditions":[1.75E0,1.26E0,2.22E0,3.4641016E-2,1.53E0,1.8083142E-1,2.42E0,-3.6319964E-2,1.79955E5,1.44E0,1.61E0,2.01E0,-4.6775695E-2,2.24E0,3.151985E-2,-7.016354E-2,-1.4700927E-2,-2.5484977E-2,-1.9358704E-2,-1.5446939E-2,-9.349336E-3,1.3879464E-3,1.1318303E-2,1.3337177E-2,2.3673257E-2],"split_indices":[3,20,14,10,1,10,3,0,4,3,3,3,0,3,0,0,0,0,0,0,0,0,0,0,0],"split_type":[0,0,0,0,0,0,0,0,0,0,0,0,0,0,0,0,0,0,0,0,0,0,0,0,0],"sum_hessian":[6.39E2,2.32E2,4.07E2,8.2E1,1.5E2,2.24E2,1.83E2,7.7E1,5E0,9.3E1,5.7E1,2.23E2,1E0,7.8E1,1.05E2,3E0,2E0,6E1,3.3E1,3.3E1,2.4E1,1.63E2,6E1,1.2E1,6.6E1],"tree_param":{"num_deleted":"0","num_feature":"36","num_nodes":"25","size_leaf_vector":"1"}},{"base_weights":[3.633754E-3,-4.8134437E-1,2.8058538E-1,-6.8673474E-1,-3.4000123E-1,7.124432E-2,5.2518004E-1,-4.090895E-2,-6.123362E-1,-4.064432E-1,-2.1608397E-1,7.986022E-2,-4.5606304E-2,4.0104342E-1,2.9452432E-2,-2.86638E-2,-6.077346E-2,-2.2494813E-2,-1.7424263E-2,-1.2323463E-2,-6.7105913E-3,1.2710108E-3,1.04643805E-2,1.01473555E-2,2.103861E-2],"categories":[],"categories_nodes":[],"categories_segments":[],"categories_sizes":[],"default_left":[0,0,0,0,0,0,0,0,0,0,0,0,0,0,0,0,0,0,0,0,0,0,0,0,0],"id":1,"left_children":[1,3,5,7,9,11,13,-1,15,17,19,21,-1,23,-1,-1,-1,-1,-1,-1,-1,-1,-1,-1,-1],"loss_changes":[8.609697E1,6.5306244E0,2.0853695E1,4.1824722E-1,1.0648365E0,1.9452903E0,1.2543144E0,0E0,8.109455E-1,6.9877625E-2,9.379411E-2,1.5448056E0,0E0,1.7645454E-1,0E0,0E0,0E0,0E0,0E0,0E0,0E0,0E0,0E0,0E0,0E0],"parents":[2147483647,0,0,1,1,2,2,3,3,4,4,5,5,6,6,8,8,9,9,10,10,11,11,13,13],"right_children":[2,4,6,8,10,12,14,-1,16,18,20,22,-1,24,-1,-1,-1,-1,-1,-1,-1,-1,-1,-1,-1],"split_conditions":[1.76E0,1.39E0,2.21E0,1.14E0,1.55E0,2.25E0,2.4E0,-4.090895E-2,2.66743E5,1.46E0,1.68E0,2.01E0,-4.5606304E-2,2.21E0,2.9452432E-2,-2.86638E-2,-6.077346E-2,-2.2494813E-2,-1.7424263E-2,-1.2323463E-2,-6.7105913E-3,1.2710108E-3,1.04643805E-2,1.01473555E-2,2.103861E-2],"split_indices":[3,14,11,28,3,0,3,0,33,3,3,3,0,15,0,0,0,0,0,0,0,0,0,0,0],"split_type":[0,0,0,0,0,0,0,0,0,0,0,0,0,0,0,0,0,0,0,0,0,0,0,0,0],"sum_hessian":[6.39E2,2.32E2,4.07E2,9.3E1,1.39E2,2.2E2,1.87E2,3E1,6.3E1,8.9E1,5E1,2.19E2,1E0,6.6E1,1.21E2,6.1E1,2E0,4.7E1,4.2E1,3.5E1,1.5E1,1.55E2,6.4E1,7E0,5.9E1],"tree_param":{"num_deleted":"0","num_feature":"36","num_nodes":"25","size_leaf_vector":"1"}},{"base_weights":[-4.3714326E-3,-4.6984717E-1,2.6391846E-1,-6.5284956E-1,-3.284062E-1,5.937544E-2,4.9613905E-1,-6.7102456E-1,-1.5646255E-2,-3.8741046E-1,-2.0309977E-1,6.7884795E-2,-4.446615E-2,3.8518202E-1,2.7882708E-2,-3.237767E-2,-5.8747675E-2,-2.145197E-2,-1.6596569E-2,-1.1640308E-2,-6.4083296E-3,5.380107E-4,8.340637E-3,9.887416E-3,2.0292213E-2],"categories":[],"categories_nodes":[],"categories_segments":[],"categories_sizes":[],"default_left":[0,0,0,0,0,0,0,0,0,0,0,0,0,0,0,0,0,0,0,0,0,0,0,0,0],"id":2,"left_children":[1,3,5,7,9,11,13,15,-1,17,19,21,-1,23,-1,-1,-1,-1,-1,-1,-1,-1,-1,-1,-1],"loss_changes":[7.9923874E1,5.8424644E0,1.9255178E1,4.140091E-1,9.120617E-1,1.8121722E0,1.082058E0,3.6279297E-1,0E0,6.54459E-2,7.033169E-2,1.218868E0,0E0,1.9471264E-1,0E0,0E0,0E0,0E0,0E0,0E0,0E0,0E0,0E0,0E0,0E0],"parents":[2147483647,0,0,1,1,2,2,3,3,4,4,5,5,6,6,7,7,9,9,10,10,11,11,13,13],"right_children":[2,4,6,8,10,12,14,16,-1,18,20,22,-1,24,-1,-1,-1,-1,-1,-1,-1,-1,-1,-1,-1],"split_conditions":[1.76E0,1.39E0,2.18E0,1.45E0,1.55E0,2.24E0,2.4E0,1.44E0,-1.5646255E-2,1.46E0,1.68E0,1.96E0,-4.446615E-2,2.22E0,2.7882708E-2,-3.237767E-2,-5.8747675E-2,-2.145197E-2,-1.6596569E-2,-1.1640308E-2,-6.4083296E-3,5.380107E-4,8.340637E-3,9.887416E-3,2.0292213E-2],"split_indices":[3,14,26,1,3,2,3,1,0,3,3,3,0,14,0,0,0,0,0,0,0,0,0,0,0],"split_type":[0,0,0,0,0,0,0,0,0,0,0,0,0,0,0,0,0,0,0,0,0,0,0,0,0],"sum_hessian":[6.38E2,2.33E2,4.05E2,1E2,1.33E2,2.16E2,1.89E2,9.4E1,6E0,8.9E1,4.4E1,2.15E2,1E0,7E1,1.19E2,9.2E1,2E0,4.7E1,4.2E1,3E1,1.4E1,1.37E2,7.8E1,8E0,6.2E1],"tree_param":{"num_deleted":"0","num_feature":"36","num_nodes":"25","size_leaf_vector":"1"}},{"base_weights":[-7.95558E-3,-4.4259873E-1,2.4638708E-1,-6.593922E-1,-3.308217E-1,5.908368E-2,4.7868815E-1,-3.1289842E-2,-9.806335E-1,-4.0136528E-1,-2.2106273E-1,6.684673E-2,-4.3354493E-2,3.8312957E-1,2.735967E-2,-5.5485155E-2,-8.382136E-3,-2.1695718E-2,-1.6662767E-2,-1.3424165E-2,-7.943133E-3,1.0469169E-3,9.446837E-3,8.677307E-3,1.9879116E-2],"categories":[],"categories_nodes":[],"categories_segments":[],"categories_sizes":[],"default_left":[0,0,0,0,0,0,0,0,0,0,0,0,0,0,0,0,0,0,0,0,0,0,0,0,0],"id":3,"left_children":[1,3,5,7,9,11,13,-1,15,17,19,21,-1,23,-1,-1,-1,-1,-1,-1,-1,-1,-1,-1,-1],"loss_changes":[7.307093E1,5.6945953E0,1.8115711E1,2.71286E-1,1.1733475E0,1.7260252E0,1.0079613E0,0E0,4.435606E-1,7.265377E-2,1.5201902E-1,1.2907885E0,0E0,1.7635441E-1,0E0,0E0,0E0,0E0,0E0,0E0,0E0,0E0,0E0,0E0,0E0],"parents":[2147483647,0,0,1,1,2,2,3,3,4,4,5,5,6,6,8,8,9,9,10,10,11,11,13,13],"right_children":[2,4,6,8,10,12,14,-1,16,18,20,22,-1,24,-1,-1,-1,-1,-1,-1,-1,-1,-1,-1,-1],"split_conditions":[1.76E0,1.26E0,2.21E0,3.563706E-2,1.53E0,2.25E0,2.43E0,-3.1289842E-2,2.7398974E-2,1.44E0,1.61E0,2.01E0,-4.3354493E-2,2.22E0,2.735967E-2,-5.5485155E-2,-8.382136E-3,-2.1695718E-2,-1.6662767E-2,-1.3424165E-2,-7.943133E-3,1.0469169E-3,9.446837E-3,8.677307E-3,1.9879116E-2],"split_indices":[3,20,11,10,1,0,3,0,5,3,3,3,0,14,0,0,0,0,0,0,0,0,0,0,0],"split_type":[0,0,0,0,0,0,0,0,0,0,0,0,0,0,0,0,0,0,0,0,0,0,0,0,0],"sum_hessian":[6.59E2,2.43E2,4.16E2,8.1E1,1.62E2,2.31E2,1.85E2,7.6E1,5E0,9.7E1,6.5E1,2.3E2,1E0,8E1,1.05E2,4E0,1E0,6.2E1,3.5E1,3.5E1,3E1,1.68E2,6.2E1,6E0,7.4E1],"tree_param":{"num_deleted":"0","num_feature":"36","num_nodes":"25","size_leaf_vector":"1"}},{"base_weights":[3.7495978E-3,-4.2258555E-1,2.4647143E-1,-6.3167167E-1,-3.1601673E-1,5.9792545E-2,4.4699067E-1,-2.9711787E-2,-1.0593894E0,-3.9015102E-1,-2.1325055E-1,6.801141E-2,-4.227063E-2,3.6466518E-1,2.5894692E-2,-6.212554E-2,-8.172584E-3,-2.1371307E-2,-1.6758885E-2,-1.2904457E-2,-7.89368E-3,1.277425E-3,9.052469E-3,1.0834419E-2,1.9073173E-2],"categories":[],"categories_nodes":[],"categories_segments":[],"categories_sizes":[],"default_left":[0,0,0,0,0,0,0,0,0,0,0,0,0,0,0,0,0,0,0,0,0,0,0,0,0],"id":4,"left_children":[1,3,5,7,9,11,13,-1,15,17,19,21,-1,23,-1,-1,-1,-1,-1,-1,-1,-1,-1,-1,-1],"loss_changes":[6.674582E1,5.014385E0,1.5358118E1,6.1940956E-1,1.1129026E0,1.6496058E0,9.668999E-1,0E0,6.172371E-1,4.1160583E-2,1.2810016E-1,1.0177577E0,0E0,1.5348816E-1,0E0,0E0,0E0,0E0,0E0,0E0,0E0,0E0,0E0,0E0,0E0],"parents":[2147483647,0,0,1,1,2,2,3,3,4,4,5,5,6,6,8,8,9,9,10,10,11,11,13,13],"right_children":[2,4,6,8,10,12,14,-1,16,18,20,22,-1,24,-1,-1,-1,-1,-1,-1,-1,-1,-1,-1,-1],"split_conditions":[1.79E0,1.26E0,2.16E0,3.563706E-2,1.52E0,2.25E0,2.44E0,-2.9711787E-2,1.79955E5,1.42E0,1.63E0,2.04E0,-4.227063E-2,2.21E0,2.5894692E-2,-6.212554E-2,-8.172584E-3,-2.1371307E-2,-1.6758885E-2,-1.2904457E-2,-7.89368E-3,1.277425E-3,9.052469E-3,1.0834419E-2,1.9073173E-2],"split_indices":[1,20,26,10,1,0,11,0,4,0,1,1,0,15,0,0,0,0,0,0,0,0,0,0,0],"split_type":[0,0,0,0,0,0,0,0,0,0,0,0,0,0,0,0,0,0,0,0,0,0,0,0,0],"sum_hessian":[6.43E2,2.33E2,4.1E2,7.7E1,1.56E2,2.13E2,1.97E2,7.3E1,4E0,8.9E1,6.7E1,2.12E2,1E0,9.4E1,1.03E2,3E0,1E0,4.9E1,4E1,3.5E1,3.2E1,1.55E2,5.7E1,1.1E1,8.3E1],"tree_param":{"num_deleted":"0","num_feature":"36","num_nodes":"25","size_leaf_vector":"1"}},{"base_weights":[-2.2674715E-3,-4.0113807E-1,2.2539073E-1,-5.97801E-1,-2.9966527E-1,4.4852674E-2,4.1732553E-1,-2.8086876E-2,-1.0264051E0,-3.6783162E-1,-2.0774192E-1,5.272899E-2,-4.1213866E-2,2.8978926E-1,4.679189E-1,-5.9795834E-2,-8.708981E-3,-1.766292E-2,-2.7246237E-2,-1.2335695E-2,-7.206811E-3,5.110477E-4,6.850635E-3,7.104931E-3,1.54889105E-2,2.1359134E-2,2.7101789E-2],"categories":[],"categories_nodes":[],"categories_segments":[],"categories_sizes":[],"default_left":[0,0,0,0,0,0,0,0,0,0,0,0,0,0,0,0,0,0,0,0,0,0,0,0,0,0,0],"id":5,"left_children":[1,3,5,7,9,11,13,-1,15,17,19,21,-1,23,25,-1,-1,-1,-1,-1,-1,-1,-1,-1,-1,-1,-1],"loss_changes":[5.9477642E1,4.5703735E0,1.4430971E1,6.599865E-1,9.198923E-1,1.5220997E0,1.1678085E0,0E0,5.1400566E-1,3.977394E-2,1.3795829E-1,7.688877E-1,0E0,1.3311243E-1,2.0020103E-1,0E0,0E0,0E0,0E0,0E0,0E0,0E0,0E0,0E0,0E0,0E0,0E0],"parents":[2147483647,0,0,1,1,2,2,3,3,4,4,5,5,6,6,8,8,9,9,10,10,11,11,13,13,14,14],"right_children":[2,4,6,8,10,12,14,-1,16,18,20,22,-1,24,26,-1,-1,-1,-1,-1,-1,-1,-1,-1,-1,-1,-1],"split_conditions":[1.76E0,1.26E0,2.14E0,3.563706E-2,1.5E0,2.21E0,2.36E0,-2.8086876E-2,1.4E0,2.66743E5,1.61E0,1.96E0,-4.1213866E-2,3.2736E4,2.51E0,-5.9795834E-2,-8.708981E-3,-1.766292E-2,-2.7246237E-2,-1.2335695E-2,-7.206811E-3,5.110477E-4,6.850635E-3,7.104931E-3,1.54889105E-2,2.1359134E-2,2.7101789E-2],"split_indices":[3,20,8,10,3,0,3,0,0,33,3,3,0,32,3,0,0,0,0,0,0,0,0,0,0,0,0],"split_type":[0,0,0,0,0,0,0,0,0,0,0,0,0,0,0,0,0,0,0,0,0,0,0,0,0,0,0],"sum_hessian":[6.53E2,2.37E2,4.16E2,7.9E1,1.58E2,2.15E2,2.01E2,7.5E1,4E0,8.9E1,6.9E1,2.14E2,1E0,5.9E1,1.42E2,3E0,1E0,8.5E1,4E0,4.1E1,2.8E1,1.43E2,7.1E1,8E0,5.1E1,9.6E1,4.6E1],"tree_param":{"num_deleted":"0","num_feature":"36","num_nodes":"27","size_leaf_vector":"1"}},{"base_weights":[-6.8701752E-3,-3.9663494E-1,2.059117E-1,-5.6649673E-1,-2.9639924E-1,4.253192E-2,4.0776283E-1,-3.2310344E-2,-4.9474633E-1,-1.8370785E-2,-2.2237766E-1,4.9552653E-2,-4.0183518E-2,3.2671595E-1,4.7164088E-1,-2.4982953E-2,-6.4733713E-3,-1.2439154E-2,-7.5930892E-3,2.4554852E-4,6.96727E-3,8.929311E-3,1.7075913E-2,2.2077871E-2,2.7676044E-2],"categories":[],"categories_nodes":[],"categories_segments":[],"categories_sizes":[],"default_left":[0,0,0,0,0,0,0,0,0,0,0,0,0,0,0,0,0,0,0,0,0,0,0,0,0],"id":6,"left_children":[1,3,5,7,9,11,13,-1,15,-1,17,19,-1,21,23,-1,-1,-1,-1,-1,-1,-1,-1,-1,-1],"loss_changes":[5.448695E1,3.7821732E0,1.3998476E1,1.6642761E-1,6.9629383E-1,1.4418908E0,8.2956123E-1,0E0,2.3241043E-2,0E0,1.0186958E-1,9.41313E-1,0E0,1.2977123E-1,1.1764526E-2,0E0,0E0,0E0,0E0,0E0,0E0,0E0,0E0,0E0,0E0],"parents":[2147483647,0,0,1,1,2,2,3,3,4,4,5,5,6,6,8,8,10,10,11,11,13,13,14,14],"right_children":[2,4,6,8,10,12,14,-1,16,-1,18,20,-1,22,24,-1,-1,-1,-1,-1,-1,-1,-1,-1,-1],"split_conditions":[1.7E0,1.26E0,2.18E0,1.14E0,1.49E0,2.22E0,2.43E0,-3.2310344E-2,2.6267927E-2,-1.8370785E-2,1.61E0,1.97E0,-4.0183518E-2,2.22E0,2.57E0,-2.4982953E-2,-6.4733713E-3,-1.2439154E-2,-7.5930892E-3,2.4554852E-4,6.96727E-3,8.929311E-3,1.7075913E-2,2.2077871E-2,2.7676044E-2],"split_indices":[3,20,26,28,1,0,3,0,5,0,3,3,0,14,3,0,0,0,0,0,0,0,0,0,0],"split_type":[0,0,0,0,0,0,0,0,0,0,0,0,0,0,0,0,0,0,0,0,0,0,0,0,0],"sum_hessian":[6.55E2,2.31E2,4.24E2,8.4E1,1.47E2,2.35E2,1.89E2,3.6E1,4.8E1,7.3E1,7.4E1,2.34E2,1E0,8.6E1,1.03E2,4.7E1,1E0,5.2E1,2.2E1,1.57E2,7.7E1,9E0,7.7E1,8E1,2.3E1],"tree_param":{"num_deleted":"0","num_feature":"36","num_nodes":"25","size_leaf_vector":"1"}},{"base_weights":[-4.645393E-4,-3.5671937E-1,2.0914899E-1,-5.2579623E-1,-2.5905603E-1,4.9663316E-2,3.92465E-1,-6.1629045E-1,-2.2720387E-2,-3.0313653E-1,-1.5037702E-1,5.6979246E-2,-3.917893E-2,3.2206374E-1,2.238651E-2,-2.8162846E-2,-5.059536E-2,-1.6903846E-2,-1.2722327E-2,-9.31806E-3,-5.7072574E-3,1.3315382E-3,7.754985E-3,1.1927493E-2,1.7314365E-2],"categories":[],"categories_nodes":[],"categories_segments":[],"categories_sizes":[],"default_left":[0,0,0,0,0,0,0,0,0,0,0,0,0,0,0,0,0,0,0,0,0,0,0,0,0],"id":7,"left_children":[1,3,5,7,9,11,13,15,-1,17,19,21,-1,23,-1,-1,-1,-1,-1,-1,-1,-1,-1,-1,-1],"loss_changes":[4.8987278E1,3.8763542E0,1.205509E1,2.8845596E-1,7.0175266E-1,1.3979462E0,6.0282326E-1,1.8535042E-1,0E0,1.0111523E-1,4.0005088E-2,6.539648E-1,0E0,9.541893E-2,0E0,0E0,0E0,0E0,0E0,0E0,0E0,0E0,0E0,0E0,0E0],"parents":[2147483647,0,0,1,1,2,2,3,3,4,4,5,5,6,6,7,7,9,9,10,10,11,11,13,13],"right_children":[2,4,6,8,10,12,14,16,-1,18,20,22,-1,24,-1,-1,-1,-1,-1,-1,-1,-1,-1,-1,-1],"split_conditions":[1.73E0,1.3E0,2.21E0,1.14E0,1.55E0,2.25E0,2.44E0,1.14E0,-2.2720387E-2,1.46E0,1.61E0,2E0,-3.917893E-2,-1.2739026E-2,2.238651E-2,-2.8162846E-2,-5.059536E-2,-1.6903846E-2,-1.2722327E-2,-9.31806E-3,-5.7072574E-3,1.3315382E-3,7.754985E-3,1.1927493E-2,1.7314365E-2],"split_indices":[2,2,11,28,8,0,11,0,0,9,0,2,0,5,0,0,0,0,0,0,0,0,0,0,0],"split_type":[0,0,0,0,0,0,0,0,0,0,0,0,0,0,0,0,0,0,0,0,0,0,0,0,0],"sum_hessian":[6.54E2,2.42E2,4.12E2,8.7E1,1.55E2,2.21E2,1.91E2,3.5E1,5.2E1,1.09E2,4.6E1,2.2E2,1E0,8.7E1,1.04E2,3.3E1,2E0,6E1,4.9E1,2.1E1,2.5E1,1.69E2,5.1E1,2.2E1,6.5E1],"tree_param":{"num_deleted":"0","num_feature":"36","num_nodes":"25","size_leaf_vector":"1"}},{"base_weights":[9.884131E-3,-3.1188533E-1,2.0627472E-1,-2.451188E-2,-2.3079376E-1,5.7784867E-2,3.6754456E-1,-2.8463048E-1,-1.20997585E-1,6.5336116E-2,-3.8199455E-2,2.9681045E-1,4.2903695E-1,-1.625262E-2,-1.2625302E-2,-7.76781E-3,-3.6367413E-3,1.8709019E-3,9.961706E-3,6.651049E-3,1.542977E-2,2.0147387E-2,2.546182E-2],"categories":[],"categories_nodes":[],"categories_segments":[],"categories_sizes":[],"default_left":[0,0,0,0,0,0,0,0,0,0,0,0,0,0,0,0,0,0,0,0,0,0,0],"id":8,"left_children":[1,3,5,-1,7,9,11,13,15,17,-1,19,21,-1,-1,-1,-1,-1,-1,-1,-1,-1,-1],"loss_changes":[4.1013065E1,3.4447212E0,9.629377E0,0E0,9.763527E-1,1.3592603E0,7.121334E-1,6.595516E-2,8.4878206E-2,7.775617E-1,0E0,1.3846397E-1,6.1302185E-3,0E0,0E0,0E0,0E0,0E0,0E0,0E0,0E0,0E0,0E0],"parents":[2147483647,0,0,1,1,2,2,4,4,5,5,6,6,7,7,8,8,9,9,11,11,12,12],"right_children":[2,4,6,-1,8,10,12,14,16,18,-1,20,22,-1,-1,-1,-1,-1,-1,-1,-1,-1,-1],"split_conditions":[1.82E0,1.26E0,2.21E0,-2.451188E-2,1.57E0,2.25E0,2.44E0,1.42E0,1.7E0,2.07E0,-3.8199455E-2,2.22E0,2.57E0,-1.625262E-2,-1.2625302E-2,-7.76781E-3,-3.6367413E-3,1.8709019E-3,9.961706E-3,6.651049E-3,1.542977E-2,2.0147387E-2,2.546182E-2],"split_indices":[3,20,11,0,3,0,3,3,3,3,0,14,3,0,0,0,0,0,0,0,0,0,0],"split_type":[0,0,0,0,0,0,0,0,0,0,0,0,0,0,0,0,0,0,0,0,0,0,0],"sum_hessian":[6.47E2,2.45E2,4.02E2,7.5E1,1.7E2,2.1E2,1.92E2,1.13E2,5.7E1,2.09E2,1E0,9.2E1,1E2,4.6E1,6.7E1,3.2E1,2.5E1,1.74E2,3.5E1,7E0,8.5E1,8E1,2E1],"tree_param":{"num_deleted":"0","num_feature":"36","num_nodes":"23","size_leaf_vector":"1"}},{"base_weights":[7.390194E-3,-3.2555547E-1,1.9541724E-1,-4.561927E-1,-2.1686934E-1,3.9218765E-2,3.491506E-1,-4.3417174E-1,-8.9817345E-1,-2.6006448E-1,-1.3421576E-1,4.6750773E-2,-3.724447E-2,2.1181242E-1,3.7602207E-1,-2.8260786E-2,-1.826031E-2,-1.3683689E-2,-5.0755776E-2,-1.4241211E-2,-1.1079207E-2,-8.031813E-3,-4.5918645E-3,4.5412956E-4,5.9885923E-3,6.0175955E-3,1.2118031E-2,1.7116686E-2,2.1954522E-2],"categories":[],"categories_nodes":[],"categories_segments":[],"categories_sizes":[],"default_left":[0,0,0,0,0,0,0,0,0,0,0,0,0,0,0,0,0,0,0,0,0,0,0,0,0,0,0,0,0],"id":9,"left_children":[1,3,5,7,9,11,13,15,17,19,21,23,-1,25,27,-1,-1,-1,-1,-1,-1,-1,-1,-1,-1,-1,-1,-1,-1],"loss_changes":[4.0066803E1,3.1809082E0,9.807589E0,6.222515E-1,4.220853E-1,1.2396294E0,6.805916E-1,7.063694E-1,1.431036E-2,1.5966892E-2,3.6751926E-2,5.5727816E-1,0E0,7.1413755E-2,2.1300316E-1,0E0,0E0,0E0,0E0,0E0,0E0,0E0,0E0,0E0,0E0,0E0,0E0,0E0,0E0],"parents":[2147483647,0,0,1,1,2,2,3,3,4,4,5,5,6,6,7,7,8,8,9,9,10,10,11,11,13,13,14,14],"right_children":[2,4,6,8,10,12,14,16,18,20,22,24,-1,26,28,-1,-1,-1,-1,-1,-1,-1,-1,-1,-1,-1,-1,-1,-1],"split_conditions":[1.78E0,1.39E0,2.14E0,2.73673E5,1.57E0,2.21E0,2.31E0,1.17E0,1.08E0,1.49E0,1.68E0,1.96E0,-3.724447E-2,2.2E0,2.5E0,-2.8260786E-2,-1.826031E-2,-1.3683689E-2,-5.0755776E-2,-1.4241211E-2,-1.1079207E-2,-8.031813E-3,-4.5918645E-3,4.5412956E-4,5.9885923E-3,6.0175955E-3,1.2118031E-2,1.7116686E-2,2.1954522E-2],"split_indices":[3,18,8,33,3,0,3,1,0,1,3,3,0,3,3,0,0,0,0,0,0,0,0,0,0,0,0,0,0],"split_type":[0,0,0,0,0,0,0,0,0,0,0,0,0,0,0,0,0,0,0,0,0,0,0,0,0,0,0,0,0],"sum_hessian":[6.38E2,2.3E2,4.08E2,1.03E2,1.27E2,2.03E2,2.05E2,1E2,3E0,8.2E1,4.5E1,2.02E2,1E0,3.5E1,1.7E2,3.2E1,6.8E1,1E0,2E0,4.6E1,3.6E1,2.6E1,1.9E1,1.34E2,6.8E1,1E1,2.5E1,1.15E2,5.5E1],"tree_param":{"num_deleted":"0","num_feature":"36","num_nodes":"29","size_leaf_vector":"1"}},{"base_weights":[-1.6720208E-3,-3.0734828E-1,1.8010555E-1,-4.3247396E-1,-2.0388378E-1,4.2523008E-2,3.3004323E-1,-4.1209942E-1,-8.693747E-1,-2.5076568E-1,-1.3243172E-1,4.947676E-2,-3.631336E-2,2.654255E-1,3.888341E-1,-2.670827E-2,-1.7134167E-2,-1.3341597E-2,-4.9063917E-2,-1.2615365E-2,-3.1858534E-3,-7.548065E-3,-3.5860066E-3,1.3075868E-3,9.102476E-3,1.0241473E-2,1.4968963E-2,1.8096002E-2,2.300517E-2],"categories":[],"categories_nodes":[],"categories_segments":[],"categories_sizes":[],"default_left":[0,0,0,0,0,0,0,0,0,0,0,0,0,0,0,0,0,0,0,0,0,0,0,0,0,0,0,0,0],"id":10,"left_children":[1,3,5,7,9,11,13,15,17,19,21,23,-1,25,27,-1,-1,-1,-1,-1,-1,-1,-1,-1,-1,-1,-1,-1,-1],"loss_changes":[3.6506054E1,3.0836124E0,8.485036E0,6.2091064E-1,4.2236423E-1,1.1906646E0,6.4517975E-1,7.236004E-1,7.870674E-3,7.2813034E-3,5.2170694E-2,6.6007555E-1,0E0,1.3825274E-1,2.7213097E-2,0E0,0E0,0E0,0E0,0E0,0E0,0E0,0E0,0E0,0E0,0E0,0E0,0E0,0E0],"parents":[2147483647,0,0,1,1,2,2,3,3,4,4,5,5,6,6,7,7,8,8,9,9,10,10,11,11,13,13,14,14],"right_children":[2,4,6,8,10,12,14,16,18,20,22,24,-1,26,28,-1,-1,-1,-1,-1,-1,-1,-1,-1,-1,-1,-1,-1,-1],"split_conditions":[1.78E0,1.39E0,2.21E0,2.73673E5,1.55E0,2.24E0,2.43E0,1.17E0,1.08E0,4.13208E5,1.7E0,2.07E0,-3.631336E-2,2.33E0,2.57E0,-2.670827E-2,-1.7134167E-2,-1.3341597E-2,-4.9063917E-2,-1.2615365E-2,-3.1858534E-3,-7.548065E-3,-3.5860066E-3,1.3075868E-3,9.102476E-3,1.0241473E-2,1.4968963E-2,1.8096002E-2,2.300517E-2],"split_indices":[3,18,16,33,3,2,3,1,1,31,3,3,0,3,3,0,0,0,0,0,0,0,0,0,0,0,0,0,0],"split_type":[0,0,0,0,0,0,0,0,0,0,0,0,0,0,0,0,0,0,0,0,0,0,0,0,0,0,0,0,0],"sum_hessian":[6.55E2,2.44E2,4.11E2,1.09E2,1.35E2,2.15E2,1.96E2,1.06E2,3E0,8E1,5.5E1,2.14E2,1E0,9.6E1,1E2,3.6E1,7E1,1E0,2E0,7.9E1,1E0,4.1E1,1.4E1,1.83E2,3.1E1,3.7E1,5.9E1,7.7E1,2.3E1],"tree_param":{"num_deleted":"0","num_feature":"36","num_nodes":"29","size_leaf_vector":"1"}},{"base_weights":[-2.8767383E-3,-2.796973E-1,1.7367432E-1,-3.9952978E-1,-1.6779196E-1,4.7214333E-2,3.178433E-1,-3.8100466E-1,-8.415073E-1,-2.0938599E-1,-8.899868E-2,5.4216415E-2,-3.5405524E-2,2.4929349E-1,3.6639178E-1,-2.22209E-2,-1.3076973E-2,-1.3008058E-2,-4.742845E-2,-1.0547596E-2,-1.946199E-3,-5.781964E-3,-3.1516806E-3,1.5492988E-3,8.440979E-3,5.3539895E-3,1.3081632E-2,1.7251952E-2,2.2521393E-2],"categories":[],"categories_nodes":[],"categories_segments":[],"categories_sizes":[],"default_left":[0,0,0,0,0,0,0,0,0,0,0,0,0,0,0,0,0,0,0,0,0,0,0,0,0,0,0,0,0],"id":11,"left_children":[1,3,5,7,9,11,13,15,17,19,21,23,-1,25,27,-1,-1,-1,-1,-1,-1,-1,-1,-1,-1,-1,-1,-1,-1],"loss_changes":[3.1376143E1,3.2854366E0,7.1317825E0,6.619053E-1,4.1069508E-1,1.149049E0,5.17683E-1,7.701206E-1,2.178669E-3,1.4477968E-2,2.5221914E-2,5.511858E-1,0E0,1.10613346E-1,3.299713E-2,0E0,0E0,0E0,0E0,0E0,0E0,0E0,0E0,0E0,0E0,0E0,0E0,0E0,0E0],"parents":[2147483647,0,0,1,1,2,2,3,3,4,4,5,5,6,6,7,7,8,8,9,9,10,10,11,11,13,13,14,14],"right_children":[2,4,6,8,10,12,14,16,18,20,22,24,-1,26,28,-1,-1,-1,-1,-1,-1,-1,-1,-1,-1,-1,-1,-1,-1],"split_conditions":[1.82E0,1.42E0,2.21E0,2.73673E5,1.61E0,2.25E0,2.42E0,1.26E0,1.08E0,1.052509E1,1.7E0,2.07E0,-3.5405524E-2,2.21E0,2.58E0,-2.22209E-2,-1.3076973E-2,-1.3008058E-2,-4.742845E-2,-1.0547596E-2,-1.946199E-3,-5.781964E-3,-3.1516806E-3,1.5492988E-3,8.440979E-3,5.3539895E-3,1.3081632E-2,1.7251952E-2,2.2521393E-2],"split_indices":[3,0,11,33,3,0,3,0,0,7,3,3,0,15,3,0,0,0,0,0,0,0,0,0,0,0,0,0,0],"split_type":[0,0,0,0,0,0,0,0,0,0,0,0,0,0,0,0,0,0,0,0,0,0,0,0,0,0,0,0,0],"sum_hessian":[6.4E2,2.49E2,3.91E2,1.19E2,1.3E2,2.09E2,1.82E2,1.16E2,3E0,8.4E1,4.6E1,2.08E2,1E0,7.8E1,1.04E2,7.4E1,4.2E1,1E0,2E0,8.3E1,1E0,2.1E1,2.5E1,1.74E2,3.4E1,7E0,7.1E1,8.7E1,1.7E1],"tree_param":{"num_deleted":"0","num_feature":"36","num_nodes":"29","size_leaf_vector":"1"}},{"base_weights":[1.0362875E-3,-2.7148524E-1,1.6644478E-1,-4.024223E-1,-1.7776212E-1,3.48672E-2,2.96547E-1,-3.8149476E-1,-4.0727057E-2,-2.1826117E-1,-8.6736746E-2,4.1945614E-2,-3.4520384E-2,1.7998955E-1,3.251114E-1,-2.448908E-2,-1.5815727E-2,-1.2123699E-2,-8.739668E-3,-2.8732666E-3,-5.4513062E-3,1.124163E-3,6.353876E-3,1.0017656E-2,-7.576063E-3,1.4995855E-2,1.9938437E-2],"categories":[],"categories_nodes":[],"categories_segments":[],"categories_sizes":[],"default_left":[0,0,0,0,0,0,0,0,0,0,0,0,0,0,0,0,0,0,0,0,0,0,0,0,0,0,0],"id":12,"left_children":[1,3,5,7,9,11,13,15,-1,17,19,21,-1,23,25,-1,-1,-1,-1,-1,-1,-1,-1,-1,-1,-1,-1],"loss_changes":[2.9120096E1,2.9227905E0,6.87131E0,5.603428E-1,5.1191616E-1,1.0608524E0,6.140213E-1,5.367756E-1,0E0,6.1812878E-2,2.3747116E-2,3.2851642E-1,0E0,3.138889E-1,1.7917633E-1,0E0,0E0,0E0,0E0,0E0,0E0,0E0,0E0,0E0,0E0,0E0,0E0],"parents":[2147483647,0,0,1,1,2,2,3,3,4,4,5,5,6,6,7,7,9,9,10,10,11,11,13,13,14,14],"right_children":[2,4,6,8,10,12,14,16,-1,18,20,22,-1,24,26,-1,-1,-1,-1,-1,-1,-1,-1,-1,-1,-1,-1],"split_conditions":[1.82E0,1.39E0,2.14E0,2.73673E5,1.6E0,2.22E0,2.33E0,1.17E0,-4.0727057E-2,1.49E0,2.5767477E-2,2.03E0,-3.4520384E-2,2.32E0,2.52E0,-2.448908E-2,-1.5815727E-2,-1.2123699E-2,-8.739668E-3,-2.8732666E-3,-5.4513062E-3,1.124163E-3,6.353876E-3,1.0017656E-2,-7.576063E-3,1.4995855E-2,1.9938437E-2],"split_indices":[3,14,8,33,3,1,3,1,0,3,6,3,0,2,3,0,0,0,0,0,0,0,0,0,0,0,0],"split_type":[0,0,0,0,0,0,0,0,0,0,0,0,0,0,0,0,0,0,0,0,0,0,0,0,0,0,0],"sum_hessian":[6.44E2,2.43E2,4.01E2,1E2,1.43E2,2E2,2.01E2,9.7E1,3E0,9.8E1,4.5E1,1.99E2,1E0,4.1E1,1.6E2,3.4E1,6.3E1,6E1,3.8E1,2.1E1,2.4E1,1.63E2,3.6E1,3.9E1,2E0,1.23E2,3.7E1],"tree_param":{"num_deleted":"0","num_feature":"36","num_nodes":"27","size_leaf_vector":"1"}},{"base_weights":[-6.2679756E-3,-2.7915066E-1,1.445506E-1,-4.0521857E-1,-2.070514E-1,2.3488868E-2,2.8692803E-1,-1.880973E-2,-7.1499395E-1,-2.6153454E-1,-1.5934524E-1,2.954986E-2,-3.3657376E-2,2.3747607E-1,3.3390626E-1,-4.1432053E-2,-3.668958E-3,-1.2223115E-2,-2.3678752E-2,-8.795586E-3,-5.1423395E-3,-4.9797556E-4,4.30798E-3,3.840598E-3,1.2361261E-2,1.5000701E-2,1.8516941E-2],"categories":[],"categories_nodes":[],"categories_segments":[],"categories_sizes":[],"default_left":[0,0,0,0,0,0,0,0,0,0,0,0,0,0,0,0,0,0,0,0,0,0,0,0,0,0,0],"id":13,"left_children":[1,3,5,7,9,11,13,-1,15,17,19,21,-1,23,25,-1,-1,-1,-1,-1,-1,-1,-1,-1,-1,-1,-1],"loss_changes":[2.6709297E1,2.015749E0,7.1981E0,4.7727013E-1,3.4560394E-1,9.7835505E-1,3.6675167E-1,0E0,3.7670088E-1,1.3038921E-1,5.86586E-2,5.063331E-1,0E0,1.3294506E-1,7.4329376E-3,0E0,0E0,0E0,0E0,0E0,0E0,0E0,0E0,0E0,0E0,0E0,0E0],"parents":[2147483647,0,0,1,1,2,2,3,3,4,4,5,5,6,6,8,8,9,9,10,10,11,11,13,13,14,14],"right_children":[2,4,6,8,10,12,14,-1,16,18,20,22,-1,24,26,-1,-1,-1,-1,-1,-1,-1,-1,-1,-1,-1,-1],"split_conditions":[1.7E0,1.26E0,2.156E0,3.563706E-2,1.46E0,2.23E0,2.44E0,-1.880973E-2,2.7398974E-2,2.66743E5,1.61E0,1.94E0,-3.3657376E-2,2.2E0,2.51E0,-4.1432053E-2,-3.668958E-3,-1.2223115E-2,-2.3678752E-2,-8.795586E-3,-5.1423395E-3,-4.9797556E-4,4.30798E-3,3.840598E-3,1.2361261E-2,1.5000701E-2,1.8516941E-2],"split_indices":[3,20,8,10,3,0,3,0,5,33,3,3,0,3,3,0,0,0,0,0,0,0,0,0,0,0,0],"split_type":[0,0,0,0,0,0,0,0,0,0,0,0,0,0,0,0,0,0,0,0,0,0,0,0,0,0,0],"sum_hessian":[6.47E2,2.3E2,4.17E2,8.2E1,1.48E2,2.26E2,1.91E2,7.7E1,5E0,6.7E1,8.1E1,2.25E2,1E0,9.6E1,9.5E1,4E0,1E0,6.4E1,3E0,6.1E1,2E1,1.33E2,9.2E1,6E0,9E1,5.4E1,4.1E1],"tree_param":{"num_deleted":"0","num_feature":"36","num_nodes":"27","size_leaf_vector":"1"}},{"base_weights":[-6.024013E-3,-2.4550782E-1,1.4996295E-1,-3.428795E-1,-1.4849745E-1,5.027695E-2,2.8002405E-1,-3.264289E-1,-7.630157E-1,-1.8305346E-1,-8.6370565E-2,5.6443986E-2,-3.281594E-2,2.3427299E-1,3.1758028E-1,-2.200124E-2,-1.3812422E-2,-1.1194438E-2,-4.3404754E-2,-9.206308E-3,-2.4041326E-3,-5.439728E-3,-2.8633226E-3,1.4496095E-3,7.6106857E-3,6.770817E-3,1.2168814E-2,1.4891508E-2,1.9243509E-2],"categories":[],"categories_nodes":[],"categories_segments":[],"categories_sizes":[],"default_left":[0,0,0,0,0,0,0,0,0,0,0,0,0,0,0,0,0,0,0,0,0,0,0,0,0,0,0,0,0],"id":14,"left_children":[1,3,5,7,9,11,13,15,17,19,21,23,-1,25,27,-1,-1,-1,-1,-1,-1,-1,-1,-1,-1,-1,-1,-1,-1],"loss_changes":[2.405695E1,2.348384E0,5.0423765E0,6.2177753E-1,2.6113415E-1,1.0044324E0,2.1598053E-1,5.795803E-1,3.224778E-2,3.018856E-3,2.5096E-2,5.766071E-1,0E0,3.903675E-2,4.9829483E-3,0E0,0E0,0E0,0E0,0E0,0E0,0E0,0E0,0E0,0E0,0E0,0E0,0E0,0E0],"parents":[2147483647,0,0,1,1,2,2,3,3,4,4,5,5,6,6,7,7,8,8,9,9,10,10,11,11,13,13,14,14],"right_children":[2,4,6,8,10,12,14,16,18,20,22,24,-1,26,28,-1,-1,-1,-1,-1,-1,-1,-1,-1,-1,-1,-1,-1,-1],"split_conditions":[1.82E0,1.42E0,2.304E0,2.73673E5,1.59E0,1.8083142E-1,2.45E0,1.17E0,1.08E0,3.6411755E-2,1.7E0,2.08E0,-3.281594E-2,2.28E0,2.58E0,-2.200124E-2,-1.3812422E-2,-1.1194438E-2,-4.3404754E-2,-9.206308E-3,-2.4041326E-3,-5.439728E-3,-2.8633226E-3,1.4496095E-3,7.6106857E-3,6.770817E-3,1.2168814E-2,1.4891508E-2,1.9243509E-2],"split_indices":[3,0,8,33,3,10,3,3,0,6,3,3,0,2,3,0,0,0,0,0,0,0,0,0,0,0,0,0,0],"split_type":[0,0,0,0,0,0,0,0,0,0,0,0,0,0,0,0,0,0,0,0,0,0,0,0,0,0,0,0,0],"sum_hessian":[6.42E2,2.53E2,3.89E2,1.25E2,1.28E2,2.21E2,1.68E2,1.22E2,3E0,8.1E1,4.7E1,2.2E2,1E0,7.9E1,8.9E1,3.5E1,8.7E1,1E0,2E0,8E1,1E0,2.5E1,2.2E1,1.72E2,4.8E1,8E0,7.1E1,7.3E1,1.6E1],"tree_param":{"num_deleted":"0","num_feature":"36","num_nodes":"29","size_leaf_vector":"1"}},{"base_weights":[3.775198E-5,-2.1516381E-1,1.5480204E-1,-3.2014367E-1,-1.2494484E-1,3.8309813E-2,2.5253797E-1,-3.0393532E-1,-7.385147E-1,-1.6979308E-1,-6.4374916E-2,4.588528E-2,-3.1995542E-2,1.5419376E-1,2.7813888E-1,-1.747333E-2,-1.00360615E-2,-1.0914576E-2,-4.195793E-2,-9.387461E-3,-7.189999E-3,-4.737155E-3,-2.386388E-3,1.6911585E-3,7.125327E-3,8.630969E-3,-8.065232E-3,1.2871272E-2,1.6975047E-2],"categories":[],"categories_nodes":[],"categories_segments":[],"categories_sizes":[],"default_left":[0,0,0,0,0,0,0,0,0,0,0,0,0,0,0,0,0,0,0,0,0,0,0,0,0,0,0,0,0],"id":15,"left_children":[1,3,5,7,9,11,13,15,17,19,21,23,-1,25,27,-1,-1,-1,-1,-1,-1,-1,-1,-1,-1,-1,-1,-1,-1],"loss_changes":[2.1815117E1,2.5551023E0,4.32819E0,6.2995815E-1,3.9382124E-1,9.2848426E-1,4.7827816E-1,5.078907E-1,2.624774E-2,1.2674093E-2,2.8338462E-2,1.9796938E-1,0E0,2.8944063E-1,1.1977959E-1,0E0,0E0,0E0,0E0,0E0,0E0,0E0,0E0,0E0,0E0,0E0,0E0,0E0,0E0],"parents":[2147483647,0,0,1,1,2,2,3,3,4,4,5,5,6,6,7,7,8,8,9,9,10,10,11,11,13,13,14,14],"right_children":[2,4,6,8,10,12,14,16,18,20,22,24,-1,26,28,-1,-1,-1,-1,-1,-1,-1,-1,-1,-1,-1,-1,-1,-1],"split_conditions":[1.88E0,1.42E0,2.14E0,2.73673E5,1.61E0,2.21E0,2.33E0,1.31E0,1.08E0,1.53E0,1.7E0,2.07E0,-3.1995542E-2,2.32E0,2.52E0,-1.747333E-2,-1.00360615E-2,-1.0914576E-2,-4.195793E-2,-9.387461E-3,-7.189999E-3,-4.737155E-3,-2.386388E-3,1.6911585E-3,7.125327E-3,8.630969E-3,-8.065232E-3,1.2871272E-2,1.6975047E-2],"split_indices":[1,0,8,33,3,0,3,3,0,1,3,3,0,2,3,0,0,0,0,0,0,0,0,0,0,0,0,0,0],"split_type":[0,0,0,0,0,0,0,0,0,0,0,0,0,0,0,0,0,0,0,0,0,0,0,0,0,0,0,0,0],"sum_hessian":[6.53E2,2.73E2,3.8E2,1.25E2,1.48E2,1.74E2,2.06E2,1.22E2,3E0,8.4E1,6.4E1,1.73E2,1E0,4.4E1,1.62E2,8.3E1,3.9E1,1E0,2E0,4.6E1,3.8E1,2.1E1,4.3E1,1.55E2,1.8E1,4.2E1,2E0,1.25E2,3.7E1],"tree_param":{"num_deleted":"0","num_feature":"36","num_nodes":"29","size_leaf_vector":"1"}},{"base_weights":[-4.918785E-3,-2.08611E-1,1.4604023E-1,-3.1325105E-1,-1.19635895E-1,5.235319E-2,2.581474E-1,-2.9725543E-1,-7.148071E-1,-1.6177106E-1,-6.2464185E-2,5.891975E-2,-3.1195654E-2,2.2653435E-1,3.1110415E-1,-1.738936E-2,-9.934014E-3,-1.0641712E-2,-4.0559333E-2,-8.891339E-3,-6.710615E-3,-2.0498044E-3,-4.5182533E-3,1.5784908E-3,7.0720795E-3,6.5182108E-3,1.1598132E-2,4.4142785E-3,1.5671184E-2],"categories":[],"categories_nodes":[],"categories_segments":[],"categories_sizes":[],"default_left":[0,0,0,0,0,0,0,0,0,0,0,0,0,0,0,0,0,0,0,0,0,0,0,0,0,0,0,0,0],"id":16,"left_children":[1,3,5,7,9,11,13,15,17,19,21,23,-1,25,27,-1,-1,-1,-1,-1,-1,-1,-1,-1,-1,-1,-1,-1,-1],"loss_changes":[1.9433197E1,2.4670115E0,3.7990704E0,5.775652E-1,3.4400916E-1,9.204688E-1,2.0575523E-1,5.2864265E-1,2.0871162E-2,1.3301134E-2,3.4630015E-2,4.424141E-1,0E0,2.5618076E-2,2.8223991E-3,0E0,0E0,0E0,0E0,0E0,0E0,0E0,0E0,0E0,0E0,0E0,0E0,0E0,0E0],"parents":[2147483647,0,0,1,1,2,2,3,3,4,4,5,5,6,6,7,7,8,8,9,9,10,10,11,11,13,13,14,14],"right_children":[2,4,6,8,10,12,14,16,18,20,22,24,-1,26,28,-1,-1,-1,-1,-1,-1,-1,-1,-1,-1,-1,-1,-1,-1],"split_conditions":[1.88E0,1.42E0,2.304E0,2.73673E5,1.61E0,1.4342245E-1,2.52E0,1.26E0,1.08E0,1.53E0,2.5767477E-2,2.08E0,-3.1195654E-2,2.3E0,-4.1456714E-2,-1.738936E-2,-9.934014E-3,-1.0641712E-2,-4.0559333E-2,-8.891339E-3,-6.710615E-3,-2.0498044E-3,-4.5182533E-3,1.5784908E-3,7.0720795E-3,6.5182108E-3,1.1598132E-2,4.4142785E-3,1.5671184E-2],"split_indices":[1,0,8,33,3,10,1,0,0,1,6,3,0,3,5,0,0,0,0,0,0,0,0,0,0,0,0,0,0],"split_type":[0,0,0,0,0,0,0,0,0,0,0,0,0,0,0,0,0,0,0,0,0,0,0,0,0,0,0,0,0],"sum_hessian":[6.3E2,2.68E2,3.62E2,1.22E2,1.46E2,1.98E2,1.64E2,1.19E2,3E0,8.3E1,6.3E1,1.97E2,1E0,1.06E2,5.8E1,7.7E1,4.2E1,1E0,2E0,4.9E1,3.4E1,3.7E1,2.6E1,1.49E2,4.8E1,7E0,9.9E1,1E0,5.7E1],"tree_param":{"num_deleted":"0","num_feature":"36","num_nodes":"29","size_leaf_vector":"1"}},{"base_weights":[-6.7353807E-3,-2.1895757E-1,1.18925355E-1,-3.0808687E-1,-1.510003E-1,2.6384385E-2,2.3406644E-1,-2.907242E-1,-3.9207354E-2,-1.794908E-1,-9.617062E-2,3.1958442E-2,-3.0415762E-2,1.2480842E-1,2.4779814E-1,-1.7825725E-2,-1.1846807E-2,-9.81689E-3,-7.525377E-3,-5.798412E-3,-3.6263086E-3,-2.593339E-4,3.8849402E-3,8.085308E-3,4.029241E-3,1.1328264E-2,1.4656167E-2],"categories":[],"categories_nodes":[],"categories_segments":[],"categories_sizes":[],"default_left":[0,0,0,0,0,0,0,0,0,0,0,0,0,0,0,0,0,0,0,0,0,0,0,0,0,0,0],"id":17,"left_children":[1,3,5,7,9,11,13,15,-1,17,19,21,-1,23,25,-1,-1,-1,-1,-1,-1,-1,-1,-1,-1,-1,-1],"loss_changes":[1.706689E1,1.3950415E0,4.277242E0,6.1512756E-1,1.9674921E-1,8.1191975E-1,2.3762608E-1,2.694025E-1,0E0,1.3906717E-2,1.4526367E-2,3.7928692E-1,0E0,2.2867441E-2,8.5645676E-2,0E0,0E0,0E0,0E0,0E0,0E0,0E0,0E0,0E0,0E0,0E0,0E0],"parents":[2147483647,0,0,1,1,2,2,3,3,4,4,5,5,6,6,7,7,9,9,10,10,11,11,13,13,14,14],"right_children":[2,4,6,8,10,12,14,16,-1,18,20,22,-1,24,26,-1,-1,-1,-1,-1,-1,-1,-1,-1,-1,-1,-1],"split_conditions":[1.78E0,1.39E0,2.22E0,1.43E0,1.55E0,1.8083142E-1,2.3E0,1.18E0,-3.9207354E-2,1.49E0,1.61E0,1.94E0,-3.0415762E-2,4.0620193E-2,2.5E0,-1.7825725E-2,-1.1846807E-2,-9.81689E-3,-7.525377E-3,-5.798412E-3,-3.6263086E-3,-2.593339E-4,3.8849402E-3,8.085308E-3,4.029241E-3,1.1328264E-2,1.4656167E-2],"split_indices":[3,14,14,12,3,10,3,3,0,1,17,3,0,10,3,0,0,0,0,0,0,0,0,0,0,0,0],"split_type":[0,0,0,0,0,0,0,0,0,0,0,0,0,0,0,0,0,0,0,0,0,0,0,0,0,0,0],"sum_hessian":[6.38E2,2.37E2,4.01E2,1.01E2,1.36E2,2.23E2,1.78E2,9.9E1,2E0,8.8E1,4.8E1,2.22E2,1E0,2.1E1,1.57E2,4.2E1,5.7E1,5.2E1,3.6E1,2.4E1,2.4E1,1.23E2,9.9E1,1E1,1.1E1,1.11E2,4.6E1],"tree_param":{"num_deleted":"0","num_feature":"36","num_nodes":"27","size_leaf_vector":"1"}},{"base_weights":[1.8092723E-3,-1.8630052E-1,1.3568011E-1,-2.753531E-1,-1.0634103E-1,3.3623803E-2,2.188033E-1,-2.607089E-1,-6.678069E-1,-1.449024E-1,-5.605836E-2,4.067489E-2,-2.9655367E-2,1.343924E-1,2.4138469E-1,-1.4987053E-2,-8.623893E-3,-9.930027E-3,-3.7900444E-2,-7.3140548E-3,-8.306891E-4,-1.7784017E-3,-4.2712926E-3,1.4687355E-3,6.8175048E-3,7.7184215E-3,-1.9612635E-2,1.1346517E-2,1.5872538E-2],"categories":[],"categories_nodes":[],"categories_segments":[],"categories_sizes":[],"default_left":[0,0,0,0,0,0,0,0,0,0,0,0,0,0,0,0,0,0,0,0,0,0,0,0,0,0,0,0,0],"id":18,"left_children":[1,3,5,7,9,11,13,15,17,19,21,23,-1,25,27,-1,-1,-1,-1,-1,-1,-1,-1,-1,-1,-1,-1,-1,-1],"loss_changes":[1.6595306E1,1.9217634E0,3.2586923E0,5.6728077E-1,2.7496648E-1,7.9305446E-1,3.7165642E-1,3.82226E-1,1.8752337E-2,1.2073278E-2,3.607528E-2,1.830332E-1,0E0,5.550046E-1,1.1047554E-1,0E0,0E0,0E0,0E0,0E0,0E0,0E0,0E0,0E0,0E0,0E0,0E0,0E0,0E0],"parents":[2147483647,0,0,1,1,2,2,3,3,4,4,5,5,6,6,7,7,8,8,9,9,10,10,11,11,13,13,14,14],"right_children":[2,4,6,8,10,12,14,16,18,20,22,24,-1,26,28,-1,-1,-1,-1,-1,-1,-1,-1,-1,-1,-1,-1,-1,-1],"split_conditions":[1.86E0,1.42E0,2.13E0,2.73673E5,1.61E0,2.16E0,2.33E0,1.32E0,1.08E0,1.052509E1,2.5767477E-2,2.08E0,-2.9655367E-2,2.32E0,2.57E0,-1.4987053E-2,-8.623893E-3,-9.930027E-3,-3.7900444E-2,-7.3140548E-3,-8.306891E-4,-1.7784017E-3,-4.2712926E-3,1.4687355E-3,6.8175048E-3,7.7184215E-3,-1.9612635E-2,1.1346517E-2,1.5872538E-2],"split_indices":[3,0,8,33,3,0,3,3,0,7,6,3,0,2,3,0,0,0,0,0,0,0,0,0,0,0,0,0,0],"split_type":[0,0,0,0,0,0,0,0,0,0,0,0,0,0,0,0,0,0,0,0,0,0,0,0,0,0,0,0,0],"sum_hessian":[6.57E2,2.73E2,3.84E2,1.28E2,1.45E2,1.73E2,2.11E2,1.25E2,3E0,8.1E1,6.4E1,1.72E2,1E0,4.6E1,1.65E2,8.5E1,4E1,1E0,2E0,8E1,1E0,3.9E1,2.5E1,1.55E2,1.7E1,4.5E1,1E0,1.42E2,2.3E1],"tree_param":{"num_deleted":"0","num_feature":"36","num_nodes":"29","size_leaf_vector":"1"}},{"base_weights":[-2.0826093E-3,-1.8066686E-1,1.3051578E-1,-2.7078015E-1,-1.0049409E-1,3.6589153E-2,2.0868279E-1,-2.564805E-1,-6.463742E-1,-1.3816203E-1,-5.3313334E-2,4.3776795E-2,-2.8913984E-2,1.6366975E-1,2.474214E-1,-1.7953513E-2,-1.0766589E-2,-9.681776E-3,-3.6637094E-2,-6.9750412E-3,-8.099228E-4,-1.8372707E-3,-3.8694579E-3,1.6035254E-3,6.63293E-3,2.4583421E-3,8.681681E-3,1.1620871E-2,1.5570878E-2],"categories":[],"categories_nodes":[],"categories_segments":[],"categories_sizes":[],"default_left":[0,0,0,0,0,0,0,0,0,0,0,0,0,0,0,0,0,0,0,0,0,0,0,0,0,0,0,0,0],"id":19,"left_children":[1,3,5,7,9,11,13,15,17,19,21,23,-1,25,27,-1,-1,-1,-1,-1,-1,-1,-1,-1,-1,-1,-1,-1,-1],"loss_changes":[1.5060371E1,1.9306631E0,2.6721802E0,5.163164E-1,2.503283E-1,7.6336455E-1,3.0650997E-1,4.4613934E-1,1.4523149E-2,1.0803103E-2,2.34828E-2,1.684646E-1,0E0,9.984779E-2,2.8441906E-2,0E0,0E0,0E0,0E0,0E0,0E0,0E0,0E0,0E0,0E0,0E0,0E0,0E0,0E0],"parents":[2147483647,0,0,1,1,2,2,3,3,4,4,5,5,6,6,7,7,8,8,9,9,10,10,11,11,13,13,14,14],"right_children":[2,4,6,8,10,12,14,16,18,20,22,24,-1,26,28,-1,-1,-1,-1,-1,-1,-1,-1,-1,-1,-1,-1,-1,-1],"split_conditions":[1.86E0,1.42E0,2.13E0,2.73673E5,1.61E0,2.16E0,2.43E0,1.14E0,1.08E0,1.052509E1,2.5767477E-2,2.08E0,-2.8913984E-2,2.2E0,2.59E0,-1.7953513E-2,-1.0766589E-2,-9.681776E-3,-3.6637094E-2,-6.9750412E-3,-8.099228E-4,-1.8372707E-3,-3.8694579E-3,1.6035254E-3,6.63293E-3,2.4583421E-3,8.681681E-3,1.1620871E-2,1.5570878E-2],"split_indices":[3,0,8,33,3,0,3,28,0,7,6,3,0,3,3,0,0,0,0,0,0,0,0,0,0,0,0,0,0],"split_type":[0,0,0,0,0,0,0,0,0,0,0,0,0,0,0,0,0,0,0,0,0,0,0,0,0,0,0,0,0],"sum_hessian":[6.34E2,2.7E2,3.64E2,1.26E2,1.44E2,1.66E2,1.98E2,1.23E2,3E0,7.9E1,6.5E1,1.65E2,1E0,9.4E1,1.04E2,3.3E1,9E1,1E0,2E0,7.8E1,1E0,4E1,2.5E1,1.47E2,1.8E1,8E0,8.6E1,8.8E1,1.6E1],"tree_param":{"num_deleted":"0","num_feature":"36","num_nodes":"29","size_leaf_vector":"1"}},{"base_weights":[-4.396446E-3,-1.6698568E-1,1.22954994E-1,-2.5010827E-1,-8.720531E-2,4.6912614E-2,2.088359E-1,-3.4099227E-1,-2.157005E-1,-1.18865214E-1,-4.2100284E-2,5.2905258E-2,-2.8191134E-2,1.860348E-1,2.4765046E-1,-1.4618129E-2,-3.9733734E-2,-9.982369E-3,-2.8556524E-2,-6.6377856E-3,-4.4745123E-3,-1.6656856E-3,-3.2914374E-3,2.8571808E-3,-1.9339358E-2,5.212508E-3,9.5226085E-3,3.3633353E-3,1.2476787E-2],"categories":[],"categories_nodes":[],"categories_segments":[],"categories_sizes":[],"default_left":[0,0,0,0,0,0,0,0,0,0,0,0,0,0,0,0,0,0,0,0,0,0,0,0,0,0,0,0,0],"id":20,"left_children":[1,3,5,7,9,11,13,15,17,19,21,23,-1,25,27,-1,-1,-1,-1,-1,-1,-1,-1,-1,-1,-1,-1,-1,-1],"loss_changes":[1.3624355E1,1.8947077E0,2.3999896E0,3.673706E-1,2.0777082E-1,7.508331E-1,1.07036114E-1,5.839772E-1,4.8508072E-1,2.3618579E-2,1.094199E-2,3.8736278E-1,0E0,2.0969152E-2,3.959179E-3,0E0,0E0,0E0,0E0,0E0,0E0,0E0,0E0,0E0,0E0,0E0,0E0,0E0,0E0],"parents":[2147483647,0,0,1,1,2,2,3,3,4,4,5,5,6,6,7,7,8,8,9,9,10,10,11,11,13,13,14,14],"right_children":[2,4,6,8,10,12,14,16,18,20,22,24,-1,26,28,-1,-1,-1,-1,-1,-1,-1,-1,-1,-1,-1,-1,-1,-1],"split_conditions":[1.86E0,1.44E0,2.304E0,1.17E0,1.67E0,1.8083142E-1,2.52E0,3.563706E-2,2.73673E5,1.554E0,2.5767477E-2,2.31E0,-2.8191134E-2,2.3E0,-4.1456714E-2,-1.4618129E-2,-3.9733734E-2,-9.982369E-3,-2.8556524E-2,-6.6377856E-3,-4.4745123E-3,-1.6656856E-3,-3.2914374E-3,2.8571808E-3,-1.9339358E-2,5.212508E-3,9.5226085E-3,3.3633353E-3,1.2476787E-2],"split_indices":[3,3,8,1,3,10,1,10,33,8,6,9,0,3,5,0,0,0,0,0,0,0,0,0,0,0,0,0,0],"split_type":[0,0,0,0,0,0,0,0,0,0,0,0,0,0,0,0,0,0,0,0,0,0,0,0,0,0,0,0,0],"sum_hessian":[6.56E2,2.88E2,3.68E2,1.4E2,1.48E2,1.96E2,1.72E2,3.6E1,1.04E2,8.6E1,6.2E1,1.95E2,1E0,1.12E2,6E1,3.4E1,2E0,1.01E2,3E0,5.6E1,3E1,4.7E1,1.5E1,1.94E2,1E0,7E0,1.05E2,1E0,5.9E1],"tree_param":{"num_deleted":"0","num_feature":"36","num_nodes":"29","size_leaf_vector":"1"}},{"base_weights":[-3.626527E-3,-1.5656136E-1,1.2290626E-1,-2.4489394E-1,-8.633304E-2,3.4391124E-2,1.8773675E-1,-2.3164295E-1,-6.0770243E-1,-1.2287695E-1,-3.8745727E-2,4.1850634E-2,-2.7486358E-2,1.2469846E-1,2.1028937E-1,-1.616286E-2,-9.6844295E-3,-9.074277E-3,-3.446398E-2,-7.1211867E-3,-5.058873E-3,-2.3297584E-3,-6.7856436E-4,1.4830184E-3,5.8241133E-3,3.5921459E-3,8.493684E-3,9.903096E-3,1.4750992E-2],"categories":[],"categories_nodes":[],"categories_segments":[],"categories_sizes":[],"default_left":[0,0,0,0,0,0,0,0,0,0,0,0,0,0,0,0,0,0,0,0,0,0,0,0,0,0,0,0,0],"id":21,"left_children":[1,3,5,7,9,11,13,15,17,19,21,23,-1,25,27,-1,-1,-1,-1,-1,-1,-1,-1,-1,-1,-1,-1,-1,-1],"loss_changes":[1.26943245E1,1.8212824E0,2.0536575E0,4.8902178E-1,2.8565657E-1,6.8966347E-1,2.6806545E-1,3.824649E-1,1.3983846E-2,2.5460362E-2,1.3990447E-2,1.3483155E-1,0E0,1.2389803E-1,9.801006E-2,0E0,0E0,0E0,0E0,0E0,0E0,0E0,0E0,0E0,0E0,0E0,0E0,0E0,0E0],"parents":[2147483647,0,0,1,1,2,2,3,3,4,4,5,5,6,6,7,7,8,8,9,9,10,10,11,11,13,13,14,14],"right_children":[2,4,6,8,10,12,14,16,18,20,22,24,-1,26,28,-1,-1,-1,-1,-1,-1,-1,-1,-1,-1,-1,-1,-1,-1],"split_conditions":[1.88E0,1.42E0,2.14E0,2.73673E5,1.67E0,2.21E0,2.39E0,1.17E0,1.08E0,1.5E0,1.9E0,2.08E0,-2.7486358E-2,-4.3763747E-3,2.58E0,-1.616286E-2,-9.6844295E-3,-9.074277E-3,-3.446398E-2,-7.1211867E-3,-5.058873E-3,-2.3297584E-3,-6.7856436E-4,1.4830184E-3,5.8241133E-3,3.5921459E-3,8.493684E-3,9.903096E-3,1.4750992E-2],"split_indices":[3,0,8,33,3,0,1,1,0,3,17,3,0,5,3,0,0,0,0,0,0,0,0,0,0,0,0,0,0],"split_type":[0,0,0,0,0,0,0,0,0,0,0,0,0,0,0,0,0,0,0,0,0,0,0,0,0,0,0,0,0],"sum_hessian":[6.54E2,2.96E2,3.58E2,1.3E2,1.66E2,1.52E2,2.06E2,1.27E2,3E0,9.3E1,7.3E1,1.51E2,1E0,5.6E1,1.5E2,3.5E1,9.2E1,1E0,2E0,4.6E1,4.7E1,5.5E1,1.8E1,1.31E2,2E1,2.7E1,2.9E1,1.34E2,1.6E1],"tree_param":{"num_deleted":"0","num_feature":"36","num_nodes":"29","size_leaf_vector":"1"}},{"base_weights":[-4.151561E-3,-1.5432951E-1,1.05775334E-1,-2.2241206E-1,-8.512048E-2,2.6510313E-2,1.7722125E-1,-2.1047933E-1,-4.9534E-1,-1.1414213E-1,-4.9219776E-2,3.2716405E-2,-2.67992E-2,1.300023E-1,2.0799299E-1,-1.2450636E-2,-7.2833733E-3,-7.963154E-3,-3.3315178E-2,-6.0975673E-3,-3.8861844E-3,-1.7100082E-3,-3.782816E-3,1.0452918E-3,5.544346E-3,4.4097505E-3,8.110193E-3,9.487323E-3,1.2526536E-2],"categories":[],"categories_nodes":[],"categories_segments":[],"categories_sizes":[],"default_left":[0,0,0,0,0,0,0,0,0,0,0,0,0,0,0,0,0,0,0,0,0,0,0,0,0,0,0,0,0],"id":22,"left_children":[1,3,5,7,9,11,13,15,17,19,21,23,-1,25,27,-1,-1,-1,-1,-1,-1,-1,-1,-1,-1,-1,-1,-1,-1],"loss_changes":[1.0664369E1,1.2674241E0,2.1076612E0,3.4191942E-1,1.3712198E-1,6.389141E-1,2.577505E-1,2.9588413E-1,1.8116689E-1,1.185143E-2,2.2427723E-2,1.6109498E-1,0E0,9.3395114E-2,4.3273926E-2,0E0,0E0,0E0,0E0,0E0,0E0,0E0,0E0,0E0,0E0,0E0,0E0,0E0,0E0],"parents":[2147483647,0,0,1,1,2,2,3,3,4,4,5,5,6,6,7,7,8,8,9,9,10,10,11,11,13,13,14,14],"right_children":[2,4,6,8,10,12,14,16,18,20,22,24,-1,26,28,-1,-1,-1,-1,-1,-1,-1,-1,-1,-1,-1,-1,-1,-1],"split_conditions":[1.88E0,1.41E0,2.13E0,2.66743E5,1.64E0,2.22E0,2.43E0,1.29E0,1.0948E4,1.3793322E-2,2.7181301E-2,3.2435276E-2,-2.67992E-2,-4.3763747E-3,2.58E0,-1.2450636E-2,-7.2833733E-3,-7.963154E-3,-3.3315178E-2,-6.0975673E-3,-3.8861844E-3,-1.7100082E-3,-3.782816E-3,1.0452918E-3,5.544346E-3,4.4097505E-3,8.110193E-3,9.487323E-3,1.2526536E-2],"split_indices":[1,2,8,33,22,1,1,1,4,5,6,5,0,5,1,0,0,0,0,0,0,0,0,0,0,0,0,0,0],"split_type":[0,0,0,0,0,0,0,0,0,0,0,0,0,0,0,0,0,0,0,0,0,0,0,0,0,0,0,0,0],"sum_hessian":[6.44E2,2.72E2,3.72E2,1.36E2,1.36E2,1.77E2,1.95E2,1.32E2,4E0,7.4E1,6.2E1,1.76E2,1E0,7.9E1,1.16E2,8.1E1,5.1E1,2E0,2E0,5.9E1,1.5E1,4.1E1,2.1E1,1.54E2,2.2E1,3.6E1,4.3E1,8.5E1,3.1E1],"tree_param":{"num_deleted":"0","num_feature":"36","num_nodes":"29","size_leaf_vector":"1"}},{"base_weights":[-4.3512075E-3,-1.3877928E-1,1.1011712E-1,-2.1898909E-1,-6.822963E-2,4.7402706E-2,1.8871008E-1,-2.9724556E-1,-1.8875143E-1,-1.0158002E-1,-3.3609506E-2,5.3005636E-2,-2.612922E-2,8.450861E-3,2.2786161E-1,-1.25010805E-2,-3.745549E-2,-8.740182E-3,-1.6626546E-2,-5.771785E-3,-3.7754201E-3,-1.3801666E-3,-3.1220533E-3,1.4278819E-3,5.1300707E-3,4.321607E-3,1.1602046E-2],"categories":[],"categories_nodes":[],"categories_segments":[],"categories_sizes":[],"default_left":[0,0,0,0,0,0,0,0,0,0,0,0,0,0,0,0,0,0,0,0,0,0,0,0,0,0,0],"id":23,"left_children":[1,3,5,7,9,11,13,15,17,19,21,23,-1,-1,25,-1,-1,-1,-1,-1,-1,-1,-1,-1,-1,-1,-1],"loss_changes":[9.97116E0,1.6713729E0,1.7161736E0,2.7280903E-1,1.8132114E-1,6.536452E-1,8.099413E-2,6.022427E-1,1.4842916E-1,2.0543933E-2,1.2129806E-2,2.3351091E-1,0E0,0E0,8.906841E-3,0E0,0E0,0E0,0E0,0E0,0E0,0E0,0E0,0E0,0E0,0E0,0E0],"parents":[2147483647,0,0,1,1,2,2,3,3,4,4,5,5,6,6,7,7,8,8,9,9,10,10,11,11,14,14],"right_children":[2,4,6,8,10,12,14,16,18,20,22,24,-1,-1,26,-1,-1,-1,-1,-1,-1,-1,-1,-1,-1,-1,-1],"split_conditions":[1.89E0,1.44E0,2.38E0,1.14E0,1.67E0,1.8083142E-1,2.51E0,3.4641016E-2,2.30187E5,1.55E0,2.5767477E-2,2.08E0,-2.612922E-2,8.450861E-3,-3.9220713E-2,-1.25010805E-2,-3.745549E-2,-8.740182E-3,-1.6626546E-2,-5.771785E-3,-3.7754201E-3,-1.3801666E-3,-3.1220533E-3,1.4278819E-3,5.1300707E-3,4.321607E-3,1.1602046E-2],"split_indices":[3,3,1,28,3,10,3,10,32,3,6,3,0,0,5,0,0,0,0,0,0,0,0,0,0,0,0],"split_type":[0,0,0,0,0,0,0,0,0,0,0,0,0,0,0,0,0,0,0,0,0,0,0,0,0,0,0],"sum_hessian":[6.46E2,2.97E2,3.49E2,1.38E2,1.59E2,1.95E2,1.54E2,3.6E1,1.02E2,8E1,7.9E1,1.94E2,1E0,1.06E2,4.8E1,3.4E1,2E0,9.5E1,7E0,5E1,3E1,6.7E1,1.2E1,1.31E2,6.3E1,2E0,4.6E1],"tree_param":{"num_deleted":"0","num_feature":"36","num_nodes":"27","size_leaf_vector":"1"}},{"base_weights":[-1.6161909E-3,-1.3398251E-1,1.03343524E-1,-2.1573704E-1,-7.198671E-2,4.141121E-2,1.7255427E-1,-2.027432E-1,-5.581149E-1,-1.10304065E-1,-3.46145E-2,4.687745E-2,-2.5475988E-2,1.5508638E-1,2.2175749E-1,-1.430546E-2,-8.430875E-3,-8.335811E-3,-3.165045E-2,-5.8558625E-3,-3.8682215E-3,-1.2027832E-3,-2.9707914E-3,2.5548167E-3,-1.9184176E-2,3.117758E-3,7.913566E-3,4.1775545E-3,1.1323071E-2],"categories":[],"categories_nodes":[],"categories_segments":[],"categories_sizes":[],"default_left":[0,0,0,0,0,0,0,0,0,0,0,0,0,0,0,0,0,0,0,0,0,0,0,0,0,0,0,0,0],"id":24,"left_children":[1,3,5,7,9,11,13,15,17,19,21,23,-1,25,27,-1,-1,-1,-1,-1,-1,-1,-1,-1,-1,-1,-1,-1,-1],"loss_changes":[9.141634E0,1.4593854E0,1.5659561E0,4.4294643E-1,2.3532653E-1,6.111316E-1,1.1429787E-1,2.9883766E-1,1.1721015E-2,9.342074E-3,2.1091804E-2,3.720031E-1,0E0,2.8820992E-2,9.033918E-3,0E0,0E0,0E0,0E0,0E0,0E0,0E0,0E0,0E0,0E0,0E0,0E0,0E0,0E0],"parents":[2147483647,0,0,1,1,2,2,3,3,4,4,5,5,6,6,7,7,8,8,9,9,10,10,11,11,13,13,14,14],"right_children":[2,4,6,8,10,12,14,16,18,20,22,24,-1,26,28,-1,-1,-1,-1,-1,-1,-1,-1,-1,-1,-1,-1,-1,-1],"split_conditions":[1.88E0,1.42E0,2.304E0,2.73673E5,1.61E0,1.8083142E-1,2.51E0,1.14E0,1.08E0,2.22092E5,2.5767477E-2,2.31E0,-2.5475988E-2,2.31E0,-3.9220713E-2,-1.430546E-2,-8.430875E-3,-8.335811E-3,-3.165045E-2,-5.8558625E-3,-3.8682215E-3,-1.2027832E-3,-2.9707914E-3,2.5548167E-3,-1.9184176E-2,3.117758E-3,7.913566E-3,4.1775545E-3,1.1323071E-2],"split_indices":[3,0,8,33,3,10,3,28,0,33,6,9,0,1,5,0,0,0,0,0,0,0,0,0,0,0,0,0,0],"split_type":[0,0,0,0,0,0,0,0,0,0,0,0,0,0,0,0,0,0,0,0,0,0,0,0,0,0,0,0,0],"sum_hessian":[6.56E2,2.9E2,3.66E2,1.24E2,1.66E2,1.94E2,1.72E2,1.21E2,3E0,8.1E1,8.5E1,1.93E2,1E0,1.3E2,4.2E1,3.3E1,8.8E1,1E0,2E0,6.5E1,1.6E1,6.1E1,2.4E1,1.92E2,1E0,5E0,1.25E2,2E0,4E1],"tree_param":{"num_deleted":"0","num_feature":"36","num_nodes":"29","size_leaf_vector":"1"}},{"base_weights":[6.2600925E-4,-1.2544374E-1,1.0002544E-1,-1.8506995E-1,-5.7880312E-2,2.4955029E-2,1.5134704E-1,-1.7504509E-1,-3.99834E-1,-8.548726E-2,-2.7304957E-2,3.1836912E-2,-2.4839088E-2,9.7586885E-2,1.7092833E-1,-1.0847158E-2,-5.942574E-3,-7.0409714E-3,-3.0595437E-2,-4.8987675E-3,-3.310655E-3,-1.8653354E-3,-8.086349E-4,1.0419668E-3,4.8676855E-3,5.537879E-3,-9.47878E-3,8.056464E-3,1.2107416E-2],"categories":[],"categories_nodes":[],"categories_segments":[],"categories_sizes":[],"default_left":[0,0,0,0,0,0,0,0,0,0,0,0,0,0,0,0,0,0,0,0,0,0,0,0,0,0,0,0,0],"id":25,"left_children":[1,3,5,7,9,11,13,15,17,19,21,23,-1,25,27,-1,-1,-1,-1,-1,-1,-1,-1,-1,-1,-1,-1,-1,-1],"loss_changes":[8.157867E0,1.1454825E0,1.398618E0,2.5726366E-1,1.1246231E-1,5.5080515E-1,2.1070147E-1,3.2031345E-1,2.434141E-1,1.0602236E-2,6.7452267E-3,1.0460904E-1,0E0,2.479248E-1,7.0551395E-2,0E0,0E0,0E0,0E0,0E0,0E0,0E0,0E0,0E0,0E0,0E0,0E0,0E0,0E0],"parents":[2147483647,0,0,1,1,2,2,3,3,4,4,5,5,6,6,7,7,8,8,9,9,10,10,11,11,13,13,14,14],"right_children":[2,4,6,8,10,12,14,16,18,20,22,24,-1,26,28,-1,-1,-1,-1,-1,-1,-1,-1,-1,-1,-1,-1,-1,-1],"split_conditions":[1.88E0,1.49E0,2.098E0,2.73673E5,1.7E0,2.16E0,2.38E0,1.32E0,5.744E4,1.57E0,1.89E0,3.2435276E-2,-2.4839088E-2,2.37E0,2.59E0,-1.0847158E-2,-5.942574E-3,-7.0409714E-3,-3.0595437E-2,-4.8987675E-3,-3.310655E-3,-1.8653354E-3,-8.086349E-4,1.0419668E-3,4.8676855E-3,5.537879E-3,-9.47878E-3,8.056464E-3,1.2107416E-2],"split_indices":[3,1,8,33,3,0,1,3,4,3,25,5,0,1,3,0,0,0,0,0,0,0,0,0,0,0,0,0,0],"split_type":[0,0,0,0,0,0,0,0,0,0,0,0,0,0,0,0,0,0,0,0,0,0,0,0,0,0,0,0,0],"sum_hessian":[6.49E2,2.86E2,3.63E2,1.51E2,1.35E2,1.48E2,2.15E2,1.46E2,5E0,7E1,6.5E1,1.47E2,1E0,5.9E1,1.56E2,8.2E1,6.4E1,3E0,2E0,4E1,3E1,3.3E1,3.2E1,1.27E2,2E1,5.7E1,2E0,1.4E2,1.6E1],"tree_param":{"num_deleted":"0","num_feature":"36","num_nodes":"29","size_leaf_vector":"1"}},{"base_weights":[-2.369855E-3,-1.4746395E-1,7.518012E-2,-2.1850021E-1,-1.0828484E-1,1.53840175E-2,1.492073E-1,-2.016313E-1,-3.901336E-1,-1.3842088E-1,-8.202064E-2,2.1584544E-2,-2.7291697E-1,1.21013016E-1,1.7793073E-1,-1.2014145E-2,-8.408911E-3,-2.2563657E-2,-2.1108927E-3,-6.303766E-3,-1.5067235E-2,-4.716632E-3,-3.1113315E-3,6.7782856E-4,9.009088E-3,-2.845714E-2,5.714059E-3,3.198953E-3,6.527476E-3,8.229501E-3,1.1508918E-2],"categories":[],"categories_nodes":[],"categories_segments":[],"categories_sizes":[],"default_left":[0,0,0,0,0,0,0,0,0,0,0,0,0,0,0,0,0,0,0,0,0,0,0,0,0,0,0,0,0,0,0],"id":26,"left_children":[1,3,5,7,9,11,13,15,17,19,21,23,25,27,29,-1,-1,-1,-1,-1,-1,-1,-1,-1,-1,-1,-1,-1,-1,-1,-1],"loss_changes":[7.2686543E0,6.0254526E-1,1.8612766E0,1.5006328E-1,1.0499692E-1,4.2419335E-1,1.3071728E-1,5.527258E-2,1.08576834E-1,9.677076E-2,1.3870001E-2,2.9039663E-1,6.3853276E-1,4.4950247E-2,2.5543451E-2,0E0,0E0,0E0,0E0,0E0,0E0,0E0,0E0,0E0,0E0,0E0,0E0,0E0,0E0,0E0,0E0],"parents":[2147483647,0,0,1,1,2,2,3,3,4,4,5,5,6,6,7,7,8,8,9,9,10,10,11,11,12,12,13,13,14,14],"right_children":[2,4,6,8,10,12,14,16,18,20,22,24,26,28,30,-1,-1,-1,-1,-1,-1,-1,-1,-1,-1,-1,-1,-1,-1,-1,-1],"split_conditions":[1.7E0,1.26E0,2.22E0,2.03771E5,1.46E0,2.29E0,2.45E0,1.11E0,1.4E0,2.66743E5,1.558E0,2.18E0,2.36E0,2.28E0,2.59E0,-1.2014145E-2,-8.408911E-3,-2.2563657E-2,-2.1108927E-3,-6.303766E-3,-1.5067235E-2,-4.716632E-3,-3.1113315E-3,6.7782856E-4,9.009088E-3,-2.845714E-2,5.714059E-3,3.198953E-3,6.527476E-3,8.229501E-3,1.1508918E-2],"split_indices":[3,20,14,31,3,0,3,3,0,33,8,3,0,3,3,0,0,0,0,0,0,0,0,0,0,0,0,0,0,0,0],"split_type":[0,0,0,0,0,0,0,0,0,0,0,0,0,0,0,0,0,0,0,0,0,0,0,0,0,0,0,0,0,0,0],"sum_hessian":[6.44E2,2.24E2,4.2E2,7.8E1,1.46E2,2.33E2,1.87E2,7.3E1,5E0,6.6E1,8E1,2.29E2,4E0,9.7E1,9E1,3.1E1,4.2E1,4E0,1E0,6.3E1,3E0,4.7E1,3.3E1,2.19E2,1E1,2E0,2E0,1.5E1,8.2E1,7.5E1,1.5E1],"tree_param":{"num_deleted":"0","num_feature":"36","num_nodes":"31","size_leaf_vector":"1"}},{"base_weights":[-2.8070651E-3,-1.15874514E-1,8.8716604E-2,-1.7842561E-1,-5.7472028E-2,2.0743703E-2,1.3671279E-1,-1.6750048E-1,-5.107365E-1,-8.128484E-2,-2.5693117E-2,2.7150445E-2,-2.3506682E-2,1.076459E-1,1.6819125E-1,-1.0787924E-2,-5.8769514E-3,-7.651037E-3,-2.894841E-2,-4.535574E-3,-2.7139164E-3,-1.5888518E-3,-3.6829742E-4,8.487056E-4,3.7515436E-3,6.1404863E-3,3.271234E-3,7.827657E-3,1.0790178E-2],"categories":[],"categories_nodes":[],"categories_segments":[],"categories_sizes":[],"default_left":[0,0,0,0,0,0,0,0,0,0,0,0,0,0,0,0,0,0,0,0,0,0,0,0,0,0,0,0,0],"id":27,"left_children":[1,3,5,7,9,11,13,15,17,19,21,23,-1,25,27,-1,-1,-1,-1,-1,-1,-1,-1,-1,-1,-1,-1,-1,-1],"loss_changes":[6.7780995E0,1.0601153E0,1.1781673E0,4.2635822E-1,1.13693595E-1,4.8764777E-1,1.758709E-1,3.0736303E-1,9.036064E-3,1.7224789E-2,7.2364956E-3,7.181349E-2,0E0,6.431162E-2,2.162695E-2,0E0,0E0,0E0,0E0,0E0,0E0,0E0,0E0,0E0,0E0,0E0,0E0,0E0,0E0],"parents":[2147483647,0,0,1,1,2,2,3,3,4,4,5,5,6,6,7,7,8,8,9,9,10,10,11,11,13,13,14,14],"right_children":[2,4,6,8,10,12,14,16,18,20,22,24,-1,26,28,-1,-1,-1,-1,-1,-1,-1,-1,-1,-1,-1,-1,-1,-1],"split_conditions":[1.88E0,1.41E0,2.098E0,2.73673E5,1.71E0,2.16E0,2.44E0,1.2E0,1.08E0,1.61E0,1.9E0,2.1353124E-2,-2.3506682E-2,5E-2,2.58E0,-1.0787924E-2,-5.8769514E-3,-7.651037E-3,-2.894841E-2,-4.535574E-3,-2.7139164E-3,-1.5888518E-3,-3.6829742E-4,8.487056E-4,3.7515436E-3,6.1404863E-3,3.271234E-3,7.827657E-3,1.0790178E-2],"split_indices":[3,2,8,33,1,0,3,2,0,23,17,5,0,10,3,0,0,0,0,0,0,0,0,0,0,0,0,0,0],"split_type":[0,0,0,0,0,0,0,0,0,0,0,0,0,0,0,0,0,0,0,0,0,0,0,0,0,0,0,0,0],"sum_hessian":[6.53E2,2.92E2,3.61E2,1.4E2,1.52E2,1.5E2,2.11E2,1.37E2,3E0,8.6E1,6.6E1,1.49E2,1E0,1.12E2,9.9E1,6.8E1,6.9E1,1E0,2E0,6.2E1,2.4E1,4.9E1,1.7E1,1.24E2,2.5E1,8.1E1,3.1E1,8.3E1,1.6E1],"tree_param":{"num_deleted":"0","num_feature":"36","num_nodes":"29","size_leaf_vector":"1"}},{"base_weights":[-2.606763E-3,-1.09350026E-1,8.4242575E-2,-1.748413E-1,-5.7333104E-2,3.670999E-2,1.4939338E-1,-1.6402587E-1,-4.059325E-1,-8.6365804E-2,-3.13122E-2,4.1361067E-2,-2.2919014E-2,1.3681401E-1,1.8507822E-1,-1.2053396E-2,-6.714253E-3,-5.8442457E-3,-2.7983462E-2,-4.4486453E-3,-1.5775204E-3,-1.1632032E-3,-2.517051E-3,7.049344E-4,3.9087785E-3,1.1485339E-3,6.88091E-3,2.6330948E-3,9.367846E-3],"categories":[],"categories_nodes":[],"categories_segments":[],"categories_sizes":[],"default_left":[0,0,0,0,0,0,0,0,0,0,0,0,0,0,0,0,0,0,0,0,0,0,0,0,0,0,0,0,0],"id":28,"left_children":[1,3,5,7,9,11,13,15,17,19,21,23,-1,25,27,-1,-1,-1,-1,-1,-1,-1,-1,-1,-1,-1,-1,-1,-1],"loss_changes":[5.951655E0,9.7109246E-1,1.0907779E0,2.50834E-1,1.1967981E-1,4.9331582E-1,4.156375E-2,2.4945688E-1,1.5676928E-1,8.053958E-3,1.2152612E-2,2.0464626E-1,0E0,7.2755814E-3,9.959936E-4,0E0,0E0,0E0,0E0,0E0,0E0,0E0,0E0,0E0,0E0,0E0,0E0,0E0,0E0],"parents":[2147483647,0,0,1,1,2,2,3,3,4,4,5,5,6,6,7,7,8,8,9,9,10,10,11,11,13,13,14,14],"right_children":[2,4,6,8,10,12,14,16,18,20,22,24,-1,26,28,-1,-1,-1,-1,-1,-1,-1,-1,-1,-1,-1,-1,-1,-1],"split_conditions":[1.88E0,1.41E0,2.35E0,2.73673E5,1.6E0,1.8083142E-1,2.52E0,1.14E0,1.0948E4,4.1456714E-2,2.5767477E-2,2.03E0,-2.2919014E-2,7.0710676E-3,1.0364E4,-1.2053396E-2,-6.714253E-3,-5.8442457E-3,-2.7983462E-2,-4.4486453E-3,-1.5775204E-3,-1.1632032E-3,-2.517051E-3,7.049344E-4,3.9087785E-3,1.1485339E-3,6.88091E-3,2.6330948E-3,9.367846E-3],"split_indices":[3,2,3,33,3,10,3,28,4,5,6,3,0,10,4,0,0,0,0,0,0,0,0,0,0,0,0,0,0],"split_type":[0,0,0,0,0,0,0,0,0,0,0,0,0,0,0,0,0,0,0,0,0,0,0,0,0,0,0,0,0],"sum_hessian":[6.4E2,2.87E2,3.53E2,1.26E2,1.61E2,2.05E2,1.48E2,1.22E2,4E0,7.5E1,8.6E1,2.04E2,1E0,1.13E2,3.5E1,3.2E1,9E1,2E0,2E0,7.1E1,4E0,6.2E1,2.4E1,1.18E2,8.6E1,1E0,1.12E2,1E0,3.4E1],"tree_param":{"num_deleted":"0","num_feature":"36","num_nodes":"29","size_leaf_vector":"1"}},{"base_weights":[-1.8218682E-3,-1.12283066E-1,7.430378E-2,-1.6937043E-1,-6.2741205E-2,1.1797479E-2,1.2555048E-1,-1.5764146E-1,-4.7889674E-1,-8.8600956E-2,-3.972397E-2,1.7002301E-2,-2.234604E-2,8.5803695E-2,1.4103888E-1,-2.565503E-2,-7.5171324E-3,-7.313654E-3,-2.705068E-2,-4.5749927E-3,1.8710694E-4,-2.609176E-3,-1.2963191E-3,1.5903346E-4,2.5137232E-3,1.4498276E-3,5.8161356E-3,6.5582367E-3,8.824623E-3],"categories":[],"categories_nodes":[],"categories_segments":[],"categories_sizes":[],"default_left":[0,0,0,0,0,0,0,0,0,0,0,0,0,0,0,0,0,0,0,0,0,0,0,0,0,0,0,0,0],"id":29,"left_children":[1,3,5,7,9,11,13,15,17,19,21,23,-1,25,27,-1,-1,-1,-1,-1,-1,-1,-1,-1,-1,-1,-1,-1,-1],"loss_changes":[5.4825563E0,7.41678E-1,1.2349699E0,3.7104774E-1,8.219212E-2,4.254194E-1,1.1840868E-1,2.3419094E-1,3.510356E-3,1.8277884E-2,1.2056187E-2,7.985845E-2,0E0,1.0411638E-1,2.9711723E-2,0E0,0E0,0E0,0E0,0E0,0E0,0E0,0E0,0E0,0E0,0E0,0E0,0E0,0E0],"parents":[2147483647,0,0,1,1,2,2,3,3,4,4,5,5,6,6,7,7,8,8,9,9,10,10,11,11,13,13,14,14],"right_children":[2,4,6,8,10,12,14,16,18,20,22,24,-1,26,28,-1,-1,-1,-1,-1,-1,-1,-1,-1,-1,-1,-1,-1,-1],"split_conditions":[1.88E0,1.42E0,2.098E0,2.73673E5,1.59E0,2.16E0,2.39E0,-4.4814017E-2,1.08E0,3.50199E5,1.69E0,2E0,-2.234604E-2,-1.2739026E-2,2.59E0,-2.565503E-2,-7.5171324E-3,-7.313654E-3,-2.705068E-2,-4.5749927E-3,1.8710694E-4,-2.609176E-3,-1.2963191E-3,1.5903346E-4,2.5137232E-3,1.4498276E-3,5.8161356E-3,6.5582367E-3,8.824623E-3],"split_indices":[1,13,8,33,1,0,1,5,0,31,13,1,0,5,1,0,0,0,0,0,0,0,0,0,0,0,0,0,0],"split_type":[0,0,0,0,0,0,0,0,0,0,0,0,0,0,0,0,0,0,0,0,0,0,0,0,0,0,0,0,0],"sum_hessian":[6.5E2,2.65E2,3.85E2,1.22E2,1.43E2,1.74E2,2.11E2,1.19E2,3E0,6.6E1,7.7E1,1.73E2,1E0,6.1E1,1.5E2,1E0,1.18E2,1E0,2E0,6.4E1,2E0,3.9E1,3.8E1,1.23E2,5E1,2.2E1,3.9E1,1.21E2,2.9E1],"tree_param":{"num_deleted":"0","num_feature":"36","num_nodes":"29","size_leaf_vector":"1"}},{"base_weights":[-6.237056E-4,-9.813998E-2,8.159765E-2,-1.6020529E-1,-5.3149246E-2,2.6690664E-2,1.24566175E-1,-1.4428473E-1,-2.9942706E-1,-7.6242596E-2,-2.3157053E-2,6.804766E-3,3.7846025E-2,7.6719694E-2,1.3190909E-1,-6.864838E-3,-1.5193838E-2,-3.347801E-2,-7.92222E-3,-4.3883095E-3,-2.9921706E-3,-1.2476587E-3,1.5031875E-3,2.2908289E-3,7.111579E-5,1.9728993E-3,-1.3982018E-3,5.2566924E-3,-1.7971916E-2,6.3088997E-3,9.378795E-3],"categories":[],"categories_nodes":[],"categories_segments":[],"categories_sizes":[],"default_left":[0,0,0,0,0,0,0,0,0,0,0,0,0,0,0,0,0,0,0,0,0,0,0,0,0,0,0,0,0,0,0],"id":30,"left_children":[1,3,5,7,9,11,13,15,17,19,21,23,25,27,29,-1,-1,-1,-1,-1,-1,-1,-1,-1,-1,-1,-1,-1,-1,-1,-1],"loss_changes":[5.2757816E0,8.319869E-1,8.389354E-1,2.3607492E-1,1.20135605E-1,3.479229E-2,6.014657E-2,8.652949E-2,5.201001E-1,1.3456523E-2,8.206289E-3,1.2113623E-2,1.1817813E-2,3.971879E-1,3.1205416E-2,0E0,0E0,0E0,0E0,0E0,0E0,0E0,0E0,0E0,0E0,0E0,0E0,0E0,0E0,0E0,0E0],"parents":[2147483647,0,0,1,1,2,2,3,3,4,4,5,5,6,6,7,7,8,8,9,9,10,10,11,11,12,12,13,13,14,14],"right_children":[2,4,6,8,10,12,14,16,18,20,22,24,26,28,30,-1,-1,-1,-1,-1,-1,-1,-1,-1,-1,-1,-1,-1,-1,-1,-1],"split_conditions":[1.89E0,1.42E0,2.2E0,3.563706E-2,1.67E0,1.94E0,3.3458E4,1.93212E5,1.16E0,3.0331502E-2,1.92E0,1.87E0,2.35E0,4.6583258E-2,9.757049E-2,-6.864838E-3,-1.5193838E-2,-3.347801E-2,-7.92222E-3,-4.3883095E-3,-2.9921706E-3,-1.2476587E-3,1.5031875E-3,2.2908289E-3,7.111579E-5,1.9728993E-3,-1.3982018E-3,5.2566924E-3,-1.7971916E-2,6.3088997E-3,9.378795E-3],"split_indices":[3,0,3,10,3,3,32,32,0,10,28,16,15,10,10,0,0,0,0,0,0,0,0,0,0,0,0,0,0,0,0],"split_type":[0,0,0,0,0,0,0,0,0,0,0,0,0,0,0,0,0,0,0,0,0,0,0,0,0,0,0,0,0,0,0],"sum_hessian":[6.56E2,3E2,3.56E2,1.25E2,1.75E2,1.57E2,1.99E2,1.14E2,1.1E1,9.8E1,7.7E1,5.7E1,1E2,2.8E1,1.71E2,1.11E2,3E0,2E0,9E0,5.5E1,4.3E1,7.5E1,2E0,6E0,5.1E1,9.8E1,2E0,2.7E1,1E0,1.58E2,1.3E1],"tree_param":{"num_deleted":"0","num_feature":"36","num_nodes":"31","size_leaf_vector":"1"}},{"base_weights":[-2.3432546E-3,-9.114455E-2,7.5022414E-2,-1.4901006E-1,-4.931124E-2,1.855117E-2,1.1094421E-1,-1.3961165E-1,-4.1015694E-1,-7.452943E-2,-2.6444484E-2,2.5021859E-2,-2.2021858E-2,8.767217E-2,1.3907045E-1,-1.05976295E-2,-5.5442685E-3,-2.5763724E-2,-2.3701102E-3,-3.5113438E-3,-6.509272E-3,-9.3659246E-4,-2.3392725E-3,1.0716886E-3,9.026858E-3,5.00343E-3,2.560349E-3,6.5165185E-3,9.77769E-3],"categories":[],"categories_nodes":[],"categories_segments":[],"categories_sizes":[],"default_left":[0,0,0,0,0,0,0,0,0,0,0,0,0,0,0,0,0,0,0,0,0,0,0,0,0,0,0,0,0],"id":31,"left_children":[1,3,5,7,9,11,13,15,17,19,21,23,-1,25,27,-1,-1,-1,-1,-1,-1,-1,-1,-1,-1,-1,-1,-1,-1],"loss_changes":[4.5892415E0,7.4549174E-1,7.2213364E-1,2.6180482E-1,1.0298091E-1,4.2681634E-1,1.3050056E-1,2.4041438E-1,1.2810236E-1,1.1451334E-2,1.4341213E-2,7.369271E-2,0E0,5.002451E-2,2.2399187E-2,0E0,0E0,0E0,0E0,0E0,0E0,0E0,0E0,0E0,0E0,0E0,0E0,0E0,0E0],"parents":[2147483647,0,0,1,1,2,2,3,3,4,4,5,5,6,6,7,7,8,8,9,9,10,10,11,11,13,13,14,14],"right_children":[2,4,6,8,10,12,14,16,18,20,22,24,-1,26,28,-1,-1,-1,-1,-1,-1,-1,-1,-1,-1,-1,-1,-1,-1],"split_conditions":[1.89E0,1.43E0,2.098E0,2.73673E5,1.6E0,2.16E0,2.44E0,1.17E0,1.42E0,1.592E0,2.5767477E-2,2.2E0,-2.2021858E-2,5E-2,2.63E0,-1.05976295E-2,-5.5442685E-3,-2.5763724E-2,-2.3701102E-3,-3.5113438E-3,-6.509272E-3,-9.3659246E-4,-2.3392725E-3,1.0716886E-3,9.026858E-3,5.00343E-3,2.560349E-3,6.5165185E-3,9.77769E-3],"split_indices":[3,17,8,33,3,0,3,1,0,8,6,1,0,10,3,0,0,0,0,0,0,0,0,0,0,0,0,0,0],"split_type":[0,0,0,0,0,0,0,0,0,0,0,0,0,0,0,0,0,0,0,0,0,0,0,0,0,0,0,0,0],"sum_hessian":[6.66E2,3.1E2,3.56E2,1.29E2,1.81E2,1.39E2,2.17E2,1.26E2,3E0,8.5E1,9.6E1,1.38E2,1E0,1.21E2,9.6E1,3.4E1,9.2E1,2E0,1E0,8.1E1,4E0,7.1E1,2.5E1,1.36E2,2E0,8.9E1,3.2E1,8.6E1,1E1],"tree_param":{"num_deleted":"0","num_feature":"36","num_nodes":"29","size_leaf_vector":"1"}},{"base_weights":[-7.248782E-4,-8.581634E-2,7.2708935E-2,-1.4647886E-1,-4.3623272E-2,3.307177E-2,1.21139795E-1,-1.3539866E-1,-4.3672496E-1,-6.845836E-2,-2.361559E-2,3.7790947E-2,-2.1471312E-2,1.1310519E-1,1.7556208E-1,-2.3911761E-2,-6.4190477E-3,-6.3151005E-3,-2.4904931E-2,-3.7588568E-3,-1.8862284E-3,-2.1219852E-3,-7.605374E-4,1.3874543E-3,5.4530255E-3,4.860412E-3,6.1941775E-3,3.0735573E-3,9.299075E-3],"categories":[],"categories_nodes":[],"categories_segments":[],"categories_sizes":[],"default_left":[0,0,0,0,0,0,0,0,0,0,0,0,0,0,0,0,0,0,0,0,0,0,0,0,0,0,0,0,0],"id":32,"left_children":[1,3,5,7,9,11,13,15,17,19,21,23,-1,25,27,-1,-1,-1,-1,-1,-1,-1,-1,-1,-1,-1,-1,-1,-1],"loss_changes":[3.9928408E0,7.512331E-1,6.544379E-1,3.3000207E-1,8.583638E-2,4.309243E-1,4.748106E-2,2.2250319E-1,1.32962465E-2,1.3270438E-2,1.5017614E-2,1.3223699E-1,0E0,1.1431456E-2,9.965181E-3,0E0,0E0,0E0,0E0,0E0,0E0,0E0,0E0,0E0,0E0,0E0,0E0,0E0,0E0],"parents":[2147483647,0,0,1,1,2,2,3,3,4,4,5,5,6,6,7,7,8,8,9,9,10,10,11,11,13,13,14,14],"right_children":[2,4,6,8,10,12,14,16,18,20,22,24,-1,26,28,-1,-1,-1,-1,-1,-1,-1,-1,-1,-1,-1,-1,-1,-1],"split_conditions":[1.89E0,1.43E0,2.38E0,2.73673E5,1.61E0,1.8083142E-1,2.59E0,-4.4814017E-2,1.08E0,2.30187E5,-1.1049836E-2,2.8573373E-2,-2.1471312E-2,2.45E0,1.00097E5,-2.3911761E-2,-6.4190477E-3,-6.3151005E-3,-2.4904931E-2,-3.7588568E-3,-1.8862284E-3,-2.1219852E-3,-7.605374E-4,1.3874543E-3,5.4530255E-3,4.860412E-3,6.1941775E-3,3.0735573E-3,9.299075E-3],"split_indices":[3,17,1,33,3,10,3,5,0,33,5,5,0,3,31,0,0,0,0,0,0,0,0,0,0,0,0,0,0],"split_type":[0,0,0,0,0,0,0,0,0,0,0,0,0,0,0,0,0,0,0,0,0,0,0,0,0,0,0,0,0],"sum_hessian":[6.37E2,2.95E2,3.42E2,1.2E2,1.75E2,1.89E2,1.53E2,1.17E2,3E0,7.7E1,9.8E1,1.88E2,1E0,1.36E2,1.7E1,1E0,1.16E2,1E0,2E0,6.2E1,1.5E1,2.9E1,6.9E1,1.66E2,2.2E1,5.9E1,7.7E1,2E0,1.5E1],"tree_param":{"num_deleted":"0","num_feature":"36","num_nodes":"29","size_leaf_vector":"1"}},{"base_weights":[-3.6683048E-3,-8.9762986E-2,6.1437614E-2,-1.5483111E-1,-5.63965E-2,1.1056494E-2,1.01248614E-1,-1.3479991E-1,-3.8453305E-1,-7.555158E-2,-3.1180894E-2,1.6261633E-2,-2.093453E-2,6.2260453E-2,1.1574569E-1,-7.2781295E-3,-5.6712506E-3,-3.150331E-2,-8.01533E-3,-4.757965E-3,-2.68684E-3,-3.6889096E-3,-1.3728339E-3,3.6847504E-4,3.801923E-3,-4.3850718E-4,4.854499E-3,5.3604366E-3,8.272435E-3],"categories":[],"categories_nodes":[],"categories_segments":[],"categories_sizes":[],"default_left":[0,0,0,0,0,0,0,0,0,0,0,0,0,0,0,0,0,0,0,0,0,0,0,0,0,0,0,0,0],"id":33,"left_children":[1,3,5,7,9,11,13,15,17,19,21,23,-1,25,27,-1,-1,-1,-1,-1,-1,-1,-1,-1,-1,-1,-1,-1,-1],"loss_changes":[3.6321266E0,5.9700346E-1,7.3899233E-1,3.8067842E-1,8.7483525E-2,3.736591E-1,1.0922766E-1,3.7338734E-3,2.843814E-1,3.9798975E-2,1.0982901E-2,8.6081214E-2,0E0,1.4434128E-1,4.548514E-2,0E0,0E0,0E0,0E0,0E0,0E0,0E0,0E0,0E0,0E0,0E0,0E0,0E0,0E0],"parents":[2147483647,0,0,1,1,2,2,3,3,4,4,5,5,6,6,7,7,8,8,9,9,10,10,11,11,13,13,14,14],"right_children":[2,4,6,8,10,12,14,16,18,20,22,24,-1,26,28,-1,-1,-1,-1,-1,-1,-1,-1,-1,-1,-1,-1,-1,-1],"split_conditions":[1.88E0,1.34E0,2.098E0,3.563706E-2,1.554E0,2.16E0,-1.2474175E-2,1.2E0,1.16E0,2.2803508E-2,-2.9705154E-2,3.2435276E-2,-2.093453E-2,2.328E0,2.59E0,-7.2781295E-3,-5.6712506E-3,-3.150331E-2,-8.01533E-3,-4.757965E-3,-2.68684E-3,-3.6889096E-3,-1.3728339E-3,3.6847504E-4,3.801923E-3,-4.3850718E-4,4.854499E-3,5.3604366E-3,8.272435E-3],"split_indices":[1,3,8,10,8,0,5,3,0,10,5,5,0,8,1,0,0,0,0,0,0,0,0,0,0,0,0,0,0],"split_type":[0,0,0,0,0,0,0,0,0,0,0,0,0,0,0,0,0,0,0,0,0,0,0,0,0,0,0,0,0],"sum_hessian":[6.46E2,2.78E2,3.68E2,9.3E1,1.85E2,1.63E2,2.05E2,8.7E1,6E0,1.04E2,8.1E1,1.62E2,1E0,5.7E1,1.48E2,5.4E1,3.3E1,2E0,4E0,5.3E1,5.1E1,5E0,7.6E1,1.42E2,2E1,1.9E1,3.8E1,1.29E2,1.9E1],"tree_param":{"num_deleted":"0","num_feature":"36","num_nodes":"29","size_leaf_vector":"1"}},{"base_weights":[-3.8791783E-3,-9.896214E-2,4.970142E-2,-1.5203576E-1,-6.928882E-2,3.1475476E-3,9.623993E-2,-1.2973002E-1,-4.1295353E-1,-8.571852E-2,-5.2163605E-2,7.1455683E-3,-2.0411167E-2,5.9152693E-2,1.1012385E-1,-7.659619E-3,-5.909803E-3,-3.0657796E-2,-4.1829149E-4,-3.8354618E-3,-1.1322803E-2,-3.2368742E-3,-2.050418E-3,-5.592744E-4,1.3835359E-3,3.6274304E-3,-1.7610354E-2,5.2454034E-3,8.277352E-3],"categories":[],"categories_nodes":[],"categories_segments":[],"categories_sizes":[],"default_left":[0,0,0,0,0,0,0,0,0,0,0,0,0,0,0,0,0,0,0,0,0,0,0,0,0,0,0,0,0],"id":34,"left_children":[1,3,5,7,9,11,13,15,17,19,21,23,-1,25,27,-1,-1,-1,-1,-1,-1,-1,-1,-1,-1,-1,-1,-1,-1],"loss_changes":[3.265464E0,3.5326076E-1,8.879818E-1,4.2366457E-1,3.77329E-2,3.4171882E-1,9.904361E-2,2.730608E-3,4.808669E-1,7.7724576E-2,8.005351E-3,7.744028E-2,0E0,3.451633E-1,2.5416136E-2,0E0,0E0,0E0,0E0,0E0,0E0,0E0,0E0,0E0,0E0,0E0,0E0,0E0,0E0],"parents":[2147483647,0,0,1,1,2,2,3,3,4,4,5,5,6,6,7,7,8,8,9,9,10,10,11,11,13,13,14,14],"right_children":[2,4,6,8,10,12,14,16,18,20,22,24,-1,26,28,-1,-1,-1,-1,-1,-1,-1,-1,-1,-1,-1,-1,-1,-1],"split_conditions":[1.7E0,1.26E0,2.098E0,3.563706E-2,1.49E0,2.21E0,2.38E0,1.07E0,1.79955E5,2.66743E5,2.7018512E-2,1.92E0,-2.0411167E-2,2.37E0,2.63E0,-7.659619E-3,-5.909803E-3,-3.0657796E-2,-4.1829149E-4,-3.8354618E-3,-1.1322803E-2,-3.2368742E-3,-2.050418E-3,-5.592744E-4,1.3835359E-3,3.6274304E-3,-1.7610354E-2,5.2454034E-3,8.277352E-3],"split_indices":[3,20,8,10,1,1,1,3,4,33,10,3,0,1,3,0,0,0,0,0,0,0,0,0,0,0,0,0,0],"split_type":[0,0,0,0,0,0,0,0,0,0,0,0,0,0,0,0,0,0,0,0,0,0,0,0,0,0,0,0,0],"sum_hessian":[6.39E2,2.3E2,4.09E2,8.1E1,1.49E2,2.05E2,2.04E2,7.6E1,5E0,7.4E1,7.5E1,2.04E2,1E0,5.7E1,1.47E2,2.1E1,5.5E1,3E0,2E0,7.1E1,3E0,3.3E1,4.2E1,1.08E2,9.6E1,5.6E1,1E0,1.37E2,1E1],"tree_param":{"num_deleted":"0","num_feature":"36","num_nodes":"29","size_leaf_vector":"1"}},{"base_weights":[-3.6000425E-3,-6.827247E-2,6.9761984E-2,-1.2560952E-1,-3.293866E-2,7.2536975E-2,-1.9900886E-2,-2.175994E-2,-1.200514E-1,-5.55042E-2,-1.348346E-2,2.7336735E-2,9.842329E-2,-5.5994405E-3,-1.3669428E-2,-3.0389756E-3,-1.5418226E-3,-8.0884993E-4,1.3124101E-3,8.465048E-4,1.9595553E-3,4.532302E-3,7.682846E-3],"categories":[],"categories_nodes":[],"categories_segments":[],"categories_sizes":[],"default_left":[0,0,0,0,0,0,0,0,0,0,0,0,0,0,0,0,0,0,0,0,0,0,0],"id":35,"left_children":[1,3,5,7,9,11,-1,-1,13,15,17,19,21,-1,-1,-1,-1,-1,-1,-1,-1,-1,-1],"loss_changes":[3.1693447E0,7.1507E-1,4.351716E-1,1.8005276E-1,9.627439E-2,3.6237037E-1,0E0,0E0,1.350472E-1,1.1399031E-2,1.3266867E-2,1.352337E-2,7.112563E-2,0E0,0E0,0E0,0E0,0E0,0E0,0E0,0E0,0E0,0E0],"parents":[2147483647,0,0,1,1,2,2,3,3,4,4,5,5,8,8,9,9,10,10,11,11,12,12],"right_children":[2,4,6,8,10,12,-1,-1,14,16,18,20,22,-1,-1,-1,-1,-1,-1,-1,-1,-1,-1],"split_conditions":[1.92E0,1.43E0,1.8083142E-1,-4.4814017E-2,1.71E0,2.2E0,-1.9900886E-2,-2.175994E-2,1.43E0,1.50378775E-2,2.9413885E-2,3.9292783E-3,2.3623146E-2,-5.5994405E-3,-1.3669428E-2,-3.0389756E-3,-1.5418226E-3,-8.0884993E-4,1.3124101E-3,8.465048E-4,1.9595553E-3,4.532302E-3,7.682846E-3],"split_indices":[3,17,10,5,1,3,0,0,12,5,5,5,5,0,0,0,0,0,0,0,0,0,0],"split_type":[0,0,0,0,0,0,0,0,0,0,0,0,0,0,0,0,0,0,0,0,0,0,0],"sum_hessian":[6.66E2,3.54E2,3.12E2,1.34E2,2.2E2,3.11E2,1E0,1E0,1.33E2,1.01E2,1.19E2,1.14E2,1.97E2,1.28E2,5E0,8.2E1,1.9E1,1.12E2,7E0,6.2E1,5.2E1,1.75E2,2.2E1],"tree_param":{"num_deleted":"0","num_feature":"36","num_nodes":"23","size_leaf_vector":"1"}},{"base_weights":[-1.0425663E-3,-6.4396776E-2,6.1924983E-2,-1.2818474E-1,-3.882398E-2,2.5564859E-2,9.7028345E-2,-1.1685361E-1,-2.7112207E-1,-6.2507205E-2,-1.7328221E-2,3.057548E-2,-1.9403366E-2,8.363682E-2,1.19670115E-1,-6.1984956E-3,-4.509658E-3,-2.2246981E-2,-7.368531E-3,-3.4267784E-3,-6.127179E-4,-1.8442102E-3,-5.0230365E-4,1.8258803E-3,-5.2259597E-3,3.4435187E-3,4.76908E-3,1.3245305E-3,6.1237416E-3],"categories":[],"categories_nodes":[],"categories_segments":[],"categories_sizes":[],"default_left":[0,0,0,0,0,0,0,0,0,0,0,0,0,0,0,0,0,0,0,0,0,0,0,0,0,0,0,0,0],"id":36,"left_children":[1,3,5,7,9,11,13,15,17,19,21,23,-1,25,27,-1,-1,-1,-1,-1,-1,-1,-1,-1,-1,-1,-1,-1,-1],"loss_changes":[2.5850387E0,5.2191293E-1,4.123373E-1,1.17325306E-1,1.17025465E-1,3.455466E-1,4.0020466E-2,5.3247213E-3,6.348997E-2,3.2483846E-2,1.7145835E-2,1.322567E-1,0E0,1.1987865E-2,1.2174606E-2,0E0,0E0,0E0,0E0,0E0,0E0,0E0,0E0,0E0,0E0,0E0,0E0,0E0,0E0],"parents":[2147483647,0,0,1,1,2,2,3,3,4,4,5,5,6,6,7,7,8,8,9,9,10,10,11,11,13,13,14,14],"right_children":[2,4,6,8,10,12,14,16,18,20,22,24,-1,26,28,-1,-1,-1,-1,-1,-1,-1,-1,-1,-1,-1,-1,-1,-1],"split_conditions":[1.88E0,1.35E0,2.28E0,3.563706E-2,1.61E0,1.8083142E-1,2.52E0,1.2E0,1.15E0,2.5752496E-2,-1.1049836E-2,2.29E0,-1.9403366E-2,2.43E0,-3.9220713E-2,-6.1984956E-3,-4.509658E-3,-2.2246981E-2,-7.368531E-3,-3.4267784E-3,-6.127179E-4,-1.8442102E-3,-5.0230365E-4,1.8258803E-3,-5.2259597E-3,3.4435187E-3,4.76908E-3,1.3245305E-3,6.1237416E-3],"split_indices":[2,1,27,10,23,10,1,2,0,5,5,13,0,20,5,0,0,0,0,0,0,0,0,0,0,0,0,0,0],"split_type":[0,0,0,0,0,0,0,0,0,0,0,0,0,0,0,0,0,0,0,0,0,0,0,0,0,0,0,0,0],"sum_hessian":[6.46E2,3.22E2,3.24E2,9.1E1,2.31E2,1.6E2,1.64E2,8.6E1,5E0,1.09E2,1.22E2,1.59E2,1E0,1.06E2,5.8E1,6.5E1,2.1E1,1E0,4E0,9.7E1,1.2E1,3.2E1,9E1,1.53E2,6E0,5E1,5.6E1,2E0,5.6E1],"tree_param":{"num_deleted":"0","num_feature":"36","num_nodes":"29","size_leaf_vector":"1"}},{"base_weights":[-2.6501606E-3,-6.231725E-2,6.324493E-2,-1.1365071E-1,-2.9440645E-2,6.592459E-2,-1.8918281E-2,-1.0476475E-1,-3.18401E-1,-5.033214E-2,-1.1084254E-2,2.452943E-2,9.0034045E-2,-6.575536E-3,-2.6255427E-3,-3.8522799E-3,-2.2681138E-2,-2.9458753E-3,-1.9325822E-3,-6.713674E-4,1.6274145E-3,4.6015237E-4,1.719576E-3,4.1047796E-3,7.4002924E-3],"categories":[],"categories_nodes":[],"categories_segments":[],"categories_sizes":[],"default_left":[0,0,0,0,0,0,0,0,0,0,0,0,0,0,0,0,0,0,0,0,0,0,0,0,0],"id":37,"left_children":[1,3,5,7,9,11,-1,13,15,17,19,21,23,-1,-1,-1,-1,-1,-1,-1,-1,-1,-1,-1,-1],"loss_changes":[2.5399318E0,5.687741E-1,3.88237E-1,2.068038E-1,7.920852E-2,3.0318403E-1,0E0,1.7198467E-1,1.282329E-1,7.4500144E-3,1.1887373E-2,1.6914614E-2,7.6669216E-2,0E0,0E0,0E0,0E0,0E0,0E0,0E0,0E0,0E0,0E0,0E0,0E0],"parents":[2147483647,0,0,1,1,2,2,3,3,4,4,5,5,7,7,8,8,9,9,10,10,11,11,12,12],"right_children":[2,4,6,8,10,12,-1,14,16,18,20,22,24,-1,-1,-1,-1,-1,-1,-1,-1,-1,-1,-1,-1],"split_conditions":[1.92E0,1.45E0,1.8083142E-1,2.73673E5,1.7E0,2.2E0,-1.8918281E-2,1.32E0,1.0948E4,3.082207E-2,3.4916267E-2,3.130495E-2,2.3623146E-2,-6.575536E-3,-2.6255427E-3,-3.8522799E-3,-2.2681138E-2,-2.9458753E-3,-1.9325822E-3,-6.713674E-4,1.6274145E-3,4.6015237E-4,1.719576E-3,4.1047796E-3,7.4002924E-3],"split_indices":[3,1,10,33,3,3,0,3,4,10,5,10,5,0,0,0,0,0,0,0,0,0,0,0,0],"split_type":[0,0,0,0,0,0,0,0,0,0,0,0,0,0,0,0,0,0,0,0,0,0,0,0,0],"sum_hessian":[6.44E2,3.38E2,3.06E2,1.31E2,2.07E2,3.05E2,1E0,1.27E2,4E0,9.6E1,1.11E2,1.13E2,1.92E2,8.3E1,4.4E1,2E0,2E0,5.3E1,4.3E1,1.06E2,5E0,4.5E1,6.8E1,1.71E2,2.1E1],"tree_param":{"num_deleted":"0","num_feature":"36","num_nodes":"25","size_leaf_vector":"1"}},{"base_weights":[-7.2721706E-4,-4.4845257E-2,6.665904E-2,-8.0483615E-2,-1.0756841E-2,6.981383E-2,-1.8445326E-2,-1.0746892E-1,-5.7830606E-2,-2.2864772E-2,1.7008174E-3,2.8329015E-2,8.535766E-2,-6.4717545E-3,-4.965392E-3,-2.6547846E-3,-1.3874918E-2,-2.2113542E-3,-8.557549E-4,1.9244597E-3,-1.6392618E-4,4.6781776E-4,2.0603207E-3,2.279916E-3,4.800564E-3],"categories":[],"categories_nodes":[],"categories_segments":[],"categories_sizes":[],"default_left":[0,0,0,0,0,0,0,0,0,0,0,0,0,0,0,0,0,0,0,0,0,0,0,0,0],"id":38,"left_children":[1,3,5,7,9,11,-1,13,15,17,19,21,23,-1,-1,-1,-1,-1,-1,-1,-1,-1,-1,-1,-1],"loss_changes":[1.9235147E0,4.7414255E-1,3.7752926E-1,1.1054301E-1,3.0357014E-2,1.6201437E-1,0E0,2.5630593E-3,9.5517516E-2,1.177134E-2,1.8444374E-2,1.6961068E-2,7.3984504E-2,0E0,0E0,0E0,0E0,0E0,0E0,0E0,0E0,0E0,0E0,0E0,0E0],"parents":[2147483647,0,0,1,1,2,2,3,3,4,4,5,5,7,7,8,8,9,9,10,10,11,11,12,12],"right_children":[2,4,6,8,10,12,-1,14,16,18,20,22,24,-1,-1,-1,-1,-1,-1,-1,-1,-1,-1,-1,-1],"split_conditions":[2E0,1.57E0,1.8083142E-1,1.34E0,1.88E0,2.2E0,-1.8445326E-2,1.07E0,4.63638E5,-1.7241806E-2,1.83E0,-1.3245227E-2,4.4507E4,-6.4717545E-3,-4.965392E-3,-2.6547846E-3,-1.3874918E-2,-2.2113542E-3,-8.557549E-4,1.9244597E-3,-1.6392618E-4,4.6781776E-4,2.0603207E-3,2.279916E-3,4.800564E-3],"split_indices":[1,3,10,3,3,3,0,3,31,5,26,5,34,0,0,0,0,0,0,0,0,0,0,0,0],"split_type":[0,0,0,0,0,0,0,0,0,0,0,0,0,0,0,0,0,0,0,0,0,0,0,0,0],"sum_hessian":[6.45E2,3.9E2,2.55E2,1.9E2,2E2,2.54E2,1E0,8.5E1,1.05E2,1.01E2,9.9E1,7E1,1.84E2,1.9E1,6.6E1,1.04E2,1E0,2E1,8.1E1,1.1E1,8.8E1,2.9E1,4.1E1,4E1,1.44E2],"tree_param":{"num_deleted":"0","num_feature":"36","num_nodes":"25","size_leaf_vector":"1"}},{"base_weights":[2.4775697E-3,-5.2082527E-2,5.9332486E-2,-8.724284E-2,-2.1876734E-2,2.166419E-2,8.0149904E-2,-8.015293E-2,-2.1860345E-1,-4.0626053E-2,-6.9218935E-3,1.7275847E-2,4.6640232E-2,6.9505684E-2,1.1196504E-1,-5.103064E-3,-2.553027E-3,-2.312478E-3,-2.1649605E-2,-2.1777984E-3,-6.824685E-4,-5.6777004E-4,1.0245123E-3,9.679204E-4,-1.2249207E-3,5.590592E-4,3.3398771E-3,-3.885597E-3,3.7020133E-3,4.467655E-3,8.2985E-3],"categories":[],"categories_nodes":[],"categories_segments":[],"categories_sizes":[],"default_left":[0,0,0,0,0,0,0,0,0,0,0,0,0,0,0,0,0,0,0,0,0,0,0,0,0,0,0,0,0,0,0],"id":39,"left_children":[1,3,5,7,9,11,13,15,17,19,21,23,25,27,29,-1,-1,-1,-1,-1,-1,-1,-1,-1,-1,-1,-1,-1,-1,-1,-1],"loss_changes":[1.9511522E0,3.3900803E-1,2.3978388E-1,1.2031579E-1,4.8507184E-2,1.1360232E-2,5.9269905E-2,8.529472E-2,2.3862934E-1,5.491525E-3,1.21428E-2,8.826001E-3,1.068927E-2,1.0655677E-1,4.3785572E-2,0E0,0E0,0E0,0E0,0E0,0E0,0E0,0E0,0E0,0E0,0E0,0E0,0E0,0E0,0E0,0E0],"parents":[2147483647,0,0,1,1,2,2,3,3,4,4,5,5,6,6,7,7,8,8,9,9,10,10,11,11,12,12,13,13,14,14],"right_children":[2,4,6,8,10,12,14,16,18,20,22,24,26,28,30,-1,-1,-1,-1,-1,-1,-1,-1,-1,-1,-1,-1,-1,-1,-1,-1],"split_conditions":[1.92E0,1.49E0,2.19E0,2.66743E5,1.722E0,3.2435276E-2,8.695707E-3,1.34E0,1.27238E5,4.1456714E-2,1.617286E-2,3.436678E-2,1.95E0,2.22E0,6.09918E-2,-5.103064E-3,-2.553027E-3,-2.312478E-3,-2.1649605E-2,-2.1777984E-3,-6.824685E-4,-5.6777004E-4,1.0245123E-3,9.679204E-4,-1.2249207E-3,5.590592E-4,3.3398771E-3,-3.885597E-3,3.7020133E-3,4.467655E-3,8.2985E-3],"split_indices":[3,1,3,33,8,5,5,3,4,5,5,6,0,28,10,0,0,0,0,0,0,0,0,0,0,0,0,0,0,0,0],"split_type":[0,0,0,0,0,0,0,0,0,0,0,0,0,0,0,0,0,0,0,0,0,0,0,0,0,0,0,0,0,0,0],"sum_hessian":[6.27E2,3.2E2,3.07E2,1.47E2,1.73E2,1.1E2,1.97E2,1.41E2,6E0,7.6E1,9.7E1,9.5E1,1.5E1,1.5E2,4.7E1,7.9E1,6.2E1,4E0,2E0,6.8E1,8E0,8.4E1,1.3E1,9.1E1,4E0,6E0,9E0,4E0,1.46E2,3.5E1,1.2E1],"tree_param":{"num_deleted":"0","num_feature":"36","num_nodes":"31","size_leaf_vector":"1"}},{"base_weights":[-2.3261765E-3,-6.608094E-2,4.307598E-2,-1.1037608E-1,-4.009485E-2,8.27443E-3,7.184341E-2,-9.871149E-2,-3.6564845E-1,-5.4567166E-2,-2.2983486E-2,1.2528422E-2,-1.8191656E-2,3.9933737E-2,8.3261766E-2,-2.061563E-2,-4.5574945E-3,-5.172917E-3,-2.0927953E-2,-2.5183277E-3,-5.9212307E-3,-3.3831508E-3,-1.0198784E-3,4.980576E-4,7.7343346E-3,-9.299802E-4,3.2637697E-3,3.642922E-3,5.8127088E-3],"categories":[],"categories_nodes":[],"categories_segments":[],"categories_sizes":[],"default_left":[0,0,0,0,0,0,0,0,0,0,0,0,0,0,0,0,0,0,0,0,0,0,0,0,0,0,0,0,0],"id":40,"left_children":[1,3,5,7,9,11,13,15,17,19,21,23,-1,25,27,-1,-1,-1,-1,-1,-1,-1,-1,-1,-1,-1,-1,-1,-1],"loss_changes":[1.8930227E0,3.086623E-1,3.818453E-1,2.6167107E-1,4.158774E-2,2.7999026E-1,7.282531E-2,1.924364E-1,1.2187064E-2,1.8981695E-2,7.978387E-3,6.1597E-2,0E0,8.576401E-2,4.4044256E-2,0E0,0E0,0E0,0E0,0E0,0E0,0E0,0E0,0E0,0E0,0E0,0E0,0E0,0E0],"parents":[2147483647,0,0,1,1,2,2,3,3,4,4,5,5,6,6,7,7,8,8,9,9,10,10,11,11,13,13,14,14],"right_children":[2,4,6,8,10,12,14,16,18,20,22,24,-1,26,28,-1,-1,-1,-1,-1,-1,-1,-1,-1,-1,-1,-1,-1,-1],"split_conditions":[1.88E0,1.39E0,2.098E0,2.73673E5,1.59E0,2.16E0,-1.2474175E-2,-4.4814017E-2,1.08E0,1.64E0,-2.9705154E-2,2.2E0,-1.8191656E-2,2.328E0,2.5E0,-2.061563E-2,-4.5574945E-3,-5.172917E-3,-2.0927953E-2,-2.5183277E-3,-5.9212307E-3,-3.3831508E-3,-1.0198784E-3,4.980576E-4,7.7343346E-3,-9.299802E-4,3.2637697E-3,3.642922E-3,5.8127088E-3],"split_indices":[1,14,8,33,1,0,5,5,0,30,5,1,0,8,11,0,0,0,0,0,0,0,0,0,0,0,0,0,0],"split_type":[0,0,0,0,0,0,0,0,0,0,0,0,0,0,0,0,0,0,0,0,0,0,0,0,0,0,0,0,0],"sum_hessian":[6.52E2,2.71E2,3.81E2,9.9E1,1.72E2,1.73E2,2.08E2,9.6E1,3E0,9.2E1,8E1,1.72E2,1E0,5.6E1,1.52E2,1E0,9.5E1,1E0,2E0,8.8E1,4E0,3E0,7.7E1,1.7E2,2E0,1.7E1,3.9E1,1.18E2,3.4E1],"tree_param":{"num_deleted":"0","num_feature":"36","num_nodes":"29","size_leaf_vector":"1"}},{"base_weights":[3.8068907E-4,-5.0553527E-2,5.3429168E-2,-8.6391926E-2,-2.100465E-2,5.5874374E-2,-1.7736865E-2,-7.9652E-2,-2.3150492E-1,-3.548266E-2,-8.528331E-3,1.9877149E-2,7.6787084E-2,-1.2772717E-2,-3.7009951E-3,-1.769456E-2,4.4225654E-4,4.2425244E-4,-1.8618758E-3,-6.0076657E-4,7.5977674E-4,4.9646007E-4,1.8584039E-3,6.530882E-3,3.5653468E-3],"categories":[],"categories_nodes":[],"categories_segments":[],"categories_sizes":[],"default_left":[0,0,0,0,0,0,0,0,0,0,0,0,0,0,0,0,0,0,0,0,0,0,0,0,0],"id":41,"left_children":[1,3,5,7,9,11,-1,13,15,17,19,21,23,-1,-1,-1,-1,-1,-1,-1,-1,-1,-1,-1,-1],"loss_changes":[1.7265661E0,3.4341425E-1,3.3221048E-1,1.2533367E-1,3.2211207E-2,2.3334706E-1,0E0,1.2169057E-1,1.7962357E-1,6.719969E-3,8.289639E-3,1.9584026E-2,4.8800945E-2,0E0,0E0,0E0,0E0,0E0,0E0,0E0,0E0,0E0,0E0,0E0,0E0],"parents":[2147483647,0,0,1,1,2,2,3,3,4,4,5,5,7,7,8,8,9,9,10,10,11,11,12,12],"right_children":[2,4,6,8,10,12,-1,14,16,18,20,22,24,-1,-1,-1,-1,-1,-1,-1,-1,-1,-1,-1,-1],"split_conditions":[1.92E0,1.49E0,1.8083142E-1,2.73673E5,1.73E0,2.2E0,-1.7736865E-2,-4.4814017E-2,1.42E0,1.39E0,1.617286E-2,1.0000084E-2,2.28E0,-1.2772717E-2,-3.7009951E-3,-1.769456E-2,4.4225654E-4,4.2425244E-4,-1.8618758E-3,-6.0076657E-4,7.5977674E-4,4.9646007E-4,1.8584039E-3,6.530882E-3,3.5653468E-3],"split_indices":[3,1,10,33,14,3,0,5,0,15,5,5,25,0,0,0,0,0,0,0,0,0,0,0,0],"split_type":[0,0,0,0,0,0,0,0,0,0,0,0,0,0,0,0,0,0,0,0,0,0,0,0,0],"sum_hessian":[6.37E2,3.25E2,3.12E2,1.46E2,1.79E2,3.11E2,1E0,1.41E2,5E0,8.2E1,9.7E1,1.15E2,1.96E2,3E0,1.38E2,3E0,2E0,3E0,7.9E1,8.5E1,1.2E1,7.4E1,4.1E1,1.6E1,1.8E2],"tree_param":{"num_deleted":"0","num_feature":"36","num_nodes":"25","size_leaf_vector":"1"}},{"base_weights":[1.6411935E-3,-4.5012705E-2,5.205221E-2,-7.543963E-2,-2.0232856E-2,5.4459296E-2,-1.7293444E-2,-6.90598E-2,-1.9590493E-1,-3.2590374E-2,-6.398367E-3,2.0651277E-2,7.467214E-2,-4.475742E-3,-2.176468E-3,-1.9290245E-3,-1.9640535E-2,-2.5838425E-3,-1.367291E-3,-4.8146746E-4,1.1695703E-3,8.039102E-4,2.6573795E-3,6.0860827E-3,3.3795305E-3],"categories":[],"categories_nodes":[],"categories_segments":[],"categories_sizes":[],"default_left":[0,0,0,0,0,0,0,0,0,0,0,0,0,0,0,0,0,0,0,0,0,0,0,0,0],"id":42,"left_children":[1,3,5,7,9,11,-1,13,15,17,19,21,23,-1,-1,-1,-1,-1,-1,-1,-1,-1,-1,-1,-1],"loss_changes":[1.5169476E0,2.5105518E-1,3.1576324E-1,1.01753175E-1,3.1590022E-2,2.0961493E-1,0E0,7.130402E-2,2.016918E-1,8.396663E-3,8.791516E-3,1.6532622E-2,5.6077003E-2,0E0,0E0,0E0,0E0,0E0,0E0,0E0,0E0,0E0,0E0,0E0,0E0],"parents":[2147483647,0,0,1,1,2,2,3,3,4,4,5,5,7,7,8,8,9,9,10,10,11,11,12,12],"right_children":[2,4,6,8,10,12,-1,14,16,18,20,22,24,-1,-1,-1,-1,-1,-1,-1,-1,-1,-1,-1,-1],"split_conditions":[1.92E0,1.49E0,1.8083142E-1,2.73673E5,1.77E0,2.2E0,-1.7293444E-2,1.29E0,1.44E0,1.8165901E-2,2.4796505E-2,3.2435276E-2,2.3E0,-4.475742E-3,-2.176468E-3,-1.9290245E-3,-1.9640535E-2,-2.5838425E-3,-1.367291E-3,-4.8146746E-4,1.1695703E-3,8.039102E-4,2.6573795E-3,6.0860827E-3,3.3795305E-3],"split_indices":[3,1,10,33,30,3,0,3,16,10,6,5,25,0,0,0,0,0,0,0,0,0,0,0,0],"split_type":[0,0,0,0,0,0,0,0,0,0,0,0,0,0,0,0,0,0,0,0,0,0,0,0,0],"sum_hessian":[6.43E2,3.34E2,3.09E2,1.49E2,1.85E2,3.08E2,1E0,1.43E2,6E0,9.7E1,8.8E1,1.16E2,1.92E2,7.8E1,6.5E1,4E0,2E0,1.9E1,7.8E1,8E1,8E0,1.03E2,1.3E1,2.3E1,1.69E2],"tree_param":{"num_deleted":"0","num_feature":"36","num_nodes":"25","size_leaf_vector":"1"}},{"base_weights":[-2.7999566E-3,-6.876908E-2,3.197624E-2,-1.3581994E-1,-5.563363E-2,7.416297E-3,6.9135584E-2,-9.601479E-2,-2.7083589E-2,-5.3476315E-2,-1.153023E-2,1.0079815E-2,-1.6861107E-2,6.257613E-2,1.2794936E-1,-5.1389383E-3,-2.7621244E-3,-3.789647E-3,-2.1211633E-3,1.2991964E-4,3.1184286E-3,2.2659213E-3,3.411697E-3,7.140279E-4,6.728762E-3],"categories":[],"categories_nodes":[],"categories_segments":[],"categories_sizes":[],"default_left":[0,0,0,0,0,0,0,0,0,0,0,0,0,0,0,0,0,0,0,0,0,0,0,0,0],"id":43,"left_children":[1,3,5,7,9,11,13,15,-1,17,-1,19,-1,21,23,-1,-1,-1,-1,-1,-1,-1,-1,-1,-1],"loss_changes":[1.4888117E0,1.897304E-1,3.8735566E-1,5.295714E-1,5.9009552E-2,2.3931243E-1,5.7191253E-2,3.6988556E-3,0E0,4.3157935E-2,0E0,9.998367E-2,0E0,1.1944413E-2,1.0128707E-2,0E0,0E0,0E0,0E0,0E0,0E0,0E0,0E0,0E0,0E0],"parents":[2147483647,0,0,1,1,2,2,3,3,4,4,5,5,6,6,7,7,9,9,11,11,13,13,14,14],"right_children":[2,4,6,8,10,12,14,16,-1,18,-1,20,-1,22,24,-1,-1,-1,-1,-1,-1,-1,-1,-1,-1],"split_conditions":[1.7E0,1.15E0,2.28E0,3.4641016E-2,7.20367E5,1.8083142E-1,2.59E0,1.970507E-2,-2.7083589E-2,1.37E0,-1.153023E-2,2.9413885E-2,-1.6861107E-2,2.4E0,-3.9220713E-2,-5.1389383E-3,-2.7621244E-3,-3.789647E-3,-2.1211633E-3,1.2991964E-4,3.1184286E-3,2.2659213E-3,3.411697E-3,7.140279E-4,6.728762E-3],"split_indices":[3,3,27,10,32,10,3,5,0,3,0,5,0,15,5,0,0,0,0,0,0,0,0,0,0],"split_type":[0,0,0,0,0,0,0,0,0,0,0,0,0,0,0,0,0,0,0,0,0,0,0,0,0],"sum_hessian":[6.47E2,2.23E2,4.24E2,3.5E1,1.88E2,2.56E2,1.68E2,3.3E1,2E0,1.87E2,1E0,2.55E2,1E0,1.53E2,1.5E1,2.7E1,6E0,6E1,1.27E2,2.24E2,3.1E1,4E1,1.13E2,1E0,1.4E1],"tree_param":{"num_deleted":"0","num_feature":"36","num_nodes":"25","size_leaf_vector":"1"}},{"base_weights":[-2.4390258E-3,-5.437379E-2,3.6696587E-2,-1.02559365E-1,-3.6123578E-2,1.4011347E-2,6.9118686E-2,-7.87698E-2,-2.5256589E-2,-5.0773233E-2,-2.1692125E-2,1.7334312E-2,-1.7510653E-2,6.354477E-2,1.0898846E-1,-5.511057E-3,-3.564567E-3,7.961886E-4,-2.7623745E-3,-1.192614E-3,3.4706222E-4,1.0244066E-3,-1.643958E-2,3.2650281E-3,1.3864279E-3,7.5150565E-3,3.2519735E-3],"categories":[],"categories_nodes":[],"categories_segments":[],"categories_sizes":[],"default_left":[0,0,0,0,0,0,0,0,0,0,0,0,0,0,0,0,0,0,0,0,0,0,0,0,0,0,0],"id":44,"left_children":[1,3,5,7,9,11,13,15,-1,17,19,21,-1,23,25,-1,-1,-1,-1,-1,-1,-1,-1,-1,-1,-1,-1],"loss_changes":[1.300762E0,2.3812932E-1,2.6749024E-1,6.7848766E-1,4.139322E-2,2.6749656E-1,2.640891E-2,9.077102E-3,0E0,3.0423284E-2,6.5363757E-3,2.4143437E-1,0E0,6.6159964E-3,2.1090537E-2,0E0,0E0,0E0,0E0,0E0,0E0,0E0,0E0,0E0,0E0,0E0,0E0],"parents":[2147483647,0,0,1,1,2,2,3,3,4,4,5,5,6,6,7,7,9,9,10,10,11,11,13,13,14,14],"right_children":[2,4,6,8,10,12,14,16,-1,18,20,22,-1,24,26,-1,-1,-1,-1,-1,-1,-1,-1,-1,-1,-1,-1],"split_conditions":[1.86E0,1.26E0,2.38E0,3.563706E-2,1.54E0,2.37E0,2.59E0,1.05E0,-2.5256589E-2,1.33E0,1.9E0,1.8083142E-1,-1.7510653E-2,2.8166432E-2,2.53E0,-5.511057E-3,-3.564567E-3,7.961886E-4,-2.7623745E-3,-1.192614E-3,3.4706222E-4,1.0244066E-3,-1.643958E-2,3.2650281E-3,1.3864279E-3,7.5150565E-3,3.2519735E-3],"split_indices":[3,20,1,10,1,1,3,3,0,20,13,10,0,6,19,0,0,0,0,0,0,0,0,0,0,0,0],"split_type":[0,0,0,0,0,0,0,0,0,0,0,0,0,0,0,0,0,0,0,0,0,0,0,0,0,0,0],"sum_hessian":[6.38E2,2.74E2,3.64E2,7.4E1,2E2,2.15E2,1.49E2,7.1E1,3E0,9.8E1,1.02E2,2.14E2,1E0,1.33E2,1.6E1,1.1E1,6E1,6E0,9.2E1,9.5E1,7E0,2.13E2,1E0,1.26E2,7E0,7E0,9E0],"tree_param":{"num_deleted":"0","num_feature":"36","num_nodes":"27","size_leaf_vector":"1"}},{"base_weights":[-1.7125491E-3,-4.4216532E-2,4.1593734E-2,-9.433582E-2,-2.614817E-2,1.0777011E-2,5.8135543E-2,-2.8831407E-1,-8.628498E-2,-3.972399E-2,-1.2580576E-2,1.6597731E-2,-1.602859E-2,3.0742535E-2,6.594131E-2,-1.8360524E-2,-3.2630325E-3,-3.9010893E-3,-1.1602164E-2,-1.3303827E-3,-2.7119478E-3,-2.653429E-3,-4.8273118E-4,6.563067E-4,6.9178543E-3,2.4382929E-4,2.176156E-3,3.0638082E-3,5.7169357E-3],"categories":[],"categories_nodes":[],"categories_segments":[],"categories_sizes":[],"default_left":[0,0,0,0,0,0,0,0,0,0,0,0,0,0,0,0,0,0,0,0,0,0,0,0,0,0,0,0,0],"id":45,"left_children":[1,3,5,7,9,11,13,15,17,19,21,23,-1,25,27,-1,-1,-1,-1,-1,-1,-1,-1,-1,-1,-1,-1,-1,-1],"loss_changes":[1.189084E0,2.9275012E-1,1.6249806E-1,1.0942811E-1,4.3890312E-2,2.2326258E-1,4.2448163E-2,2.8829917E-2,8.306754E-2,2.1402821E-2,1.3940496E-2,4.552625E-2,0E0,1.5655685E-2,2.934444E-2,0E0,0E0,0E0,0E0,0E0,0E0,0E0,0E0,0E0,0E0,0E0,0E0,0E0,0E0],"parents":[2147483647,0,0,1,1,2,2,3,3,4,4,5,5,6,6,7,7,8,8,9,9,10,10,11,11,13,13,14,14],"right_children":[2,4,6,8,10,12,14,16,18,20,22,24,-1,26,28,-1,-1,-1,-1,-1,-1,-1,-1,-1,-1,-1,-1,-1,-1],"split_conditions":[1.88E0,1.32E0,2.098E0,-4.4814017E-2,1.61E0,2.16E0,-1.2903404E-2,1.16E0,1.93212E5,9.1199E4,-2.9705154E-2,2.2E0,-1.602859E-2,2.34E0,3.0420596E-2,-1.8360524E-2,-3.2630325E-3,-3.9010893E-3,-1.1602164E-2,-1.3303827E-3,-2.7119478E-3,-2.653429E-3,-4.8273118E-4,6.563067E-4,6.9178543E-3,2.4382929E-4,2.176156E-3,3.0638082E-3,5.7169357E-3],"split_indices":[2,3,8,5,23,0,5,0,31,35,5,1,0,0,5,0,0,0,0,0,0,0,0,0,0,0,0,0,0],"split_type":[0,0,0,0,0,0,0,0,0,0,0,0,0,0,0,0,0,0,0,0,0,0,0,0,0,0,0,0,0],"sum_hessian":[6.44E2,3.25E2,3.19E2,8.5E1,2.4E2,1.12E2,2.07E2,2E0,8.3E1,1.19E2,1.21E2,1.11E2,1E0,4.7E1,1.6E2,1E0,1E0,8E1,3E0,6.4E1,5.5E1,7E0,1.14E2,1.09E2,2E0,1.6E1,3.1E1,1.48E2,1.2E1],"tree_param":{"num_deleted":"0","num_feature":"36","num_nodes":"29","size_leaf_vector":"1"}},{"base_weights":[-2.5321601E-3,-4.6227075E-2,3.368282E-2,-9.730182E-2,-3.1081947E-2,3.5538588E-2,-1.5627876E-2,-7.5558014E-2,-3.5181338E-1,-4.63637E-2,-1.8221755E-2,1.0062729E-2,5.6390252E-2,-5.1116818E-3,-3.363841E-3,-2.483954E-2,-4.478242E-3,-1.878843E-3,-7.355434E-3,-1.0517939E-3,1.2200438E-4,-2.3550315E-6,1.1603091E-3,5.4863007E-3,2.566801E-3],"categories":[],"categories_nodes":[],"categories_segments":[],"categories_sizes":[],"default_left":[0,0,0,0,0,0,0,0,0,0,0,0,0,0,0,0,0,0,0,0,0,0,0,0,0],"id":46,"left_children":[1,3,5,7,9,11,-1,13,15,17,19,21,23,-1,-1,-1,-1,-1,-1,-1,-1,-1,-1,-1,-1],"loss_changes":[1.030124E0,2.2516805E-1,2.3985282E-1,3.44199E-1,4.415968E-2,1.8801352E-1,0E0,7.0391E-3,1.456055E-1,8.6536005E-2,7.3775947E-3,2.1394461E-2,4.693359E-2,0E0,0E0,0E0,0E0,0E0,0E0,0E0,0E0,0E0,0E0,0E0,0E0],"parents":[2147483647,0,0,1,1,2,2,3,3,4,4,5,5,7,7,8,8,9,9,10,10,11,11,12,12],"right_children":[2,4,6,8,10,12,-1,14,16,18,20,22,24,-1,-1,-1,-1,-1,-1,-1,-1,-1,-1,-1,-1],"split_conditions":[1.89E0,1.2E0,1.8083142E-1,3.563706E-2,1.53E0,2.19E0,-1.5627876E-2,1.05E0,1.16E0,2.66743E5,3.96251E5,2E0,2.21E0,-5.1116818E-3,-3.363841E-3,-2.483954E-2,-4.478242E-3,-1.878843E-3,-7.355434E-3,-1.0517939E-3,1.2200438E-4,-2.3550315E-6,1.1603091E-3,5.4863007E-3,2.566801E-3],"split_indices":[3,2,10,10,1,3,0,3,0,33,4,1,14,0,0,0,0,0,0,0,0,0,0,0,0],"split_type":[0,0,0,0,0,0,0,0,0,0,0,0,0,0,0,0,0,0,0,0,0,0,0,0,0],"sum_hessian":[6.49E2,2.94E2,3.55E2,6.6E1,2.28E2,3.54E2,1E0,6.2E1,4E0,1.03E2,1.25E2,1.6E2,1.94E2,1.2E1,5E1,2E0,2E0,9.6E1,7E0,1.1E2,1.5E1,9.1E1,6.9E1,1.5E1,1.79E2],"tree_param":{"num_deleted":"0","num_feature":"36","num_nodes":"25","size_leaf_vector":"1"}},{"base_weights":[-2.0497323E-3,-4.2514723E-2,3.6482953E-2,-8.353442E-2,-2.6457036E-2,1.1503748E-2,5.4449886E-2,-6.5932766E-2,-2.8030625E-1,-4.2678747E-2,-1.5133692E-2,2.0017624E-3,2.111288E-2,4.8216555E-2,9.8696955E-2,-4.72038E-3,-3.0135615E-3,-2.4011554E-2,-5.2145054E-3,-1.5897949E-3,-8.6697405E-3,-5.7314103E-4,-1.4832275E-3,1.8621802E-4,-1.9429723E-3,1.8728195E-3,4.662694E-4,1.4421263E-3,3.1105557E-3,3.2566935E-3,8.3053885E-3],"categories":[],"categories_nodes":[],"categories_segments":[],"categories_sizes":[],"default_left":[0,0,0,0,0,0,0,0,0,0,0,0,0,0,0,0,0,0,0,0,0,0,0,0,0,0,0,0,0,0,0],"id":47,"left_children":[1,3,5,7,9,11,13,15,17,19,21,23,25,27,29,-1,-1,-1,-1,-1,-1,-1,-1,-1,-1,-1,-1,-1,-1,-1,-1],"loss_changes":[1.0166063E0,2.072506E-1,1.4927271E-1,2.8977102E-1,4.160145E-2,1.2831861E-2,4.87476E-2,7.6904595E-3,1.9624662E-1,1.2820773E-1,6.9676638E-3,5.2126218E-3,1.313613E-2,4.4840246E-2,4.1218624E-2,0E0,0E0,0E0,0E0,0E0,0E0,0E0,0E0,0E0,0E0,0E0,0E0,0E0,0E0,0E0,0E0],"parents":[2147483647,0,0,1,1,2,2,3,3,4,4,5,5,6,6,7,7,8,8,9,9,10,10,11,11,12,12,13,13,14,14],"right_children":[2,4,6,8,10,12,14,16,18,20,22,24,26,28,30,-1,-1,-1,-1,-1,-1,-1,-1,-1,-1,-1,-1,-1,-1,-1,-1],"split_conditions":[1.9E0,1.34E0,2.19E0,3.563706E-2,1.55E0,2E0,2.3623146E-2,1.05E0,1.16E0,2.66743E5,2.9003398E-2,1.99E0,2.07E0,2.43E0,6.09918E-2,-4.72038E-3,-3.0135615E-3,-2.4011554E-2,-5.2145054E-3,-1.5897949E-3,-8.6697405E-3,-5.7314103E-4,-1.4832275E-3,1.8621802E-4,-1.9429723E-3,1.8728195E-3,4.662694E-4,1.4421263E-3,3.1105557E-3,3.2566935E-3,8.3053885E-3],"split_indices":[3,3,3,10,21,1,5,3,0,33,6,0,21,20,10,0,0,0,0,0,0,0,0,0,0,0,0,0,0,0,0],"split_type":[0,0,0,0,0,0,0,0,0,0,0,0,0,0,0,0,0,0,0,0,0,0,0,0,0,0,0,0,0,0,0],"sum_hessian":[6.5E2,3.17E2,3.33E2,8.8E1,2.29E2,1.4E2,1.93E2,8.2E1,6E0,9.3E1,1.36E2,7.1E1,6.9E1,1.71E2,2.2E1,1.1E1,7.1E1,2E0,4E0,8.7E1,6E0,1.1E2,2.6E1,6.9E1,2E0,2.8E1,4.1E1,7.3E1,9.8E1,1.6E1,6E0],"tree_param":{"num_deleted":"0","num_feature":"36","num_nodes":"31","size_leaf_vector":"1"}},{"base_weights":[-1.0098558E-3,-3.6550276E-2,3.9210256E-2,-8.1512496E-2,-2.1479614E-2,1.4460503E-2,5.3369645E-2,-6.396015E-2,-2.7046612E-1,-3.7605993E-2,-8.7406635E-3,5.775001E-3,2.7752303E-2,2.48188E-2,6.1388765E-2,-3.600016E-3,-2.4079927E-3,-2.321117E-2,-5.0059273E-3,-1.5024426E-3,-4.7003855E-3,-5.548156E-4,5.546246E-4,4.1992078E-4,-1.9477546E-3,2.829963E-3,8.2107604E-4,2.0721108E-3,-1.7249703E-2,4.9454193E-3,2.742784E-3],"categories":[],"categories_nodes":[],"categories_segments":[],"categories_sizes":[],"default_left":[0,0,0,0,0,0,0,0,0,0,0,0,0,0,0,0,0,0,0,0,0,0,0,0,0,0,0,0,0,0,0],"id":48,"left_children":[1,3,5,7,9,11,13,15,17,19,21,23,25,27,29,-1,-1,-1,-1,-1,-1,-1,-1,-1,-1,-1,-1,-1,-1,-1,-1],"loss_changes":[9.262806E-1,2.3134711E-1,1.0576254E-1,2.679268E-1,5.287849E-2,1.2769679E-2,4.266423E-2,6.6954494E-3,1.8456525E-1,4.576604E-2,6.9441935E-3,8.424006E-3,1.3452329E-2,2.8478968E-1,3.134209E-2,0E0,0E0,0E0,0E0,0E0,0E0,0E0,0E0,0E0,0E0,0E0,0E0,0E0,0E0,0E0,0E0],"parents":[2147483647,0,0,1,1,2,2,3,3,4,4,5,5,6,6,7,7,8,8,9,9,10,10,11,11,12,12,13,13,14,14],"right_children":[2,4,6,8,10,12,14,16,18,20,22,24,26,28,30,-1,-1,-1,-1,-1,-1,-1,-1,-1,-1,-1,-1,-1,-1,-1,-1],"split_conditions":[1.92E0,1.32E0,2.2E0,3.563706E-2,1.57E0,2.03E0,4.4507E4,1.2E0,1.16E0,2.66743E5,1.92E0,3.436678E-2,1.97E0,4.3144E4,2.3E0,-3.600016E-3,-2.4079927E-3,-2.321117E-2,-5.0059273E-3,-1.5024426E-3,-4.7003855E-3,-5.548156E-4,5.546246E-4,4.1992078E-4,-1.9477546E-3,2.829963E-3,8.2107604E-4,2.0721108E-3,-1.7249703E-2,4.9454193E-3,2.742784E-3],"split_indices":[3,3,3,10,9,3,34,3,0,33,28,6,20,34,25,0,0,0,0,0,0,0,0,0,0,0,0,0,0,0,0],"split_type":[0,0,0,0,0,0,0,0,0,0,0,0,0,0,0,0,0,0,0,0,0,0,0,0,0,0,0,0,0,0,0],"sum_hessian":[6.46E2,3.43E2,3.03E2,8.5E1,2.58E2,1.11E2,1.92E2,7.9E1,6E0,1.13E2,1.45E2,6.8E1,4.3E1,4.3E1,1.49E2,5E1,2.9E1,2E0,4E0,1.01E2,1.2E1,1.3E2,1.5E1,6.5E1,3E0,1.1E1,3.2E1,4.2E1,1E0,2E1,1.29E2],"tree_param":{"num_deleted":"0","num_feature":"36","num_nodes":"31","size_leaf_vector":"1"}},{"base_weights":[-2.3586273E-3,-3.2576054E-2,3.7583694E-2,-7.03781E-2,-1.6761713E-2,1.8035918E-2,5.3610012E-2,-6.107913E-2,-3.0153102E-1,-1.4466347E-2,-1.5568449E-2,2.3956439E-2,-1.3358429E-1,4.4108152E-2,7.1582764E-2,-1.6099956E-2,-2.7789946E-3,-3.8534224E-3,-1.7533122E-2,-1.3387409E-3,-1.3425158E-4,1.4954377E-3,-2.8042742E-3,6.0212613E-5,-1.6818462E-2,3.958285E-3,2.057698E-3,2.057155E-5,3.7210695E-3],"categories":[],"categories_nodes":[],"categories_segments":[],"categories_sizes":[],"default_left":[0,0,0,0,0,0,0,0,0,0,0,0,0,0,0,0,0,0,0,0,0,0,0,0,0,0,0,0,0],"id":49,"left_children":[1,3,5,7,9,11,13,15,17,19,-1,21,23,25,27,-1,-1,-1,-1,-1,-1,-1,-1,-1,-1,-1,-1,-1,-1],"loss_changes":[7.929863E-1,2.224029E-1,8.769107E-2,2.1802604E-1,1.7469685E-1,1.18999705E-1,2.3312658E-2,1.3563338E-1,1.7087638E-2,3.8210742E-2,0E0,6.1231792E-2,1.3707048E-1,7.512957E-3,1.0474861E-2,0E0,0E0,0E0,0E0,0E0,0E0,0E0,0E0,0E0,0E0,0E0,0E0,0E0,0E0],"parents":[2147483647,0,0,1,1,2,2,3,3,4,4,5,5,6,6,7,7,8,8,9,9,11,11,12,12,13,13,14,14],"right_children":[2,4,6,8,10,12,14,16,18,20,-1,22,24,26,28,-1,-1,-1,-1,-1,-1,-1,-1,-1,-1,-1,-1,-1,-1],"split_conditions":[1.98E0,1.39E0,2.38E0,2.73673E5,2.08E0,2.32E0,2.53E0,-4.4814017E-2,1.08E0,1.73E0,-1.5568449E-2,3.436678E-2,2.35E0,2.332E0,-3.9220713E-2,-1.6099956E-2,-2.7789946E-3,-3.8534224E-3,-1.7533122E-2,-1.3387409E-3,-1.3425158E-4,1.4954377E-3,-2.8042742E-3,6.0212613E-5,-1.6818462E-2,3.958285E-3,2.057698E-3,2.057155E-5,3.7210695E-3],"split_indices":[23,18,1,33,0,2,1,5,0,14,0,6,0,8,5,0,0,0,0,0,0,0,0,0,0,0,0,0,0],"split_type":[0,0,0,0,0,0,0,0,0,0,0,0,0,0,0,0,0,0,0,0,0,0,0,0,0,0,0,0,0],"sum_hessian":[6.55E2,3.73E2,2.82E2,1.09E2,2.64E2,1.28E2,1.54E2,1.06E2,3E0,2.63E2,1E0,1.24E2,4E0,1.03E2,5.1E1,1E0,1.05E2,1E0,2E0,1.28E2,1.35E2,1.16E2,8E0,3E0,1E0,6E0,9.7E1,2E0,4.9E1],"tree_param":{"num_deleted":"0","num_feature":"36","num_nodes":"29","size_leaf_vector":"1"}},{"base_weights":[-2.5810425E-3,-3.8036007E-2,2.7104802E-2,-8.0702595E-2,-2.578695E-2,2.889149E-2,-1.5179238E-2,-6.0730863E-2,-3.122115E-1,-3.8659014E-2,-1.4160222E-2,7.868016E-3,4.571302E-2,-4.3115565E-3,-2.7386814E-3,-2.2122813E-2,-3.894812E-3,-1.5705569E-3,-7.040953E-3,-1.2406533E-3,-4.5823143E-4,1.3682453E-4,1.6427062E-3,2.0981648E-3,5.581826E-3],"categories":[],"categories_nodes":[],"categories_segments":[],"categories_sizes":[],"default_left":[0,0,0,0,0,0,0,0,0,0,0,0,0,0,0,0,0,0,0,0,0,0,0,0,0],"id":50,"left_children":[1,3,5,7,9,11,-1,13,15,17,19,21,23,-1,-1,-1,-1,-1,-1,-1,-1,-1,-1,-1,-1],"loss_changes":[6.8832034E-1,1.5366134E-1,2.1910977E-1,2.8619888E-1,3.4323364E-2,1.2518498E-1,0E0,4.695311E-3,1.18126065E-1,7.702552E-2,6.371539E-3,2.0296576E-2,4.4012755E-2,0E0,0E0,0E0,0E0,0E0,0E0,0E0,0E0,0E0,0E0,0E0,0E0],"parents":[2147483647,0,0,1,1,2,2,3,3,4,4,5,5,7,7,8,8,9,9,10,10,11,11,12,12],"right_children":[2,4,6,8,10,12,-1,14,16,18,20,22,24,-1,-1,-1,-1,-1,-1,-1,-1,-1,-1,-1,-1],"split_conditions":[1.88E0,1.2E0,1.8083142E-1,3.563706E-2,1.53E0,2.19E0,-1.5179238E-2,1.05E0,1.16E0,2.73673E5,-1.1049836E-2,2.1353124E-2,3.6367644E-2,-4.3115565E-3,-2.7386814E-3,-2.2122813E-2,-3.894812E-3,-1.5705569E-3,-7.040953E-3,-1.2406533E-3,-4.5823143E-4,1.3682453E-4,1.6427062E-3,2.0981648E-3,5.581826E-3],"split_indices":[3,2,10,10,1,3,0,3,0,33,5,5,5,0,0,0,0,0,0,0,0,0,0,0,0],"split_type":[0,0,0,0,0,0,0,0,0,0,0,0,0,0,0,0,0,0,0,0,0,0,0,0,0],"sum_hessian":[6.52E2,2.97E2,3.55E2,6.5E1,2.32E2,3.54E2,1E0,6.1E1,4E0,1.09E2,1.23E2,1.58E2,1.96E2,9E0,5.2E1,2E0,2E0,1.03E2,6E0,3.8E1,8.5E1,1.32E2,2.6E1,1.87E2,9E0],"tree_param":{"num_deleted":"0","num_feature":"36","num_nodes":"25","size_leaf_vector":"1"}},{"base_weights":[-1.2230302E-3,-2.7092548E-2,3.613789E-2,-5.696619E-2,-1.2791037E-2,3.849043E-2,-1.4799758E-2,-4.8950516E-2,-2.8720275E-1,-2.2774123E-2,-5.118618E-3,2.7486462E-2,5.6592196E-2,-3.0973747E-3,-4.3998993E-4,-3.6492974E-3,-1.6713984E-2,-1.4438257E-3,-5.1491655E-4,-4.4622837E-4,3.1668873E-4,1.0845975E-3,3.1536974E-3,2.4724698E-3,4.5500654E-3],"categories":[],"categories_nodes":[],"categories_segments":[],"categories_sizes":[],"default_left":[0,0,0,0,0,0,0,0,0,0,0,0,0,0,0,0,0,0,0,0,0,0,0,0,0],"id":51,"left_children":[1,3,5,7,9,11,-1,13,15,17,19,21,23,-1,-1,-1,-1,-1,-1,-1,-1,-1,-1,-1,-1],"loss_changes":[6.3307595E-1,1.6461256E-1,2.2079647E-1,2.1662897E-1,2.0027764E-2,5.162853E-2,0E0,6.3119054E-2,1.5940934E-2,8.38168E-3,6.594611E-3,3.3275425E-2,2.0077795E-2,0E0,0E0,0E0,0E0,0E0,0E0,0E0,0E0,0E0,0E0,0E0,0E0],"parents":[2147483647,0,0,1,1,2,2,3,3,4,4,5,5,7,7,8,8,9,9,10,10,11,11,12,12],"right_children":[2,4,6,8,10,12,-1,14,16,18,20,22,24,-1,-1,-1,-1,-1,-1,-1,-1,-1,-1,-1,-1],"split_conditions":[1.97E0,1.42E0,1.8083142E-1,2.73673E5,1.722E0,2.44E0,-1.4799758E-2,1.37E0,1.08E0,1.52424E5,2.00187E5,3.1058E5,2.58E0,-3.0973747E-3,-4.3998993E-4,-3.6492974E-3,-1.6713984E-2,-1.4438257E-3,-5.1491655E-4,-4.4622837E-4,3.1668873E-4,1.0845975E-3,3.1536974E-3,2.4724698E-3,4.5500654E-3],"split_indices":[3,0,10,33,8,3,0,3,0,33,4,31,3,0,0,0,0,0,0,0,0,0,0,0,0],"split_type":[0,0,0,0,0,0,0,0,0,0,0,0,0,0,0,0,0,0,0,0,0,0,0,0,0],"sum_hessian":[6.53E2,3.86E2,2.67E2,1.24E2,2.62E2,2.66E2,1E0,1.21E2,3E0,1.13E2,1.49E2,1.67E2,9.9E1,9.1E1,3E1,1E0,2E0,7.5E1,3.8E1,1.12E2,3.7E1,1.45E2,2.2E1,8.4E1,1.5E1],"tree_param":{"num_deleted":"0","num_feature":"36","num_nodes":"25","size_leaf_vector":"1"}},{"base_weights":[-2.003828E-3,-3.8605373E-2,2.3517363E-2,-9.6480675E-2,-3.0031161E-2,1.1668477E-3,3.9038885E-2,-6.26067E-2,-2.1282142E-2,-2.7682837E-2,-1.4429763E-2,3.8769275E-3,-6.8134665E-2,1.3702121E-2,4.790815E-2,-3.3746876E-3,-1.1358941E-3,-1.7591087E-3,-1.9548817E-4,-3.3659645E-4,6.820829E-4,-3.8060846E-4,-3.9358367E-3,-3.4295344E-3,1.2932572E-3,3.833307E-3,2.0654628E-3],"categories":[],"categories_nodes":[],"categories_segments":[],"categories_sizes":[],"default_left":[0,0,0,0,0,0,0,0,0,0,0,0,0,0,0,0,0,0,0,0,0,0,0,0,0,0,0],"id":52,"left_children":[1,3,5,7,9,11,13,15,-1,17,-1,19,21,23,25,-1,-1,-1,-1,-1,-1,-1,-1,-1,-1,-1,-1],"loss_changes":[6.071485E-1,1.2959737E-1,1.3282251E-1,3.52453E-1,1.3409382E-1,2.993855E-2,5.012998E-2,4.7047287E-3,0E0,4.140222E-2,0E0,1.5941506E-2,3.2435134E-3,6.1829876E-2,2.8524697E-2,0E0,0E0,0E0,0E0,0E0,0E0,0E0,0E0,0E0,0E0,0E0,0E0],"parents":[2147483647,0,0,1,1,2,2,3,3,4,4,5,5,6,6,7,7,9,9,11,11,12,12,13,13,14,14],"right_children":[2,4,6,8,10,12,14,16,-1,18,-1,20,22,24,26,-1,-1,-1,-1,-1,-1,-1,-1,-1,-1,-1,-1],"split_conditions":[1.87E0,1.14E0,2.1E0,3.4641016E-2,1.97E0,3.5141665E-2,-1.2474175E-2,9.4646E4,-2.1282142E-2,1.50378775E-2,-1.4429763E-2,1.6488174E-2,2E0,3.2736E4,2.26E0,-3.3746876E-3,-1.1358941E-3,-1.7591087E-3,-1.9548817E-4,-3.3659645E-4,6.820829E-4,-3.8060846E-4,-3.9358367E-3,-3.4295344E-3,1.2932572E-3,3.833307E-3,2.0654628E-3],"split_indices":[25,28,1,10,0,6,5,4,0,5,0,6,14,32,20,0,0,0,0,0,0,0,0,0,0,0,0],"split_type":[0,0,0,0,0,0,0,0,0,0,0,0,0,0,0,0,0,0,0,0,0,0,0,0,0,0,0],"sum_hessian":[6.48E2,2.66E2,3.82E2,3.3E1,2.33E2,1.57E2,2.25E2,3.1E1,2E0,2.32E2,1E0,1.52E2,5E0,5.9E1,1.66E2,2.7E1,4E0,1.76E2,5.6E1,7.3E1,7.9E1,1E0,4E0,7E0,5.2E1,2.9E1,1.37E2],"tree_param":{"num_deleted":"0","num_feature":"36","num_nodes":"27","size_leaf_vector":"1"}},{"base_weights":[-3.9070475E-4,-2.6124343E-2,2.5503982E-2,-5.879907E-2,-1.3499449E-2,2.7336583E-2,-1.406902E-2,-4.951335E-2,-1.8054694E-1,-1.6422492E-2,1.0628953E-2,1.5538375E-2,4.6709336E-2,-3.340875E-3,-2.2266211E-3,-1.6324207E-2,-4.3031336E-3,-1.1743747E-3,-3.727057E-4,1.2078207E-3,-1.1413693E-3,9.473904E-5,1.6697204E-3,2.148737E-3,4.4204663E-3],"categories":[],"categories_nodes":[],"categories_segments":[],"categories_sizes":[],"default_left":[0,0,0,0,0,0,0,0,0,0,0,0,0,0,0,0,0,0,0,0,0,0,0,0,0],"id":53,"left_children":[1,3,5,7,9,11,-1,13,15,17,19,21,23,-1,-1,-1,-1,-1,-1,-1,-1,-1,-1,-1,-1],"loss_changes":[4.3047136E-1,1.328611E-1,1.8878363E-1,9.2807025E-2,1.6748715E-2,7.264319E-2,0E0,4.350677E-3,5.4634526E-2,1.3130859E-2,1.2318491E-2,4.890445E-2,1.5044242E-2,0E0,0E0,0E0,0E0,0E0,0E0,0E0,0E0,0E0,0E0,0E0,0E0],"parents":[2147483647,0,0,1,1,2,2,3,3,4,4,5,5,7,7,8,8,9,9,10,10,11,11,12,12],"right_children":[2,4,6,8,10,12,-1,14,16,18,20,22,24,-1,-1,-1,-1,-1,-1,-1,-1,-1,-1,-1,-1],"split_conditions":[1.93E0,1.35E0,1.8083142E-1,3.563706E-2,2.7651532E-2,2.4E0,-1.406902E-2,1.08E0,1.15E0,1.64E0,2.77625E5,3.9292783E-3,2.63E0,-3.340875E-3,-2.2266211E-3,-1.6324207E-2,-4.3031336E-3,-1.1743747E-3,-3.727057E-4,1.2078207E-3,-1.1413693E-3,9.473904E-5,1.6697204E-3,2.148737E-3,4.4204663E-3],"split_indices":[1,1,10,10,5,14,0,1,0,17,35,5,2,0,0,0,0,0,0,0,0,0,0,0,0],"split_type":[0,0,0,0,0,0,0,0,0,0,0,0,0,0,0,0,0,0,0,0,0,0,0,0,0],"sum_hessian":[6.44E2,3.23E2,3.21E2,8.9E1,2.34E2,3.2E2,1E0,8.4E1,5E0,2.09E2,2.5E1,2E2,1.2E2,1.6E1,6.8E1,1E0,4E0,1.16E2,9.3E1,1.8E1,7E0,1.14E2,8.6E1,1.12E2,8E0],"tree_param":{"num_deleted":"0","num_feature":"36","num_nodes":"25","size_leaf_vector":"1"}},{"base_weights":[-1.5905232E-3,-2.4239244E-2,2.9292412E-2,-2.2851804E-2,-1.3717294E-2,4.5051076E-3,3.9819803E-2,-4.9278494E-2,-8.962964E-3,-2.1293117E-2,3.2081127E-2,3.573319E-2,8.647693E-2,-2.1084307E-3,-1.0929588E-2,-5.192689E-4,4.0378156E-3,-3.268943E-4,-1.6394202E-2,4.93176E-3,1.3069495E-3,1.6700737E-3,4.446069E-3,1.0545254E-4,4.9647186E-3],"categories":[],"categories_nodes":[],"categories_segments":[],"categories_sizes":[],"default_left":[0,0,0,0,0,0,0,0,0,0,0,0,0,0,0,0,0,0,0,0,0,0,0,0,0],"id":54,"left_children":[1,3,5,7,-1,9,11,13,15,17,19,21,23,-1,-1,-1,-1,-1,-1,-1,-1,-1,-1,-1,-1],"loss_changes":[4.5955515E-1,1.2524673E-1,7.236351E-2,1.3829799E-1,0E0,6.0441747E-2,3.409049E-2,