{"learner":{"attributes":{"scikit_learn":"{\"_estimator_type\": \"regressor\"}"},"feature_names":[],"feature_types":[],"gradient_booster":{"model":{"cats":{"enc":[],"feature_segments":[],"sorted_idx":[]},"gbtree_model_param":{"num_parallel_tree":"1","num_trees":"300"},"iteration_indptr":[0,1,2,3,4,5,6,7,8,9,10,11,12,13,14,15,16,17,18,19,20,21,22,23,24,25,26,27,28,29,30,31,32,33,34,35,36,37,38,39,40,41,42,43,44,45,46,47,48,49,50,51,52,53,54,55,56,57,58,59,60,61,62,63,64,65,66,67,68,69,70,71,72,73,74,75,76,77,78,79,80,81,82,83,84,85,86,87,88,89,90,91,92,93,94,95,96,97,98,99,100,101,102,103,104,105,106,107,108,109,110,111,112,113,114,115,116,117,118,119,120,121,122,123,124,125,126,127,128,129,130,131,132,133,134,135,136,137,138,139,140,141,142,143,144,145,146,147,148,149,150,151,152,153,154,155,156,157,158,159,160,161,162,163,164,165,166,167,168,169,170,171,172,173,174,175,176,177,178,179,180,181,182,183,184,185,186,187,188,189,190,191,192,193,194,195,196,197,198,199,200,201,202,203,204,205,206,207,208,209,210,211,212,213,214,215,216,217,218,219,220,221,222,223,224,225,226,227,228,229,230,231,232,233,234,235,236,237,238,239,240,241,242,243,244,245,246,247,248,249,250,251,252,253,254,255,256,257,258,259,260,261,262,263,264,265,266,267,268,269,270,271,272,273,274,275,276,277,278,279,280,281,282,283,284,285,286,287,288,289,290,291,292,293,294,295,296,297,298,299,300],"tree_info":[0,0,0,0,0,0,0,0,0,0,0,0,0,0,0,0,0,0,0,0,0,0,0,0,0,0,0,0,0,0,0,0,0,0,0,0,0,0,0,0,0,0,0,0,0,0,0,0,0,0,0,0,0,0,0,0,0,0,0,0,0,0,0,0,0,0,0,0,0,0,0,0,0,0,0,0,0,0,0,0,0,0,0,0,0,0,0,0,0,0,0,0,0,0,0,0,0,0,0,0,0,0,0,0,0,0,0,0,0,0,0,0,0,0,0,0,0,0,0,0,0,0,0,0,0,0,0,0,0,0,0,0,0,0,0,0,0,0,0,0,0,0,0,0,0,0,0,0,0,0,0,0,0,0,0,0,0,0,0,0,0,0,0,0,0,0,0,0,0,0,0,0,0,0,0,0,0,0,0,0,0,0,0,0,0,0,0,0,0,0,0,0,0,0,0,0,0,0,0,0,0,0,0,0,0,0,0,0,0,0,0,0,0,0,0,0,0,0,0,0,0,0,0,0,0,0,0,0,0,0,0,0,0,0,0,0,0,0,0,0,0,0,0,0,0,0,0,0,0,0,0,0,0,0,0,0,0,0,0,0,0,0,0,0,0,0,0,0,0,0,0,0,0,0,0,0,0,0,0,0,0,0,0,0,0,0,0,0,0,0,0,0,0,0,0,0,0,0,0,0],"trees":[{"base_weights":[-7.3945145E-3,-3.6075893E-1,7.4427783E-1,-5.900831E-1,-1.2716699E-1,4.8095867E-1,1.0634254E0,-5.432936E-1,-1.6100278E0,-9.029753E-2,-1.4880254E0,5.254231E-1,-1.1466879E0,4.748803E-2,5.963081E-2,-3.1028975E-2,-1.3084881E-2,-1.1751193E-2,-1.1940127E-1,-1.10177E-2,1.8317634E-3,8.332268E-3,-1.323344E-1,2.2967184E-2,3.8173493E-2,1.3249206E-2,-9.925079E-2],"categories":[],"categories_nodes":[],"categories_segments":[],"categories_sizes":[],"default_left":[0,0,0,0,0,0,0,0,0,0,0,0,0,0,0,0,0,0,0,0,0,0,0,0,0,0,0],"id":0,"left_children":[1,3,5,7,9,11,13,15,17,19,21,23,25,-1,-1,-1,-1,-1,-1,-1,-1,-1,-1,-1,-1,-1,-1],"loss_changes":[1.5034056E2,2.0548748E1,1.4699356E1,8.3834915E0,9.499066E0,7.9121113E0,5.6739807E-2,3.9073524E0,7.9967556E0,3.1116576E0,1.0027083E1,1.2065754E0,4.07633E0,0E0,0E0,0E0,0E0,0E0,0E0,0E0,0E0,0E0,0E0,0E0,0E0,0E0,0E0],"parents":[2147483647,0,0,1,1,2,2,3,3,4,4,5,5,6,6,7,7,8,8,9,9,10,10,11,11,12,12],"right_children":[2,4,6,8,10,12,14,16,18,20,22,24,26,-1,-1,-1,-1,-1,-1,-1,-1,-1,-1,-1,-1,-1,-1],"split_conditions":[4.28E0,3.69E0,4.85E0,3.72E0,4.39E0,5.02E0,5.08E0,3.6E0,3.71E0,3.91E0,4.21E0,4.78E0,4.6E0,4.748803E-2,5.963081E-2,-3.1028975E-2,-1.3084881E-2,-1.1751193E-2,-1.1940127E-1,-1.10177E-2,1.8317634E-3,8.332268E-3,-1.323344E-1,2.2967184E-2,3.8173493E-2,1.3249206E-2,-9.925079E-2],"split_indices":[3,29,3,13,30,20,1,19,0,1,3,1,0,0,0,0,0,0,0,0,0,0,0,0,0,0,0],"split_type":[0,0,0,0,0,0,0,0,0,0,0,0,0,0,0,0,0,0,0,0,0,0,0,0,0,0,0],"sum_hessian":[5.64E2,3.84E2,1.8E2,1.93E2,1.91E2,1E2,8E1,1.86E2,7E0,1.87E2,4E0,9.8E1,2E0,4.7E1,3.3E1,1.45E2,4.1E1,3E0,4E0,9.2E1,9.5E1,2E0,2E0,7.9E1,1.9E1,1E0,1E0],"tree_param":{"num_deleted":"0","num_feature":"36","num_nodes":"27","size_leaf_vector":"1"}},{"base_weights":[-6.0696453E-3,-3.452004E-1,6.8890357E-1,-5.8114606E-1,-1.2442416E-1,4.062686E-1,1.0245329E0,-5.446155E-1,-1.2835436E-1,-1.0528358E-1,-9.594243E-2,4.4835547E-1,-1.1180207E0,4.608376E-2,5.762242E-2,-3.6323946E-2,-2.2101713E-2,-4.2209122E-3,-7.027852E-2,-3.6612455E-2,2.4643848E-2,1.2917978E-2,-9.676953E-2],"categories":[],"categories_nodes":[],"categories_segments":[],"categories_sizes":[],"default_left":[0,0,0,0,0,0,0,0,0,0,0,0,0,0,0,0,0,0,0,0,0,0,0],"id":1,"left_children":[1,3,5,7,9,11,13,15,-1,17,-1,19,21,-1,-1,-1,-1,-1,-1,-1,-1,-1,-1],"loss_changes":[1.3151535E2,1.9461895E1,1.6943253E1,1.1733021E1,6.495511E0,6.9806786E0,2.985382E-2,3.0182571E0,0E0,5.144743E0,0E0,5.5645733E0,3.8750615E0,0E0,0E0,0E0,0E0,0E0,0E0,0E0,0E0,0E0,0E0],"parents":[2147483647,0,0,1,1,2,2,3,3,4,4,5,5,6,6,7,7,9,9,11,11,12,12],"right_children":[2,4,6,8,10,12,14,16,-1,18,-1,20,22,-1,-1,-1,-1,-1,-1,-1,-1,-1,-1],"split_conditions":[4.28E0,3.69E0,4.85E0,3.86E0,4.37E0,5.02E0,5.09E0,3.372E0,-1.2835436E-1,1.2020815E-1,-9.594243E-2,1.8E1,4.6E0,4.608376E-2,5.762242E-2,-3.6323946E-2,-2.2101713E-2,-4.2209122E-3,-7.027852E-2,-3.6612455E-2,2.4643848E-2,1.2917978E-2,-9.676953E-2],"split_indices":[3,29,3,0,1,20,1,8,0,10,0,32,0,0,0,0,0,0,0,0,0,0,0],"split_type":[0,0,0,0,0,0,0,0,0,0,0,0,0,0,0,0,0,0,0,0,0,0,0],"sum_hessian":[5.56E2,3.74E2,1.82E2,1.8E2,1.94E2,1E2,8.2E1,1.78E2,2E0,1.93E2,1E0,9.8E1,2E0,5E1,3.2E1,6.2E1,1.16E2,1.91E2,2E0,3E0,9.5E1,1E0,1E0],"tree_param":{"num_deleted":"0","num_feature":"36","num_nodes":"23","size_leaf_vector":"1"}},{"base_weights":[-1.8160863E-2,-3.2995683E-1,6.419081E-1,-5.426003E-1,-1.1106716E-1,3.8621327E-1,9.713269E-1,-4.985038E-1,-1.5000184E0,-9.1754995E-2,-9.354387E-2,-9.890966E-2,4.287878E-1,4.3397967E-2,5.500234E-2,-2.860321E-2,-1.163381E-2,-1.0481712E-2,-1.116161E-1,-6.3980627E-3,1.0938781E-2,2.3503283E-2,-5.4503508E-2],"categories":[],"categories_nodes":[],"categories_segments":[],"categories_sizes":[],"default_left":[0,0,0,0,0,0,0,0,0,0,0,0,0,0,0,0,0,0,0,0,0,0,0],"id":2,"left_children":[1,3,5,7,9,11,13,15,17,19,-1,-1,21,-1,-1,-1,-1,-1,-1,-1,-1,-1,-1],"loss_changes":[1.1546363E2,1.7673557E1,1.4786377E1,7.4004555E0,6.251645E0,1.1216559E1,8.30307E-2,3.5040092E0,7.0916557E0,2.1417074E0,0E0,0E0,6.907316E0,0E0,0E0,0E0,0E0,0E0,0E0,0E0,0E0,0E0,0E0],"parents":[2147483647,0,0,1,1,2,2,3,3,4,4,5,5,6,6,7,7,8,8,9,9,12,12],"right_children":[2,4,6,8,10,12,14,16,18,20,-1,-1,22,-1,-1,-1,-1,-1,-1,-1,-1,-1,-1],"split_conditions":[4.28E0,3.69E0,4.85E0,3.72E0,4.37E0,1.8E1,5.09E0,3.6E0,3.71E0,4.18E0,-9.354387E-2,-9.890966E-2,5.02E0,4.3397967E-2,5.500234E-2,-2.860321E-2,-1.163381E-2,-1.0481712E-2,-1.116161E-1,-6.3980627E-3,1.0938781E-2,2.3503283E-2,-5.4503508E-2],"split_indices":[3,29,3,13,1,34,1,19,1,11,0,0,20,0,0,0,0,0,0,0,0,0,0],"split_type":[0,0,0,0,0,0,0,0,0,0,0,0,0,0,0,0,0,0,0,0,0,0,0],"sum_hessian":[5.59E2,3.8E2,1.79E2,1.92E2,1.88E2,1.02E2,7.7E1,1.85E2,7E0,1.87E2,1E0,1E0,1.01E2,4.7E1,3E1,1.44E2,4.1E1,3E0,4E0,1.68E2,1.9E1,9.9E1,2E0],"tree_param":{"num_deleted":"0","num_feature":"36","num_nodes":"23","size_leaf_vector":"1"}},{"base_weights":[2.9453784E-2,-3.242481E-1,5.9492546E-1,-4.9718103E-1,-1.1749779E-1,3.742288E-1,9.2673373E-1,-4.6457914E-1,-1.2035533E-1,-5.4666775E-1,-9.182019E-2,-1.2120194E0,4.071951E-1,4.264224E-2,5.5481743E-2,-3.1175056E-2,-1.7221183E-2,-9.8709874E-2,-6.0725915E-3,-9.725007E-3,-1.5056742E-3,5.5354596E-3,-9.643692E-2,2.1877157E-2,-5.268672E-2],"categories":[],"categories_nodes":[],"categories_segments":[],"categories_sizes":[],"default_left":[0,0,0,0,0,0,0,0,0,0,0,0,0,0,0,0,0,0,0,0,0,0,0,0,0],"id":3,"left_children":[1,3,5,7,9,11,13,15,-1,17,19,21,23,-1,-1,-1,-1,-1,-1,-1,-1,-1,-1,-1,-1],"loss_changes":[1.1539775E2,1.2634228E1,1.5910019E1,1.0899273E1,1.7460735E0,7.5530434E0,2.4291992E-1,3.4324608E0,0E0,5.223305E0,9.762294E-1,3.0576034E0,6.357786E0,0E0,0E0,0E0,0E0,0E0,0E0,0E0,0E0,0E0,0E0,0E0,0E0],"parents":[2147483647,0,0,1,1,2,2,3,3,4,4,5,5,6,6,7,7,9,9,10,10,11,11,12,12],"right_children":[2,4,6,8,10,12,14,16,-1,18,20,22,24,-1,-1,-1,-1,-1,-1,-1,-1,-1,-1,-1,-1],"split_conditions":[4.07E0,3.69E0,4.85E0,3.84E0,1E-2,1.8E1,5.204E0,3.44E0,-1.2035533E-1,-4.7732787E-3,3.84E0,4.25E0,5.02E0,4.264224E-2,5.5481743E-2,-3.1175056E-2,-1.7221183E-2,-9.8709874E-2,-6.0725915E-3,-9.725007E-3,-1.5056742E-3,5.5354596E-3,-9.643692E-2,2.1877157E-2,-5.268672E-2],"split_indices":[2,29,3,9,10,34,8,1,0,5,3,0,20,0,0,0,0,0,0,0,0,0,0,0,0],"split_type":[0,0,0,0,0,0,0,0,0,0,0,0,0,0,0,0,0,0,0,0,0,0,0,0,0],"sum_hessian":[5.75E2,3.54E2,2.21E2,1.92E2,1.62E2,1.34E2,8.7E1,1.9E2,2E0,8E0,1.54E2,2E0,1.32E2,6.6E1,2.1E1,8E1,1.1E2,1E0,7E0,5.7E1,9.7E1,1E0,1E0,1.3E2,2E0],"tree_param":{"num_deleted":"0","num_feature":"36","num_nodes":"25","size_leaf_vector":"1"}},{"base_weights":[1.3841684E-3,-2.8189468E-1,5.923025E-1,-4.7676808E-1,-9.632987E-2,3.3839804E-1,8.7121433E-1,-4.2279887E-1,-1.121183E0,-7.837128E-2,-9.17522E-2,-1.181719E0,3.8192332E-1,3.8530033E-2,4.916609E-2,-2.8503982E-2,-1.44127635E-2,-1.14021495E-1,-2.1472065E-2,-6.2199547E-3,1.1633765E-2,5.3970753E-3,-9.402599E-2,2.1106523E-2,-5.09305E-2],"categories":[],"categories_nodes":[],"categories_segments":[],"categories_sizes":[],"default_left":[0,0,0,0,0,0,0,0,0,0,0,0,0,0,0,0,0,0,0,0,0,0,0,0,0],"id":4,"left_children":[1,3,5,7,9,11,13,15,17,19,-1,21,23,-1,-1,-1,-1,-1,-1,-1,-1,-1,-1,-1,-1],"loss_changes":[9.608411E1,1.3984793E1,1.2877136E1,6.0991096E0,6.1011543E0,7.0015163E0,2.3485565E-1,3.3232327E0,1.0247284E1,2.8779864E0,0E0,2.9066339E0,5.892194E0,0E0,0E0,0E0,0E0,0E0,0E0,0E0,0E0,0E0,0E0,0E0,0E0],"parents":[2147483647,0,0,1,1,2,2,3,3,4,4,5,5,6,6,7,7,8,8,9,9,11,11,12,12],"right_children":[2,4,6,8,10,12,14,16,18,20,-1,22,24,-1,-1,-1,-1,-1,-1,-1,-1,-1,-1,-1,-1],"split_conditions":[4.22E0,3.69E0,4.85E0,3.68E0,4.37E0,1.8E1,5.08E0,3.47E0,3.66E0,4.18E0,-9.17522E-2,4.25E0,5.02E0,3.8530033E-2,4.916609E-2,-2.8503982E-2,-1.44127635E-2,-1.14021495E-1,-2.1472065E-2,-6.2199547E-3,1.1633765E-2,5.3970753E-3,-9.402599E-2,2.1106523E-2,-5.09305E-2],"split_indices":[2,29,1,28,11,34,1,1,19,11,0,0,20,0,0,0,0,0,0,0,0,0,0,0,0],"split_type":[0,0,0,0,0,0,0,0,0,0,0,0,0,0,0,0,0,0,0,0,0,0,0,0,0],"sum_hessian":[5.72E2,3.87E2,1.85E2,1.88E2,1.99E2,9.8E1,8.7E1,1.75E2,1.3E1,1.98E2,1E0,2E0,9.6E1,5E1,3.7E1,8.2E1,9.3E1,4E0,9E0,1.73E2,2.5E1,1E0,1E0,9.4E1,2E0],"tree_param":{"num_deleted":"0","num_feature":"36","num_nodes":"25","size_leaf_vector":"1"}},{"base_weights":[-7.776408E-3,-2.8164405E-1,5.6208676E-1,-4.5967194E-1,-1.058124E-1,3.2676646E-1,8.3191544E-1,-4.1828582E-1,-1.359267E0,-7.421551E-2,-1.0940114E0,-9.167534E-2,3.667043E-1,3.3920627E-2,4.4716176E-2,-2.9045729E-2,-1.6160337E-2,-8.814136E-3,-1.01690054E-1,-8.547122E-3,2.1688463E-3,9.886813E-3,-1.2258357E-1,-5.0587125E-2,2.0257987E-2],"categories":[],"categories_nodes":[],"categories_segments":[],"categories_sizes":[],"default_left":[0,0,0,0,0,0,0,0,0,0,0,0,0,0,0,0,0,0,0,0,0,0,0,0,0],"id":5,"left_children":[1,3,5,7,9,11,13,15,17,19,21,-1,23,-1,-1,-1,-1,-1,-1,-1,-1,-1,-1,-1,-1],"loss_changes":[8.942868E1,1.2065601E1,1.1538448E1,6.5797424E0,6.0387154E0,9.386287E0,2.1714401E-1,2.6728249E0,6.025181E0,2.1799164E0,1.1007309E1,0E0,5.710801E0,0E0,0E0,0E0,0E0,0E0,0E0,0E0,0E0,0E0,0E0,0E0,0E0],"parents":[2147483647,0,0,1,1,2,2,3,3,4,4,5,5,6,6,7,7,8,8,9,9,10,10,12,12],"right_children":[2,4,6,8,10,12,14,16,18,20,22,-1,24,-1,-1,-1,-1,-1,-1,-1,-1,-1,-1,-1,-1],"split_conditions":[4.28E0,3.69E0,4.85E0,3.72E0,4.39E0,1.8E1,5E0,3.32E0,3.71E0,3.93E0,3.384E3,-9.167534E-2,7.0710676E-3,3.3920627E-2,4.4716176E-2,-2.9045729E-2,-1.6160337E-2,-8.814136E-3,-1.01690054E-1,-8.547122E-3,2.1688463E-3,9.886813E-3,-1.2258357E-1,-5.0587125E-2,2.0257987E-2],"split_indices":[3,29,1,13,30,34,3,2,0,1,32,0,10,0,0,0,0,0,0,0,0,0,0,0,0],"split_type":[0,0,0,0,0,0,0,0,0,0,0,0,0,0,0,0,0,0,0,0,0,0,0,0,0],"sum_hessian":[5.71E2,3.86E2,1.85E2,1.91E2,1.95E2,1E2,8.5E1,1.84E2,7E0,1.9E2,5E0,1E0,9.9E1,2.8E1,5.7E1,6.6E1,1.18E2,3E0,4E0,1.04E2,8.6E1,3E0,2E0,2E0,9.7E1],"tree_param":{"num_deleted":"0","num_feature":"36","num_nodes":"25","size_leaf_vector":"1"}},{"base_weights":[-1.0807974E-2,-2.7128932E-1,5.3099525E-1,-4.4002074E-1,-9.943607E-2,3.081328E-1,7.9742706E-1,-4.1047361E-1,-1.106956E-1,-8.213547E-2,-8.63938E-2,-8.938346E-2,3.458364E-1,3.6657486E-2,4.910597E-2,-3.639173E-2,-1.8399423E-2,-9.034577E-3,4.264869E-4,1.908158E-2,-4.872733E-2],"categories":[],"categories_nodes":[],"categories_segments":[],"categories_sizes":[],"default_left":[0,0,0,0,0,0,0,0,0,0,0,0,0,0,0,0,0,0,0,0,0],"id":6,"left_children":[1,3,5,7,9,11,13,15,-1,17,-1,-1,19,-1,-1,-1,-1,-1,-1,-1,-1],"loss_changes":[8.171698E1,1.1294092E1,1.0917286E1,9.416695E0,5.3518124E0,8.836248E0,2.890396E-1,2.361374E0,0E0,1.7350494E0,0E0,0E0,5.240041E0,0E0,0E0,0E0,0E0,0E0,0E0,0E0,0E0],"parents":[2147483647,0,0,1,1,2,2,3,3,4,4,5,5,6,6,7,7,9,9,12,12],"right_children":[2,4,6,8,10,12,14,16,-1,18,-1,-1,20,-1,-1,-1,-1,-1,-1,-1,-1],"split_conditions":[4.28E0,3.69E0,4.85E0,3.84E0,4.37E0,1.8E1,5.15E0,3.2E0,-1.106956E-1,3.91E0,-8.63938E-2,-8.938346E-2,5.02E0,3.6657486E-2,4.910597E-2,-3.639173E-2,-1.8399423E-2,-9.034577E-3,4.264869E-4,1.908158E-2,-4.872733E-2],"split_indices":[3,29,3,9,1,34,28,28,0,1,0,0,20,0,0,0,0,0,0,0,0],"split_type":[0,0,0,0,0,0,0,0,0,0,0,0,0,0,0,0,0,0,0,0,0],"sum_hessian":[5.77E2,3.9E2,1.87E2,1.96E2,1.94E2,1.03E2,8.4E1,1.94E2,2E0,1.93E2,1E0,1E0,1.02E2,6.6E1,1.8E1,2.1E1,1.73E2,9.2E1,1.01E2,1E2,2E0],"tree_param":{"num_deleted":"0","num_feature":"36","num_nodes":"21","size_leaf_vector":"1"}},{"base_weights":[-9.315268E-3,-2.4688649E-1,5.266228E-1,-4.3757173E-1,-9.917344E-2,3.4230322E-1,7.435274E-1,-3.8553518E-1,-2.1088936E0,-8.45744E-2,-8.423396E-2,3.8249987E-1,-8.791441E-2,3.401178E-2,4.4447746E-2,-2.5258278E-2,-1.2923337E-2,-4.8123836E-3,-1.2939967E-1,-6.172109E-3,1.0179415E-2,2.0794919E-2,6.718265E-4],"categories":[],"categories_nodes":[],"categories_segments":[],"categories_sizes":[],"default_left":[0,0,0,0,0,0,0,0,0,0,0,0,0,0,0,0,0,0,0,0,0,0,0],"id":7,"left_children":[1,3,5,7,9,11,13,15,17,19,-1,21,-1,-1,-1,-1,-1,-1,-1,-1,-1,-1,-1],"loss_changes":[7.295903E1,1.1138784E1,6.781925E0,1.42327385E1,5.065563E0,8.862909E0,1.3165283E-1,2.4384422E0,4.5722027E0,2.5339851E0,0E0,1.1777248E0,0E0,0E0,0E0,0E0,0E0,0E0,0E0,0E0,0E0,0E0,0E0],"parents":[2147483647,0,0,1,1,2,2,3,3,4,4,5,5,6,6,7,7,8,8,9,9,11,11],"right_children":[2,4,6,8,10,12,14,16,18,20,-1,22,-1,-1,-1,-1,-1,-1,-1,-1,-1,-1,-1],"split_conditions":[4.22E0,3.66E0,4.85E0,3.69E0,4.37E0,4.83E0,5.14E0,3.38E0,3.55E0,4.18E0,-8.423396E-2,4.79E0,-8.791441E-2,3.401178E-2,4.4447746E-2,-2.5258278E-2,-1.2923337E-2,-4.8123836E-3,-1.2939967E-1,-6.172109E-3,1.0179415E-2,2.0794919E-2,6.718265E-4],"split_indices":[2,19,11,18,11,0,11,2,0,11,0,27,0,0,0,0,0,0,0,0,0,0,0],"split_type":[0,0,0,0,0,0,0,0,0,0,0,0,0,0,0,0,0,0,0,0,0,0,0],"sum_hessian":[5.71E2,3.96E2,1.75E2,1.72E2,2.24E2,9.6E1,7.9E1,1.68E2,4E0,2.23E2,1E0,9.5E1,1E0,5.9E1,2E1,8.5E1,8.3E1,1E0,3E0,1.97E2,2.6E1,8.7E1,8E0],"tree_param":{"num_deleted":"0","num_feature":"36","num_nodes":"23","size_leaf_vector":"1"}},{"base_weights":[3.4534265E-3,-2.4499442E-1,5.029738E-1,-3.98558E-1,-9.729206E-2,-1.0965859E0,5.26069E-1,-3.5896263E-1,-1.2297356E0,-6.59264E-2,-1.0690949E0,5.4248096E-3,-8.766875E-2,3.5867342E-1,7.207546E-1,-2.127719E-2,-6.66172E-3,-7.5621693E-3,-9.232911E-2,-3.6575887E-2,-2.193202E-3,6.486294E-3,-1.1555789E-1,1.967302E-2,-4.6022497E-2,3.263611E-2,4.3323677E-2],"categories":[],"categories_nodes":[],"categories_segments":[],"categories_sizes":[],"default_left":[0,0,0,0,0,0,0,0,0,0,0,0,0,0,0,0,0,0,0,0,0,0,0,0,0,0,0],"id":8,"left_children":[1,3,5,7,9,11,13,15,17,19,21,-1,-1,23,25,-1,-1,-1,-1,-1,-1,-1,-1,-1,-1,-1,-1],"loss_changes":[7.024242E1,8.53491E0,7.5219994E0,5.647066E0,5.8428783E0,2.564689E0,5.803135E0,2.6185112E0,5.0428305E0,2.7432861E0,9.233881E0,0E0,0E0,4.900836E0,2.7708817E-1,0E0,0E0,0E0,0E0,0E0,0E0,0E0,0E0,0E0,0E0,0E0,0E0],"parents":[2147483647,0,0,1,1,2,2,3,3,4,4,5,5,6,6,7,7,8,8,9,9,10,10,13,13,14,14],"right_children":[2,4,6,8,10,12,14,16,18,20,22,-1,-1,24,26,-1,-1,-1,-1,-1,-1,-1,-1,-1,-1,-1,-1],"split_conditions":[4.28E0,3.69E0,1.8E1,3.72E0,4.24E0,4.38E0,4.85E0,3.6E0,3.71E0,1E-2,4.25E0,5.4248096E-3,-8.766875E-2,4.82E0,5.15E0,-2.127719E-2,-6.66172E-3,-7.5621693E-3,-9.232911E-2,-3.6575887E-2,-2.193202E-3,6.486294E-3,-1.1555789E-1,1.967302E-2,-4.6022497E-2,3.263611E-2,4.3323677E-2],"split_indices":[3,29,32,13,3,0,3,19,0,10,0,0,0,2,1,0,0,0,0,0,0,0,0,0,0,0,0],"split_type":[0,0,0,0,0,0,0,0,0,0,0,0,0,0,0,0,0,0,0,0,0,0,0,0,0,0,0],"sum_hessian":[5.64E2,3.77E2,1.87E2,1.84E2,1.93E2,2E0,1.85E2,1.77E2,7E0,1.88E2,5E0,1E0,1E0,1.01E2,8.4E1,1.36E2,4.1E1,3E0,4E0,5E0,1.83E2,3E0,2E0,9.9E1,2E0,6.1E1,2.3E1],"tree_param":{"num_deleted":"0","num_feature":"36","num_nodes":"27","size_leaf_vector":"1"}},{"base_weights":[7.588538E-4,-2.2080278E-1,4.5585436E-1,-4.0250272E-1,-8.6827844E-2,-8.547703E-2,4.7691378E-1,-3.495458E-1,-1.9848489E0,-7.275141E-2,-7.923916E-2,2.9966047E-1,6.7983633E-1,-2.9940357E-2,-1.4419717E-2,-4.160142E-3,-1.2197299E-1,-2.927215E-3,-4.1087378E-2,1.6842771E-2,-8.456599E-2,3.0463845E-2,3.8883027E-2],"categories":[],"categories_nodes":[],"categories_segments":[],"categories_sizes":[],"default_left":[0,0,0,0,0,0,0,0,0,0,0,0,0,0,0,0,0,0,0,0,0,0,0],"id":9,"left_children":[1,3,5,7,9,-1,11,13,15,17,-1,19,21,-1,-1,-1,-1,-1,-1,-1,-1,-1,-1],"loss_changes":[5.6969738E1,9.215481E0,9.251671E0,1.279738E1,4.523596E0,0E0,6.414524E0,2.2204113E0,4.1195755E0,2.2822857E0,0E0,7.97517E0,1.12895966E-1,0E0,0E0,0E0,0E0,0E0,0E0,0E0,0E0,0E0,0E0],"parents":[2147483647,0,0,1,1,2,2,3,3,4,4,6,6,7,7,8,8,9,9,11,11,12,12],"right_children":[2,4,6,8,10,-1,12,14,16,18,-1,20,22,-1,-1,-1,-1,-1,-1,-1,-1,-1,-1],"split_conditions":[4.29E0,3.66E0,1.8E1,3.69E0,4.37E0,-8.547703E-2,4.85E0,3.3E0,3.55E0,1.2020815E-1,-7.923916E-2,5.02E0,5.1E0,-2.9940357E-2,-1.4419717E-2,-4.160142E-3,-1.2197299E-1,-2.927215E-3,-4.1087378E-2,1.6842771E-2,-8.456599E-2,3.0463845E-2,3.8883027E-2],"split_indices":[3,19,34,18,1,0,1,1,0,10,0,20,1,0,0,0,0,0,0,0,0,0,0],"split_type":[0,0,0,0,0,0,0,0,0,0,0,0,0,0,0,0,0,0,0,0,0,0,0],"sum_hessian":[5.63E2,3.79E2,1.84E2,1.6E2,2.19E2,1E0,1.83E2,1.56E2,4E0,2.18E2,1E0,9.9E1,8.4E1,2.9E1,1.27E2,1E0,3E0,2.15E2,3E0,9.8E1,1E0,5.3E1,3.1E1],"tree_param":{"num_deleted":"0","num_feature":"36","num_nodes":"23","size_leaf_vector":"1"}},{"base_weights":[-2.341339E-3,-2.178883E-1,4.4973737E-1,-3.6521894E-1,-7.612591E-2,-8.33401E-2,4.70299E-1,-3.2457066E-1,-1.381514E0,-6.0902677E-2,-7.7258185E-2,2.9574326E-1,6.573627E-1,-1.9047707E-2,-6.243524E-3,-7.1688145E-3,-1.1371366E-1,-2.675193E-2,-2.036236E-3,1.6658943E-2,-8.245184E-2,3.0232897E-2,4.084701E-2],"categories":[],"categories_nodes":[],"categories_segments":[],"categories_sizes":[],"default_left":[0,0,0,0,0,0,0,0,0,0,0,0,0,0,0,0,0,0,0,0,0,0,0],"id":10,"left_children":[1,3,5,7,9,-1,11,13,15,17,-1,19,21,-1,-1,-1,-1,-1,-1,-1,-1,-1,-1],"loss_changes":[5.5836067E1,8.075945E0,8.835007E0,7.4006233E0,4.356234E0,0E0,5.813751E0,2.024229E0,7.411434E0,1.8724957E0,0E0,7.611411E0,2.4615479E-1,0E0,0E0,0E0,0E0,0E0,0E0,0E0,0E0,0E0,0E0],"parents":[2147483647,0,0,1,1,2,2,3,3,4,4,6,6,7,7,8,8,9,9,11,11,12,12],"right_children":[2,4,6,8,10,-1,12,14,16,18,-1,20,22,-1,-1,-1,-1,-1,-1,-1,-1,-1,-1],"split_conditions":[4.3E0,3.69E0,1.8E1,3.72E0,4.37E0,-8.33401E-2,4.85E0,3.6E0,3.71E0,1E-2,-7.7258185E-2,5.02E0,5.3E0,-1.9047707E-2,-6.243524E-3,-7.1688145E-3,-1.1371366E-1,-2.675193E-2,-2.036236E-3,1.6658943E-2,-8.245184E-2,3.0232897E-2,4.084701E-2],"split_indices":[3,29,34,13,1,0,3,19,1,10,0,20,25,0,0,0,0,0,0,0,0,0,0],"split_type":[0,0,0,0,0,0,0,0,0,0,0,0,0,0,0,0,0,0,0,0,0,0,0],"sum_hessian":[5.71E2,3.87E2,1.84E2,1.89E2,1.98E2,1E0,1.83E2,1.83E2,6E0,1.97E2,1E0,9.6E1,8.7E1,1.42E2,4.1E1,3E0,3E0,7E0,1.9E2,9.5E1,1E0,6.9E1,1.8E1],"tree_param":{"num_deleted":"0","num_feature":"36","num_nodes":"23","size_leaf_vector":"1"}},{"base_weights":[-4.5537045E-3,-2.1105118E-1,4.151996E-1,-3.5390645E-1,-7.379301E-2,-8.12566E-2,4.3522945E-1,-3.13316E-1,-1.3297073E0,-5.840413E-2,-7.532673E-2,2.64018E-1,6.211177E-1,-2.8036315E-2,-1.2950482E-2,-6.899986E-3,-1.094494E-1,-2.4391262E-2,-1.9708115E-3,1.6960202E-2,-3.755586E-2,2.8285543E-2,3.8415752E-2],"categories":[],"categories_nodes":[],"categories_segments":[],"categories_sizes":[],"default_left":[0,0,0,0,0,0,0,0,0,0,0,0,0,0,0,0,0,0,0,0,0,0,0],"id":11,"left_children":[1,3,5,7,9,-1,11,13,15,17,-1,19,21,-1,-1,-1,-1,-1,-1,-1,-1,-1,-1],"loss_changes":[4.836727E1,7.3072968E0,8.226934E0,6.831682E0,4.145283E0,0E0,5.6602135E0,2.2329292E0,6.865999E0,1.5381484E0,0E0,7.658209E0,2.7490234E-1,0E0,0E0,0E0,0E0,0E0,0E0,0E0,0E0,0E0,0E0],"parents":[2147483647,0,0,1,1,2,2,3,3,4,4,6,6,7,7,8,8,9,9,11,11,12,12],"right_children":[2,4,6,8,10,-1,12,14,16,18,-1,20,22,-1,-1,-1,-1,-1,-1,-1,-1,-1,-1],"split_conditions":[4.28E0,3.69E0,1.8E1,3.72E0,4.37E0,-8.12566E-2,4.85E0,3.3E0,3.71E0,1.01E2,-7.532673E-2,4.79E0,5.2E0,-2.8036315E-2,-1.2950482E-2,-6.899986E-3,-1.094494E-1,-2.4391262E-2,-1.9708115E-3,1.6960202E-2,-3.755586E-2,2.8285543E-2,3.8415752E-2],"split_indices":[3,29,34,13,1,0,11,9,0,32,0,27,9,0,0,0,0,0,0,0,0,0,0],"split_type":[0,0,0,0,0,0,0,0,0,0,0,0,0,0,0,0,0,0,0,0,0,0,0],"sum_hessian":[5.56E2,3.73E2,1.83E2,1.82E2,1.91E2,1E0,1.82E2,1.76E2,6E0,1.9E2,1E0,9.6E1,8.6E1,3E1,1.46E2,3E0,3E0,7E0,1.83E2,9E1,6E0,6.6E1,2E1],"tree_param":{"num_deleted":"0","num_feature":"36","num_nodes":"23","size_leaf_vector":"1"}},{"base_weights":[9.265365E-3,-1.7262226E-1,3.910777E-1,-2.8658748E-1,-3.1655487E-2,-7.922518E-2,4.1085595E-1,-2.661466E-1,-1.272756E0,-1.4560858E-2,-7.344356E-2,2.579805E-1,5.945188E-1,-1.9701691E-2,-9.368349E-3,-9.214813E-2,1.0946602E-2,-2.100078E-3,9.667223E-3,1.445131E-2,-4.210864E-2,2.3656305E-2,3.2165106E-2],"categories":[],"categories_nodes":[],"categories_segments":[],"categories_sizes":[],"default_left":[0,0,0,0,0,0,0,0,0,0,0,0,0,0,0,0,0,0,0,0,0,0,0],"id":12,"left_children":[1,3,5,7,9,-1,11,13,15,17,-1,19,21,-1,-1,-1,-1,-1,-1,-1,-1,-1,-1],"loss_changes":[3.8957794E1,6.095745E0,7.7233143E0,3.8944721E0,4.179855E0,0E0,4.900585E0,2.0116758E0,3.8057656E0,9.7798216E-1,0E0,3.6589131E0,1.7531204E-1,0E0,0E0,0E0,0E0,0E0,0E0,0E0,0E0,0E0,0E0],"parents":[2147483647,0,0,1,1,2,2,3,3,4,4,6,6,7,7,8,8,9,9,11,11,12,12],"right_children":[2,4,6,8,10,-1,12,14,16,18,-1,20,22,-1,-1,-1,-1,-1,-1,-1,-1,-1,-1],"split_conditions":[4.29E0,3.8E0,1.8E1,3.84E0,4.37E0,-7.922518E-2,4.85E0,3.43E0,3.89E0,2.1066755E-2,-7.344356E-2,4.84E0,5E0,-1.9701691E-2,-9.368349E-3,-9.214813E-2,1.0946602E-2,-2.100078E-3,9.667223E-3,1.445131E-2,-4.210864E-2,2.3656305E-2,3.2165106E-2],"split_indices":[3,14,34,9,1,0,1,3,2,6,0,1,3,0,0,0,0,0,0,0,0,0,0],"split_type":[0,0,0,0,0,0,0,0,0,0,0,0,0,0,0,0,0,0,0,0,0,0,0],"sum_hessian":[5.59E2,3.79E2,1.8E2,2.09E2,1.7E2,1E0,1.79E2,2.06E2,3E0,1.69E2,1E0,9.9E1,8E1,7.7E1,1.29E2,2E0,1E0,1.5E2,1.9E1,9.7E1,2E0,2.6E1,5.4E1],"tree_param":{"num_deleted":"0","num_feature":"36","num_nodes":"23","size_leaf_vector":"1"}},{"base_weights":[-1.138724E-2,-1.991921E-1,3.7337103E-1,-3.4329984E-1,-8.391794E-2,-7.724456E-2,3.920908E-1,-2.9647565E-1,-1.10033885E-1,-7.0802934E-2,-7.160747E-2,2.460274E-1,5.5737275E-1,-3.150734E-2,-1.3200295E-2,-7.648922E-3,9.658751E-4,1.379849E-2,-4.070502E-2,2.5340607E-2,3.4071054E-2],"categories":[],"categories_nodes":[],"categories_segments":[],"categories_sizes":[],"default_left":[0,0,0,0,0,0,0,0,0,0,0,0,0,0,0,0,0,0,0,0,0],"id":13,"left_children":[1,3,5,7,9,-1,11,13,-1,15,-1,17,19,-1,-1,-1,-1,-1,-1,-1,-1],"loss_changes":[4.097324E1,6.3003235E0,7.2848816E0,1.4045511E1,3.6648784E0,0E0,4.329073E0,1.6321182E0,0E0,1.5729618E0,0E0,3.3989449E0,1.9403648E-1,0E0,0E0,0E0,0E0,0E0,0E0,0E0,0E0],"parents":[2147483647,0,0,1,1,2,2,3,3,4,4,6,6,7,7,9,9,11,11,12,12],"right_children":[2,4,6,8,10,-1,12,14,-1,16,-1,18,20,-1,-1,-1,-1,-1,-1,-1,-1],"split_conditions":[4.3E0,3.66E0,1.8E1,3.67E0,4.38E0,-7.724456E-2,4.85E0,3.1E0,-1.10033885E-1,3.91E0,-7.160747E-2,4.82E0,5.09E0,-3.150734E-2,-1.3200295E-2,-7.648922E-3,9.658751E-4,1.379849E-2,-4.070502E-2,2.5340607E-2,3.4071054E-2],"split_indices":[3,19,34,14,11,0,3,2,0,8,0,2,27,0,0,0,0,0,0,0,0],"split_type":[0,0,0,0,0,0,0,0,0,0,0,0,0,0,0,0,0,0,0,0,0],"sum_hessian":[5.65E2,3.8E2,1.85E2,1.68E2,2.12E2,1E0,1.84E2,1.65E2,3E0,2.11E2,1E0,9.9E1,8.5E1,1.3E1,1.52E2,1.1E2,1.01E2,9.7E1,2E0,6.4E1,2.1E1],"tree_param":{"num_deleted":"0","num_feature":"36","num_nodes":"21","size_leaf_vector":"1"}},{"base_weights":[-2.3014795E-3,-1.7778985E-1,3.8980284E-1,-2.6561794E-1,-1.4846945E-2,-7.531344E-2,4.093565E-1,-2.4253912E-1,-7.10829E-1,5.4292907E-3,-6.981728E-2,2.2530127E-1,5.340422E-1,-1.5011616E-2,-3.8243674E-3,-9.056045E-2,3.2881037E-3,1.3337112E-3,-2.3143208E-2,1.4358945E-2,-1.0420026E-1,2.5001181E-2,3.2906152E-2],"categories":[],"categories_nodes":[],"categories_segments":[],"categories_sizes":[],"default_left":[0,0,0,0,0,0,0,0,0,0,0,0,0,0,0,0,0,0,0,0,0,0,0],"id":14,"left_children":[1,3,5,7,9,-1,11,13,15,17,-1,19,21,-1,-1,-1,-1,-1,-1,-1,-1,-1,-1],"loss_changes":[3.894681E1,5.5916443E0,7.1047554E0,2.4374313E0,3.8731809E0,0E0,3.8728123E0,2.3049908E0,1.03736515E1,1.3753407E0,0E0,1.0886879E1,1.0569382E-1,0E0,0E0,0E0,0E0,0E0,0E0,0E0,0E0,0E0,0E0],"parents":[2147483647,0,0,1,1,2,2,3,3,4,4,6,6,7,7,8,8,9,9,11,11,12,12],"right_children":[2,4,6,8,10,-1,12,14,16,18,-1,20,22,-1,-1,-1,-1,-1,-1,-1,-1,-1,-1],"split_conditions":[4.32E0,3.8E0,1.8E1,3.85E0,4.42E0,-7.531344E-2,4.73E0,3.68E0,3.95E0,1.2020815E-1,-6.981728E-2,4.768E0,5.15E0,-1.5011616E-2,-3.8243674E-3,-9.056045E-2,3.2881037E-3,1.3337112E-3,-2.3143208E-2,1.4358945E-2,-1.0420026E-1,2.5001181E-2,3.2906152E-2],"split_indices":[3,28,34,26,11,0,11,16,21,10,0,8,29,0,0,0,0,0,0,0,0,0,0],"split_type":[0,0,0,0,0,0,0,0,0,0,0,0,0,0,0,0,0,0,0,0,0,0,0],"sum_hessian":[5.64E2,3.9E2,1.74E2,2.53E2,1.37E2,1E0,1.73E2,2.42E2,1.1E1,1.36E2,1E0,7.1E1,1.02E2,1.79E2,6.3E1,4E0,7E0,1.31E2,5E0,7E1,1E0,8.4E1,1.8E1],"tree_param":{"num_deleted":"0","num_feature":"36","num_nodes":"23","size_leaf_vector":"1"}},{"base_weights":[-7.852946E-3,-1.7281051E-1,3.3710033E-1,-2.982811E-1,-7.29054E-2,-7.343061E-2,3.5470423E-1,-2.5594538E-1,-1.6695716E0,-6.074958E-2,-6.807185E-2,2.2272846E-1,5.193719E-1,-2.2061495E-2,-9.941529E-3,1.04165076E-4,-1.04400314E-1,-4.3016947E-3,9.02691E-3,1.2743625E-2,-7.800634E-2,2.4177808E-2,3.4400042E-2],"categories":[],"categories_nodes":[],"categories_segments":[],"categories_sizes":[],"default_left":[0,0,0,0,0,0,0,0,0,0,0,0,0,0,0,0,0,0,0,0,0,0,0],"id":15,"left_children":[1,3,5,7,9,-1,11,13,15,17,-1,19,21,-1,-1,-1,-1,-1,-1,-1,-1,-1,-1],"loss_changes":[3.2891083E1,4.8795004E0,6.4651985E0,9.616117E0,3.3475246E0,0E0,3.9265003E0,1.7007113E0,3.5017414E0,1.345506E0,0E0,6.4149947E0,1.625576E-1,0E0,0E0,0E0,0E0,0E0,0E0,0E0,0E0,0E0,0E0],"parents":[2147483647,0,0,1,1,2,2,3,3,4,4,6,6,7,7,8,8,9,9,11,11,12,12],"right_children":[2,4,6,8,10,-1,12,14,16,18,-1,20,22,-1,-1,-1,-1,-1,-1,-1,-1,-1,-1],"split_conditions":[4.28E0,3.66E0,1.8E1,3.68E0,4.37E0,-7.343061E-2,4.89E0,3.26E0,3.55E0,4.18E0,-6.807185E-2,5.02E0,5.18E0,-2.2061495E-2,-9.941529E-3,1.04165076E-4,-1.04400314E-1,-4.3016947E-3,9.02691E-3,1.2743625E-2,-7.800634E-2,2.4177808E-2,3.4400042E-2],"split_indices":[3,19,34,28,1,0,23,2,0,11,0,20,2,0,0,0,0,0,0,0,0,0,0],"split_type":[0,0,0,0,0,0,0,0,0,0,0,0,0,0,0,0,0,0,0,0,0,0,0],"sum_hessian":[5.76E2,3.9E2,1.86E2,1.72E2,2.18E2,1E0,1.85E2,1.68E2,4E0,2.17E2,1E0,1.04E2,8.1E1,3.8E1,1.3E2,1E0,3E0,1.97E2,2E1,1.03E2,1E0,7E1,1.1E1],"tree_param":{"num_deleted":"0","num_feature":"36","num_nodes":"23","size_leaf_vector":"1"}},{"base_weights":[-7.226685E-3,-1.5426768E-1,3.5995355E-1,-2.772838E-1,-4.851211E-2,-6.459279E-1,3.83743E-1,-2.549345E-1,-1.2025063E0,-3.6160022E-2,-6.6370055E-2,7.642261E-3,-7.605618E-2,1.926714E-1,4.9403587E-1,-2.7317205E-2,-1.1433189E-2,3.1765164E-3,-8.228477E-2,-1.1811963E-3,-2.7396116E-2,1.3378504E-2,-1.0191383E-1,2.2908023E-2,3.1301793E-2],"categories":[],"categories_nodes":[],"categories_segments":[],"categories_sizes":[],"default_left":[0,0,0,0,0,0,0,0,0,0,0,0,0,0,0,0,0,0,0,0,0,0,0,0,0],"id":16,"left_children":[1,3,5,7,9,11,13,15,17,19,-1,-1,-1,21,23,-1,-1,-1,-1,-1,-1,-1,-1,-1,-1],"loss_changes":[2.9642351E1,5.0863266E0,4.004778E0,3.4361706E0,3.3009536E0,3.0288281E0,3.1501846E0,1.2377567E0,2.348925E0,1.3407266E0,0E0,0E0,0E0,1.02368965E1,1.725235E-1,0E0,0E0,0E0,0E0,0E0,0E0,0E0,0E0,0E0,0E0],"parents":[2147483647,0,0,1,1,2,2,3,3,4,4,5,5,6,6,7,7,8,8,9,9,13,13,14,14],"right_children":[2,4,6,8,10,12,14,16,18,20,-1,-1,-1,22,24,-1,-1,-1,-1,-1,-1,-1,-1,-1,-1],"split_conditions":[4.4E0,3.69E0,7.0710676E-3,3.8E0,4.51E0,1.3960472E-2,4.73E0,3.2E0,3.84E0,1.2177849E-1,-6.6370055E-2,7.642261E-3,-7.605618E-2,4.768E0,5.3E0,-2.7317205E-2,-1.1433189E-2,3.1765164E-3,-8.228477E-2,-1.1811963E-3,-2.7396116E-2,1.3378504E-2,-1.0191383E-1,2.2908023E-2,3.1301793E-2],"split_indices":[1,30,10,8,12,6,11,1,0,10,0,0,0,8,25,0,0,0,0,0,0,0,0,0,0],"split_type":[0,0,0,0,0,0,0,0,0,0,0,0,0,0,0,0,0,0,0,0,0,0,0,0,0],"sum_hessian":[5.47E2,3.91E2,1.56E2,1.8E2,2.11E2,3E0,1.53E2,1.77E2,3E0,2.1E2,1E0,2E0,1E0,5.7E1,9.6E1,1.3E1,1.64E2,1E0,2E0,2.06E2,4E0,5.6E1,1E0,7.9E1,1.7E1],"tree_param":{"num_deleted":"0","num_feature":"36","num_nodes":"25","size_leaf_vector":"1"}},{"base_weights":[2.9158476E-3,-1.2813805E-1,3.6595085E-1,-2.8023198E-1,-5.0786033E-2,-7.2167546E-2,3.8807774E-1,-2.668205E-1,-5.2940127E-2,-4.167168E-2,-8.5718733E-1,2.3632495E-1,4.686548E-1,-2.6604036E-2,-1.1492261E-2,-5.7141655E-3,2.816884E-3,-6.47108E-2,4.2175056E-4,1.6048357E-2,-4.403918E-2,2.2212591E-2,3.1582747E-2],"categories":[],"categories_nodes":[],"categories_segments":[],"categories_sizes":[],"default_left":[0,0,0,0,0,0,0,0,0,0,0,0,0,0,0,0,0,0,0,0,0,0,0],"id":17,"left_children":[1,3,5,7,9,-1,11,13,-1,15,17,19,21,-1,-1,-1,-1,-1,-1,-1,-1,-1,-1],"loss_changes":[2.6547365E1,4.8093247E0,6.485195E0,1.1584558E0,1.9707825E0,0E0,1.6867313E0,1.2214098E0,0E0,1.9350425E0,1.1458223E0,5.2940907E0,9.726715E-2,0E0,0E0,0E0,0E0,0E0,0E0,0E0,0E0,0E0,0E0],"parents":[2147483647,0,0,1,1,2,2,3,3,4,4,6,6,7,7,9,9,10,10,11,11,12,12],"right_children":[2,4,6,8,10,-1,12,14,-1,16,18,20,22,-1,-1,-1,-1,-1,-1,-1,-1,-1,-1],"split_conditions":[4.43E0,3.59E0,1.8E1,3.83E0,4.51E0,-7.2167546E-2,4.78E0,3.2E0,-5.2940127E-2,3.91E0,4.31E0,4.79E0,5.42E0,-2.6604036E-2,-1.1492261E-2,-5.7141655E-3,2.816884E-3,-6.47108E-2,4.2175056E-4,1.6048357E-2,-4.403918E-2,2.2212591E-2,3.1582747E-2],"split_indices":[3,15,34,0,12,0,3,1,0,3,0,27,21,0,0,0,0,0,0,0,0,0,0],"split_type":[0,0,0,0,0,0,0,0,0,0,0,0,0,0,0,0,0,0,0,0,0,0,0],"sum_hessian":[5.56E2,4.09E2,1.47E2,1.37E2,2.72E2,1E0,1.46E2,1.36E2,1E0,2.7E2,2E0,5.2E1,9.4E1,1.5E1,1.21E2,1.55E2,1.15E2,1E0,1E0,4.9E1,3E0,8.5E1,9E0],"tree_param":{"num_deleted":"0","num_feature":"36","num_nodes":"23","size_leaf_vector":"1"}},{"base_weights":[-3.6474376E-3,-1.8957141E-1,2.1539044E-1,-3.3105808E-1,-1.4786215E-1,1.11970216E-1,4.3567225E-1,-2.5355479E-2,-1.4100467E-2,-4.1708744E-1,-1.2436598E-1,1.2634051E-1,-7.827807E-1,3.3827275E-1,4.8625928E-1,-8.077004E-2,-4.572057E-3,-9.342424E-3,-2.3900082E-3,-3.2327518E-2,7.159419E-3,-7.471009E-2,1.6001536E-2,4.8080324E-3,1.7149044E-2,2.2261692E-2,3.0907258E-2],"categories":[],"categories_nodes":[],"categories_segments":[],"categories_sizes":[],"default_left":[0,0,0,0,0,0,0,0,0,0,0,0,0,0,0,0,0,0,0,0,0,0,0,0,0,0,0],"id":18,"left_children":[1,3,5,7,9,11,13,-1,-1,15,17,19,21,23,25,-1,-1,-1,-1,-1,-1,-1,-1,-1,-1,-1,-1],"loss_changes":[2.3416634E1,1.7863541E0,5.965558E0,4.614482E-1,1.4789629E0,2.4261646E0,2.4939251E-1,0E0,0E0,7.2665844E0,1.0626898E0,2.423437E0,2.8318806E0,3.4952164E-3,1.1546135E-2,0E0,0E0,0E0,0E0,0E0,0E0,0E0,0E0,0E0,0E0,0E0,0E0],"parents":[2147483647,0,0,1,1,2,2,3,3,4,4,5,5,6,6,9,9,10,10,11,11,12,12,13,13,14,14],"right_children":[2,4,6,8,10,12,14,-1,-1,16,18,20,22,24,26,-1,-1,-1,-1,-1,-1,-1,-1,-1,-1,-1,-1],"split_conditions":[3.94E0,3.32E0,4.85E0,3.1E0,2.81E2,4.83E0,5E0,-2.5355479E-2,-1.4100467E-2,3.5071354E-2,3.69E0,1.8E1,4.84E0,2E1,5.4E0,-8.077004E-2,-4.572057E-3,-9.342424E-3,-2.3900082E-3,-3.2327518E-2,7.159419E-3,-7.471009E-2,1.6001536E-2,4.8080324E-3,1.7149044E-2,2.2261692E-2,3.0907258E-2],"split_indices":[3,2,1,2,32,0,3,0,0,10,27,34,0,4,1,0,0,0,0,0,0,0,0,0,0,0,0],"split_type":[0,0,0,0,0,0,0,0,0,0,0,0,0,0,0,0,0,0,0,0,0,0,0,0,0,0,0],"sum_hessian":[5.73E2,3.1E2,2.63E2,6.9E1,2.41E2,1.8E2,8.3E1,1.3E1,5.6E1,1.8E1,2.23E2,1.78E2,2E0,3.1E1,5.2E1,3E0,1.5E1,1.22E2,1.01E2,3E0,1.75E2,1E0,1E0,1E0,3E1,4.3E1,9E0],"tree_param":{"num_deleted":"0","num_feature":"36","num_nodes":"27","size_leaf_vector":"1"}},{"base_weights":[-9.598283E-3,-1.449641E-1,2.6707098E-1,-1.325421E-1,-8.88896E-1,-6.955517E-2,2.837337E-1,-2.1188036E-1,2.1555623E-2,7.990027E-3,-9.954297E-2,1.677846E-1,4.2767224E-1,-9.611945E-3,-5.5811167E-2,-1.448849E-3,7.0335427E-3,1.1669227E-2,-3.826062E-2,1.9919375E-2,2.8890638E-2],"categories":[],"categories_nodes":[],"categories_segments":[],"categories_sizes":[],"default_left":[0,0,0,0,0,0,0,0,0,0,0,0,0,0,0,0,0,0,0,0,0],"id":19,"left_children":[1,3,5,7,9,-1,11,13,15,-1,-1,17,19,-1,-1,-1,-1,-1,-1,-1,-1],"loss_changes":[2.0974138E1,3.3568401E0,5.478567E0,4.5403547E0,7.2518916E0,0E0,2.9824286E0,4.1372633E0,7.685148E-1,0E0,0E0,6.4826584E0,1.2594795E-1,0E0,0E0,0E0,0E0,0E0,0E0,0E0,0E0],"parents":[2147483647,0,0,1,1,2,2,3,3,4,4,6,6,7,7,8,8,11,11,12,12],"right_children":[2,4,6,8,10,-1,12,14,16,-1,-1,18,20,-1,-1,-1,-1,-1,-1,-1,-1],"split_conditions":[4.28E0,4.39E0,1.8E1,3.8E0,4.21E0,-6.955517E-2,4.89E0,3.88E0,4.026E0,7.990027E-3,-9.954297E-2,4.79E0,5.18E0,-9.611945E-3,-5.5811167E-2,-1.448849E-3,7.0335427E-3,1.1669227E-2,-3.826062E-2,1.9919375E-2,2.8890638E-2],"split_indices":[3,30,34,28,3,0,23,27,8,0,0,27,2,0,0,0,0,0,0,0,0],"split_type":[0,0,0,0,0,0,0,0,0,0,0,0,0,0,0,0,0,0,0,0,0],"sum_hessian":[5.58E2,3.75E2,1.83E2,3.7E2,5E0,1E0,1.82E2,2.44E2,1.26E2,3E0,2E0,1.02E2,8E1,2.4E2,4E0,8.9E1,3.7E1,9.6E1,6E0,7E1,1E1],"tree_param":{"num_deleted":"0","num_feature":"36","num_nodes":"21","size_leaf_vector":"1"}},{"base_weights":[-6.8757883E-3,-1.18607886E-1,2.9183677E-1,-2.3437652E-1,-3.7181813E-2,-6.781629E-2,3.1122056E-1,-1.9426867E-1,-1.5351253E0,-2.7409745E-2,-6.0783446E-2,-2.7832964E-1,3.327278E-1,-1.0550376E-2,1.4642419E-2,1.1485517E-3,-9.6519604E-2,-1.7897306E-2,-6.643912E-4,1.2054549E-2,-7.188582E-2,9.545394E-3,2.0412443E-2],"categories":[],"categories_nodes":[],"categories_segments":[],"categories_sizes":[],"default_left":[0,0,0,0,0,0,0,0,0,0,0,0,0,0,0,0,0,0,0,0,0,0,0],"id":20,"left_children":[1,3,5,7,9,-1,11,13,15,17,-1,19,21,-1,-1,-1,-1,-1,-1,-1,-1,-1,-1],"loss_changes":[1.912556E1,3.9221716E0,5.4059486E0,8.6750555E0,2.799677E0,0E0,2.0579414E0,1.4316287E0,3.123663E0,1.1388569E0,0E0,3.9598763E0,1.5286236E0,0E0,0E0,0E0,0E0,0E0,0E0,0E0,0E0,0E0,0E0],"parents":[2147483647,0,0,1,1,2,2,3,3,4,4,6,6,7,7,8,8,9,9,11,11,12,12],"right_children":[2,4,6,8,10,-1,12,14,16,18,-1,20,22,-1,-1,-1,-1,-1,-1,-1,-1,-1,-1],"split_conditions":[4.43E0,3.66E0,1.8E1,3.68E0,4.53E0,-6.781629E-2,7.0710676E-3,3.644E0,3.55E0,1.01E2,-6.0783446E-2,5.03E0,4.78E0,-1.0550376E-2,1.4642419E-2,1.1485517E-3,-9.6519604E-2,-1.7897306E-2,-6.643912E-4,1.2054549E-2,-7.188582E-2,9.545394E-3,2.0412443E-2],"split_indices":[3,19,32,28,12,0,10,8,0,32,0,20,3,0,0,0,0,0,0,0,0,0,0],"split_type":[0,0,0,0,0,0,0,0,0,0,0,0,0,0,0,0,0,0,0,0,0,0,0],"sum_hessian":[5.71E2,4.16E2,1.55E2,1.71E2,2.45E2,1E0,1.54E2,1.67E2,4E0,2.44E2,1E0,5E0,1.49E2,1.62E2,5E0,1E0,3E0,9E0,2.35E2,4E0,1E0,5.3E1,9.6E1],"tree_param":{"num_deleted":"0","num_feature":"36","num_nodes":"23","size_leaf_vector":"1"}},{"base_weights":[-9.635546E-3,-1.16594374E-1,2.8334084E-1,-1.9291854E-1,-4.773851E-3,-6.6120885E-2,3.0260515E-1,-1.7322421E-1,-1.35589E0,8.851021E-3,-7.7071697E-1,-4.0816337E-1,3.2457298E-1,-3.8357813E-2,-7.7589713E-3,-8.9709565E-2,-1.0246634E-3,-1.5928344E-3,5.183106E-3,-5.9263863E-2,1.4600874E-3,9.534127E-3,-7.008868E-2,9.025599E-3,1.9388597E-2],"categories":[],"categories_nodes":[],"categories_segments":[],"categories_sizes":[],"default_left":[0,0,0,0,0,0,0,0,0,0,0,0,0,0,0,0,0,0,0,0,0,0,0,0,0],"id":21,"left_children":[1,3,5,7,9,-1,11,13,15,17,19,21,23,-1,-1,-1,-1,-1,-1,-1,-1,-1,-1,-1,-1],"loss_changes":[1.7926128E1,3.5750794E0,5.133048E0,5.4682093E0,1.7913564E0,0E0,2.5058117E0,2.5174274E0,2.3044553E0,6.555651E-1,1.0294555E0,3.2423904E0,1.2774687E0,0E0,0E0,0E0,0E0,0E0,0E0,0E0,0E0,0E0,0E0,0E0,0E0],"parents":[2147483647,0,0,1,1,2,2,3,3,4,4,6,6,7,7,8,8,9,9,10,10,11,11,12,12],"right_children":[2,4,6,8,10,-1,12,14,16,18,20,22,24,-1,-1,-1,-1,-1,-1,-1,-1,-1,-1,-1,-1],"split_conditions":[4.43E0,3.81E0,1.8E1,3.85E0,4.53E0,-6.6120885E-2,7.0710676E-3,2.25E2,3.95E0,4.18E0,4.31E0,1.75E2,4.73E0,-3.8357813E-2,-7.7589713E-3,-8.9709565E-2,-1.0246634E-3,-1.5928344E-3,5.183106E-3,-5.9263863E-2,1.4600874E-3,9.534127E-3,-7.008868E-2,9.025599E-3,1.9388597E-2],"split_indices":[3,18,34,27,12,0,10,34,0,11,0,4,11,0,0,0,0,0,0,0,0,0,0,0,0],"split_type":[0,0,0,0,0,0,0,0,0,0,0,0,0,0,0,0,0,0,0,0,0,0,0,0,0],"sum_hessian":[5.7E2,4.18E2,1.52E2,2.48E2,1.7E2,1E0,1.51E2,2.45E2,3E0,1.68E2,2E0,4E0,1.47E2,6E0,2.39E2,2E0,1E0,1.18E2,5E1,1E0,1E0,3E0,1E0,4.6E1,1.01E2],"tree_param":{"num_deleted":"0","num_feature":"36","num_nodes":"25","size_leaf_vector":"1"}},{"base_weights":[-1.2272655E-2,-1.21570595E-1,2.5248665E-1,-1.0944118E-1,-9.038712E-1,-4.6296608E-1,2.6849476E-1,-1.7383708E-1,6.898373E-2,-9.418646E-2,5.6990147E-2,2.4228334E-1,-6.446786E-2,-2.5578925E-1,2.8670496E-1,-7.963228E-3,-3.721973E-2,4.5647842E-4,5.4845833E-3,4.454247E-3,-9.823561E-4,2.450073E-3,1.5721178E-2,1.1987229E-2,-6.833646E-2,7.621181E-3,1.8368134E-2],"categories":[],"categories_nodes":[],"categories_segments":[],"categories_sizes":[],"default_left":[0,0,0,0,0,0,0,0,0,0,0,0,0,0,0,0,0,0,0,0,0,0,0,0,0,0,0],"id":22,"left_children":[1,3,5,7,9,11,13,15,17,-1,19,21,-1,23,25,-1,-1,-1,-1,-1,-1,-1,-1,-1,-1,-1,-1],"loss_changes":[1.643834E1,3.7155933E0,2.0255117E0,4.573455E0,5.7564006E0,2.6436372E0,1.6295462E0,2.309266E0,2.5727177E-1,0E0,1.1588893E-2,2.6422992E-2,0E0,3.6307156E0,1.6552763E0,0E0,0E0,0E0,0E0,0E0,0E0,0E0,0E0,0E0,0E0,0E0,0E0],"parents":[2147483647,0,0,1,1,2,2,3,3,4,4,5,5,6,6,7,7,8,8,10,10,11,11,13,13,14,14],"right_children":[2,4,6,8,10,12,14,16,18,-1,20,22,-1,24,26,-1,-1,-1,-1,-1,-1,-1,-1,-1,-1,-1,-1],"split_conditions":[4.32E0,4.5E0,1.8E1,3.95E0,-2.1366508E-1,4.68E0,7.0710676E-3,3.92E0,3.93E0,-9.418646E-2,4.31E0,4.38E0,-6.446786E-2,5.03E0,4.78E0,-7.963228E-3,-3.721973E-2,4.5647842E-4,5.4845833E-3,4.454247E-3,-9.823561E-4,2.450073E-3,1.5721178E-2,1.1987229E-2,-6.833646E-2,7.621181E-3,1.8368134E-2],"split_indices":[27,15,32,21,7,1,10,11,2,0,1,1,0,20,1,0,0,0,0,0,0,0,0,0,0,0,0],"split_type":[0,0,0,0,0,0,0,0,0,0,0,0,0,0,0,0,0,0,0,0,0,0,0,0,0,0,0],"sum_hessian":[5.66E2,4.01E2,1.65E2,3.96E2,5E0,3E0,1.62E2,2.91E2,1.05E2,2E0,3E0,2E0,1E0,5E0,1.57E2,2.85E2,6E0,4.3E1,6.2E1,2E0,1E0,1E0,1E0,4E0,1E0,6E1,9.7E1],"tree_param":{"num_deleted":"0","num_feature":"36","num_nodes":"27","size_leaf_vector":"1"}},{"base_weights":[2.2699602E-3,-9.9369235E-2,2.752859E-1,-2.1662228E-1,-4.2494137E-2,-6.285616E-2,2.9363808E-1,-2.047731E-1,-4.4814106E-2,-3.4947783E-2,-7.2259396E-1,-2.523913E-1,3.1392747E-1,-1.8143391E-2,-7.957931E-3,-4.652057E-3,2.181336E-3,-5.54276E-2,1.2330533E-3,1.150774E-2,-6.662805E-2,8.281427E-3,1.7221225E-2],"categories":[],"categories_nodes":[],"categories_segments":[],"categories_sizes":[],"default_left":[0,0,0,0,0,0,0,0,0,0,0,0,0,0,0,0,0,0,0,0,0,0,0],"id":23,"left_children":[1,3,5,7,9,-1,11,13,-1,15,17,19,21,-1,-1,-1,-1,-1,-1,-1,-1,-1,-1],"loss_changes":[1.565011E1,2.7316628E0,4.6719666E0,8.956232E-1,1.4015188E0,0E0,1.7631779E0,9.013634E-1,0E0,1.2639043E0,8.9256537E-1,3.4340851E0,6.0778904E-1,0E0,0E0,0E0,0E0,0E0,0E0,0E0,0E0,0E0,0E0],"parents":[2147483647,0,0,1,1,2,2,3,3,4,4,6,6,7,7,9,9,10,10,11,11,12,12],"right_children":[2,4,6,8,10,-1,12,14,-1,16,18,20,22,-1,-1,-1,-1,-1,-1,-1,-1,-1,-1],"split_conditions":[4.43E0,3.58E0,1.8E1,3.83E0,4.53E0,-6.285616E-2,7.0710676E-3,3.25E0,-4.4814106E-2,3.91E0,4.31E0,5.03E0,4.59E0,-1.8143391E-2,-7.957931E-3,-4.652057E-3,2.181336E-3,-5.54276E-2,1.2330533E-3,1.150774E-2,-6.662805E-2,8.281427E-3,1.7221225E-2],"split_indices":[3,15,34,0,12,0,10,27,0,3,0,20,11,0,0,0,0,0,0,0,0,0,0],"split_type":[0,0,0,0,0,0,0,0,0,0,0,0,0,0,0,0,0,0,0,0,0,0,0],"sum_hessian":[5.62E2,4.1E2,1.52E2,1.33E2,2.77E2,1E0,1.51E2,1.32E2,1E0,2.75E2,2E0,5E0,1.46E2,2.8E1,1.04E2,1.58E2,1.17E2,1E0,1E0,4E0,1E0,2.6E1,1.2E2],"tree_param":{"num_deleted":"0","num_feature":"36","num_nodes":"23","size_leaf_vector":"1"}},{"base_weights":[6.695303E-3,-8.878841E-2,2.6208678E-1,-2.1004197E-1,-3.186588E-2,-6.128476E-2,2.7948087E-1,-1.9848026E-1,-4.3693755E-2,-1.673937E-2,-3.4939852E-1,-2.489583E-1,2.986276E-1,-2.1736426E-2,-8.3516585E-3,-3.333681E-3,3.6353057E-3,-6.5958664E-2,3.6725604E-3,1.104744E-2,-6.496235E-2,7.615812E-3,1.6462868E-2],"categories":[],"categories_nodes":[],"categories_segments":[],"categories_sizes":[],"default_left":[0,0,0,0,0,0,0,0,0,0,0,0,0,0,0,0,0,0,0,0,0,0,0],"id":24,"left_children":[1,3,5,7,9,-1,11,13,-1,15,17,19,21,-1,-1,-1,-1,-1,-1,-1,-1,-1,-1],"loss_changes":[1.4069449E1,2.8921714E0,4.4054985E0,8.5501003E-1,1.3726584E0,0E0,1.6527348E0,9.154854E-1,0E0,1.2331058E0,5.427791E0,3.2482953E0,6.265526E-1,0E0,0E0,0E0,0E0,0E0,0E0,0E0,0E0,0E0,0E0],"parents":[2147483647,0,0,1,1,2,2,3,3,4,4,6,6,7,7,9,9,10,10,11,11,12,12],"right_children":[2,4,6,8,10,-1,12,14,-1,16,18,20,22,-1,-1,-1,-1,-1,-1,-1,-1,-1,-1],"split_conditions":[4.43E0,3.58E0,1.8E1,3.83E0,4.39E0,-6.128476E-2,7.0710676E-3,3.2E0,-4.3693755E-2,3.94E0,4.38E0,5.03E0,4.6E0,-2.1736426E-2,-8.3516585E-3,-3.333681E-3,3.6353057E-3,-6.5958664E-2,3.6725604E-3,1.104744E-2,-6.496235E-2,7.615812E-3,1.6462868E-2],"split_indices":[3,15,34,0,30,0,10,1,0,3,23,20,3,0,0,0,0,0,0,0,0,0,0],"split_type":[0,0,0,0,0,0,0,0,0,0,0,0,0,0,0,0,0,0,0,0,0,0,0],"sum_hessian":[5.75E2,4.19E2,1.56E2,1.33E2,2.86E2,1E0,1.55E2,1.32E2,1E0,2.74E2,1.2E1,5E0,1.5E2,1.4E1,1.18E2,1.76E2,9.8E1,3E0,9E0,4E0,1E0,2.7E1,1.23E2],"tree_param":{"num_deleted":"0","num_feature":"36","num_nodes":"23","size_leaf_vector":"1"}},{"base_weights":[-3.736065E-3,-8.858715E-2,2.2401741E-1,-2.2720137E-1,-4.7973145E-2,-5.975264E-2,2.4099223E-1,-2.1395788E-2,-1.9261006E-1,-4.1881695E-2,-6.837671E-1,-2.4549615E-1,2.58965E-1,-1.05183E-2,-7.6452787E-3,-4.6333945E-3,1.9775068E-3,-5.239294E-2,1.1104107E-3,1.0605546E-2,-6.333829E-2,6.5330053E-3,1.5574323E-2],"categories":[],"categories_nodes":[],"categories_segments":[],"categories_sizes":[],"default_left":[0,0,0,0,0,0,0,0,0,0,0,0,0,0,0,0,0,0,0,0,0,0,0],"id":25,"left_children":[1,3,5,7,9,-1,11,-1,13,15,17,19,21,-1,-1,-1,-1,-1,-1,-1,-1,-1,-1],"loss_changes":[1.1035169E1,2.331047E0,4.021711E0,5.7021856E-1,1.2223113E0,0E0,1.410078E0,0E0,2.5643349E-2,1.3311965E0,7.9439044E-1,3.0727355E0,9.63377E-1,0E0,0E0,0E0,0E0,0E0,0E0,0E0,0E0,0E0,0E0],"parents":[2147483647,0,0,1,1,2,2,3,3,4,4,6,6,8,8,9,9,10,10,11,11,12,12],"right_children":[2,4,6,8,10,-1,12,-1,14,16,18,20,22,-1,-1,-1,-1,-1,-1,-1,-1,-1,-1],"split_conditions":[4.43E0,3.47E0,1.8E1,3.1E0,4.53E0,-5.975264E-2,7.0710676E-3,-2.1395788E-2,3.32E0,3.95E0,4.31E0,5.03E0,4.72E0,-1.05183E-2,-7.6452787E-3,-4.6333945E-3,1.9775068E-3,-5.239294E-2,1.1104107E-3,1.0605546E-2,-6.333829E-2,6.5330053E-3,1.5574323E-2],"split_indices":[3,3,34,2,12,0,10,0,2,1,0,20,11,0,0,0,0,0,0,0,0,0,0],"split_type":[0,0,0,0,0,0,0,0,0,0,0,0,0,0,0,0,0,0,0,0,0,0,0],"sum_hessian":[5.69E2,4.15E2,1.54E2,9.3E1,3.22E2,1E0,1.53E2,1.2E1,8.1E1,3.2E2,2E0,5E0,1.48E2,5.3E1,2.8E1,1.97E2,1.23E2,1E0,1E0,4E0,1E0,4.4E1,1.04E2],"tree_param":{"num_deleted":"0","num_feature":"36","num_nodes":"23","size_leaf_vector":"1"}},{"base_weights":[-4.9375924E-3,-1.23708725E-1,1.5740353E-1,-1.8147728E-1,-6.191751E-2,8.2611844E-2,2.953189E-1,-1.4315331E-1,-1.409873E0,-6.6015804E-1,-4.2346228E-2,1.2020741E-1,-8.835779E-1,2.7291542E-1,2.2584531E-2,-7.91279E-3,1.4171948E-2,1.8823147E-3,-8.905822E-2,2.8426945E-4,-8.30883E-2,-2.3088872E-2,-1.2699824E-3,-2.5923818E-2,6.827326E-3,-1.07268356E-1,1.4182925E-2,2.7029754E-3,1.3904996E-2],"categories":[],"categories_nodes":[],"categories_segments":[],"categories_sizes":[],"default_left":[0,0,0,0,0,0,0,0,0,0,0,0,0,0,0,0,0,0,0,0,0,0,0,0,0,0,0,0,0],"id":26,"left_children":[1,3,5,7,9,11,13,15,17,19,21,23,25,27,-1,-1,-1,-1,-1,-1,-1,-1,-1,-1,-1,-1,-1,-1,-1],"loss_changes":[1.0952048E1,1.1595879E0,2.4511847E0,7.7541876E0,1.8453784E0,5.809151E0,1.7100096E-1,1.1078868E0,2.7543116E0,3.344018E0,1.0971073E0,1.656996E0,9.445389E0,7.1199894E-2,0E0,0E0,0E0,0E0,0E0,0E0,0E0,0E0,0E0,0E0,0E0,0E0,0E0,0E0,0E0],"parents":[2147483647,0,0,1,1,2,2,3,3,4,4,5,5,6,6,7,7,8,8,9,9,10,10,11,11,12,12,13,13],"right_children":[2,4,6,8,10,12,14,16,18,20,22,24,26,28,-1,-1,-1,-1,-1,-1,-1,-1,-1,-1,-1,-1,-1,-1,-1],"split_conditions":[3.98E0,3.66E0,4.88E0,3.69E0,1.01E2,4.79E0,5.42E0,3.644E0,3.55E0,3.79E0,5E1,1.8E1,1.083E3,6.1E1,2.2584531E-2,-7.91279E-3,1.4171948E-2,1.8823147E-3,-8.905822E-2,2.8426945E-4,-8.30883E-2,-2.3088872E-2,-1.2699824E-3,-2.5923818E-2,6.827326E-3,-1.07268356E-1,1.4182925E-2,2.7029754E-3,1.3904996E-2],"split_indices":[3,19,22,18,32,27,21,8,0,0,34,34,4,4,0,0,0,0,0,0,0,0,0,0,0,0,0,0,0],"split_type":[0,0,0,0,0,0,0,0,0,0,0,0,0,0,0,0,0,0,0,0,0,0,0,0,0,0,0,0,0],"sum_hessian":[5.66E2,3.27E2,2.39E2,1.68E2,1.59E2,1.56E2,8.3E1,1.64E2,4E0,4E0,1.55E2,1.51E2,5E0,7.5E1,8E0,1.59E2,5E0,1E0,3E0,3E0,1E0,5E0,1.5E2,3E0,1.48E2,2E0,3E0,2E0,7.3E1],"tree_param":{"num_deleted":"0","num_feature":"36","num_nodes":"29","size_leaf_vector":"1"}},{"base_weights":[-9.16378E-3,-1.0687948E-1,1.7172877E-1,-9.856719E-2,-7.976845E-2,-6.9882154E-1,1.8398969E-1,-1.4623904E-1,1.2979682E-2,5.1991106E-3,-5.7610728E-2,1.3447057E-1,3.2139045E-1,-6.504796E-3,-4.717597E-2,1.0481308E-5,1.0225029E-2,-1.7554153E-2,7.5198123E-3,1.4417912E-2,2.2358555E-2],"categories":[],"categories_nodes":[],"categories_segments":[],"categories_sizes":[],"default_left":[0,0,0,0,0,0,0,0,0,0,0,0,0,0,0,0,0,0,0,0,0],"id":27,"left_children":[1,3,5,7,-1,9,11,13,15,-1,-1,17,19,-1,-1,-1,-1,-1,-1,-1,-1],"loss_changes":[1.012905E1,4.445413E0,2.2739987E0,1.9747446E0,0E0,1.2117666E0,1.3107715E0,3.223608E0,2.7387914E-1,0E0,0E0,1.1972516E0,8.71048E-2,0E0,0E0,0E0,0E0,0E0,0E0,0E0,0E0],"parents":[2147483647,0,0,1,1,2,2,3,3,5,5,6,6,7,7,8,8,11,11,12,12],"right_children":[2,4,6,8,-1,10,12,14,16,-1,-1,18,20,-1,-1,-1,-1,-1,-1,-1,-1],"split_conditions":[4.18E0,4.224E0,1.8E1,3.8E0,-7.976845E-2,4.25E0,5E0,3.88E0,2.607224E-2,5.1991106E-3,-5.7610728E-2,7.0710676E-3,5.42E0,-6.504796E-3,-4.717597E-2,1.0481308E-5,1.0225029E-2,-1.7554153E-2,7.5198123E-3,1.4417912E-2,2.2358555E-2],"split_indices":[11,8,34,28,0,0,3,27,5,0,0,10,21,0,0,0,0,0,0,0,0],"split_type":[0,0,0,0,0,0,0,0,0,0,0,0,0,0,0,0,0,0,0,0,0],"sum_hessian":[5.71E2,3.71E2,2E2,3.7E2,1E0,2E0,1.98E2,2.59E2,1.11E2,1E0,1E0,1.47E2,5.1E1,2.55E2,4E0,1.05E2,6E0,4E0,1.43E2,4.3E1,8E0],"tree_param":{"num_deleted":"0","num_feature":"36","num_nodes":"21","size_leaf_vector":"1"}},{"base_weights":[3.2022407E-3,-7.229529E-2,2.1181905E-1,-1.7525753E-1,-1.8057477E-2,-2.2174294E-1,2.2852921E-1,-1.5563431E-1,-7.306269E-2,-1.0594564E-2,-6.7623764E-1,2.0298262E-1,-5.863427E-2,1.24020785E-1,2.7681133E-1,-1.4584951E-2,-5.5472143E-3,-1.1364953E-2,6.957444E-5,-5.1441796E-2,7.2396995E-4,1.814127E-3,1.177935E-2,1.0549831E-2,-4.318594E-2,1.27191935E-2,2.0723706E-2],"categories":[],"categories_nodes":[],"categories_segments":[],"categories_sizes":[],"default_left":[0,0,0,0,0,0,0,0,0,0,0,0,0,0,0,0,0,0,0,0,0,0,0,0,0,0,0],"id":28,"left_children":[1,3,5,7,9,11,13,15,-1,17,19,21,-1,23,25,-1,-1,-1,-1,-1,-1,-1,-1,-1,-1,-1,-1],"loss_changes":[8.772344E0,2.280874E0,1.1229186E0,3.3307672E0,1.314148E0,2.661372E0,6.87232E-1,8.189409E-1,0E0,6.9383043E-1,7.455338E-1,1.862806E-2,0E0,4.2199874E0,1.9404554E-1,0E0,0E0,0E0,0E0,0E0,0E0,0E0,0E0,0E0,0E0,0E0,0E0],"parents":[2147483647,0,0,1,1,2,2,3,3,4,4,5,5,6,6,7,7,9,9,10,10,11,11,13,13,14,14],"right_children":[2,4,6,8,10,12,14,16,-1,18,20,22,-1,24,26,-1,-1,-1,-1,-1,-1,-1,-1,-1,-1,-1,-1],"split_conditions":[4.43E0,3.6E0,7.0710676E-3,3.71E0,4.53E0,5.03E0,4.78E0,3.29E0,-7.306269E-2,1E-2,4.4E0,4.51E0,-5.863427E-2,4.768E0,5.3E0,-1.4584951E-2,-5.5472143E-3,-1.1364953E-2,6.957444E-5,-5.1441796E-2,7.2396995E-4,1.814127E-3,1.177935E-2,1.0549831E-2,-4.318594E-2,1.27191935E-2,2.0723706E-2],"split_indices":[3,19,10,1,12,20,1,3,0,10,1,1,0,8,20,0,0,0,0,0,0,0,0,0,0,0,0],"split_type":[0,0,0,0,0,0,0,0,0,0,0,0,0,0,0,0,0,0,0,0,0,0,0,0,0,0,0],"sum_hessian":[5.55E2,4.08E2,1.47E2,1.4E2,2.68E2,5E0,1.42E2,1.39E2,1E0,2.66E2,2E0,4E0,1E0,4.6E1,9.6E1,3.3E1,1.06E2,1.3E1,2.53E2,1E0,1E0,1E0,3E0,4.3E1,3E0,8.5E1,1.1E1],"tree_param":{"num_deleted":"0","num_feature":"36","num_nodes":"27","size_leaf_vector":"1"}},{"base_weights":[6.3499785E-3,-7.00936E-2,1.9327614E-1,-5.876223E-2,-8.157247E-1,-2.909256E-1,2.0702758E-1,-2.0417081E-1,-2.0744443E-2,5.5730224E-2,-8.528782E-2,2.0802712E-1,-5.7168413E-2,1.0375294E-1,2.7002034E-1,-1.821358E-2,-8.461697E-3,-1.2255078E-2,-1.6500695E-4,4.7246856E-3,-1.5140057E-3,1.7687798E-3,1.2689288E-2,8.316885E-3,-6.0169395E-2,1.2541749E-2,2.0880247E-2],"categories":[],"categories_nodes":[],"categories_segments":[],"categories_sizes":[],"default_left":[0,0,0,0,0,0,0,0,0,0,0,0,0,0,0,0,0,0,0,0,0,0,0,0,0,0,0],"id":29,"left_children":[1,3,5,7,9,11,13,15,17,19,-1,21,-1,23,25,-1,-1,-1,-1,-1,-1,-1,-1,-1,-1,-1,-1],"loss_changes":[8.172741E0,3.3823695E0,1.1655359E0,2.2125378E0,4.7487974E0,2.3644946E0,1.0258846E0,4.026065E-1,1.2476785E0,1.6197521E-2,0E0,2.262336E-2,0E0,5.354014E0,1.7839575E-1,0E0,0E0,0E0,0E0,0E0,0E0,0E0,0E0,0E0,0E0,0E0,0E0],"parents":[2147483647,0,0,1,1,2,2,3,3,4,4,5,5,6,6,7,7,8,8,9,9,11,11,13,13,14,14],"right_children":[2,4,6,8,10,12,14,16,18,20,-1,22,-1,24,26,-1,-1,-1,-1,-1,-1,-1,-1,-1,-1,-1,-1],"split_conditions":[4.32E0,4.5E0,7.0710676E-3,3.4E0,1.066302E-1,5.03E0,4.78E0,3.18E0,2.81E2,4.31E0,-8.528782E-2,4.51E0,-5.7168413E-2,4.79E0,5.4E0,-1.821358E-2,-8.461697E-3,-1.2255078E-2,-1.6500695E-4,4.7246856E-3,-1.5140057E-3,1.7687798E-3,1.2689288E-2,8.316885E-3,-6.0169395E-2,1.2541749E-2,2.0880247E-2],"split_indices":[27,15,10,27,10,20,1,11,32,0,0,0,0,27,1,0,0,0,0,0,0,0,0,0,0,0,0],"split_type":[0,0,0,0,0,0,0,0,0,0,0,0,0,0,0,0,0,0,0,0,0,0,0,0,0,0,0],"sum_hessian":[5.7E2,4.05E2,1.65E2,4E2,5E0,4E0,1.61E2,8.2E1,3.18E2,3E0,2E0,3E0,1E0,6.2E1,9.9E1,1.3E1,6.9E1,2.2E1,2.96E2,2E0,1E0,1E0,2E0,6E1,2E0,9E1,9E0],"tree_param":{"num_deleted":"0","num_feature":"36","num_nodes":"27","size_leaf_vector":"1"}},{"base_weights":[-1.1832338E-2,-8.721533E-2,1.6427495E-1,-8.266514E-2,-4.802355E-2,-5.6642126E-2,1.7840263E-1,-1.3478231E-1,3.374569E-3,-2.1527378E-1,1.9147842E-1,-5.865508E-3,-5.9218E-2,1.0041919E-3,-2.476183E-2,9.379254E-3,-5.57392E-2,5.113121E-3,1.2511524E-2],"categories":[],"categories_nodes":[],"categories_segments":[],"categories_sizes":[],"default_left":[0,0,0,0,0,0,0,0,0,0,0,0,0,0,0,0,0,0,0],"id":30,"left_children":[1,3,5,7,-1,-1,9,11,13,15,17,-1,-1,-1,-1,-1,-1,-1,-1],"loss_changes":[7.661012E0,1.5258882E0,3.3723707E0,1.8075659E0,0E0,0E0,9.266119E-1,4.463995E0,1.2846547E0,2.3833706E0,8.4976196E-1,0E0,0E0,0E0,0E0,0E0,0E0,0E0,0E0],"parents":[2147483647,0,0,1,1,2,2,3,3,6,6,7,7,8,8,9,9,10,10],"right_children":[2,4,6,8,-1,-1,10,12,14,16,18,-1,-1,-1,-1,-1,-1,-1,-1],"split_conditions":[4.4E0,4.51E0,1.8E1,3.81E0,-4.802355E-2,-5.6642126E-2,7.0710676E-3,3.87E0,1.30958E-1,5.03E0,4.73E0,-5.865508E-3,-5.9218E-2,1.0041919E-3,-2.476183E-2,9.379254E-3,-5.57392E-2,5.113121E-3,1.2511524E-2],"split_indices":[1,12,34,18,0,0,10,27,10,20,11,0,0,0,0,0,0,0,0],"split_type":[0,0,0,0,0,0,0,0,0,0,0,0,0,0,0,0,0,0,0],"sum_hessian":[5.75E2,4.03E2,1.72E2,4.02E2,1E0,1E0,1.71E2,2.5E2,1.52E2,5E0,1.66E2,2.47E2,3E0,1.48E2,4E0,4E0,1E0,6.7E1,9.9E1],"tree_param":{"num_deleted":"0","num_feature":"36","num_nodes":"19","size_leaf_vector":"1"}},{"base_weights":[-9.489535E-3,-9.058551E-2,1.36451E-1,-8.282443E-2,-7.502474E-2,-6.718895E-1,1.4750691E-1,-1.1449633E-1,4.5389783E-2,4.834366E-3,-5.5226076E-2,8.8147745E-2,2.3875514E-1,-4.749227E-3,-2.2805681E-2,1.6344717E-3,1.6965084E-2,6.736743E-3,-2.0769155E-2,1.09481225E-2,1.8638378E-2],"categories":[],"categories_nodes":[],"categories_segments":[],"categories_sizes":[],"default_left":[0,0,0,0,0,0,0,0,0,0,0,0,0,0,0,0,0,0,0,0,0],"id":31,"left_children":[1,3,5,7,-1,9,11,13,15,-1,-1,17,19,-1,-1,-1,-1,-1,-1,-1,-1],"loss_changes":[6.924112E0,3.99007E0,1.9669263E0,1.5279922E0,0E0,1.1043259E0,1.1001525E0,1.963012E0,2.6886714E-1,0E0,0E0,3.0351384E0,1.3322783E-1,0E0,0E0,0E0,0E0,0E0,0E0,0E0,0E0],"parents":[2147483647,0,0,1,1,2,2,3,3,5,5,6,6,7,7,8,8,11,11,12,12],"right_children":[2,4,6,8,-1,10,12,14,16,-1,-1,18,20,-1,-1,-1,-1,-1,-1,-1,-1],"split_conditions":[4.18E0,4.224E0,1.8E1,3.95E0,-7.502474E-2,4.25E0,4.9E0,3.85E0,1.2020815E-1,4.834366E-3,-5.5226076E-2,4.79E0,5.42E0,-4.749227E-3,-2.2805681E-2,1.6344717E-3,1.6965084E-2,6.736743E-3,-2.0769155E-2,1.09481225E-2,1.8638378E-2],"split_indices":[11,8,34,21,0,0,14,26,10,0,0,27,21,0,0,0,0,0,0,0,0],"split_type":[0,0,0,0,0,0,0,0,0,0,0,0,0,0,0,0,0,0,0,0,0],"sum_hessian":[5.83E2,3.75E2,2.08E2,3.74E2,1E0,2E0,2.06E2,3E2,7.4E1,1E0,1E0,1.26E2,8E1,2.85E2,1.5E1,7.2E1,2E0,1.16E2,1E1,7.2E1,8E0],"tree_param":{"num_deleted":"0","num_feature":"36","num_nodes":"21","size_leaf_vector":"1"}},{"base_weights":[2.142997E-4,-1.0568903E-1,9.603087E-2,-9.4436444E-2,-7.71906E-2,3.3668358E-2,2.0963864E-1,-8.579146E-2,-6.3707376E-1,6.1812032E-2,-8.4439695E-1,-3.633811E-1,2.3025687E-1,-4.0430367E-2,-3.8560655E-3,4.8395E-3,-7.096662E-2,1.4486307E-3,1.1580563E-2,1.0432291E-2,-9.8349415E-2,1.1658923E-2,-5.3826492E-2,1.0623357E-2,1.78247E-2],"categories":[],"categories_nodes":[],"categories_segments":[],"categories_sizes":[],"default_left":[0,0,0,0,0,0,0,0,0,0,0,0,0,0,0,0,0,0,0,0,0,0,0,0,0],"id":32,"left_children":[1,3,5,7,-1,9,11,13,15,17,19,21,23,-1,-1,-1,-1,-1,-1,-1,-1,-1,-1,-1,-1],"loss_changes":[5.6824865E0,4.158779E0,2.0758927E0,1.1884835E0,0E0,4.772183E0,1.3123946E0,1.5795728E0,2.4336624E0,1.0304458E0,7.503224E0,1.9527667E0,1.5107489E-1,0E0,0E0,0E0,0E0,0E0,0E0,0E0,0E0,0E0,0E0,0E0,0E0],"parents":[2147483647,0,0,1,1,2,2,3,3,5,5,6,6,7,7,8,8,9,9,10,10,11,11,12,12],"right_children":[2,4,6,8,-1,10,12,14,16,18,20,22,24,-1,-1,-1,-1,-1,-1,-1,-1,-1,-1,-1,-1],"split_conditions":[3.82E0,3.81E0,4.78E0,2.8667895E-2,-7.71906E-2,4.75E0,7.0710676E-3,1E1,3.69E0,4.59E0,4.73E0,5.03E0,5.4E0,-4.0430367E-2,-3.8560655E-3,4.8395E-3,-7.096662E-2,1.4486307E-3,1.1580563E-2,1.0432291E-2,-9.8349415E-2,1.1658923E-2,-5.3826492E-2,1.0623357E-2,1.78247E-2],"split_indices":[2,2,1,5,0,1,10,35,2,1,8,20,1,0,0,0,0,0,0,0,0,0,0,0,0],"split_type":[0,0,0,0,0,0,0,0,0,0,0,0,0,0,0,0,0,0,0,0,0,0,0,0,0],"sum_hessian":[5.58E2,2.65E2,2.93E2,2.64E2,1E0,1.9E2,1.03E2,2.61E2,3E0,1.85E2,5E0,3E0,1E2,2E0,2.59E2,2E0,1E0,1.56E2,2.9E1,3E0,2E0,2E0,1E0,9E1,1E1],"tree_param":{"num_deleted":"0","num_feature":"36","num_nodes":"25","size_leaf_vector":"1"}},{"base_weights":[-1.10939955E-2,-7.179127E-2,1.4686596E-1,-1.1624723E-1,1.3028896E-4,-5.138669E-2,1.6089356E-1,-1.0130295E-1,-8.402119E-1,2.6120253E-2,-3.495647E-1,-2.644078E-1,1.7374071E-1,-2.0463798E-2,-4.2708004E-3,-7.488253E-2,4.8648636E-3,-1.8324319E-4,3.8275407E-3,-5.799989E-2,4.9673724E-3,9.714926E-3,-5.2480828E-2,4.5568547E-3,1.0830463E-2],"categories":[],"categories_nodes":[],"categories_segments":[],"categories_sizes":[],"default_left":[0,0,0,0,0,0,0,0,0,0,0,0,0,0,0,0,0,0,0,0,0,0,0,0,0],"id":33,"left_children":[1,3,5,7,9,-1,11,13,15,17,19,21,23,-1,-1,-1,-1,-1,-1,-1,-1,-1,-1,-1,-1],"loss_changes":[5.456379E0,1.3141227E0,2.7686932E0,2.6629438E0,1.4451234E0,0E0,9.037719E-1,1.1882286E0,3.2274911E0,2.2258842E-1,4.117189E0,2.0048401E0,5.2204704E-1,0E0,0E0,0E0,0E0,0E0,0E0,0E0,0E0,0E0,0E0,0E0,0E0],"parents":[2147483647,0,0,1,1,2,2,3,3,4,4,6,6,7,7,8,8,9,9,10,10,11,11,12,12],"right_children":[2,4,6,8,10,-1,12,14,16,18,20,22,24,-1,-1,-1,-1,-1,-1,-1,-1,-1,-1,-1,-1],"split_conditions":[4.4E0,3.8E0,1.8E1,3.88E0,4.39E0,-5.138669E-2,7.0710676E-3,2.25E2,3.95E0,4.026E0,4.38E0,5.03E0,4.73E0,-2.0463798E-2,-4.2708004E-3,-7.488253E-2,4.8648636E-3,-1.8324319E-4,3.8275407E-3,-5.799989E-2,4.9673724E-3,9.714926E-3,-5.2480828E-2,4.5568547E-3,1.0830463E-2],"split_indices":[3,28,34,27,30,0,10,34,0,8,13,20,11,0,0,0,0,0,0,0,0,0,0,0,0],"split_type":[0,0,0,0,0,0,0,0,0,0,0,0,0,0,0,0,0,0,0,0,0,0,0,0,0],"sum_hessian":[5.67E2,4.1E2,1.57E2,2.53E2,1.57E2,1E0,1.56E2,2.49E2,4E0,1.47E2,1E1,4E0,1.52E2,1.1E1,2.38E2,2E0,2E0,9.3E1,5.4E1,3E0,7E0,3E0,1E0,5.3E1,9.9E1],"tree_param":{"num_deleted":"0","num_feature":"36","num_nodes":"25","size_leaf_vector":"1"}},{"base_weights":[1.6307917E-5,-7.552466E-2,1.3736343E-1,-6.7742236E-2,-7.173534E-2,-2.0950012E-1,1.4743502E-1,-1.21441185E-1,1.0527276E-2,1.5795031E-1,-5.1168807E-2,7.95313E-2,2.0979019E-1,-5.332027E-3,-4.3405745E-2,-3.120712E-3,1.2280046E-3,2.216077E-3,1.0946449E-2,5.9834933E-3,-9.133389E-2,9.926023E-3,1.572886E-2],"categories":[],"categories_nodes":[],"categories_segments":[],"categories_sizes":[],"default_left":[0,0,0,0,0,0,0,0,0,0,0,0,0,0,0,0,0,0,0,0,0,0,0],"id":34,"left_children":[1,3,5,7,-1,9,11,13,15,17,-1,19,21,-1,-1,-1,-1,-1,-1,-1,-1,-1,-1],"loss_changes":[5.7894354E0,3.7107906E0,7.225945E-1,1.5101522E0,0E0,1.9559971E0,8.0050564E-1,2.2613406E0,1.519984E-1,2.49414E-2,0E0,7.4107733E0,5.5642128E-2,0E0,0E0,0E0,0E0,0E0,0E0,0E0,0E0,0E0,0E0],"parents":[2147483647,0,0,1,1,2,2,3,3,5,5,6,6,7,7,8,8,9,9,11,11,12,12],"right_children":[2,4,6,8,-1,10,12,14,16,18,-1,20,22,-1,-1,-1,-1,-1,-1,-1,-1,-1,-1],"split_conditions":[4.2E0,4.234E0,7.0710676E-3,3.79E0,-7.173534E-2,5.03E0,4.72E0,3.84E0,3.8E0,1.23E2,-5.1168807E-2,4.768E0,5.42E0,-5.332027E-3,-4.3405745E-2,-3.120712E-3,1.2280046E-3,2.216077E-3,1.0946449E-2,5.9834933E-3,-9.133389E-2,9.926023E-3,1.572886E-2],"split_indices":[11,8,10,14,0,20,11,9,3,4,0,8,21,0,0,0,0,0,0,0,0,0,0],"split_type":[0,0,0,0,0,0,0,0,0,0,0,0,0,0,0,0,0,0,0,0,0,0,0],"sum_hessian":[5.56E2,3.59E2,1.97E2,3.58E2,1E0,5E0,1.92E2,2.12E2,1.46E2,4E0,1E0,9.3E1,9.9E1,2.09E2,3E0,2.3E1,1.23E2,2E0,2E0,9.2E1,1E0,9.2E1,7E0],"tree_param":{"num_deleted":"0","num_feature":"36","num_nodes":"23","size_leaf_vector":"1"}},{"base_weights":[1.423498E-5,-9.098756E-2,1.1580246E-1,-2.879716E-1,-7.652797E-2,-4.3536073E-1,1.2402628E-1,-1.7638724E-2,-9.554916E-3,-3.2100016E-1,-6.370738E-2,4.5427363E-3,-5.0350178E-2,4.7472607E-2,1.8702053E-1,-5.9050035E-2,-3.7916403E-4,-2.840906E-3,-2.2389391E-2,-2.5453795E-2,3.0851096E-3,-1.271643E-2,1.0099073E-2],"categories":[],"categories_nodes":[],"categories_segments":[],"categories_sizes":[],"default_left":[0,0,0,0,0,0,0,0,0,0,0,0,0,0,0,0,0,0,0,0,0,0,0],"id":35,"left_children":[1,3,5,7,9,11,13,-1,-1,15,17,-1,-1,19,21,-1,-1,-1,-1,-1,-1,-1,-1],"loss_changes":[6.153571E0,9.0935946E-1,1.2188914E0,7.069409E-2,9.3863845E-1,1.2947202E0,1.2160215E0,0E0,0E0,4.034125E0,7.471992E-1,0E0,0E0,9.5006776E-1,9.691858E-1,0E0,0E0,0E0,0E0,0E0,0E0,0E0,0E0],"parents":[2147483647,0,0,1,1,2,2,3,3,4,4,5,5,6,6,9,9,10,10,13,13,14,14],"right_children":[2,4,6,8,10,12,14,-1,-1,16,18,-1,-1,20,22,-1,-1,-1,-1,-1,-1,-1,-1],"split_conditions":[3.9E0,3.27E0,1.8E1,3.11E0,2.25E2,4.25E0,4.59E0,-1.7638724E-2,-9.554916E-3,4E2,2.9558802E-2,4.5427363E-3,-5.0350178E-2,-3.2561015E-2,7.0710676E-3,-5.9050035E-2,-3.7916403E-4,-2.840906E-3,-2.2389391E-2,-2.5453795E-2,3.0851096E-3,-1.271643E-2,1.0099073E-2],"split_indices":[2,22,34,1,34,0,1,0,0,35,5,0,0,5,10,0,0,0,0,0,0,0,0],"split_type":[0,0,0,0,0,0,0,0,0,0,0,0,0,0,0,0,0,0,0,0,0,0,0],"sum_hessian":[5.82E2,3.26E2,2.56E2,2.1E1,3.05E2,3E0,2.53E2,1.1E1,1E1,1.4E1,2.91E2,2E0,1E0,1.15E2,1.38E2,3E0,1.1E1,2.87E2,4E0,2E0,1.13E2,4E0,1.34E2],"tree_param":{"num_deleted":"0","num_feature":"36","num_nodes":"23","size_leaf_vector":"1"}},{"base_weights":[-2.063483E-3,-8.456838E-2,8.4633924E-2,-6.5473646E-2,-4.5633078E-1,3.7418425E-2,1.713778E-1,-1.3044298E-1,4.8327516E-3,-1.3049914E0,1.3632608E-2,6.594252E-2,-8.007707E-1,-2.4415556E-1,1.9187552E-1,-5.611218E-3,-6.839266E-2,2.6230186E-3,-1.1180055E-3,4.029429E-3,-8.357668E-2,-2.267096E-3,3.0252973E-3,-1.7714908E-2,3.7666087E-3,9.139419E-3,-9.226297E-2,9.526116E-3,-4.9571674E-2,8.7320525E-3,1.666631E-2],"categories":[],"categories_nodes":[],"categories_segments":[],"categories_sizes":[],"default_left":[0,0,0,0,0,0,0,0,0,0,0,0,0,0,0,0,0,0,0,0,0,0,0,0,0,0,0,0,0,0,0],"id":36,"left_children":[1,3,5,7,9,11,13,15,17,19,21,23,25,27,29,-1,-1,-1,-1,-1,-1,-1,-1,-1,-1,-1,-1,-1,-1,-1,-1],"loss_changes":[4.04858E0,2.0287468E0,1.1239883E0,1.2659E0,5.6015425E0,4.3563504E0,8.73044E-1,3.0928164E0,1.747206E-1,2.6740742E0,3.0386783E-2,7.17225E-1,6.501189E0,1.8130162E0,1.6850567E-1,0E0,0E0,0E0,0E0,0E0,0E0,0E0,0E0,0E0,0E0,0E0,0E0,0E0,0E0,0E0,0E0],"parents":[2147483647,0,0,1,1,2,2,3,3,4,4,5,5,6,6,7,7,8,8,9,9,10,10,11,11,12,12,13,13,14,14],"right_children":[2,4,6,8,10,12,14,16,18,20,22,24,26,28,30,-1,-1,-1,-1,-1,-1,-1,-1,-1,-1,-1,-1,-1,-1,-1,-1],"split_conditions":[3.95E0,3.85E0,4.78E0,3.6E0,3.8E0,4.74E0,7.0710676E-3,3.66E0,3.73E0,3.89E0,1.6262097E-2,-3.2561015E-2,4.73E0,5.03E0,5.42E0,-5.611218E-3,-6.839266E-2,2.6230186E-3,-1.1180055E-3,4.029429E-3,-8.357668E-2,-2.267096E-3,3.0252973E-3,-1.7714908E-2,3.7666087E-3,9.139419E-3,-9.226297E-2,9.526116E-3,-4.9571674E-2,8.7320525E-3,1.666631E-2],"split_indices":[21,26,1,19,28,1,10,0,20,1,6,5,8,20,21,0,0,0,0,0,0,0,0,0,0,0,0,0,0,0,0],"split_type":[0,0,0,0,0,0,0,0,0,0,0,0,0,0,0,0,0,0,0,0,0,0,0,0,0,0,0,0,0,0,0],"sum_hessian":[5.64E2,2.89E2,2.75E2,2.76E2,1.3E1,1.79E2,9.6E1,1.43E2,1.33E2,4E0,9E0,1.74E2,5E0,4E0,9.2E1,1.42E2,1E0,4.8E1,8.5E1,1E0,3E0,4E0,5E0,3E0,1.71E2,3E0,2E0,3E0,1E0,8.4E1,8E0],"tree_param":{"num_deleted":"0","num_feature":"36","num_nodes":"31","size_leaf_vector":"1"}},{"base_weights":[-8.124608E-3,-4.7587242E-2,1.6086616E-1,-3.734432E-2,-9.681269E-1,-2.3995697E-1,1.7876178E-1,-5.608042E-2,1.4778312E-1,8.510288E-3,-8.918753E-2,1.8337762E-1,-4.8332386E-2,1.6332027E-1,2.9306164E-1,-2.309537E-3,-2.0665212E-2,1.0077744E-2,3.927821E-3,2.3059011E-3,1.0687908E-2,1.1795849E-2,6.8751373E-3,3.9062023E-3,1.533715E-2],"categories":[],"categories_nodes":[],"categories_segments":[],"categories_sizes":[],"default_left":[0,0,0,0,0,0,0,0,0,0,0,0,0,0,0,0,0,0,0,0,0,0,0,0,0],"id":37,"left_children":[1,3,5,7,9,11,13,15,17,-1,-1,19,-1,21,23,-1,-1,-1,-1,-1,-1,-1,-1,-1,-1],"loss_changes":[3.76887E0,4.282335E0,8.1040454E-1,1.5830164E0,4.94586E0,1.7154282E0,1.3392806E-1,1.4399679E0,1.4050919E-1,0E0,0E0,6.821975E-3,0E0,1.4186764E-1,8.383036E-3,0E0,0E0,0E0,0E0,0E0,0E0,0E0,0E0,0E0,0E0],"parents":[2147483647,0,0,1,1,2,2,3,3,4,4,5,5,6,6,7,7,8,8,11,11,13,13,14,14],"right_children":[2,4,6,8,10,12,14,16,18,-1,-1,20,-1,22,24,-1,-1,-1,-1,-1,-1,-1,-1,-1,-1],"split_conditions":[4.78E0,4.75E0,7.0710676E-3,4.51E0,4.73E0,5.03E0,5.4E0,4.49E0,3.301E3,8.510288E-3,-8.918753E-2,1.23E2,-4.8332386E-2,4.87E0,1.621847E-2,-2.309537E-3,-2.0665212E-2,1.0077744E-2,3.927821E-3,2.3059011E-3,1.0687908E-2,1.1795849E-2,6.8751373E-3,3.9062023E-3,1.533715E-2],"split_indices":[1,1,10,23,8,20,1,15,32,0,0,4,0,8,6,0,0,0,0,0,0,0,0,0,0],"split_type":[0,0,0,0,0,0,0,0,0,0,0,0,0,0,0,0,0,0,0,0,0,0,0,0,0],"sum_hessian":[5.63E2,4.57E2,1.06E2,4.53E2,4E0,4E0,1.02E2,4.12E2,4.1E1,2E0,2E0,3E0,1E0,9.2E1,1E1,4.02E2,1E1,2.2E1,1.9E1,1E0,2E0,2.2E1,7E1,1E0,9E0],"tree_param":{"num_deleted":"0","num_feature":"36","num_nodes":"25","size_leaf_vector":"1"}},{"base_weights":[-9.568651E-3,-4.910586E-2,1.5447159E-1,-4.2218704E-2,-1.0658103E0,-2.3502684E-1,1.7154798E-1,-9.486369E-2,2.2884365E-2,4.83098E-3,-8.476676E-2,1.7745721E-1,-4.7124077E-2,1.5711606E-1,1.46469865E-2,-4.0100208E-3,-3.971958E-2,-4.4131342E-2,1.5890287E-3,2.2482516E-3,1.0331647E-2,1.00351935E-2,6.380915E-3],"categories":[],"categories_nodes":[],"categories_segments":[],"categories_sizes":[],"default_left":[0,0,0,0,0,0,0,0,0,0,0,0,0,0,0,0,0,0,0,0,0,0,0],"id":38,"left_children":[1,3,5,7,9,11,13,15,17,-1,-1,19,-1,21,-1,-1,-1,-1,-1,-1,-1,-1,-1],"loss_changes":[3.6395738E0,3.1199975E0,7.653022E-1,1.5444788E0,2.359138E0,1.6263189E0,1.3792586E-1,2.4903753E0,1.6552851E0,0E0,0E0,6.1709583E-3,0E0,9.781766E-2,0E0,0E0,0E0,0E0,0E0,0E0,0E0,0E0,0E0],"parents":[2147483647,0,0,1,1,2,2,3,3,4,4,5,5,6,6,7,7,8,8,11,11,13,13],"right_children":[2,4,6,8,10,12,14,16,18,-1,-1,20,-1,22,-1,-1,-1,-1,-1,-1,-1,-1,-1],"split_conditions":[4.78E0,4.79E0,7.0710676E-3,3.8E0,4.74E0,5.03E0,5.42E0,3.88E0,-3.2561015E-2,4.83098E-3,-8.476676E-2,1.23E2,-4.7124077E-2,4.97E0,1.46469865E-2,-4.0100208E-3,-3.971958E-2,-4.4131342E-2,1.5890287E-3,2.2482516E-3,1.0331647E-2,1.00351935E-2,6.380915E-3],"split_indices":[1,27,10,28,1,20,21,27,5,0,0,4,0,23,0,0,0,0,0,0,0,0,0],"split_type":[0,0,0,0,0,0,0,0,0,0,0,0,0,0,0,0,0,0,0,0,0,0,0],"sum_hessian":[5.59E2,4.51E2,1.08E2,4.49E2,2E0,4E0,1.04E2,2.48E2,2.01E2,1E0,1E0,3E0,1E0,9.5E1,9E0,2.44E2,4E0,1E0,2E2,1E0,2E0,3.6E1,5.9E1],"tree_param":{"num_deleted":"0","num_feature":"36","num_nodes":"23","size_leaf_vector":"1"}},{"base_weights":[3.2037872E-4,-1.17935225E-1,4.340049E-2,-1.007524E-1,-6.652485E-2,1.3362381E-2,1.5946028E-1,-1.5372177E-2,-7.6863445E-2,3.1110058E-2,-4.9769476E-1,1.10014796E-1,1.9253328E-1,-4.6120877E-3,2.5643643E-3,3.773756E-4,9.675147E-3,1.0170254E-2,-5.5792272E-2,1.0173961E-2,4.2269635E-3,6.7756423E-3,1.188812E-2],"categories":[],"categories_nodes":[],"categories_segments":[],"categories_sizes":[],"default_left":[0,0,0,0,0,0,0,0,0,0,0,0,0,0,0,0,0,0,0,0,0,0,0],"id":39,"left_children":[1,3,5,7,-1,9,11,-1,13,15,17,19,21,-1,-1,-1,-1,-1,-1,-1,-1,-1,-1],"loss_changes":[2.842735E0,2.9704E0,1.4237316E0,7.071389E-1,0E0,2.9723284E0,1.1618471E-1,0E0,2.6881027E-1,1.2076787E0,4.9942074E0,6.8516046E-2,9.4150424E-2,0E0,0E0,0E0,0E0,0E0,0E0,0E0,0E0,0E0,0E0],"parents":[2147483647,0,0,1,1,2,2,3,3,5,5,6,6,8,8,9,9,10,10,11,11,12,12],"right_children":[2,4,6,8,-1,10,12,-1,14,16,18,20,22,-1,-1,-1,-1,-1,-1,-1,-1,-1,-1],"split_conditions":[3.61E0,3.698E0,4.89E0,3.2E0,-6.652485E-2,4.8E0,5.05E0,-1.5372177E-2,3.61E0,4.57E0,1.167805E-2,4.83E0,2.1E3,-4.6120877E-3,2.5643643E-3,3.773756E-4,9.675147E-3,1.0170254E-2,-5.5792272E-2,1.0173961E-2,4.2269635E-3,6.7756423E-3,1.188812E-2],"split_indices":[16,8,23,1,0,13,25,0,3,3,6,1,35,0,0,0,0,0,0,0,0,0,0],"split_type":[0,0,0,0,0,0,0,0,0,0,0,0,0,0,0,0,0,0,0,0,0,0,0],"sum_hessian":[5.56E2,1.48E2,4.08E2,1.47E2,1E0,3.25E2,8.3E1,1.4E1,1.33E2,3.15E2,1E1,3.5E1,4.8E1,1.19E2,1.4E1,2.76E2,3.9E1,5E0,5E0,6E0,2.9E1,2.3E1,2.5E1],"tree_param":{"num_deleted":"0","num_feature":"36","num_nodes":"23","size_leaf_vector":"1"}},{"base_weights":[-1.290345E-2,-5.18674E-2,1.5977408E-1,-4.2540774E-2,-9.0140903E-1,1.4693193E-1,2.6708132E-1,-9.8009884E-2,2.1939974E-2,7.851156E-3,-8.296858E-2,2.2056489E-1,1.20711066E-1,3.479624E-3,1.4064602E-2,-4.1513722E-3,-4.9559094E-2,-2.6643232E-2,1.4843747E-3,2.7370097E-3,1.1269732E-2,3.0239632E-3,7.448904E-3],"categories":[],"categories_nodes":[],"categories_segments":[],"categories_sizes":[],"default_left":[0,0,0,0,0,0,0,0,0,0,0,0,0,0,0,0,0,0,0,0,0,0,0],"id":40,"left_children":[1,3,5,7,9,11,13,15,17,-1,-1,19,21,-1,-1,-1,-1,-1,-1,-1,-1,-1,-1],"loss_changes":[3.8366323E0,3.6460152E0,1.05453014E-1,1.6510041E0,4.2718186E0,1.5872455E-1,8.488774E-3,3.2364144E0,9.3566823E-1,0E0,0E0,6.8832636E-3,1.1527777E-1,0E0,0E0,0E0,0E0,0E0,0E0,0E0,0E0,0E0,0E0],"parents":[2147483647,0,0,1,1,2,2,3,3,4,4,5,5,6,6,7,7,8,8,11,11,12,12],"right_children":[2,4,6,8,10,12,14,16,18,-1,-1,20,22,-1,-1,-1,-1,-1,-1,-1,-1,-1,-1],"split_conditions":[4.78E0,4.75E0,5.4E0,3.82E0,4.73E0,4.87E0,1.621847E-2,3.87E0,-3.2561015E-2,7.851156E-3,-8.296858E-2,-2.9486166E-2,5E0,3.479624E-3,1.4064602E-2,-4.1513722E-3,-4.9559094E-2,-2.6643232E-2,1.4843747E-3,2.7370097E-3,1.1269732E-2,3.0239632E-3,7.448904E-3],"split_indices":[1,1,1,18,8,8,6,27,5,0,0,5,1,0,0,0,0,0,0,0,0,0,0],"split_type":[0,0,0,0,0,0,0,0,0,0,0,0,0,0,0,0,0,0,0,0,0,0,0],"sum_hessian":[5.68E2,4.64E2,1.04E2,4.6E2,4E0,9.5E1,9E0,2.47E2,2.13E2,2E0,2E0,2.3E1,7.2E1,1E0,8E0,2.44E2,3E0,2E0,2.11E2,1E0,2.2E1,2.4E1,4.8E1],"tree_param":{"num_deleted":"0","num_feature":"36","num_nodes":"23","size_leaf_vector":"1"}},{"base_weights":[-6.236669E-3,-3.7261136E-2,1.3373873E-1,-2.7831651E-2,-8.897779E-1,-2.29863E-1,1.5092516E-1,-1.4151204E-1,-2.1560905E-3,6.054799E-3,-8.020296E-2,1.6100037E-1,-4.483291E-2,1.3256772E-1,2.2027624E-1,-1.42220305E-2,-5.687002E-3,-7.6961337E-4,9.548066E-3,2.0107627E-3,9.392849E-3,1.0105762E-2,5.3008315E-3,1.1579455E-2,4.13723E-3],"categories":[],"categories_nodes":[],"categories_segments":[],"categories_sizes":[],"default_left":[0,0,0,0,0,0,0,0,0,0,0,0,0,0,0,0,0,0,0,0,0,0,0,0,0],"id":41,"left_children":[1,3,5,7,9,11,13,15,17,-1,-1,19,-1,21,23,-1,-1,-1,-1,-1,-1,-1,-1,-1,-1],"loss_changes":[2.4412165E0,3.673081E0,6.720917E-1,1.3306711E0,3.8044863E0,1.4474914E0,9.556317E-2,3.0107844E-1,9.5637816E-1,0E0,0E0,5.420804E-3,0E0,1.2629724E-1,1.0398865E-2,0E0,0E0,0E0,0E0,0E0,0E0,0E0,0E0,0E0,0E0],"parents":[2147483647,0,0,1,1,2,2,3,3,4,4,5,5,6,6,7,7,8,8,11,11,13,13,14,14],"right_children":[2,4,6,8,10,12,14,16,18,-1,-1,20,-1,22,24,-1,-1,-1,-1,-1,-1,-1,-1,-1,-1],"split_conditions":[4.78E0,4.73E0,7.0710676E-3,3.39E0,4.74E0,5.03E0,5.23E0,3.14E0,4.57E0,6.054799E-3,-8.020296E-2,1.23E2,-4.483291E-2,4.87E0,5.5E0,-1.42220305E-2,-5.687002E-3,-7.6961337E-4,9.548066E-3,2.0107627E-3,9.392849E-3,1.0105762E-2,5.3008315E-3,1.1579455E-2,4.13723E-3],"split_indices":[1,9,10,27,1,20,1,3,3,0,0,4,0,8,29,0,0,0,0,0,0,0,0,0,0],"split_type":[0,0,0,0,0,0,0,0,0,0,0,0,0,0,0,0,0,0,0,0,0,0,0,0,0],"sum_hessian":[5.6E2,4.59E2,1.01E2,4.55E2,4E0,4E0,9.7E1,8.3E1,3.72E2,2E0,2E0,3E0,1E0,7.9E1,1.8E1,1.2E1,7.1E1,3.49E2,2.3E1,1E0,2E0,2E1,5.9E1,1.6E1,2E0],"tree_param":{"num_deleted":"0","num_feature":"36","num_nodes":"25","size_leaf_vector":"1"}},{"base_weights":[-9.656706E-3,-7.805171E-2,6.326664E-2,-3.6195505E-1,-6.564996E-2,3.6332488E-2,1.6080071E-1,-7.413186E-2,1.0445094E-2,-5.827718E-2,-5.6164557E-1,-4.190754E-1,4.2546935E-2,1.4397374E-1,2.5007588E-1,2.9816488E-3,-2.533469E-3,-6.979932E-3,-1.0562431E-3,5.7160975E-3,-6.4738706E-2,1.0921515E-2,-4.235217E-2,-2.2101196E-4,5.243877E-3,4.0336396E-3,7.682477E-3,1.328468E-2,3.518796E-3],"categories":[],"categories_nodes":[],"categories_segments":[],"categories_sizes":[],"default_left":[0,0,0,0,0,0,0,0,0,0,0,0,0,0,0,0,0,0,0,0,0,0,0,0,0,0,0,0,0],"id":42,"left_children":[1,3,5,7,9,11,13,-1,15,17,19,21,23,25,27,-1,-1,-1,-1,-1,-1,-1,-1,-1,-1,-1,-1,-1,-1],"loss_changes":[2.8229277E0,1.00434E0,7.139549E-1,5.0235925E0,9.9484813E-1,6.291336E-1,5.2627206E-2,0E0,3.308248E-2,8.36967E-1,2.1303053E0,1.003516E0,6.269469E-1,1.9454002E-2,3.7536025E-3,0E0,0E0,0E0,0E0,0E0,0E0,0E0,0E0,0E0,0E0,0E0,0E0,0E0,0E0],"parents":[2147483647,0,0,1,1,2,2,3,3,4,4,5,5,6,6,8,8,9,9,10,10,11,11,12,12,13,13,14,14],"right_children":[2,4,6,8,10,12,14,-1,16,18,20,22,24,26,28,-1,-1,-1,-1,-1,-1,-1,-1,-1,-1,-1,-1,-1,-1],"split_conditions":[3.91E0,2.25E2,5E0,4E2,2.9558802E-2,-3.2561015E-2,1.9703753E-2,-7.413186E-2,5E1,3.47E0,3.61E0,4.27E0,1.6767165E-2,-1.3698844E-2,5.5E0,2.9816488E-3,-2.533469E-3,-6.979932E-3,-1.0562431E-3,5.7160975E-3,-6.4738706E-2,1.0921515E-2,-4.235217E-2,-2.2101196E-4,5.243877E-3,4.0336396E-3,7.682477E-3,1.328468E-2,3.518796E-3],"split_indices":[3,34,1,35,5,5,6,0,34,1,0,0,6,5,29,0,0,0,0,0,0,0,0,0,0,0,0,0,0],"split_type":[0,0,0,0,0,0,0,0,0,0,0,0,0,0,0,0,0,0,0,0,0,0,0,0,0,0,0,0,0],"sum_hessian":[5.64E2,2.91E2,2.73E2,1.1E1,2.8E2,2.15E2,5.8E1,2E0,9E0,2.77E2,3E0,2E0,2.13E2,5.1E1,7E0,5E0,4E0,8.6E1,1.91E2,2E0,1E0,1E0,1E0,1.22E2,9.1E1,8E0,4.3E1,6E0,1E0],"tree_param":{"num_deleted":"0","num_feature":"36","num_nodes":"29","size_leaf_vector":"1"}},{"base_weights":[2.1173393E-4,-4.7007658E-2,8.239062E-2,-3.941952E-2,-6.965812E-2,-4.693924E-1,9.002634E-2,-2.736608E-1,-2.8473627E-2,3.9108396E-3,-3.911527E-2,-1.8024296E-1,9.7646184E-2,-7.1660794E-2,-2.8187633E-4,-6.2655956E-3,1.2819885E-4,6.6680475E-3,-4.3706562E-2,2.6967528E-3,7.019527E-3],"categories":[],"categories_nodes":[],"categories_segments":[],"categories_sizes":[],"default_left":[0,0,0,0,0,0,0,0,0,0,0,0,0,0,0,0,0,0,0,0,0],"id":43,"left_children":[1,3,5,7,-1,9,11,13,15,-1,-1,17,19,-1,-1,-1,-1,-1,-1,-1,-1],"loss_changes":[2.2118416E0,3.6428418E0,9.1861594E-1,9.1780496E-1,0E0,5.7525146E-1,4.4183874E-1,4.9645243E0,1.0402687E0,0E0,0E0,1.4222114E0,3.6797702E-1,0E0,0E0,0E0,0E0,0E0,0E0,0E0,0E0],"parents":[2147483647,0,0,1,1,2,2,3,3,5,5,6,6,7,7,8,8,11,11,12,12],"right_children":[2,4,6,8,-1,10,12,14,16,-1,-1,18,20,-1,-1,-1,-1,-1,-1,-1,-1],"split_conditions":[4.18E0,4.224E0,1.8E1,2.25E2,-6.965812E-2,4.25E0,7.0710676E-3,4E2,3.4E0,3.9108396E-3,-3.911527E-2,4.91E0,4.73E0,-7.1660794E-2,-2.8187633E-4,-6.2655956E-3,1.2819885E-4,6.6680475E-3,-4.3706562E-2,2.6967528E-3,7.019527E-3],"split_indices":[11,8,34,34,0,0,10,35,27,0,0,30,11,0,0,0,0,0,0,0,0],"split_type":[0,0,0,0,0,0,0,0,0,0,0,0,0,0,0,0,0,0,0,0,0],"sum_hessian":[5.68E2,3.61E2,2.07E2,3.6E2,1E0,2E0,2.05E2,1.5E1,3.45E2,1E0,1E0,5E0,2E2,2E0,1.3E1,8.3E1,2.62E2,4E0,1E0,1E2,1E2],"tree_param":{"num_deleted":"0","num_feature":"36","num_nodes":"21","size_leaf_vector":"1"}},{"base_weights":[-1.0627095E-2,-7.267588E-2,5.6057252E-2,-5.942015E-2,-6.000974E-1,-2.4483813E-2,8.8317074E-2,-3.000073E-1,-4.7703043E-2,-6.581094E-2,-5.0405074E-2,3.560533E-2,-6.390459E-1,3.501721E-2,1.5706313E-1,1.409706E-3,-5.2275456E-2,-9.110178E-3,-1.2541215E-3,9.789885E-4,-3.6398114E-3,3.718486E-3,-6.791667E-2,-7.989952E-2,3.2065012E-3,2.650097E-3,-1.42775895E-2,7.200452E-3,1.4004265E-2],"categories":[],"categories_nodes":[],"categories_segments":[],"categories_sizes":[],"default_left":[0,0,0,0,0,0,0,0,0,0,0,0,0,0,0,0,0,0,0,0,0,0,0,0,0,0,0,0,0],"id":44,"left_children":[1,3,5,7,9,11,13,15,17,-1,19,21,23,25,27,-1,-1,-1,-1,-1,-1,-1,-1,-1,-1,-1,-1,-1,-1],"loss_changes":[2.3170385E0,1.9918352E0,7.036873E-1,7.8628075E-1,2.6891816E0,2.9031773E0,7.0168185E-1,3.2102482E0,8.229856E-1,0E0,9.260541E-3,3.9915528E0,4.822626E0,6.49323E-1,9.456444E-2,0E0,0E0,0E0,0E0,0E0,0E0,0E0,0E0,0E0,0E0,0E0,0E0,0E0,0E0],"parents":[2147483647,0,0,1,1,2,2,3,3,4,4,5,5,6,6,7,7,8,8,10,10,11,11,12,12,13,13,14,14],"right_children":[2,4,6,8,10,12,14,16,18,-1,20,22,24,26,28,-1,-1,-1,-1,-1,-1,-1,-1,-1,-1,-1,-1,-1,-1],"split_conditions":[3.91E0,3.89E0,1.083E3,2.25E2,3.95E0,1.033E3,4.5E0,3.78E0,3.314E0,-6.581094E-2,3.91E0,1.30958E-1,4.84E0,4.54E0,2.281678E-2,1.409706E-3,-5.2275456E-2,-9.110178E-3,-1.2541215E-3,9.789885E-4,-3.6398114E-3,3.718486E-3,-6.791667E-2,-7.989952E-2,3.2065012E-3,2.650097E-3,-1.42775895E-2,7.200452E-3,1.4004265E-2],"split_indices":[17,27,4,34,1,4,2,3,8,0,0,10,0,12,6,0,0,0,0,0,0,0,0,0,0,0,0,0,0],"split_type":[0,0,0,0,0,0,0,0,0,0,0,0,0,0,0,0,0,0,0,0,0,0,0,0,0,0,0,0,0],"sum_hessian":[5.58E2,2.89E2,2.69E2,2.83E2,6E0,7.7E1,1.92E2,1.2E1,2.71E2,2E0,4E0,7.1E1,6E0,1.09E2,8.3E1,9E0,3E0,3.8E1,2.33E2,1E0,3E0,7E1,1E0,2E0,4E0,1.04E2,5E0,7.7E1,6E0],"tree_param":{"num_deleted":"0","num_feature":"36","num_nodes":"29","size_leaf_vector":"1"}},{"base_weights":[-3.066425E-3,-4.710856E-2,1.1079762E-1,-3.7174586E-2,-8.463123E-1,-4.6013656E-1,1.21001475E-1,-6.803669E-2,4.472145E-2,-7.148173E-2,1.9114176E-2,3.7201047E-3,-3.823035E-2,4.7635652E-2,1.3388225E-1,-2.8671166E-3,-2.5068453E-2,1.6660724E-3,6.847235E-3,3.492141E-3,-2.0585775E-3,1.2499553E-2,4.3392507E-4,8.531473E-3,5.484481E-3],"categories":[],"categories_nodes":[],"categories_segments":[],"categories_sizes":[],"default_left":[0,0,0,0,0,0,0,0,0,0,0,0,0,0,0,0,0,0,0,0,0,0,0,0,0],"id":45,"left_children":[1,3,5,7,9,11,13,15,17,-1,19,-1,-1,21,23,-1,-1,-1,-1,-1,-1,-1,-1,-1,-1],"loss_changes":[2.8586495E0,3.2315779E0,9.8196805E-1,1.0317287E0,2.5514393E0,5.45142E-1,1.4198875E-1,1.3429766E0,1.1318746E-1,0E0,1.2050176E-2,0E0,0E0,1.949102E-1,9.952259E-2,0E0,0E0,0E0,0E0,0E0,0E0,0E0,0E0,0E0,0E0],"parents":[2147483647,0,0,1,1,2,2,3,3,4,4,5,5,6,6,7,7,8,8,10,10,13,13,14,14],"right_children":[2,4,6,8,10,12,14,16,18,-1,20,-1,-1,22,24,-1,-1,-1,-1,-1,-1,-1,-1,-1,-1],"split_conditions":[4.32E0,4.5E0,1.8E1,3.95E0,-2.1366508E-1,4.25E0,4.5E0,3.92E0,2.607224E-2,-7.148173E-2,4.28E0,3.7201047E-3,-3.823035E-2,4.29E0,4.87E0,-2.8671166E-3,-2.5068453E-2,1.6660724E-3,6.847235E-3,3.492141E-3,-2.0585775E-3,1.2499553E-2,4.3392507E-4,8.531473E-3,5.484481E-3],"split_indices":[27,15,34,21,7,0,2,11,5,0,0,0,0,0,8,0,0,0,0,0,0,0,0,0,0],"split_type":[0,0,0,0,0,0,0,0,0,0,0,0,0,0,0,0,0,0,0,0,0,0,0,0,0],"sum_hessian":[5.68E2,4.1E2,1.58E2,4.06E2,4E0,2E0,1.56E2,2.95E2,1.11E2,2E0,2E0,1E0,1E0,2.4E1,1.32E2,2.89E2,6E0,1E2,1.1E1,1E0,1E0,3E0,2.1E1,5E1,8.2E1],"tree_param":{"num_deleted":"0","num_feature":"36","num_nodes":"25","size_leaf_vector":"1"}},{"base_weights":[-9.2160385E-3,-6.2020402E-2,4.6460304E-2,-5.0885465E-2,-5.8801645E-1,-3.4707423E-2,7.701919E-2,-2.6941508E-1,-3.9616264E-2,-6.278163E-2,5.9699774E-2,2.5996197E-2,-7.573663E-1,3.261802E-2,1.3704616E-1,1.1127148E-3,-5.0207604E-2,-6.6098343E-3,-5.2348524E-4,2.507329E-4,3.8128297E-3,3.1330946E-3,-6.443171E-2,-7.752059E-2,1.3379693E-3,2.6904705E-3,-7.952837E-3,8.413701E-3,5.4409197E-3],"categories":[],"categories_nodes":[],"categories_segments":[],"categories_sizes":[],"default_left":[0,0,0,0,0,0,0,0,0,0,0,0,0,0,0,0,0,0,0,0,0,0,0,0,0,0,0,0,0],"id":46,"left_children":[1,3,5,7,9,11,13,15,17,-1,19,21,23,25,27,-1,-1,-1,-1,-1,-1,-1,-1,-1,-1,-1,-1,-1,-1],"loss_changes":[1.684535E0,1.6920168E0,6.947036E-1,7.01034E-1,2.669516E0,3.397525E0,5.3657913E-1,3.0225506E0,7.4337465E-1,0E0,3.239246E-3,3.5512807E0,3.7725723E0,4.8785764E-1,5.7497025E-2,0E0,0E0,0E0,0E0,0E0,0E0,0E0,0E0,0E0,0E0,0E0,0E0,0E0,0E0],"parents":[2147483647,0,0,1,1,2,2,3,3,4,4,5,5,6,6,7,7,8,8,10,10,11,11,12,12,13,13,14,14],"right_children":[2,4,6,8,10,12,14,16,18,-1,20,22,24,26,28,-1,-1,-1,-1,-1,-1,-1,-1,-1,-1,-1,-1,-1,-1],"split_conditions":[3.95E0,3.92E0,1.083E3,2.25E2,1.985E3,1.033E3,4.5E0,3.78E0,3.32E0,-6.278163E-2,3.84E0,1.30958E-1,4.84E0,4.51E0,4.852E0,1.1127148E-3,-5.0207604E-2,-6.6098343E-3,-5.2348524E-4,2.507329E-4,3.8128297E-3,3.1330946E-3,-6.443171E-2,-7.752059E-2,1.3379693E-3,2.6904705E-3,-7.952837E-3,8.413701E-3,5.4409197E-3],"split_indices":[21,11,4,34,4,4,2,3,2,0,1,10,0,21,8,0,0,0,0,0,0,0,0,0,0,0,0,0,0],"split_type":[0,0,0,0,0,0,0,0,0,0,0,0,0,0,0,0,0,0,0,0,0,0,0,0,0,0,0,0,0],"sum_hessian":[5.71E2,2.93E2,2.78E2,2.88E2,5E0,7.6E1,2.02E2,1.3E1,2.75E2,2E0,3E0,7.1E1,5E0,1.17E2,8.5E1,1E1,3E0,6.5E1,2.1E2,1E0,2E0,7E1,1E0,2E0,3E0,1.06E2,1.1E1,3.8E1,4.7E1],"tree_param":{"num_deleted":"0","num_feature":"36","num_nodes":"29","size_leaf_vector":"1"}},{"base_weights":[-1.0140912E-2,-5.967459E-2,4.285197E-2,-4.2810123E-2,-3.9390603E-1,-3.4879737E-2,7.2713725E-2,-1.6547875E-1,-2.4109924E-2,-1.1025952E0,-1.7085075E-4,2.0996874E-2,-6.995858E-1,-3.3661252E-1,8.069634E-2,-1.35564655E-2,-5.815354E-3,-1.4992088E-2,-7.966609E-4,4.339588E-3,-7.1081996E-2,-1.804016E-3,2.1477342E-3,2.8342335E-3,-6.282092E-2,-7.493657E-2,3.733492E-3,-3.9017983E-2,3.5711527E-3,1.997182E-3,6.412507E-3],"categories":[],"categories_nodes":[],"categories_segments":[],"categories_sizes":[],"default_left":[0,0,0,0,0,0,0,0,0,0,0,0,0,0,0,0,0,0,0,0,0,0,0,0,0,0,0,0,0,0,0],"id":47,"left_children":[1,3,5,7,9,11,13,15,17,19,21,23,25,27,29,-1,-1,-1,-1,-1,-1,-1,-1,-1,-1,-1,-1,-1,-1,-1,-1],"loss_changes":[1.4935187E0,1.6403073E0,6.408677E-1,6.40604E-1,3.906314E0,2.874586E0,6.7739403E-1,1.6068137E-1,5.475942E-1,2.0207243E0,1.7035969E-2,3.3535652E0,3.8243675E0,7.7999413E-1,3.7471473E-1,0E0,0E0,0E0,0E0,0E0,0E0,0E0,0E0,0E0,0E0,0E0,0E0,0E0,0E0,0E0,0E0],"parents":[2147483647,0,0,1,1,2,2,3,3,4,4,5,5,6,6,7,7,8,8,9,9,10,10,11,11,12,12,13,13,14,14],"right_children":[2,4,6,8,10,12,14,16,18,20,22,24,26,28,30,-1,-1,-1,-1,-1,-1,-1,-1,-1,-1,-1,-1,-1,-1,-1,-1],"split_conditions":[3.95E0,3.85E0,1.083E3,3.314E0,3.8E0,1.033E3,-3.2561015E-2,3.05E0,2E1,3.89E0,1.6262097E-2,1.30958E-1,4.84E0,6.684E3,4.59E0,-1.35564655E-2,-5.815354E-3,-1.4992088E-2,-7.966609E-4,4.339588E-3,-7.1081996E-2,-1.804016E-3,2.1477342E-3,2.8342335E-3,-6.282092E-2,-7.493657E-2,3.733492E-3,-3.9017983E-2,3.5711527E-3,1.997182E-3,6.412507E-3],"split_indices":[21,26,4,8,28,4,5,1,33,1,6,10,0,4,1,0,0,0,0,0,0,0,0,0,0,0,0,0,0,0,0],"split_type":[0,0,0,0,0,0,0,0,0,0,0,0,0,0,0,0,0,0,0,0,0,0,0,0,0,0,0,0,0,0,0],"sum_hessian":[5.67E2,2.93E2,2.74E2,2.8E2,1.3E1,7.6E1,1.98E2,3.6E1,2.44E2,4E0,9E0,7.1E1,5E0,3E0,1.95E2,1E1,2.6E1,6E0,2.38E2,1E0,3E0,5E0,4E0,7E1,1E0,2E0,3E0,1E0,2E0,1.06E2,8.9E1],"tree_param":{"num_deleted":"0","num_feature":"36","num_nodes":"31","size_leaf_vector":"1"}},{"base_weights":[-7.5952697E-4,-4.7345784E-2,5.8501232E-2,-4.20969E-2,-3.6750644E-1,-4.729499E-1,6.469418E-2,-1.7503144E-1,-2.948812E-2,1.7049098E-1,-6.298741E-2,1.952529E-3,-3.742377E-2,-2.5270572E-1,6.961217E-2,-1.2248176E-2,-5.974265E-3,-6.6178414E-4,-7.329593E-3,2.1656633E-3,9.92229E-3,8.514639E-3,-3.804253E-2,6.386798E-4,5.1266397E-3],"categories":[],"categories_nodes":[],"categories_segments":[],"categories_sizes":[],"default_left":[0,0,0,0,0,0,0,0,0,0,0,0,0,0,0,0,0,0,0,0,0,0,0,0,0],"id":48,"left_children":[1,3,5,7,9,11,13,15,17,19,-1,-1,-1,21,23,-1,-1,-1,-1,-1,-1,-1,-1,-1,-1],"loss_changes":[1.5681076E0,5.189236E-1,8.5340995E-1,5.211473E-1,2.6148944E0,4.5243597E-1,4.0471113E-1,7.561082E-2,5.4618746E-1,5.6255907E-3,0E0,0E0,0E0,9.8934555E-1,4.5712495E-1,0E0,0E0,0E0,0E0,0E0,0E0,0E0,0E0,0E0,0E0],"parents":[2147483647,0,0,1,1,2,2,3,3,4,4,5,5,6,6,7,7,8,8,9,9,13,13,14,14],"right_children":[2,4,6,8,10,12,14,16,18,20,-1,-1,-1,22,24,-1,-1,-1,-1,-1,-1,-1,-1,-1,-1],"split_conditions":[3.9E0,2.9558802E-2,1.8E1,3.21E0,3.69E0,4.15E0,-3.2561015E-2,3.11E0,3.85E0,3.52E0,-6.298741E-2,1.952529E-3,-3.742377E-2,1.9703753E-2,5.1283527E-2,-1.2248176E-2,-5.974265E-3,-6.6178414E-4,-7.329593E-3,2.1656633E-3,9.92229E-3,8.514639E-3,-3.804253E-2,6.386798E-4,5.1266397E-3],"split_indices":[2,5,34,2,2,0,5,9,26,0,0,0,0,6,10,0,0,0,0,0,0,0,0,0,0],"split_type":[0,0,0,0,0,0,0,0,0,0,0,0,0,0,0,0,0,0,0,0,0,0,0,0,0],"sum_hessian":[5.66E2,3.17E2,2.49E2,3.13E2,4E0,2E0,2.47E2,2.6E1,2.87E2,3E0,1E0,1E0,1E0,3E0,2.44E2,1E1,1.6E1,2.53E2,3.4E1,1E0,2E0,2E0,1E0,9E1,1.54E2],"tree_param":{"num_deleted":"0","num_feature":"36","num_nodes":"25","size_leaf_vector":"1"}},{"base_weights":[-4.5405286E-3,-2.3502722E-2,1.06803544E-1,-1.4743877E-2,-7.245997E-2,1.1438939E-2,9.448777E-2,-2.602671E-2,1.3299894E-1,2.2517743E-2,1.2235961E-1,-1.1441534E-3,-3.648818E-2,8.701369E-3,4.464467E-3,-2.4299717E-3,2.0023824E-3,5.093537E-3,9.449813E-3],"categories":[],"categories_nodes":[],"categories_segments":[],"categories_sizes":[],"default_left":[0,0,0,0,0,0,0,0,0,0,0,0,0,0,0,0,0,0,0],"id":49,"left_children":[1,3,5,7,-1,-1,9,11,13,15,17,-1,-1,-1,-1,-1,-1,-1,-1],"loss_changes":[1.2186351E0,6.134949E0,1.04569495E-1,8.219377E-1,0E0,0E0,1.5370786E-1,9.9432015E-1,4.722798E-2,3.0619867E-2,5.7204068E-2,0E0,0E0,0E0,0E0,0E0,0E0,0E0,0E0],"parents":[2147483647,0,0,1,1,2,2,3,3,6,6,7,7,8,8,9,9,10,10],"right_children":[2,4,6,8,-1,-1,10,12,14,16,18,-1,-1,-1,-1,-1,-1,-1,-1],"split_conditions":[4.85E0,4.79E0,4.85E0,4.63E0,-7.245997E-2,1.1438939E-2,5E0,4.61E0,4.71E0,4.89E0,5.2E0,-1.1441534E-3,-3.648818E-2,8.701369E-3,4.464467E-3,-2.4299717E-3,2.0023824E-3,5.093537E-3,9.449813E-3],"split_indices":[17,27,1,0,0,0,1,0,16,15,2,0,0,0,0,0,0,0,0],"split_type":[0,0,0,0,0,0,0,0,0,0,0,0,0,0,0,0,0,0,0],"sum_hessian":[5.75E2,4.92E2,8.3E1,4.9E2,2E0,6E0,7.7E1,4.56E2,3.4E1,2.2E1,5.5E1,4.55E2,1E0,1.6E1,1.8E1,4E0,1.8E1,4.4E1,1.1E1],"tree_param":{"num_deleted":"0","num_feature":"36","num_nodes":"19","size_leaf_vector":"1"}},{"base_weights":[-6.472275E-3,-4.0539287E-2,7.6887235E-2,-3.1899218E-2,-6.112274E-1,-4.1511837E-1,8.5418515E-2,-7.0328705E-2,9.058742E-3,-6.560855E-2,6.728715E-2,4.4420958E-3,-3.5575975E-2,-1.4418352E-1,9.354552E-2,-2.0825672E-3,-2.1731107E-2,-1.3246673E-2,1.0334899E-3,5.7910006E-3,-1.957786E-3,5.4380847E-3,-3.522274E-2,1.6608116E-3,5.3093387E-3],"categories":[],"categories_nodes":[],"categories_segments":[],"categories_sizes":[],"default_left":[0,0,0,0,0,0,0,0,0,0,0,0,0,0,0,0,0,0,0,0,0,0,0,0,0],"id":50,"left_children":[1,3,5,7,9,11,13,15,17,-1,19,-1,-1,21,23,-1,-1,-1,-1,-1,-1,-1,-1,-1,-1],"loss_changes":[1.6246482E0,1.9824007E0,7.3223335E-1,6.318084E-1,2.9418945E0,5.1133597E-1,3.1950784E-1,2.144421E0,6.258373E-1,0E0,2.5198927E-2,0E0,0E0,9.269253E-1,1.17732406E-1,0E0,0E0,0E0,0E0,0E0,0E0,0E0,0E0,0E0,0E0],"parents":[2147483647,0,0,1,1,2,2,3,3,4,4,5,5,6,6,7,7,8,8,10,10,13,13,14,14],"right_children":[2,4,6,8,10,12,14,16,18,-1,20,-1,-1,22,24,-1,-1,-1,-1,-1,-1,-1,-1,-1,-1],"split_conditions":[4.32E0,4.5E0,1.8E1,3.8E0,-2.1366508E-1,4.25E0,7.0710676E-3,3.69E0,1E-2,-6.560855E-2,4.31E0,4.4420958E-3,-3.5575975E-2,5.03E0,4.5E0,-2.0825672E-3,-2.1731107E-2,-1.3246673E-2,1.0334899E-3,5.7910006E-3,-1.957786E-3,5.4380847E-3,-3.522274E-2,1.6608116E-3,5.3093387E-3],"split_indices":[27,15,34,23,7,0,10,28,10,0,0,0,0,20,2,0,0,0,0,0,0,0,0,0,0],"split_type":[0,0,0,0,0,0,0,0,0,0,0,0,0,0,0,0,0,0,0,0,0,0,0,0,0],"sum_hessian":[5.7E2,4.05E2,1.65E2,4E2,5E0,2E0,1.63E2,2.06E2,1.94E2,2E0,3E0,1E0,1E0,5E0,1.58E2,1.92E2,1.4E1,7E0,1.87E2,2E0,1E0,4E0,1E0,2.8E1,1.3E2],"tree_param":{"num_deleted":"0","num_feature":"36","num_nodes":"25","size_leaf_vector":"1"}},{"base_weights":[-8.3125095E-5,-9.932658E-2,1.893871E-2,-1.22720385E-2,-7.85146E-2,2.9639152E-3,9.421317E-2,-9.951381E-2,-6.075957E-2,1.2728391E-2,-9.59578E-1,1.159307E-2,8.44325E-2,-6.505013E-4,-5.0806818E-3,9.34422E-4,-3.1446486E-3,-8.275531E-3,1.3146163E-3,-6.954609E-2,8.361327E-3,2.3245157E-3,6.3635483E-3],"categories":[],"categories_nodes":[],"categories_segments":[],"categories_sizes":[],"default_left":[0,0,0,0,0,0,0,0,0,0,0,0,0,0,0,0,0,0,0,0,0,0,0],"id":51,"left_children":[1,3,5,-1,7,9,11,13,15,17,19,-1,21,-1,-1,-1,-1,-1,-1,-1,-1,-1,-1],"loss_changes":[1.0798107E0,2.6049447E-1,5.7691795E-1,0E0,2.4526596E-2,3.7435048E0,9.351194E-2,5.217135E-3,9.141594E-3,9.5689493E-1,2.1767595E0,0E0,1.2411398E-1,0E0,0E0,0E0,0E0,0E0,0E0,0E0,0E0,0E0,0E0],"parents":[2147483647,0,0,1,1,2,2,4,4,5,5,6,6,7,7,8,8,9,9,10,10,12,12],"right_children":[2,4,6,-1,8,10,12,14,16,18,20,-1,22,-1,-1,-1,-1,-1,-1,-1,-1,-1,-1],"split_conditions":[3.47E0,3.11E0,4.85E0,-1.22720385E-2,3.33E0,4.79E0,4.89E0,3.3E0,3.3E0,2.81E2,1.083E3,1.159307E-2,5.08E0,-6.505013E-4,-5.0806818E-3,9.34422E-4,-3.1446486E-3,-8.275531E-3,1.3146163E-3,-6.954609E-2,8.361327E-3,2.3245157E-3,6.3635483E-3],"split_indices":[3,9,17,0,3,27,9,16,19,32,4,0,1,0,0,0,0,0,0,0,0,0,0],"split_type":[0,0,0,0,0,0,0,0,0,0,0,0,0,0,0,0,0,0,0,0,0,0,0],"sum_hessian":[5.7E2,9.1E1,4.79E2,1E1,8.1E1,3.96E2,8.3E1,3.5E1,4.6E1,3.93E2,3E0,4E0,7.9E1,1E0,3.4E1,1E0,4.5E1,2.7E1,3.66E2,2E0,1E0,4.3E1,3.6E1],"tree_param":{"num_deleted":"0","num_feature":"36","num_nodes":"23","size_leaf_vector":"1"}},{"base_weights":[-1.03728995E-2,-5.6033496E-2,3.4369264E-2,-4.792321E-2,-4.9413663E-1,-3.812625E-2,6.1132506E-2,-2.2001919E-1,-3.6530282E-2,8.007586E-3,-6.256784E-2,1.2035968E-2,-5.486339E-1,2.5248457E-2,1.1059393E-1,-3.3053726E-2,9.421706E-4,-1.4466024E-3,-2.5874188E-2,2.3369193E-3,-2.7046204E-3,2.2931648E-3,-5.974261E-2,-6.7227885E-2,1.9323587E-3,1.8674914E-3,-1.720524E-2,4.819562E-3,8.42408E-3],"categories":[],"categories_nodes":[],"categories_segments":[],"categories_sizes":[],"default_left":[0,0,0,0,0,0,0,0,0,0,0,0,0,0,0,0,0,0,0,0,0,0,0,0,0,0,0,0,0],"id":52,"left_children":[1,3,5,7,9,11,13,15,17,19,-1,21,23,25,27,-1,-1,-1,-1,-1,-1,-1,-1,-1,-1,-1,-1,-1,-1],"loss_changes":[1.1602807E0,9.747521E-1,5.5917245E-1,5.350703E-1,1.9111888E0,2.0040426E0,3.699317E-1,1.8034345E0,9.3882567E-1,1.2148921E-2,0E0,2.994258E0,3.32398E0,5.62623E-1,5.6109905E-2,0E0,0E0,0E0,0E0,0E0,0E0,0E0,0E0,0E0,0E0,0E0,0E0,0E0,0E0],"parents":[2147483647,0,0,1,1,2,2,3,3,4,4,5,5,6,6,7,7,8,8,9,9,11,11,12,12,13,13,14,14],"right_children":[2,4,6,8,10,12,14,16,18,20,-1,22,24,26,28,-1,-1,-1,-1,-1,-1,-1,-1,-1,-1,-1,-1,-1,-1],"split_conditions":[3.94E0,3.92E0,1.083E3,4E2,-2.0120724E-3,1.033E3,4.59E0,8.05E2,2.9558802E-2,4.11E0,-6.256784E-2,1.30958E-1,4.84E0,4.54E0,1.2637247E-1,-3.3053726E-2,9.421706E-4,-1.4466024E-3,-2.5874188E-2,2.3369193E-3,-2.7046204E-3,2.2931648E-3,-5.974261E-2,-6.7227885E-2,1.9323587E-3,1.8674914E-3,-1.720524E-2,4.819562E-3,8.42408E-3],"split_indices":[25,15,4,35,7,4,1,33,5,0,0,10,0,12,10,0,0,0,0,0,0,0,0,0,0,0,0,0,0],"split_type":[0,0,0,0,0,0,0,0,0,0,0,0,0,0,0,0,0,0,0,0,0,0,0,0,0,0,0,0,0],"sum_hessian":[5.66E2,2.8E2,2.86E2,2.76E2,4E0,7.7E1,2.09E2,1.6E1,2.6E2,3E0,1E0,7.1E1,6E0,1.22E2,8.7E1,5E0,1.1E1,2.57E2,3E0,2E0,1E0,7E1,1E0,2E0,4E0,1.19E2,3E0,7.2E1,1.5E1],"tree_param":{"num_deleted":"0","num_feature":"36","num_nodes":"29","size_leaf_vector":"1"}},{"base_weights":[-4.6143993E-3,-6.443811E-2,2.2758758E-2,-4.157168E-2,-7.092029E-1,-3.5749888E-1,3.070429E-2,-8.823807E-2,1.1945347E-2,-7.049361E-2,-6.400168E-3,-8.0676204E-1,7.341142E-2,-2.397222E-2,3.3315353E-2,-1.0390616E-2,-3.385214E-3,-1.0206455E-4,1.4084923E-2,-4.600519E-3,2.6403347E-3,1.665777E-3,-5.4894656E-2,-5.752981E-4,4.8758625E-3,2.7653105E-3,-7.5983227E-4],"categories":[],"categories_nodes":[],"categories_segments":[],"categories_sizes":[],"default_left":[0,0,0,0,0,0,0,0,0,0,0,0,0,0,0,0,0,0,0,0,0,0,0,0,0,0,0],"id":53,"left_children":[1,3,5,7,9,11,13,15,17,-1,19,21,23,-1,25,-1,-1,-1,-1,-1,-1,-1,-1,-1,-1,-1,-1],"loss_changes":[9.2341506E-1,2.5801117E0,1.1802391E0,4.306148E-1,2.9455702E0,1.6079625E0,5.2214456E-1,2.11819E-1,3.0618313E-1,0E0,2.513361E-2,1.0148675E0,1.1357052E-2,0E0,4.0516534E-1,0E0,0E0,0E0,0E0,0E0,0E0,0E0,0E0,0E0,0E0,0E0,0E0],"parents":[2147483647,0,0,1,1,2,2,3,3,4,4,5,5,6,6,7,7,8,8,10,10,11,11,12,12,14,14],"right_children":[2,4,6,8,10,12,14,16,18,-1,20,22,24,-1,26,-1,-1,-1,-1,-1,-1,-1,-1,-1,-1,-1,-1],"split_conditions":[3.68E0,3.704E0,5E1,3.5E0,5.4037023E-2,-4.862348E-1,3.61E0,3.19E0,3.65E0,-7.049361E-2,3.56E0,3.6E0,3.77E0,-2.397222E-2,4.965E3,-1.0390616E-2,-3.385214E-3,-1.0206455E-4,1.4084923E-2,-4.600519E-3,2.6403347E-3,1.665777E-3,-5.4894656E-2,-5.752981E-4,4.8758625E-3,2.7653105E-3,-7.5983227E-4],"split_indices":[16,8,34,1,10,7,20,13,27,0,0,0,1,0,32,0,0,0,0,0,0,0,0,0,0,0,0],"split_type":[0,0,0,0,0,0,0,0,0,0,0,0,0,0,0,0,0,0,0,0,0,0,0,0,0,0,0],"sum_hessian":[5.62E2,1.76E2,3.86E2,1.71E2,5E0,7E0,3.79E2,9.1E1,8E1,2E0,3E0,3E0,4E0,1E0,3.78E2,1.2E1,7.9E1,7.7E1,3E0,1E0,2E0,1E0,2E0,1E0,3E0,2.6E2,1.18E2],"tree_param":{"num_deleted":"0","num_feature":"36","num_nodes":"27","size_leaf_vector":"1"}},{"base_weights":[-7.659661E-3,-4.6739966E-2,3.5442207E-2,-2.7098373E-1,-3.652649E-2,-3.214495E-2,6.15471E-2,-6.012255E-2,7.6876986E-3,-3.1273033E-2,-3.297189E-1,1.6717488E-2,-6.131367E-1,-2.3430529E-1,6.730024E-2,3.704557E-3,-1.3237492E-3,-4.6508624E-3,-1.9059522E-4,8.624825E-3,-5.846451E-2,2.4879302E-3,-5.823005E-2,-6.502038E-2,2.780032E-3,7.71724E-3,-3.500639E-2,2.4359166E-3,6.321519E-3],"categories":[],"categories_nodes":[],"categories_segments":[],"categories_sizes":[],"default_left":[0,0,0,0,0,0,0,0,0,0,0,0,0,0,0,0,0,0,0,0,0,0,0,0,0,0,0,0,0],"id":54,"left_children":[1,3,5,7,9,11,13,-1,15,17,19,21,23,25,27,-1,-1,-1,-1,-1,-1,-1,-1,-1,-1,-1,-1,-1,-1],"loss_changes":[9.7020626E-1,6.8177503E-1,4.8541188E-1,3.3836968E0,4.3636796E-1,2.196178E0,3.5278076E-1,0E0,2.6915276E-2,4.845773E-1,2.3099267E0,2.8682592E0,2.8299258E0,8.322289E-1,2.0809686E-1,0E0,0E0,0E0,0E0,0E0,0E0,0E0,0E0,0E0,0E0,0E0,0E0,0E0,0E0],"parents":[2147483647,0,0,1,1,2,2,3,3,4,4,5,5,6,6,8,8,9,9,10,10,11,11,12,12,13,13,14,14],"right_children":[2,4,6,8,10,12,14,-1,16,18,20,22,24,26,28,-1,-1,-1,-1,-1,-1,-1,-1,-1,-1,-1,-1,-1,-1],"split_conditions":[3.91E0,2.25E2,1.083E3,4E2,2.9558802E-2,1.033E3,-3.2561015E-2,-6.012255E-2,1.559E3,3.39E0,3.69E0,1.30958E-1,4.84E0,1.9703753E-2,1.0440306E-1,3.704557E-3,-1.3237492E-3,-4.6508624E-3,-1.9059522E-4,8.624825E-3,-5.846451E-2,2.4879302E-3,-5.823005E-2,-6.502038E-2,2.780032E-3,7.71724E-3,-3.500639E-2,2.4359166E-3,6.321519E-3],"split_indices":[3,34,4,35,5,4,5,0,33,27,2,10,0,6,10,0,0,0,0,0,0,0,0,0,0,0,0,0,0],"split_type":[0,0,0,0,0,0,0,0,0,0,0,0,0,0,0,0,0,0,0,0,0,0,0,0,0,0,0,0,0],"sum_hessian":[5.74E2,3.01E2,2.73E2,1.2E1,2.89E2,7.6E1,1.97E2,2E0,1E1,2.85E2,4E0,7.1E1,5E0,3E0,1.94E2,3E0,7E0,8.7E1,1.98E2,3E0,1E0,7E1,1E0,2E0,3E0,2E0,1E0,1.49E2,4.5E1],"tree_param":{"num_deleted":"0","num_feature":"36","num_nodes":"29","size_leaf_vector":"1"}},{"base_weights":[-8.583895E-3,-3.4479678E-2,5.2986916E-2,-2.6320044E-2,-8.581423E-1,-3.6901104E-1,6.0080525E-2,-4.5374006E-2,3.7810992E-2,5.091292E-3,-6.0603686E-2,5.5510164E-3,-3.3226844E-2,-1.9089159E-2,8.76597E-2,-1.7494512E-3,-1.3307598E-2,9.514683E-4,5.317577E-3,1.9591865E-3,-4.239854E-2,4.825345E-3,1.3265059E-4],"categories":[],"categories_nodes":[],"categories_segments":[],"categories_sizes":[],"default_left":[0,0,0,0,0,0,0,0,0,0,0,0,0,0,0,0,0,0,0,0,0,0,0],"id":55,"left_children":[1,3,5,7,9,11,13,15,17,-1,-1,-1,-1,19,21,-1,-1,-1,-1,-1,-1,-1,-1],"loss_changes":[9.313764E-1,2.739656E0,5.400438E-1,5.002713E-1,1.482472E0,4.9936217E-1,3.750407E-1,7.129119E-1,1.1898269E-1,0E0,0E0,0E0,0E0,2.2067864E0,9.5256925E-2,0E0,0E0,0E0,0E0,0E0,0E0,0E0,0E0],"parents":[2147483647,0,0,1,1,2,2,3,3,4,4,5,5,6,6,7,7,8,8,13,13,14,14],"right_children":[2,4,6,8,10,12,14,16,18,-1,-1,-1,-1,20,22,-1,-1,-1,-1,-1,-1,-1,-1],"split_conditions":[4.4E0,4.5E0,1.8E1,3.91E0,4.21E0,4.25E0,4.3358967E-2,3.9E0,2.0322833E-2,5.091292E-3,-6.0603686E-2,5.5510164E-3,-3.3226844E-2,9.9503305E-3,1.5395E4,-1.7494512E-3,-1.3307598E-2,9.514683E-4,5.317577E-3,1.9591865E-3,-4.239854E-2,4.825345E-3,1.3265059E-4],"split_indices":[23,15,34,17,3,0,10,17,6,0,0,0,0,5,32,0,0,0,0,0,0,0,0],"split_type":[0,0,0,0,0,0,0,0,0,0,0,0,0,0,0,0,0,0,0,0,0,0,0],"sum_hessian":[5.82E2,4.1E2,1.72E2,4.07E2,3E0,2E0,1.7E2,3.14E2,9.3E1,1E0,2E0,1E0,1E0,4.4E1,1.26E2,3.01E2,1.3E1,7.4E1,1.9E1,4.2E1,2E0,1.14E2,1.2E1],"tree_param":{"num_deleted":"0","num_feature":"36","num_nodes":"23","size_leaf_vector":"1"}},{"base_weights":[-4.387668E-3,-2.5273552E-2,6.553347E-2,-1.911292E-1,-1.8895067E-2,-3.2396175E-2,7.6086804E-2,-1.1211556E-2,-5.8268276E-3,-1.2131007E-2,-1.6928513E-1,-1.4180239E-1,8.419368E-2,-1.5938254E-3,1.4789876E-3,-4.1455667E-2,8.977366E-4,5.8009983E-3,-2.9327294E-2,5.7012904E-3,3.2378018E-3],"categories":[],"categories_nodes":[],"categories_segments":[],"categories_sizes":[],"default_left":[0,0,0,0,0,0,0,0,0,0,0,0,0,0,0,0,0,0,0,0,0],"id":56,"left_children":[1,3,5,7,9,-1,11,-1,-1,13,15,17,19,-1,-1,-1,-1,-1,-1,-1,-1],"loss_changes":[8.25302E-1,4.5657846E-1,1.0281141E0,1.3375461E-2,4.2519033E-1,0E0,2.3980445E-1,0E0,0E0,3.3285362E-1,2.238717E0,6.413751E-1,6.509936E-2,0E0,0E0,0E0,0E0,0E0,0E0,0E0,0E0],"parents":[2147483647,0,0,1,1,2,2,3,3,4,4,6,6,9,9,10,10,11,11,12,12],"right_children":[2,4,6,8,10,-1,12,-1,-1,14,16,18,20,-1,-1,-1,-1,-1,-1,-1,-1],"split_conditions":[4.51E0,3.2E0,1.8E1,2.98E0,4.41E0,-3.2396175E-2,7.0710676E-3,-1.1211556E-2,-5.8268276E-3,3.94E0,4.38E0,5.03E0,4.85E0,-1.5938254E-3,1.4789876E-3,-4.1455667E-2,8.977366E-4,5.8009983E-3,-2.9327294E-2,5.7012904E-3,3.2378018E-3],"split_indices":[3,1,32,2,30,0,10,0,0,25,23,20,0,0,0,0,0,0,0,0,0],"split_type":[0,0,0,0,0,0,0,0,0,0,0,0,0,0,0,0,0,0,0,0,0],"sum_hessian":[5.63E2,4.34E2,1.29E2,1.5E1,4.19E2,1E0,1.28E2,9E0,6E0,4.02E2,1.7E1,4E0,1.24E2,2.73E2,1.29E2,3E0,1.4E1,3E0,1E0,4.7E1,7.7E1],"tree_param":{"num_deleted":"0","num_feature":"36","num_nodes":"21","size_leaf_vector":"1"}},{"base_weights":[-2.62826E-3,-5.6976717E-2,2.2345595E-2,-3.658345E-2,-6.4568317E-1,-2.7117527E-1,2.9131455E-2,-4.5975942E-2,1.9674619E-1,2.231419E-2,-6.605593E-2,8.9816414E-2,-7.4486893E-1,-2.306258E-2,3.1603236E-2,-9.162376E-3,-1.6241018E-3,2.1890223E-2,6.3809875E-4,-1.706475E-3,2.6252628E-3,7.1454844E-3,1.3771177E-3,-5.0954815E-2,1.9453288E-3,1.0588485E-3,5.928282E-3],"categories":[],"categories_nodes":[],"categories_segments":[],"categories_sizes":[],"default_left":[0,0,0,0,0,0,0,0,0,0,0,0,0,0,0,0,0,0,0,0,0,0,0,0,0,0,0],"id":57,"left_children":[1,3,5,7,9,11,13,15,17,19,-1,21,23,-1,25,-1,-1,-1,-1,-1,-1,-1,-1,-1,-1,-1,-1],"loss_changes":[7.8035796E-1,2.1494012E0,7.926656E-1,3.9475787E-1,2.736614E0,1.6058965E0,4.8245463E-1,3.0894378E-1,3.0486915E-1,8.608358E-3,0E0,1.5901934E-2,8.9938045E-1,0E0,3.4656602E-1,0E0,0E0,0E0,0E0,0E0,0E0,0E0,0E0,0E0,0E0,0E0,0E0],"parents":[2147483647,0,0,1,1,2,2,3,3,4,4,5,5,6,6,7,7,8,8,9,9,11,11,12,12,14,14],"right_children":[2,4,6,8,10,12,14,16,18,20,-1,22,24,-1,26,-1,-1,-1,-1,-1,-1,-1,-1,-1,-1,-1,-1],"split_conditions":[3.68E0,3.69E0,5E1,3.68E0,3.72E0,-2.6990569E-3,3.61E0,3.2E0,3.69E0,2.7510333E-3,-6.605593E-2,1.1719221E-2,1.5425111E-2,-2.306258E-2,1.1414903E-1,-9.162376E-3,-1.6241018E-3,2.1890223E-2,6.3809875E-4,-1.706475E-3,2.6252628E-3,7.1454844E-3,1.3771177E-3,-5.0954815E-2,1.9453288E-3,1.0588485E-3,5.928282E-3],"split_indices":[16,28,34,11,3,5,20,1,2,5,0,6,6,0,10,0,0,0,0,0,0,0,0,0,0,0,0],"split_type":[0,0,0,0,0,0,0,0,0,0,0,0,0,0,0,0,0,0,0,0,0,0,0,0,0,0,0],"sum_hessian":[5.73E2,1.8E2,3.93E2,1.75E2,5E0,8E0,3.85E2,1.69E2,6E0,3E0,2E0,5E0,3E0,1E0,3.84E2,1.4E1,1.55E2,2E0,4E0,1E0,2E0,2E0,3E0,2E0,1E0,3.44E2,4E1],"tree_param":{"num_deleted":"0","num_feature":"36","num_nodes":"27","size_leaf_vector":"1"}},{"base_weights":[-6.041498E-3,-2.3928387E-2,8.028842E-2,-1.8608669E-2,-8.334157E-1,1.3469349E-1,6.325908E-2,-2.5102869E-2,1.6358018E-1,-6.411028E-2,1.6041041E-3,4.4721525E-2,1.5852515E-1,-1.1998436E-2,9.274808E-2,-1.0199334E-3,-2.6990876E-2,1.1574147E-2,-1.6051244E-3,2.865088E-3,6.520351E-4,3.0426325E-3,8.7554185E-3,1.5859653E-3,-2.2352256E-3,3.9021296E-3,8.377469E-3],"categories":[],"categories_nodes":[],"categories_segments":[],"categories_sizes":[],"default_left":[0,0,0,0,0,0,0,0,0,0,0,0,0,0,0,0,0,0,0,0,0,0,0,0,0,0,0],"id":58,"left_children":[1,3,5,7,9,11,13,15,17,-1,-1,19,21,23,25,-1,-1,-1,-1,-1,-1,-1,-1,-1,-1,-1,-1],"loss_changes":[8.6357003E-1,1.9782825E0,8.0421746E-2,5.4954803E-1,1.2064159E0,4.0082514E-2,1.6755801E-1,1.0688978E0,2.2002944E-1,0E0,0E0,1.6440582E-3,1.6879499E-2,3.287438E-2,4.6323508E-2,0E0,0E0,0E0,0E0,0E0,0E0,0E0,0E0,0E0,0E0,0E0,0E0],"parents":[2147483647,0,0,1,1,2,2,3,3,4,4,5,5,6,6,7,7,8,8,11,11,12,12,13,13,14,14],"right_children":[2,4,6,8,10,12,14,16,18,-1,-1,20,22,24,26,-1,-1,-1,-1,-1,-1,-1,-1,-1,-1,-1,-1],"split_conditions":[4.78E0,4.79E0,4.85E0,1.4152738E-1,4.71E0,4.68E0,5E0,1.3255188E-1,2.0361E4,-6.411028E-2,1.6041041E-3,4.79E0,4.32E2,7.71E2,5.41E0,-1.0199334E-3,-2.6990876E-2,1.1574147E-2,-1.6051244E-3,2.865088E-3,6.520351E-4,3.0426325E-3,8.7554185E-3,1.5859653E-3,-2.2352256E-3,3.9021296E-3,8.377469E-3],"split_indices":[1,27,0,10,0,2,3,10,32,0,0,0,34,34,3,0,0,0,0,0,0,0,0,0,0,0,0],"split_type":[0,0,0,0,0,0,0,0,0,0,0,0,0,0,0,0,0,0,0,0,0,0,0,0,0,0,0],"sum_hessian":[5.57E2,4.62E2,9.5E1,4.6E2,2E0,2.1E1,7.4E1,4.45E2,1.5E1,1E0,1E0,5E0,1.6E1,2.1E1,5.3E1,4.42E2,3E0,1.1E1,4E0,3E0,2E0,3E0,1.3E1,9E0,1.2E1,4.6E1,7E0],"tree_param":{"num_deleted":"0","num_feature":"36","num_nodes":"27","size_leaf_vector":"1"}},{"base_weights":[5.6689427E-5,-6.3726775E-2,1.4336448E-2,-1.6381921E-1,-5.027107E-2,-1.2216664E-1,2.0055344E-2,-9.64174E-3,-5.1332256E-3,-6.699749E-2,-3.6640435E-2,-6.069645E-2,5.927318E-3,1.2171737E-2,9.653686E-2,-3.5901584E-3,-9.017992E-4,1.3262233E-3,-1.9789971E-3,-1.4377885E-2,4.189742E-3,8.566307E-4,-1.3794027E-2,7.63509E-3,3.4490414E-3],"categories":[],"categories_nodes":[],"categories_segments":[],"categories_sizes":[],"default_left":[0,0,0,0,0,0,0,0,0,0,0,0,0,0,0,0,0,0,0,0,0,0,0,0,0],"id":59,"left_children":[1,3,5,7,9,11,13,-1,-1,15,17,-1,19,21,23,-1,-1,-1,-1,-1,-1,-1,-1,-1,-1],"loss_changes":[5.2280915E-1,1.3318011E-1,3.6857355E-1,1.4959872E-3,1.8976405E-2,2.6643102E0,2.7075553E-1,0E0,0E0,8.351967E-3,1.1076212E-2,0E0,4.354489E-1,5.9061325E-1,5.4469198E-2,0E0,0E0,0E0,0E0,0E0,0E0,0E0,0E0,0E0,0E0],"parents":[2147483647,0,0,1,1,2,2,3,3,4,4,5,5,6,6,9,9,10,10,12,12,13,13,14,14],"right_children":[2,4,6,8,10,12,14,-1,-1,16,18,-1,20,22,24,-1,-1,-1,-1,-1,-1,-1,-1,-1,-1],"split_conditions":[3.49E0,3.1E0,1.01E2,2.98E0,3.3E0,1E-2,2.2989519E-2,-9.64174E-3,-5.1332256E-3,3.4E0,3.32E0,-6.069645E-2,2.98E2,2.1202208E-2,3.89E0,-3.5901584E-3,-9.017992E-4,1.3262233E-3,-1.9789971E-3,-1.4377885E-2,4.189742E-3,8.566307E-4,-1.3794027E-2,7.63509E-3,3.4490414E-3],"split_indices":[3,2,32,2,2,10,5,0,0,23,24,0,33,5,13,0,0,0,0,0,0,0,0,0,0],"split_type":[0,0,0,0,0,0,0,0,0,0,0,0,0,0,0,0,0,0,0,0,0,0,0,0,0],"sum_hessian":[5.72E2,1.04E2,4.68E2,1.1E1,9.3E1,1.8E1,4.5E2,6E0,5E0,4E1,5.3E1,1E0,1.7E1,4.09E2,4.1E1,3.6E1,4E0,2E0,5.1E1,3E0,1.4E1,4.03E2,6E0,1.2E1,2.9E1],"tree_param":{"num_deleted":"0","num_feature":"36","num_nodes":"25","size_leaf_vector":"1"}},{"base_weights":[-6.2241023E-3,-3.9240703E-2,2.9063249E-2,-2.9781558E-2,-4.946221E-1,-3.1469606E-2,5.441941E-2,-2.1637961E-1,-2.1042923E-2,-5.4440647E-2,7.467651E-2,1.2663943E-2,-7.224857E-1,4.0314276E-2,1.2085537E-1,2.339009E-3,-4.1009214E-2,-2.6421982E-3,1.5193464E-3,5.697942E-3,1.1798064E-3,2.0092996E-3,-5.33514E-2,-6.0926553E-2,7.1940426E-4,6.620251E-4,4.2905975E-3,1.4860289E-2,4.371756E-3],"categories":[],"categories_nodes":[],"categories_segments":[],"categories_sizes":[],"default_left":[0,0,0,0,0,0,0,0,0,0,0,0,0,0,0,0,0,0,0,0,0,0,0,0,0,0,0,0,0],"id":60,"left_children":[1,3,5,7,9,11,13,15,17,-1,19,21,23,25,27,-1,-1,-1,-1,-1,-1,-1,-1,-1,-1,-1,-1,-1,-1],"loss_changes":[6.722199E-1,1.2689099E0,4.2994434E-1,4.732161E-1,2.110941E0,2.5403998E0,1.7973411E-1,2.1040306E0,4.6118766E-1,0E0,5.3372383E-3,2.3903909E0,1.8451457E0,2.0087796E-1,1.7439875E-1,0E0,0E0,0E0,0E0,0E0,0E0,0E0,0E0,0E0,0E0,0E0,0E0,0E0,0E0],