{"learner":{"attributes":{"scikit_learn":"{\"_estimator_type\": \"regressor\"}"},"feature_names":[],"feature_types":[],"gradient_booster":{"model":{"cats":{"enc":[],"feature_segments":[],"sorted_idx":[]},"gbtree_model_param":{"num_parallel_tree":"1","num_trees":"300"},"iteration_indptr":[0,1,2,3,4,5,6,7,8,9,10,11,12,13,14,15,16,17,18,19,20,21,22,23,24,25,26,27,28,29,30,31,32,33,34,35,36,37,38,39,40,41,42,43,44,45,46,47,48,49,50,51,52,53,54,55,56,57,58,59,60,61,62,63,64,65,66,67,68,69,70,71,72,73,74,75,76,77,78,79,80,81,82,83,84,85,86,87,88,89,90,91,92,93,94,95,96,97,98,99,100,101,102,103,104,105,106,107,108,109,110,111,112,113,114,115,116,117,118,119,120,121,122,123,124,125,126,127,128,129,130,131,132,133,134,135,136,137,138,139,140,141,142,143,144,145,146,147,148,149,150,151,152,153,154,155,156,157,158,159,160,161,162,163,164,165,166,167,168,169,170,171,172,173,174,175,176,177,178,179,180,181,182,183,184,185,186,187,188,189,190,191,192,193,194,195,196,197,198,199,200,201,202,203,204,205,206,207,208,209,210,211,212,213,214,215,216,217,218,219,220,221,222,223,224,225,226,227,228,229,230,231,232,233,234,235,236,237,238,239,240,241,242,243,244,245,246,247,248,249,250,251,252,253,254,255,256,257,258,259,260,261,262,263,264,265,266,267,268,269,270,271,272,273,274,275,276,277,278,279,280,281,282,283,284,285,286,287,288,289,290,291,292,293,294,295,296,297,298,299,300],"tree_info":[0,0,0,0,0,0,0,0,0,0,0,0,0,0,0,0,0,0,0,0,0,0,0,0,0,0,0,0,0,0,0,0,0,0,0,0,0,0,0,0,0,0,0,0,0,0,0,0,0,0,0,0,0,0,0,0,0,0,0,0,0,0,0,0,0,0,0,0,0,0,0,0,0,0,0,0,0,0,0,0,0,0,0,0,0,0,0,0,0,0,0,0,0,0,0,0,0,0,0,0,0,0,0,0,0,0,0,0,0,0,0,0,0,0,0,0,0,0,0,0,0,0,0,0,0,0,0,0,0,0,0,0,0,0,0,0,0,0,0,0,0,0,0,0,0,0,0,0,0,0,0,0,0,0,0,0,0,0,0,0,0,0,0,0,0,0,0,0,0,0,0,0,0,0,0,0,0,0,0,0,0,0,0,0,0,0,0,0,0,0,0,0,0,0,0,0,0,0,0,0,0,0,0,0,0,0,0,0,0,0,0,0,0,0,0,0,0,0,0,0,0,0,0,0,0,0,0,0,0,0,0,0,0,0,0,0,0,0,0,0,0,0,0,0,0,0,0,0,0,0,0,0,0,0,0,0,0,0,0,0,0,0,0,0,0,0,0,0,0,0,0,0,0,0,0,0,0,0,0,0,0,0,0,0,0,0,0,0,0,0,0,0,0,0,0,0,0,0,0,0],"trees":[{"base_weights":[3.525411E-4,-8.2409024E-1,1.430793E0,-7.113955E-1,-4.4056697E0,-3.0086026E0,1.5740105E0,-1.1386051E0,1.985595E-2,-2.7339217E-1,2.2629905E-2,-2.2782679E-1,4.0879916E-2,8.767108E-1,2.209176E0,-1.0103518E-1,-4.374793E-2,5.584682E-3,-6.349214E-2,5.7264354E-2,-1.4505515E-1,1.1825534E-1,-1.708701E-1],"categories":[],"categories_nodes":[],"categories_segments":[],"categories_sizes":[],"default_left":[0,0,0,0,0,0,0,0,0,0,0,0,0,0,0,0,0,0,0,0,0,0,0],"id":0,"left_children":[1,3,5,7,9,11,13,15,17,-1,-1,-1,-1,19,21,-1,-1,-1,-1,-1,-1,-1,-1],"loss_changes":[3.77381E2,7.880176E1,7.912407E1,6.1877357E1,3.3436653E1,2.7416225E1,4.8553894E1,2.730223E1,8.906611E0,0E0,0E0,0E0,0E0,6.0141937E1,5.9846497E1,0E0,0E0,0E0,0E0,0E0,0E0,0E0,0E0],"parents":[2147483647,0,0,1,1,2,2,3,3,4,4,5,5,6,6,7,7,8,8,13,13,14,14],"right_children":[2,4,6,8,10,12,14,16,18,-1,-1,-1,-1,20,22,-1,-1,-1,-1,-1,-1,-1,-1],"split_conditions":[7.36E0,7.31E0,-9.9011534E-1,6.8E0,1.25E3,1.8E1,8.61E0,3.6E2,2.5536856E-2,-2.7339217E-1,2.2629905E-2,-2.2782679E-1,4.0879916E-2,8.8E0,9.98E0,-1.0103518E-1,-4.374793E-2,5.584682E-3,-6.349214E-2,5.7264354E-2,-1.4505515E-1,1.1825534E-1,-1.708701E-1],"split_indices":[29,0,7,1,4,4,26,32,6,0,0,0,0,21,13,0,0,0,0,0,0,0,0],"split_type":[0,0,0,0,0,0,0,0,0,0,0,0,0,0,0,0,0,0,0,0,0,0,0],"sum_hessian":[3.18E2,2.02E2,1.16E2,1.97E2,5E0,3E0,1.13E2,1.24E2,7.3E1,4E0,1E0,2E0,1E0,5.5E1,5.8E1,2.7E1,9.7E1,6.9E1,4E0,5.2E1,3E0,5.7E1,1E0],"tree_param":{"num_deleted":"0","num_feature":"36","num_nodes":"23","size_leaf_vector":"1"}},{"base_weights":[-8.636044E-2,-8.005357E-1,1.2898878E0,-6.95312E-1,-4.22718E0,1.4394226E0,-2.2118185E-1,-1.1267023E0,4.0388767E-2,-2.6245648E-1,2.2064162E-2,6.054183E-1,1.086629E-1,-2.2541372E-1,-5.186233E-2,-3.791498E-2,7.2751786E-3,4.5159012E-2,-2.2299162E-1],"categories":[],"categories_nodes":[],"categories_segments":[],"categories_sizes":[],"default_left":[0,0,0,0,0,0,0,0,0,0,0,0,0,0,0,0,0,0,0],"id":1,"left_children":[1,3,5,7,9,11,-1,13,15,-1,-1,17,-1,-1,-1,-1,-1,-1,-1],"loss_changes":[3.1064056E2,7.2058105E1,9.863953E1,6.447246E1,3.0941956E1,6.3558594E1,0E0,3.404393E1,6.4908376E0,0E0,0E0,8.09482E1,0E0,0E0,0E0,0E0,0E0,0E0,0E0],"parents":[2147483647,0,0,1,1,2,2,3,3,4,4,5,5,7,7,8,8,11,11],"right_children":[2,4,6,8,10,12,-1,14,16,-1,-1,18,-1,-1,-1,-1,-1,-1,-1],"split_conditions":[7.36E0,7.27E0,9.8E0,6.61E0,1.25E3,8.85E0,-2.2118185E-1,4.95E0,1.02E2,-2.6245648E-1,2.2064162E-2,8.758E0,1.086629E-1,-2.2541372E-1,-5.186233E-2,-3.791498E-2,7.2751786E-3,4.5159012E-2,-2.2299162E-1],"split_indices":[29,0,20,26,4,21,0,0,31,0,0,8,0,0,0,0,0,0,0],"split_type":[0,0,0,0,0,0,0,0,0,0,0,0,0,0,0,0,0,0,0],"sum_hessian":[3.14E2,2.07E2,1.07E2,2.02E2,5E0,1.05E2,2E0,1.27E2,7.5E1,4E0,1E0,5E1,5.5E1,2E0,1.25E2,8E0,6.7E1,4.8E1,2E0],"tree_param":{"num_deleted":"0","num_feature":"36","num_nodes":"19","size_leaf_vector":"1"}},{"base_weights":[4.759139E-2,-4.5536125E-1,1.8254588E0,-1.0181412E0,4.5985293E-2,1.9470501E0,-1.6106878E-1,-9.1789746E-1,-2.227302E-1,1.5142244E-1,-2.2339974E-1,5.1615525E-2,2.0647082E0,-9.212844E-2,-3.896323E-2,-6.6151256E-3,4.5455012E-2,-1.6166893E-1,8.406043E-2,8.932158E-2,1.1793458E-1],"categories":[],"categories_nodes":[],"categories_segments":[],"categories_sizes":[],"default_left":[0,0,0,0,0,0,0,0,0,0,0,0,0,0,0,0,0,0,0,0,0],"id":2,"left_children":[1,3,5,7,9,11,-1,13,-1,15,-1,17,19,-1,-1,-1,-1,-1,-1,-1,-1],"loss_changes":[2.7981635E2,6.889087E1,4.8614136E1,3.552674E1,6.2548904E1,1.5058289E1,0E0,1.3049606E1,0E0,2.7636703E1,0E0,3.2202E1,1.0221252E0,0E0,0E0,0E0,0E0,0E0,0E0,0E0,0E0],"parents":[2147483647,0,0,1,1,2,2,3,3,4,4,5,5,7,7,9,9,11,11,12,12],"right_children":[2,4,6,8,10,12,-1,14,-1,16,-1,18,20,-1,-1,-1,-1,-1,-1,-1,-1],"split_conditions":[8.45E0,6.48E0,9.98E0,6.63E0,8.412E0,1.81E2,-1.6106878E-1,5.41E0,-2.227302E-1,7.74E0,-2.2339974E-1,8.79E0,9.19E0,-9.212844E-2,-3.896323E-2,-6.6151256E-3,4.5455012E-2,-1.6166893E-1,8.406043E-2,8.932158E-2,1.1793458E-1],"split_indices":[26,26,13,16,8,35,0,3,0,1,0,1,3,0,0,0,0,0,0,0,0],"split_type":[0,0,0,0,0,0,0,0,0,0,0,0,0,0,0,0,0,0,0,0,0],"sum_hessian":[3.11E2,2.43E2,6.8E1,1.14E2,1.29E2,6.7E1,1E0,1.12E2,2E0,1.27E2,2E0,4E0,6.3E1,1.3E1,9.9E1,9.3E1,3.4E1,1E0,3E0,3.6E1,2.7E1],"tree_param":{"num_deleted":"0","num_feature":"36","num_nodes":"21","size_leaf_vector":"1"}},{"base_weights":[-5.5992007E-2,-7.424276E-1,1.227831E0,-6.4413154E-1,-4.059052E0,1.3627077E0,-2.1309021E-1,-1.017263E0,1.5001456E-1,-2.5221428E-1,2.1677935E-2,6.365983E-1,2.040284E0,-4.4859774E-2,-2.4826561E-1,2.3715983E-3,2.7115116E-2,4.404622E-2,-1.3799362E-1,8.663606E-2,1.1347926E-1],"categories":[],"categories_nodes":[],"categories_segments":[],"categories_sizes":[],"default_left":[0,0,0,0,0,0,0,0,0,0,0,0,0,0,0,0,0,0,0,0,0],"id":3,"left_children":[1,3,5,7,9,11,-1,13,15,-1,-1,17,19,-1,-1,-1,-1,-1,-1,-1,-1],"loss_changes":[2.908467E2,6.747784E1,9.0956375E1,6.2380005E1,2.8744629E1,5.429654E1,0E0,6.3331802E1,2.7107263E0,0E0,0E0,4.890264E1,1.5786743E-1,0E0,0E0,0E0,0E0,0E0,0E0,0E0,0E0],"parents":[2147483647,0,0,1,1,2,2,3,3,4,4,5,5,7,7,8,8,11,11,12,12],"right_children":[2,4,6,8,10,12,-1,14,16,-1,-1,18,20,-1,-1,-1,-1,-1,-1,-1,-1],"split_conditions":[7.36E0,7.21E0,9.95E0,6.84E0,1.8462064E-2,8.776E0,-2.1309021E-1,6.8E0,7.18E0,-2.5221428E-1,2.1677935E-2,8.758E0,9.19E0,-4.4859774E-2,-2.4826561E-1,2.3715983E-3,2.7115116E-2,4.404622E-2,-1.3799362E-1,8.663606E-2,1.1347926E-1],"split_indices":[29,0,25,25,5,8,0,20,3,0,0,8,3,0,0,0,0,0,0,0,0],"split_type":[0,0,0,0,0,0,0,0,0,0,0,0,0,0,0,0,0,0,0,0,0],"sum_hessian":[3.28E2,2.14E2,1.14E2,2.09E2,5E0,1.12E2,2E0,1.42E2,6.7E1,4E0,1E0,5.5E1,5.7E1,1.39E2,3E0,5.4E1,1.3E1,5.2E1,3E0,2.8E1,2.9E1],"tree_param":{"num_deleted":"0","num_feature":"36","num_nodes":"21","size_leaf_vector":"1"}},{"base_weights":[5.1184925E-3,-6.5990365E-1,1.2433915E0,-5.6479645E-1,-3.894522E0,-1.5167946E0,1.381389E0,-9.707705E-1,1.5431118E-1,-2.4212573E-1,2.1135986E-2,-2.1720462E-1,4.914387E-2,6.961334E-1,9.867721E-2,-2.1333368E-1,-4.445639E-2,3.0612175E-3,2.8441438E-2,4.7087554E-2,-9.2507325E-2],"categories":[],"categories_nodes":[],"categories_segments":[],"categories_sizes":[],"default_left":[0,0,0,0,0,0,0,0,0,0,0,0,0,0,0,0,0,0,0,0,0],"id":4,"left_children":[1,3,5,7,9,11,13,15,17,-1,-1,-1,-1,19,-1,-1,-1,-1,-1,-1,-1],"loss_changes":[2.7339206E2,6.424964E1,4.627954E1,6.174894E1,2.6603287E1,4.6673615E1,4.3667465E1,3.2533043E1,2.9363055E0,0E0,0E0,0E0,0E0,3.4889175E1,0E0,0E0,0E0,0E0,0E0,0E0,0E0],"parents":[2147483647,0,0,1,1,2,2,3,3,4,4,5,5,6,6,7,7,8,8,13,13],"right_children":[2,4,6,8,10,12,14,16,18,-1,-1,-1,-1,20,-1,-1,-1,-1,-1,-1,-1],"split_conditions":[7.36E0,7.31E0,1.8E1,6.8E0,1.25E3,1.7204678E-2,8.79E0,4.95E0,7.18E0,-2.4212573E-1,2.1135986E-2,-2.1720462E-1,4.914387E-2,8.65E0,9.867721E-2,-2.1333368E-1,-4.445639E-2,3.0612175E-3,2.8441438E-2,4.7087554E-2,-9.2507325E-2],"split_indices":[29,0,4,1,4,6,11,0,11,0,0,0,0,27,0,0,0,0,0,0,0],"split_type":[0,0,0,0,0,0,0,0,0,0,0,0,0,0,0,0,0,0,0,0,0],"sum_hessian":[3.3E2,2.15E2,1.15E2,2.1E2,5E0,5E0,1.1E2,1.34E2,7.6E1,4E0,1E0,2E0,3E0,5.2E1,5.8E1,2E0,1.32E2,6.3E1,1.3E1,4.8E1,4E0],"tree_param":{"num_deleted":"0","num_feature":"36","num_nodes":"21","size_leaf_vector":"1"}},{"base_weights":[-5.0570894E-2,-6.666319E-1,1.0661427E0,-5.927267E-1,-2.1807587E-1,1.1911253E0,-2.0401172E-1,-9.213461E-1,1.02224566E-1,5.291212E-1,1.8104999E0,-4.0216025E-2,-2.378825E-1,-2.6461913E-4,1.3805467E-2,3.7426297E-2,-1.2825613E-1,7.7007376E-2,1.0274067E-1],"categories":[],"categories_nodes":[],"categories_segments":[],"categories_sizes":[],"default_left":[0,0,0,0,0,0,0,0,0,0,0,0,0,0,0,0,0,0,0],"id":5,"left_children":[1,3,5,7,-1,9,-1,11,13,15,17,-1,-1,-1,-1,-1,-1,-1,-1],"loss_changes":[2.2636281E2,5.5305862E1,8.011531E1,4.7824455E1,0E0,4.6195312E1,0E0,5.9923637E1,1.2727592E0,4.061688E1,7.3228455E-1,0E0,0E0,0E0,0E0,0E0,0E0,0E0,0E0],"parents":[2147483647,0,0,1,1,2,2,3,3,5,5,7,7,8,8,9,9,10,10],"right_children":[2,4,6,8,-1,10,-1,12,14,16,18,-1,-1,-1,-1,-1,-1,-1,-1],"split_conditions":[7.24E0,7.31E0,9.95E0,6.84E0,-2.1807587E-1,8.61E0,-2.0401172E-1,6.8E0,6.974E0,8.758E0,9.178E0,-4.0216025E-2,-2.378825E-1,-2.6461913E-4,1.3805467E-2,3.7426297E-2,-1.2825613E-1,7.7007376E-2,1.0274067E-1],"split_indices":[27,0,25,25,0,26,0,20,8,8,8,0,0,0,0,0,0,0,0],"split_type":[0,0,0,0,0,0,0,0,0,0,0,0,0,0,0,0,0,0,0],"sum_hessian":[3.27E2,2.11E2,1.16E2,2.08E2,3E0,1.14E2,2E0,1.41E2,6.7E1,5.6E1,5.8E1,1.38E2,3E0,4.2E1,2.5E1,5.3E1,3E0,3.1E1,2.7E1],"tree_param":{"num_deleted":"0","num_feature":"36","num_nodes":"19","size_leaf_vector":"1"}},{"base_weights":[-3.1668071E-3,-6.312554E-1,1.0522538E0,-2.0488203E-1,-5.7691836E-1,1.1683971E0,-1.9721134E-1,-5.068039E-1,-3.2520936E0,5.913779E-1,8.8750735E-2,-4.052078E-2,6.5785646E-3,-2.130918E-1,1.967193E-2,3.888662E-2,-8.629404E-2],"categories":[],"categories_nodes":[],"categories_segments":[],"categories_sizes":[],"default_left":[0,0,0,0,0,0,0,0,0,0,0,0,0,0,0,0,0],"id":6,"left_children":[1,3,5,-1,7,9,-1,11,13,15,-1,-1,-1,-1,-1,-1,-1],"loss_changes":[2.1676889E2,3.6248344E1,7.5405914E1,0E0,3.6428276E1,4.0953903E1,0E0,3.867644E1,2.0082016E1,2.8547663E1,0E0,0E0,0E0,0E0,0E0,0E0,0E0],"parents":[2147483647,0,0,1,1,2,2,4,4,5,5,7,7,8,8,9,9],"right_children":[2,4,6,-1,8,10,-1,12,14,16,-1,-1,-1,-1,-1,-1,-1],"split_conditions":[7.36E0,4.95E0,9.95E0,-2.0488203E-1,7.31E0,8.9E0,-1.9721134E-1,6.84E0,1.8462064E-2,8.79E0,8.8750735E-2,-4.052078E-2,6.5785646E-3,-2.130918E-1,1.967193E-2,3.888662E-2,-8.629404E-2],"split_indices":[29,0,25,0,0,23,0,25,5,14,0,0,0,0,0,0,0],"split_type":[0,0,0,0,0,0,0,0,0,0,0,0,0,0,0,0,0],"sum_hessian":[3.25E2,2.04E2,1.21E2,2E0,2.02E2,1.19E2,2E0,1.98E2,4E0,6.2E1,5.7E1,1.34E2,6.4E1,3E0,1E0,5.8E1,4E0],"tree_param":{"num_deleted":"0","num_feature":"36","num_nodes":"17","size_leaf_vector":"1"}},{"base_weights":[-8.883673E-3,-5.782345E-1,9.9850523E-1,-4.8854873E-1,-3.5012827E0,-2.045493E-1,1.1225919E0,-8.0015546E-1,1.2368099E-1,-2.1774903E-1,1.9180132E-2,1.1830186E0,-1.4415115E-1,-3.5882022E-2,-2.0820494E-1,2.1872167E-3,2.4986736E-2,3.0412225E-2,8.450889E-2],"categories":[],"categories_nodes":[],"categories_segments":[],"categories_sizes":[],"default_left":[0,0,0,0,0,0,0,0,0,0,0,0,0,0,0,0,0,0,0],"id":7,"left_children":[1,3,5,7,9,-1,11,13,15,-1,-1,17,-1,-1,-1,-1,-1,-1,-1],"loss_changes":[1.858365E2,5.2555702E1,7.848247E1,3.8635494E1,2.1569687E1,0E0,3.1245941E1,3.420685E1,2.0523124E0,0E0,0E0,3.2203186E1,0E0,0E0,0E0,0E0,0E0,0E0,0E0],"parents":[2147483647,0,0,1,1,2,2,3,3,4,4,6,6,7,7,8,8,11,11],"right_children":[2,4,6,8,10,-1,12,14,16,-1,-1,18,-1,-1,-1,-1,-1,-1,-1],"split_conditions":[7.36E0,7.31E0,-9.9011534E-1,6.82E0,1.25E3,-2.045493E-1,9.98E0,6.88E0,7.18E0,-2.1774903E-1,1.9180132E-2,8.776E0,-1.4415115E-1,-3.5882022E-2,-2.0820494E-1,2.1872167E-3,2.4986736E-2,3.0412225E-2,8.450889E-2],"split_indices":[29,0,7,25,4,0,13,19,11,0,0,8,0,0,0,0,0,0,0],"split_type":[0,0,0,0,0,0,0,0,0,0,0,0,0,0,0,0,0,0,0],"sum_hessian":[3.22E2,2.06E2,1.16E2,2.01E2,5E0,2E0,1.14E2,1.33E2,6.8E1,4E0,1E0,1.13E2,1E0,1.31E2,2E0,5.7E1,1.1E1,5.4E1,5.9E1],"tree_param":{"num_deleted":"0","num_feature":"36","num_nodes":"19","size_leaf_vector":"1"}},{"base_weights":[-3.2625787E-2,-5.5509835E-1,9.3536794E-1,-4.7153878E-1,-3.3593132E0,1.0500607E0,-1.8482596E-1,-7.744643E-1,1.1141036E-1,-2.0903905E-1,1.8700624E-2,4.6630642E-1,1.6359125E0,-3.289109E-2,-2.2441864E-1,-2.4108279E-4,1.5861854E-2,3.338464E-2,-9.009639E-2,6.820167E-2,9.130367E-2],"categories":[],"categories_nodes":[],"categories_segments":[],"categories_sizes":[],"default_left":[0,0,0,0,0,0,0,0,0,0,0,0,0,0,0,0,0,0,0,0,0],"id":8,"left_children":[1,3,5,7,9,11,-1,13,15,-1,-1,17,19,-1,-1,-1,-1,-1,-1,-1,-1],"loss_changes":[1.6589952E2,4.832589E1,6.497467E1,3.6817043E1,1.99645E1,3.788244E1,0E0,5.6395805E1,1.7240325E0,0E0,0E0,2.7697042E1,4.044037E-1,0E0,0E0,0E0,0E0,0E0,0E0,0E0,0E0],"parents":[2147483647,0,0,1,1,2,2,3,3,4,4,5,5,7,7,8,8,11,11,12,12],"right_children":[2,4,6,8,10,12,-1,14,16,-1,-1,18,20,-1,-1,-1,-1,-1,-1,-1,-1],"split_conditions":[7.36E0,7.31E0,9.95E0,6.84E0,1.25E3,8.79E0,-1.8482596E-1,6.8E0,6.996E0,-2.0903905E-1,1.8700624E-2,8.8E0,9.17E0,-3.289109E-2,-2.2441864E-1,-2.4108279E-4,1.5861854E-2,3.338464E-2,-9.009639E-2,6.820167E-2,9.130367E-2],"split_indices":[29,0,25,25,4,11,0,20,8,0,0,21,9,0,0,0,0,0,0,0,0],"split_type":[0,0,0,0,0,0,0,0,0,0,0,0,0,0,0,0,0,0,0,0,0],"sum_hessian":[3.26E2,2.12E2,1.14E2,2.07E2,5E0,1.12E2,2E0,1.36E2,7.1E1,4E0,1E0,5.7E1,5.5E1,1.33E2,3E0,4.6E1,2.5E1,5.3E1,4E0,2.6E1,2.9E1],"tree_param":{"num_deleted":"0","num_feature":"36","num_nodes":"21","size_leaf_vector":"1"}},{"base_weights":[-3.8798366E-2,-5.168372E-1,8.6262697E-1,-1.9576018E-1,-4.660697E-1,-1.9520697E-1,9.836871E-1,-3.8754115E-1,-2.6992538E0,1.0420576E0,-1.3592672E-1,-3.2823406E-2,5.917217E-3,1.9549513E-2,-2.006775E-1,2.8265437E-2,7.4584246E-2],"categories":[],"categories_nodes":[],"categories_segments":[],"categories_sizes":[],"default_left":[0,0,0,0,0,0,0,0,0,0,0,0,0,0,0,0,0],"id":9,"left_children":[1,3,5,-1,7,-1,9,11,13,15,-1,-1,-1,-1,-1,-1,-1],"loss_changes":[1.4049364E2,3.4923378E1,6.904882E1,0E0,3.5956738E1,0E0,2.682003E1,2.796717E1,2.9999718E1,2.2736252E1,0E0,0E0,0E0,0E0,0E0,0E0,0E0],"parents":[2147483647,0,0,1,1,2,2,4,4,6,6,7,7,8,8,9,9],"right_children":[2,4,6,-1,8,-1,10,12,14,16,-1,-1,-1,-1,-1,-1,-1],"split_conditions":[7.53E0,4.95E0,-9.9011534E-1,-1.9576018E-1,7.31E0,-1.9520697E-1,9.96E0,6.84E0,1.33E2,8.776E0,-1.3592672E-1,-3.2823406E-2,5.917217E-3,1.9549513E-2,-2.006775E-1,2.8265437E-2,7.4584246E-2],"split_indices":[24,0,7,0,0,0,12,25,32,8,0,0,0,0,0,0,0],"split_type":[0,0,0,0,0,0,0,0,0,0,0,0,0,0,0,0,0],"sum_hessian":[3.24E2,2.12E2,1.12E2,2E0,2.1E2,2E0,1.1E2,2.04E2,6E0,1.09E2,1E0,1.33E2,7.1E1,2E0,4E0,5.4E1,5.5E1],"tree_param":{"num_deleted":"0","num_feature":"36","num_nodes":"17","size_leaf_vector":"1"}},{"base_weights":[-2.2106903E-2,-4.1507447E-1,1.2642559E0,-1.8923484E-1,-3.7297872E-1,1.4364864E0,-1.7314619E-1,-3.2771164E-1,-3.0749755E0,1.2725606E0,8.482393E-2,-2.4165554E-2,3.479864E-2,2.2695208E-2,-2.2012852E-1,6.419127E-2,1.8014764E-2],"categories":[],"categories_nodes":[],"categories_segments":[],"categories_sizes":[],"default_left":[0,0,0,0,0,0,0,0,0,0,0,0,0,0,0,0,0],"id":10,"left_children":[1,3,5,-1,7,9,-1,11,13,15,-1,-1,-1,-1,-1,-1,-1],"loss_changes":[1.6632838E2,3.4333786E1,6.7665085E1,0E0,2.9570164E1,1.0375977E0,0E0,3.9679695E1,2.0738033E1,5.126953E-2,0E0,0E0,0E0,0E0,0E0,0E0,0E0],"parents":[2147483647,0,0,1,1,2,2,4,4,5,5,7,7,8,8,9,9],"right_children":[2,4,6,-1,8,10,-1,12,14,16,-1,-1,-1,-1,-1,-1,-1],"split_conditions":[8.31E0,5E0,9.95E0,-1.8923484E-1,8.29E0,9.25E0,-1.7314619E-1,7.36E0,8.3E0,9.22E0,8.482393E-2,-2.4165554E-2,3.479864E-2,2.2695208E-2,-2.2012852E-1,6.419127E-2,1.8014764E-2],"split_indices":[11,12,25,0,11,14,0,29,1,14,0,0,0,0,0,0,0],"split_type":[0,0,0,0,0,0,0,0,0,0,0,0,0,0,0,0,0],"sum_hessian":[3.27E2,2.51E2,7.6E1,2E0,2.49E2,7.4E1,2E0,2.46E2,3E0,4.9E1,2.5E1,2.14E2,3.2E1,1E0,2E0,4.8E1,1E0],"tree_param":{"num_deleted":"0","num_feature":"36","num_nodes":"17","size_leaf_vector":"1"}},{"base_weights":[-1.4376686E-3,-4.9590272E-1,8.5649264E-1,-4.153223E-1,-3.0724058E0,9.5871407E-1,-1.6737466E-1,-7.39636E-1,9.310431E-2,-1.9168375E-1,1.8348515E-2,3.9451376E-1,1.4021469E0,-1.82927E-1,-3.2991737E-2,-2.829715E-2,8.302592E-3,-1.5035614E-1,2.6008785E-2,6.1627205E-2,8.254468E-2],"categories":[],"categories_nodes":[],"categories_segments":[],"categories_sizes":[],"default_left":[0,0,0,0,0,0,0,0,0,0,0,0,0,0,0,0,0,0,0,0,0],"id":11,"left_children":[1,3,5,7,9,11,-1,13,15,-1,-1,17,19,-1,-1,-1,-1,-1,-1,-1,-1],"loss_changes":[1.3574983E2,4.0869946E1,5.3488564E1,3.2717026E1,1.7116596E1,2.8218094E1,0E0,2.5770767E1,3.8438938E0,0E0,0E0,2.3791958E1,6.6524506E-1,0E0,0E0,0E0,0E0,0E0,0E0,0E0,0E0],"parents":[2147483647,0,0,1,1,2,2,3,3,4,4,5,5,7,7,8,8,11,11,12,12],"right_children":[2,4,6,8,10,12,-1,14,16,-1,-1,18,20,-1,-1,-1,-1,-1,-1,-1,-1],"split_conditions":[7.36E0,7.31E0,9.95E0,6.74E0,1.25E3,8.64E0,-1.6737466E-1,4.95E0,1.02E2,-1.9168375E-1,1.8348515E-2,-9.9011534E-1,9.3E0,-1.82927E-1,-3.2991737E-2,-2.829715E-2,8.302592E-3,-1.5035614E-1,2.6008785E-2,6.1627205E-2,8.254468E-2],"split_indices":[29,0,25,21,4,0,0,0,31,0,0,7,2,0,0,0,0,0,0,0,0],"split_type":[0,0,0,0,0,0,0,0,0,0,0,0,0,0,0,0,0,0,0,0,0],"sum_hessian":[3.18E2,2.02E2,1.16E2,1.97E2,5E0,1.14E2,2E0,1.2E2,7.7E1,4E0,1E0,5.1E1,6.3E1,2E0,1.18E2,7E0,7E1,1E0,5E1,4.1E1,2.2E1],"tree_param":{"num_deleted":"0","num_feature":"36","num_nodes":"21","size_leaf_vector":"1"}},{"base_weights":[3.3031467E-2,-3.213283E-1,1.1656156E0,-2.7141434E-1,-2.1119872E-1,1.3283043E0,-1.617955E-1,-4.441153E-1,5.574335E-1,6.164449E-2,8.592691E-2,-1.9086406E-2,-1.7028277E-1,-1.4659724E-1,3.5702553E-2],"categories":[],"categories_nodes":[],"categories_segments":[],"categories_sizes":[],"default_left":[0,0,0,0,0,0,0,0,0,0,0,0,0,0,0],"id":12,"left_children":[1,3,5,7,-1,9,-1,11,13,-1,-1,-1,-1,-1,-1],"loss_changes":[1.2800137E2,4.6189106E1,5.872023E1,3.4744984E1,0E0,6.365509E-1,0E0,3.5652393E1,2.5046478E1,0E0,0E0,0E0,0E0,0E0,0E0],"parents":[2147483647,0,0,1,1,2,2,3,3,5,5,7,7,8,8],"right_children":[2,4,6,8,-1,10,-1,12,14,-1,-1,-1,-1,-1,-1],"split_conditions":[8.45E0,8.426E0,9.95E0,7.24E0,-2.1119872E-1,9.41E0,-1.617955E-1,7.31E0,-9.9011534E-1,6.164449E-2,8.592691E-2,-1.9086406E-2,-1.7028277E-1,-1.4659724E-1,3.5702553E-2],"split_indices":[26,8,25,27,0,2,0,2,7,0,0,0,0,0,0],"split_type":[0,0,0,0,0,0,0,0,0,0,0,0,0,0,0],"sum_hessian":[3.17E2,2.42E2,7.5E1,2.4E2,2E0,7.3E1,2E0,1.99E2,4.1E1,6.2E1,1.1E1,1.96E2,3E0,1E0,4E1],"tree_param":{"num_deleted":"0","num_feature":"36","num_nodes":"15","size_leaf_vector":"1"}},{"base_weights":[-1.2542628E-4,-3.2040805E-1,1.0897269E0,-2.7263558E-1,-2.0415874E-1,1.1696571E0,-1.1463282E-1,-6.682E-1,1.9599958E-1,-9.4275154E-2,1.266838E0,-1.7619322E-1,-2.9858006E-2,-6.468926E-2,1.2443622E-2,-1.4951156E-1,5.4148115E-2,5.8045667E-2,7.747937E-2],"categories":[],"categories_nodes":[],"categories_segments":[],"categories_sizes":[],"default_left":[0,0,0,0,0,0,0,0,0,0,0,0,0,0,0,0,0,0,0],"id":13,"left_children":[1,3,5,7,-1,9,-1,11,13,15,17,-1,-1,-1,-1,-1,-1,-1,-1],"loss_changes":[1.1065236E2,4.2927162E1,2.2147133E1,4.5177193E1,0E0,8.84037E0,0E0,2.4674038E1,9.144133E0,2.369367E1,1.7777252E-1,0E0,0E0,0E0,0E0,0E0,0E0,0E0,0E0],"parents":[2147483647,0,0,1,1,2,2,3,3,5,5,7,7,8,8,9,9,10,10],"right_children":[2,4,6,8,-1,10,-1,12,14,16,18,-1,-1,-1,-1,-1,-1,-1,-1],"split_conditions":[8.45E0,8.426E0,9.95E0,6.77E0,-2.0415874E-1,1.81E2,-1.1463282E-1,4.95E0,-9.9011534E-1,8.64E0,9.35E0,-1.7619322E-1,-2.9858006E-2,-6.468926E-2,1.2443622E-2,-1.4951156E-1,5.4148115E-2,5.8045667E-2,7.747937E-2],"split_indices":[26,8,20,3,0,35,0,0,7,0,2,0,0,0,0,0,0,0,0],"split_type":[0,0,0,0,0,0,0,0,0,0,0,0,0,0,0,0,0,0,0],"sum_hessian":[3.15E2,2.44E2,7.1E1,2.42E2,2E0,7E1,1E0,1.31E2,1.11E2,5E0,6.5E1,2E0,1.29E2,3E0,1.08E2,1E0,4E0,5.1E1,1.4E1],"tree_param":{"num_deleted":"0","num_feature":"36","num_nodes":"19","size_leaf_vector":"1"}},{"base_weights":[-2.8777871E-2,-4.5145202E-1,7.822496E-1,-3.7838617E-1,-2.884804E0,-2.2766209E0,8.892892E-1,-6.4093846E-1,1.408717E-1,-1.797627E-1,1.6686141E-2,-1.6872138E-1,2.5419975E-2,1.095253E0,1.3136218E-1,-2.6783535E-2,-1.6564369E-1,2.8362086E-3,2.2281552E-2,4.3831367E-2,6.6251785E-2,1.8760957E-2,-1.369337E-1],"categories":[],"categories_nodes":[],"categories_segments":[],"categories_sizes":[],"default_left":[0,0,0,0,0,0,0,0,0,0,0,0,0,0,0,0,0,0,0,0,0,0,0],"id":14,"left_children":[1,3,5,7,9,11,13,15,17,-1,-1,-1,-1,19,21,-1,-1,-1,-1,-1,-1,-1,-1],"loss_changes":[1.1004926E2,3.642315E1,3.8040787E1,2.8174753E1,1.4919437E1,1.3945215E1,1.655941E1,3.675921E1,1.7698542E0,0E0,0E0,0E0,0E0,3.0583038E0,1.782468E1,0E0,0E0,0E0,0E0,0E0,0E0,0E0,0E0],"parents":[2147483647,0,0,1,1,2,2,3,3,4,4,5,5,6,6,7,7,8,8,13,13,14,14],"right_children":[2,4,6,8,10,12,14,16,18,-1,-1,-1,-1,20,22,-1,-1,-1,-1,-1,-1,-1,-1],"split_conditions":[7.36E0,7.27E0,1.8E1,6.84E0,1.25E3,1.3072082E-2,2.1686558E-2,6.8E0,7.12E0,-1.797627E-1,1.6686141E-2,-1.6872138E-1,2.5419975E-2,8.99E0,8.85E0,-2.6783535E-2,-1.6564369E-1,2.8362086E-3,2.2281552E-2,4.3831367E-2,6.6251785E-2,1.8760957E-2,-1.369337E-1],"split_indices":[29,0,4,25,4,5,6,25,12,0,0,0,0,11,0,0,0,0,0,0,0,0,0],"split_type":[0,0,0,0,0,0,0,0,0,0,0,0,0,0,0,0,0,0,0,0,0,0,0],"sum_hessian":[3.19E2,2.1E2,1.09E2,2.05E2,5E0,3E0,1.06E2,1.36E2,6.9E1,4E0,1E0,2E0,1E0,8.3E1,2.3E1,1.32E2,4E0,5.5E1,1.4E1,4.5E1,3.8E1,2.2E1,1E0],"tree_param":{"num_deleted":"0","num_feature":"36","num_nodes":"23","size_leaf_vector":"1"}},{"base_weights":[-2.5908908E-2,-3.8102594E-1,6.878208E-1,-1.6942734E-1,-3.3769143E-1,7.870746E-1,-1.5407526E-1,-3.103733E-1,-1.5596019E-1,-1.3709705E-1,8.4623456E-1,-3.6027472E-2,-8.62913E-3,-5.3496983E-2,4.5621663E-2],"categories":[],"categories_nodes":[],"categories_segments":[],"categories_sizes":[],"default_left":[0,0,0,0,0,0,0,0,0,0,0,0,0,0,0],"id":15,"left_children":[1,3,5,-1,7,9,-1,11,-1,-1,13,-1,-1,-1,-1],"loss_changes":[8.314271E1,2.739786E1,4.320445E1,0E0,1.5520782E1,2.46594E1,0E0,1.2083637E1,0E0,0E0,1.4422157E1,0E0,0E0,0E0,0E0],"parents":[2147483647,0,0,1,1,2,2,4,4,5,5,7,7,10,10],"right_children":[2,4,6,-1,8,10,-1,12,-1,-1,14,-1,-1,-1,-1],"split_conditions":[7.8E0,4.95E0,9.95E0,-1.6942734E-1,5.902334E-2,9E0,-1.5407526E-1,6.02E0,-1.5596019E-1,-1.3709705E-1,1.8E1,-3.6027472E-2,-8.62913E-3,-5.3496983E-2,4.5621663E-2],"split_indices":[1,0,25,0,5,35,0,23,0,0,32,0,0,0,0],"split_type":[0,0,0,0,0,0,0,0,0,0,0,0,0,0,0],"sum_hessian":[3.26E2,2.18E2,1.08E2,2E0,2.16E2,1.06E2,2E0,2.15E2,1E0,1E0,1.05E2,5.3E1,1.62E2,3E0,1.02E2],"tree_param":{"num_deleted":"0","num_feature":"36","num_nodes":"15","size_leaf_vector":"1"}},{"base_weights":[-3.0405274E-2,-3.5781258E-1,6.215258E-1,-1.6377975E-1,-3.1293002E-1,7.223121E-1,-1.4893943E-1,-1.956877E-1,-1.1035532E0,-1.4284396E0,8.4921E-1,-6.608423E-3,-9.972723E-2,-1.2414116E-1,-2.8281553E-2,2.5788302E-2,-1.7722838E-1,2.4043208E-2,5.633982E-2],"categories":[],"categories_nodes":[],"categories_segments":[],"categories_sizes":[],"default_left":[0,0,0,0,0,0,0,0,0,0,0,0,0,0,0,0,0,0,0],"id":16,"left_children":[1,3,5,-1,7,9,-1,11,13,15,17,-1,-1,-1,-1,-1,-1,-1,-1],"loss_changes":[6.575062E1,2.5821266E1,3.9526443E1,0E0,1.8601034E1,2.8778553E1,0E0,2.0075024E1,1.7886072E1,2.6513294E1,9.273949E0,0E0,0E0,0E0,0E0,0E0,0E0,0E0,0E0],"parents":[2147483647,0,0,1,1,2,2,4,4,5,5,7,7,8,8,9,9,10,10],"right_children":[2,4,6,-1,8,10,-1,12,14,16,18,-1,-1,-1,-1,-1,-1,-1,-1],"split_conditions":[7.74E0,4.95E0,9.95E0,-1.6377975E-1,2.5598595E-2,9.4E1,-1.4893943E-1,7.34E0,2.12E2,8.29E0,8.79E0,-6.608423E-3,-9.972723E-2,-1.2414116E-1,-2.8281553E-2,2.5788302E-2,-1.7722838E-1,2.4043208E-2,5.633982E-2],"split_indices":[1,0,25,0,6,34,0,2,35,0,3,0,0,0,0,0,0,0,0],"split_type":[0,0,0,0,0,0,0,0,0,0,0,0,0,0,0,0,0,0,0],"sum_hessian":[3.06E2,2.04E2,1.02E2,2E0,2.02E2,1E2,2E0,1.77E2,2.5E1,5E0,9.5E1,1.72E2,5E0,6E0,1.9E1,3E0,2E0,4.2E1,5.3E1],"tree_param":{"num_deleted":"0","num_feature":"36","num_nodes":"19","size_leaf_vector":"1"}},{"base_weights":[-3.0658457E-2,-4.358858E-1,6.5080696E-1,-3.5628358E-1,-1.6947563E-1,7.380008E-1,-1.4397478E-1,-1.5832043E-1,-3.0979332E-1,-4.7341618E-1,8.719717E-1,-2.7257666E-2,4.905329E-3,-1.7132075E-1,2.2991255E-2,5.3653973E-3,4.8581365E-2],"categories":[],"categories_nodes":[],"categories_segments":[],"categories_sizes":[],"default_left":[0,0,0,0,0,0,0,0,0,0,0,0,0,0,0,0,0],"id":17,"left_children":[1,3,5,7,-1,9,-1,-1,11,13,15,-1,-1,-1,-1,-1,-1],"loss_changes":[8.588968E1,4.4639835E1,3.7832275E1,2.3971962E1,0E0,1.891439E1,0E0,0E0,1.8198114E1,3.4645874E1,7.744652E0,0E0,0E0,0E0,0E0,0E0,0E0],"parents":[2147483647,0,0,1,1,2,2,3,3,5,5,8,8,9,9,10,10],"right_children":[2,4,6,8,-1,10,-1,-1,12,14,16,-1,-1,-1,-1,-1,-1],"split_conditions":[7.36E0,7.31E0,9.95E0,4.95E0,-1.6947563E-1,9.4E1,-1.4397478E-1,-1.5832043E-1,6.8E0,-9.512195E-1,1.81E2,-2.7257666E-2,4.905329E-3,-1.7132075E-1,2.2991255E-2,5.3653973E-3,4.8581365E-2],"split_indices":[29,0,25,0,0,34,0,0,1,7,35,0,0,0,0,0,0],"split_type":[0,0,0,0,0,0,0,0,0,0,0,0,0,0,0,0,0],"sum_hessian":[3.09E2,1.94E2,1.15E2,1.9E2,4E0,1.13E2,2E0,2E0,1.88E2,1.1E1,1.02E2,1.19E2,6.9E1,2E0,9E0,1.2E1,9E1],"tree_param":{"num_deleted":"0","num_feature":"36","num_nodes":"17","size_leaf_vector":"1"}},{"base_weights":[1.4538853E-2,-3.1719795E-1,6.933783E-1,-1.5304308E-1,-2.778054E-1,7.8611445E-1,-1.3917562E-1,-6.544057E-1,-1.6113219E-1,9.050001E-1,-3.120903E-1,-2.2158446E-2,-1.5128231E-1,-4.348706E-3,-5.1646482E-2,3.851698E-2,5.7302E-2,-1.3659234E-1,4.6839964E-2],"categories":[],"categories_nodes":[],"categories_segments":[],"categories_sizes":[],"default_left":[0,0,0,0,0,0,0,0,0,0,0,0,0,0,0,0,0,0,0],"id":18,"left_children":[1,3,5,-1,7,9,-1,11,13,15,17,-1,-1,-1,-1,-1,-1,-1,-1],"loss_changes":[7.340865E1,2.281919E1,3.6688534E1,0E0,9.429356E0,1.3991318E1,0E0,2.4204681E1,1.0706848E1,2.2007294E0,3.5801285E1,0E0,0E0,0E0,0E0,0E0,0E0,0E0,0E0],"parents":[2147483647,0,0,1,1,2,2,4,4,5,5,7,7,8,8,9,9,10,10],"right_children":[2,4,6,-1,8,10,-1,12,14,16,18,-1,-1,-1,-1,-1,-1,-1,-1],"split_conditions":[7.8E0,4.95E0,9.95E0,-1.5304308E-1,6.02E0,2.4473239E-2,-1.3917562E-1,6.07E0,7.34E0,9.17E0,8.54E0,-2.2158446E-2,-1.5128231E-1,-4.348706E-3,-5.1646482E-2,3.851698E-2,5.7302E-2,-1.3659234E-1,4.6839964E-2],"split_indices":[1,0,25,0,23,6,0,8,2,3,18,0,0,0,0,0,0,0,0],"split_type":[0,0,0,0,0,0,0,0,0,0,0,0,0,0,0,0,0,0,0],"sum_hessian":[3.24E2,2.18E2,1.06E2,2E0,2.16E2,1.04E2,2E0,5E1,1.66E2,9.4E1,1E1,4.7E1,3E0,1.54E2,1.2E1,6.3E1,3.1E1,3E0,7E0],"tree_param":{"num_deleted":"0","num_feature":"36","num_nodes":"19","size_leaf_vector":"1"}},{"base_weights":[1.5272225E-2,-3.12003E-1,6.229327E-1,-2.4538809E-1,-2.5138059E0,7.076422E-1,-1.3453643E-1,-4.4451004E-1,1.5646444E-1,-1.6063075E-1,2.4505962E-2,-4.567078E-1,8.4162766E-1,-1.6625734E-2,-2.0286146E-1,2.7319274E-3,1.6470972E-2,-1.6397546E-1,2.1790171E-2,2.0331524E-2,4.666368E-2],"categories":[],"categories_nodes":[],"categories_segments":[],"categories_sizes":[],"default_left":[0,0,0,0,0,0,0,0,0,0,0,0,0,0,0,0,0,0,0,0,0],"id":19,"left_children":[1,3,5,7,9,11,-1,13,15,-1,-1,17,19,-1,-1,-1,-1,-1,-1,-1,-1],"loss_changes":[6.3634586E1,2.9891088E1,3.334234E1,1.6313133E1,1.4169586E1,1.7545029E1,0E0,5.3677578E1,1.179569E0,0E0,0E0,3.1661804E1,3.5672073E0,0E0,0E0,0E0,0E0,0E0,0E0,0E0,0E0],"parents":[2147483647,0,0,1,1,2,2,3,3,4,4,5,5,7,7,8,8,11,11,12,12],"right_children":[2,4,6,8,10,12,-1,14,16,-1,-1,18,20,-1,-1,-1,-1,-1,-1,-1,-1],"split_conditions":[7.36E0,7.31E0,9.8E0,6.84E0,1.25E3,9.4E1,-1.3453643E-1,6.8E0,7.1E0,-1.6063075E-1,2.4505962E-2,-9.512195E-1,8.04E0,-1.6625734E-2,-2.0286146E-1,2.7319274E-3,1.6470972E-2,-1.6397546E-1,2.1790171E-2,2.0331524E-2,4.666368E-2],"split_indices":[29,0,20,25,4,34,0,20,25,0,0,7,28,0,0,0,0,0,0,0,0],"split_type":[0,0,0,0,0,0,0,0,0,0,0,0,0,0,0,0,0,0,0,0,0],"sum_hessian":[3.18E2,2.07E2,1.11E2,2.02E2,5E0,1.09E2,2E0,1.35E2,6.7E1,4E0,1E0,1.1E1,9.8E1,1.32E2,3E0,4.3E1,2.4E1,2E0,9E0,1.8E1,8E1],"tree_param":{"num_deleted":"0","num_feature":"36","num_nodes":"21","size_leaf_vector":"1"}},{"base_weights":[-2.5876984E-2,-3.256016E-1,5.766153E-1,-1.4738744E-1,-2.871413E-1,6.1584044E-1,-8.9531444E-2,-2.6061803E-1,-1.4775185E-1,7.876675E-1,5.684697E-2,-3.0592114E-2,-6.8353466E-3,3.596643E-2,6.272267E-2,-8.830498E-2,4.1070573E-2],"categories":[],"categories_nodes":[],"categories_segments":[],"categories_sizes":[],"default_left":[0,0,0,0,0,0,0,0,0,0,0,0,0,0,0,0,0],"id":20,"left_children":[1,3,5,-1,7,9,-1,11,-1,13,15,-1,-1,-1,-1,-1,-1],"loss_changes":[5.8154488E1,2.0836021E1,1.10383E1,0E0,1.4302027E1,1.0136547E1,0E0,9.14272E0,0E0,1.6815033E0,3.7688457E1,0E0,0E0,0E0,0E0,0E0,0E0],"parents":[2147483647,0,0,1,1,2,2,4,4,5,5,7,7,9,9,10,10],"right_children":[2,4,6,-1,8,10,-1,12,-1,14,16,-1,-1,-1,-1,-1,-1],"split_conditions":[7.74E0,4.95E0,9.95E0,-1.4738744E-1,5.902334E-2,1.4795159E-2,-8.9531444E-2,6.02E0,-1.4775185E-1,9.41E0,2.2043508E-2,-3.0592114E-2,-6.8353466E-3,3.596643E-2,6.272267E-2,-8.830498E-2,4.1070573E-2],"split_indices":[1,0,20,0,5,5,0,23,0,2,5,0,0,0,0,0,0],"split_type":[0,0,0,0,0,0,0,0,0,0,0,0,0,0,0,0,0],"sum_hessian":[3.2E2,2.14E2,1.06E2,2E0,2.12E2,1.05E2,1E0,2.11E2,1E0,8E1,2.5E1,5.4E1,1.57E2,7.2E1,8E0,7E0,1.8E1],"tree_param":{"num_deleted":"0","num_feature":"36","num_nodes":"17","size_leaf_vector":"1"}},{"base_weights":[-3.177831E-2,-3.4766158E-1,4.99385E-1,-2.962997E-1,-1.3951603E-1,-1.0270051E0,5.7534075E-1,-1.4247452E-1,-2.5550035E-1,-1.4000784E-1,5.596098E-1,6.8788093E-1,-3.5192353E-1,-1.13557335E-2,-1.4405806E-1,7.561469E-3,3.226634E-2,1.945865E-2,4.584377E-2,2.8524904E-2,-1.2849984E-1],"categories":[],"categories_nodes":[],"categories_segments":[],"categories_sizes":[],"default_left":[0,0,0,0,0,0,0,0,0,0,0,0,0,0,0,0,0,0,0,0,0],"id":21,"left_children":[1,3,5,7,-1,9,11,-1,13,-1,15,17,19,-1,-1,-1,-1,-1,-1,-1,-1],"loss_changes":[5.352944E1,2.4265158E1,1.4387516E1,1.979315E1,0E0,1.8446846E1,1.2138489E1,0E0,1.3879225E1,0E0,4.2428136E-2,6.620228E0,2.806416E1,0E0,0E0,0E0,0E0,0E0,0E0,0E0,0E0],"parents":[2147483647,0,0,1,1,2,2,3,3,5,5,6,6,8,8,10,10,11,11,12,12],"right_children":[2,4,6,8,-1,10,12,-1,14,-1,16,18,20,-1,-1,-1,-1,-1,-1,-1,-1],"split_conditions":[7.24E0,7.31E0,1.8E1,4.95E0,-1.3951603E-1,1.7204678E-2,2.4473239E-2,-1.4247452E-1,3.5921E4,-1.4000784E-1,7.85E0,8.65E0,3.56E3,-1.13557335E-2,-1.4405806E-1,7.561469E-3,3.226634E-2,1.945865E-2,4.584377E-2,2.8524904E-2,-1.2849984E-1],"split_indices":[27,2,4,0,0,6,6,0,4,0,0,0,31,0,0,0,0,0,0,0,0],"split_type":[0,0,0,0,0,0,0,0,0,0,0,0,0,0,0,0,0,0,0,0,0],"sum_hessian":[3.17E2,1.99E2,1.18E2,1.96E2,3E0,5E0,1.13E2,2E0,1.94E2,2E0,3E0,1.01E2,1.2E1,1.93E2,1E0,1E0,2E0,4.5E1,5.6E1,9E0,3E0],"tree_param":{"num_deleted":"0","num_feature":"36","num_nodes":"21","size_leaf_vector":"1"}},{"base_weights":[1.6885081E-2,-1.7473787E-1,6.82008E-1,-1.3334411E-1,-1.769188E-1,7.526057E-1,-1.0826055E-1,-1.3344824E0,-6.1219513E-2,-3.651499E-1,8.428167E-1,-1.3772537E-1,-4.341347E-2,-2.8877152E-2,3.5466698E-3,-1.4915368E-1,3.7752476E-2,3.8175408E-2,6.0529687E-2],"categories":[],"categories_nodes":[],"categories_segments":[],"categories_sizes":[],"default_left":[0,0,0,0,0,0,0,0,0,0,0,0,0,0,0,0,0,0,0],"id":22,"left_children":[1,3,5,7,-1,9,-1,11,13,15,17,-1,-1,-1,-1,-1,-1,-1,-1],"loss_changes":[4.1031532E1,3.433659E1,1.6102043E1,2.1402946E1,0E0,7.466961E0,0E0,6.8768234E0,1.6075874E1,1.9847946E1,1.0007782E0,0E0,0E0,0E0,0E0,0E0,0E0,0E0,0E0],"parents":[2147483647,0,0,1,1,2,2,3,3,5,5,7,7,8,8,9,9,10,10],"right_children":[2,4,6,8,-1,10,-1,12,14,16,18,-1,-1,-1,-1,-1,-1,-1,-1],"split_conditions":[8.45E0,8.426E0,1E1,5.26E0,-1.769188E-1,1.81E2,-1.0826055E-1,5E0,2.92E2,8.79E0,9.6E0,-1.3772537E-1,-4.341347E-2,-2.8877152E-2,3.5466698E-3,-1.4915368E-1,3.7752476E-2,3.8175408E-2,6.0529687E-2],"split_indices":[26,8,19,15,0,35,0,12,35,1,1,0,0,0,0,0,0,0,0],"split_type":[0,0,0,0,0,0,0,0,0,0,0,0,0,0,0,0,0,0,0],"sum_hessian":[3.2E2,2.49E2,7.1E1,2.47E2,2E0,7E1,1E0,1.3E1,2.34E2,5E0,6.5E1,2E0,1.1E1,4.7E1,1.87E2,1E0,4E0,5.6E1,9E0],"tree_param":{"num_deleted":"0","num_feature":"36","num_nodes":"19","size_leaf_vector":"1"}},{"base_weights":[-4.541108E-2,-2.3333225E-1,5.8499247E-1,-1.781905E-1,-2.8775833E0,7.072757E-1,-1.2724017E-1,-4.228818E-1,1.2373238E-1,1.5330804E-2,-1.8751435E-1,-4.1629527E-2,8.015393E-1,-1.574905E-2,-1.9389437E-1,-6.896806E-2,8.216965E-3,3.401455E-2,-1.4542483E-1,3.6124863E-2,5.7805847E-2],"categories":[],"categories_nodes":[],"categories_segments":[],"categories_sizes":[],"default_left":[0,0,0,0,0,0,0,0,0,0,0,0,0,0,0,0,0,0,0,0,0],"id":23,"left_children":[1,3,5,7,9,11,-1,13,15,-1,-1,17,19,-1,-1,-1,-1,-1,-1,-1,-1],"loss_changes":[3.8164135E1,3.564778E1,3.0121271E1,1.8078533E1,1.5044216E1,5.1161766E0,0E0,4.910625E1,6.9406447E0,0E0,0E0,2.0605474E1,9.5840836E-1,0E0,0E0,0E0,0E0,0E0,0E0,0E0,0E0],"parents":[2147483647,0,0,1,1,2,2,3,3,4,4,5,5,7,7,8,8,11,11,12,12],"right_children":[2,4,6,8,10,12,-1,14,16,-1,-1,18,20,-1,-1,-1,-1,-1,-1,-1,-1],"split_conditions":[8.45E0,8.31E0,9.95E0,6.84E0,8.32E0,1.27E2,-1.2724017E-1,6.8E0,5E0,1.5330804E-2,-1.8751435E-1,1.2E2,9.6E0,-1.574905E-2,-1.9389437E-1,-6.896806E-2,8.216965E-3,3.401455E-2,-1.4542483E-1,3.6124863E-2,5.7805847E-2],"split_indices":[26,27,25,25,3,4,0,20,31,0,0,4,1,0,0,0,0,0,0,0,0],"split_type":[0,0,0,0,0,0,0,0,0,0,0,0,0,0,0,0,0,0,0,0,0],"sum_hessian":[3.2E2,2.47E2,7.3E1,2.43E2,4E0,7.1E1,2E0,1.34E2,1.09E2,1E0,3E0,8E0,6.3E1,1.31E2,3E0,2E0,1.07E2,7E0,1E0,5.4E1,9E0],"tree_param":{"num_deleted":"0","num_feature":"36","num_nodes":"21","size_leaf_vector":"1"}},{"base_weights":[-3.394494E-2,-2.7575582E-1,3.962312E-1,-2.142009E-1,-2.3124046E0,4.672955E-1,-1.22998826E-1,-1.3260956E-1,-1.7674732E-1,-1.4805774E-1,2.3283636E-2,-6.2600803E-1,5.660289E-1,-7.4881436E-3,-1.3934095E-1,1.4680159E-2,-1.4348178E-1,3.399461E-2,2.121092E-3],"categories":[],"categories_nodes":[],"categories_segments":[],"categories_sizes":[],"default_left":[0,0,0,0,0,0,0,0,0,0,0,0,0,0,0,0,0,0,0],"id":24,"left_children":[1,3,5,7,9,11,-1,-1,13,-1,-1,15,17,-1,-1,-1,-1,-1,-1],"loss_changes":[3.3812153E1,2.5580761E1,2.4897532E1,1.8067463E1,1.2192593E1,1.2768078E1,0E0,0E0,1.3739342E1,0E0,0E0,2.1475182E1,6.29084E0,0E0,0E0,0E0,0E0,0E0,0E0],"parents":[2147483647,0,0,1,1,2,2,3,3,4,4,5,5,8,8,11,11,12,12],"right_children":[2,4,6,8,10,12,-1,-1,14,-1,-1,16,18,-1,-1,-1,-1,-1,-1],"split_conditions":[7.36E0,7.31E0,9.95E0,4.95E0,1.25E3,9.4E1,-1.22998826E-1,-1.3260956E-1,5.902334E-2,-1.4805774E-1,2.3283636E-2,8.29E0,1.7910926E-2,-7.4881436E-3,-1.3934095E-1,1.4680159E-2,-1.4348178E-1,3.399461E-2,2.121092E-3],"split_indices":[29,0,25,0,4,34,0,0,5,0,0,0,5,0,0,0,0,0,0],"split_type":[0,0,0,0,0,0,0,0,0,0,0,0,0,0,0,0,0,0,0],"sum_hessian":[3.23E2,2.07E2,1.16E2,2.02E2,5E0,1.14E2,2E0,2E0,2E2,4E0,1E0,9E0,1.05E2,1.99E2,1E0,7E0,2E0,8.6E1,1.9E1],"tree_param":{"num_deleted":"0","num_feature":"36","num_nodes":"19","size_leaf_vector":"1"}},{"base_weights":[-1.7234579E-2,-2.6972485E-1,4.3130186E-1,-2.1023798E-1,-2.2175803E0,5.014469E-1,-1.1889886E-1,-1.2818925E-1,-1.7370091E-1,-1.4213543E-1,2.270155E-2,-3.86602E-1,6.000405E-1,-7.3566115E-3,-1.3585743E-1,-1.3869904E-1,1.8413592E-2,-3.2032086E-4,3.4004096E-2],"categories":[],"categories_nodes":[],"categories_segments":[],"categories_sizes":[],"default_left":[0,0,0,0,0,0,0,0,0,0,0,0,0,0,0,0,0,0,0],"id":25,"left_children":[1,3,5,7,9,11,-1,-1,13,-1,-1,15,17,-1,-1,-1,-1,-1,-1],"loss_changes":[3.646993E1,2.340337E1,2.4051043E1,1.6839005E1,1.1311277E1,1.0213354E1,0E0,0E0,1.3047848E1,0E0,0E0,2.2647615E1,5.0040665E0,0E0,0E0,0E0,0E0,0E0,0E0],"parents":[2147483647,0,0,1,1,2,2,3,3,4,4,5,5,8,8,11,11,12,12],"right_children":[2,4,6,8,10,12,-1,-1,14,-1,-1,16,18,-1,-1,-1,-1,-1,-1],"split_conditions":[7.36E0,7.31E0,9.95E0,4.95E0,1.25E3,9.4E1,-1.1889886E-1,-1.2818925E-1,5.902334E-2,-1.4213543E-1,2.270155E-2,-9.512195E-1,1.81E2,-7.3566115E-3,-1.3585743E-1,-1.3869904E-1,1.8413592E-2,-3.2032086E-4,3.4004096E-2],"split_indices":[29,0,25,0,4,34,0,0,5,0,0,7,35,0,0,0,0,0,0],"split_type":[0,0,0,0,0,0,0,0,0,0,0,0,0,0,0,0,0,0,0],"sum_hessian":[3.2E2,2.05E2,1.15E2,2E2,5E0,1.13E2,2E0,2E0,1.98E2,4E0,1E0,1.1E1,1.02E2,1.97E2,1E0,2E0,9E0,1.2E1,9E1],"tree_param":{"num_deleted":"0","num_feature":"36","num_nodes":"19","size_leaf_vector":"1"}},{"base_weights":[-3.817246E-2,-6.063636E-1,1.14091985E-1,-3.777454E-1,-3.4114037E0,1.4236309E-1,-1.1493557E-1,-1.2391626E-1,-2.7001178E-1,2.9934646E-4,-2.1336241E-1,-1.8072784E-2,6.915397E-1,-3.9391078E-2,-6.4990497E-3,1.3588256E-3,-1.0984166E-1,2.9207338E-2,4.8983242E-2],"categories":[],"categories_nodes":[],"categories_segments":[],"categories_sizes":[],"default_left":[0,0,0,0,0,0,0,0,0,0,0,0,0,0,0,0,0,0,0],"id":26,"left_children":[1,3,5,7,9,11,-1,-1,13,-1,-1,15,17,-1,-1,-1,-1,-1,-1],"loss_changes":[2.7840593E1,4.231861E1,1.7653255E1,1.38142185E1,1.4649319E1,2.2215618E1,0E0,0E0,4.393176E0,0E0,0E0,1.9382828E1,1.1914616E0,0E0,0E0,0E0,0E0,0E0,0E0],"parents":[2147483647,0,0,1,1,2,2,3,3,4,4,5,5,8,8,11,11,12,12],"right_children":[2,4,6,8,10,12,-1,-1,14,-1,-1,16,18,-1,-1,-1,-1,-1,-1],"split_conditions":[6.03E0,6.1E0,9.95E0,4.95E0,6.02E0,8.776E0,-1.1493557E-1,-1.2391626E-1,5.41E0,2.9934646E-4,-2.1336241E-1,8.758E0,9.31E0,-3.9391078E-2,-6.4990497E-3,1.3588256E-3,-1.0984166E-1,2.9207338E-2,4.8983242E-2],"split_indices":[13,26,25,0,0,8,0,0,3,0,0,8,30,0,0,0,0,0,0],"split_type":[0,0,0,0,0,0,0,0,0,0,0,0,0,0,0,0,0,0,0],"sum_hessian":[3.2E2,6.7E1,2.53E2,6.3E1,4E0,2.51E2,2E0,2E0,6.1E1,1E0,3E0,1.95E2,5.6E1,1.2E1,4.9E1,1.92E2,3E0,4.3E1,1.3E1],"tree_param":{"num_deleted":"0","num_feature":"36","num_nodes":"19","size_leaf_vector":"1"}},{"base_weights":[-4.8863746E-2,-1.8895076E-1,5.3938603E-1,-1.546478E-1,-1.5380111E-1,6.6846997E-1,-1.11104384E-1,-3.9410713E-1,8.786663E-2,5.757685E-1,5.1453527E-2,-1.6080298E-2,-1.0711576E-1,-2.6013765E-2,9.881955E-3,2.0552159E-3,2.9292056E-2],"categories":[],"categories_nodes":[],"categories_segments":[],"categories_sizes":[],"default_left":[0,0,0,0,0,0,0,0,0,0,0,0,0,0,0,0,0],"id":27,"left_children":[1,3,5,7,-1,9,-1,11,13,15,-1,-1,-1,-1,-1,-1,-1],"loss_changes":[2.6554293E1,2.5273428E1,2.3586033E1,1.5017292E1,0E0,1.413187E0,0E0,1.5788143E1,8.71451E0,2.4519539E-1,0E0,0E0,0E0,0E0,0E0,0E0,0E0],"parents":[2147483647,0,0,1,1,2,2,3,3,5,5,7,7,8,8,9,9],"right_children":[2,4,6,8,-1,10,-1,12,14,16,-1,-1,-1,-1,-1,-1,-1],"split_conditions":[8.776E0,8.758E0,9.95E0,6.61E0,-1.5380111E-1,9.6E0,-1.11104384E-1,6.81E0,1.02E2,2.236068E-2,5.1453527E-2,-1.6080298E-2,-1.0711576E-1,-2.6013765E-2,9.881955E-3,2.0552159E-3,2.9292056E-2],"split_indices":[8,8,25,26,0,1,0,13,4,10,0,0,0,0,0,0,0],"split_type":[0,0,0,0,0,0,0,0,0,0,0,0,0,0,0,0,0],"sum_hessian":[3.2E2,2.59E2,6.1E1,2.57E2,2E0,5.9E1,2E0,1.29E2,1.28E2,4.9E1,1E1,1.25E2,4E0,1.9E1,1.09E2,1E0,4.8E1],"tree_param":{"num_deleted":"0","num_feature":"36","num_nodes":"17","size_leaf_vector":"1"}},{"base_weights":[-1.3438277E-2,-1.8068007E-1,5.8165663E-1,-1.4413576E-1,-1.5646341E-1,-3.9701286E-1,6.630468E-1,-1.1777338E0,-8.1680596E-2,-1.3524316E-1,3.027649E-2,5.803176E-1,4.4006754E-2,-1.1924972E-1,-3.8888715E-2,-3.0137901E-3,-1.2672493E-1,3.7272748E-2,2.542759E-2],"categories":[],"categories_nodes":[],"categories_segments":[],"categories_sizes":[],"default_left":[0,0,0,0,0,0,0,0,0,0,0,0,0,0,0,0,0,0,0],"id":28,"left_children":[1,3,5,7,-1,9,11,13,15,-1,-1,17,-1,-1,-1,-1,-1,-1,-1],"loss_changes":[3.175396E1,2.6379734E1,5.8390236E0,1.5848524E1,0E0,1.5520185E1,6.566124E-1,4.9049892E0,1.2132711E1,0E0,0E0,2.1345901E-1,0E0,0E0,0E0,0E0,0E0,0E0,0E0],"parents":[2147483647,0,0,1,1,2,2,3,3,5,5,6,6,7,7,8,8,11,11],"right_children":[2,4,6,8,-1,10,12,14,16,-1,-1,18,-1,-1,-1,-1,-1,-1,-1],"split_conditions":[8.45E0,8.426E0,1.81E2,5.41E0,-1.5646341E-1,8.79E0,9.35E0,5E0,5.902334E-2,-1.3524316E-1,3.027649E-2,8.784E0,4.4006754E-2,-1.1924972E-1,-3.8888715E-2,-3.0137901E-3,-1.2672493E-1,3.7272748E-2,2.542759E-2],"split_indices":[26,8,35,3,0,1,20,12,5,0,0,8,0,0,0,0,0,0,0],"split_type":[0,0,0,0,0,0,0,0,0,0,0,0,0,0,0,0,0,0,0],"sum_hessian":[3.17E2,2.48E2,6.9E1,2.46E2,2E0,5E0,6.4E1,1.3E1,2.33E2,1E0,4E0,4.9E1,1.5E1,2E0,1.1E1,2.32E2,1E0,1.2E1,3.7E1],"tree_param":{"num_deleted":"0","num_feature":"36","num_nodes":"19","size_leaf_vector":"1"}},{"base_weights":[-2.2964695E-2,-2.2479647E-1,3.8646454E-1,-1.9463703E-2,-4.598431E-1,4.5473555E-1,-1.0886779E-1,7.582636E-3,-8.027329E-2,-1.5656363E0,-3.7530294E-1,-6.279943E-1,5.368066E-1,-8.759231E-3,1.065302E-2,6.5912725E-3,-1.4358445E-1,-1.6386518E-2,-1.2355681E-1,2.144013E-2,-1.2661283E-1,5.683142E-3,3.0507088E-2],"categories":[],"categories_nodes":[],"categories_segments":[],"categories_sizes":[],"default_left":[0,0,0,0,0,0,0,0,0,0,0,0,0,0,0,0,0,0,0,0,0,0,0],"id":29,"left_children":[1,3,5,7,9,11,-1,13,-1,15,17,19,21,-1,-1,-1,-1,-1,-1,-1,-1,-1,-1],"loss_changes":[2.7274063E1,1.0657124E1,2.0068886E1,5.116744E0,9.041256E0,9.845211E0,0E0,4.4687686E0,0E0,1.5897379E1,8.8614435E0,1.7185184E1,3.033783E0,0E0,0E0,0E0,0E0,0E0,0E0,0E0,0E0,0E0,0E0],"parents":[2147483647,0,0,1,1,2,2,3,3,4,4,5,5,7,7,9,9,10,10,11,11,12,12],"right_children":[2,4,6,8,10,12,-1,14,-1,16,18,20,22,-1,-1,-1,-1,-1,-1,-1,-1,-1,-1],"split_conditions":[7.8E0,1.9100761E-2,9.95E0,7.388E0,2.1E1,9.4E1,-1.0886779E-1,6.56E0,-8.027329E-2,6.23E2,5.902334E-2,1.7144836E-2,1.89E2,-8.759231E-3,1.065302E-2,6.5912725E-3,-1.4358445E-1,-1.6386518E-2,-1.2355681E-1,2.144013E-2,-1.2661283E-1,5.683142E-3,3.0507088E-2],"split_indices":[1,6,25,8,32,34,0,19,0,33,5,6,4,0,0,0,0,0,0,0,0,0,0],"split_type":[0,0,0,0,0,0,0,0,0,0,0,0,0,0,0,0,0,0,0,0,0,0,0],"sum_hessian":[3.28E2,2.2E2,1.08E2,1.18E2,1.02E2,1.06E2,2E0,1.17E2,1E0,6E0,9.6E1,7E0,9.9E1,6.2E1,5.5E1,3E0,3E0,9.5E1,1E0,5E0,2E0,1.5E1,8.4E1],"tree_param":{"num_deleted":"0","num_feature":"36","num_nodes":"23","size_leaf_vector":"1"}},{"base_weights":[-5.155948E-2,-3.7615815E-1,1.7885205E-1,-2.726379E-1,-1.8362033E-1,-6.3437276E-4,4.1817513E-1,-1.9037333E-1,-2.3076305E0,1.1866059E-1,-7.561268E-1,-2.274088E-1,5.123054E-1,-6.520045E-2,-4.2022713E-3,-1.6323019E-2,-1.7597952E-1,-6.0116645E-2,7.999868E-3,-1.5901075E-1,5.7456554E-3,1.6248064E-2,-1.4377774E-1,3.6820532E-3,2.8739735E-2],"categories":[],"categories_nodes":[],"categories_segments":[],"categories_sizes":[],"default_left":[0,0,0,0,0,0,0,0,0,0,0,0,0,0,0,0,0,0,0,0,0,0,0,0,0],"id":30,"left_children":[1,3,5,7,-1,9,11,13,15,17,19,21,23,-1,-1,-1,-1,-1,-1,-1,-1,-1,-1,-1,-1],"loss_changes":[2.4150066E1,4.4723373E1,8.118807E0,2.1491108E1,0E0,9.913505E0,5.038789E0,1.4928542E1,1.0856487E1,5.3799024E0,3.203761E1,1.7024765E1,1.9039135E0,0E0,0E0,0E0,0E0,0E0,0E0,0E0,0E0,0E0,0E0,0E0,0E0],"parents":[2147483647,0,0,1,1,2,2,3,3,5,5,6,6,7,7,8,8,9,9,10,10,11,11,12,12],"right_children":[2,4,6,8,-1,10,12,14,16,18,20,22,24,-1,-1,-1,-1,-1,-1,-1,-1,-1,-1,-1,-1],"split_conditions":[6.84E0,6.8E0,2.399E3,2.2398661E-1,-1.8362033E-1,4.239E3,7.3E2,6.5E1,6.19E0,5E0,1.81E2,4.338E3,7.28E0,-6.520045E-2,-4.2022713E-3,-1.6323019E-2,-1.7597952E-1,-6.0116645E-2,7.999868E-3,-1.5901075E-1,5.7456554E-3,1.6248064E-2,-1.4377774E-1,3.6820532E-3,2.8739735E-2],"split_indices":[25,20,4,10,0,32,32,32,0,31,35,31,21,0,0,0,0,0,0,0,0,0,0,0,0],"split_type":[0,0,0,0,0,0,0,0,0,0,0,0,0,0,0,0,0,0,0,0,0,0,0,0,0],"sum_hessian":[3.21E2,1.33E2,1.88E2,1.3E2,3E0,1.08E2,8E1,1.26E2,4E0,9.4E1,1.4E1,1E1,7E1,1E1,1.16E2,2E0,2E0,2E0,9.2E1,3E0,1.1E1,9E0,1E0,9E0,6.1E1],"tree_param":{"num_deleted":"0","num_feature":"36","num_nodes":"25","size_leaf_vector":"1"}},{"base_weights":[-3.874637E-2,-3.5093924E-1,1.4005026E-1,-2.3585856E-1,-2.927607E0,1.721288E-1,-1.0546795E-1,-1.13571785E-1,-1.7972945E-1,5.979884E-3,-1.8596539E-1,-1.01213105E-1,4.1160184E-1,-3.1277824E-2,-2.9422625E-3,-1.0813937E-2,2.9820506E-2,-4.031194E-2,2.2664092E-2],"categories":[],"categories_nodes":[],"categories_segments":[],"categories_sizes":[],"default_left":[0,0,0,0,0,0,0,0,0,0,0,0,0,0,0,0,0,0,0],"id":31,"left_children":[1,3,5,7,9,11,-1,-1,13,-1,-1,15,17,-1,-1,-1,-1,-1,-1],"loss_changes":[1.8246153E1,3.459594E1,1.5371895E1,1.2731098E1,1.2507187E1,1.3526011E1,0E0,0E0,6.053148E0,0E0,0E0,7.9154186E0,5.949009E0,0E0,0E0,0E0,0E0,0E0,0E0],"parents":[2147483647,0,0,1,1,2,2,3,3,4,4,5,5,8,8,11,11,12,12],"right_children":[2,4,6,8,10,12,-1,-1,14,-1,-1,16,18,-1,-1,-1,-1,-1,-1],"split_conditions":[6.45E0,6.32E0,9.95E0,4.95E0,6.38E0,1.32E3,-1.0546795E-1,-1.13571785E-1,5.82E0,5.979884E-3,-1.8596539E-1,8.64E0,1.8E1,-3.1277824E-2,-2.9422625E-3,-1.0813937E-2,2.9820506E-2,-4.031194E-2,2.2664092E-2],"split_indices":[0,0,25,0,3,35,0,0,20,0,0,0,32,0,0,0,0,0,0],"split_type":[0,0,0,0,0,0,0,0,0,0,0,0,0,0,0,0,0,0,0],"sum_hessian":[3.25E2,1.18E2,2.07E2,1.14E2,4E0,2.05E2,2E0,2E0,1.12E2,1E0,3E0,9.6E1,1.09E2,2.3E1,8.9E1,8.3E1,1.3E1,3E0,1.06E2],"tree_param":{"num_deleted":"0","num_feature":"36","num_nodes":"19","size_leaf_vector":"1"}},{"base_weights":[-5.6780096E-2,-3.5007894E-1,1.425926E-1,-2.627649E-1,-1.6596866E0,1.7611264E-1,-1.0195235E-1,-1.09786056E-1,-2.130794E-1,-2.8868732E0,1.4460916E-2,-4.640338E-1,2.797965E-1,-1.6054083E-3,-3.0613804E-2,-1.832548E-1,5.650437E-3,6.5984116E-3,-9.480174E-2,5.2062124E-3,2.7086366E-2],"categories":[],"categories_nodes":[],"categories_segments":[],"categories_sizes":[],"default_left":[0,0,0,0,0,0,0,0,0,0,0,0,0,0,0,0,0,0,0,0,0],"id":32,"left_children":[1,3,5,7,9,11,-1,-1,13,15,-1,17,19,-1,-1,-1,-1,-1,-1,-1,-1],"loss_changes":[1.8937595E1,1.4543367E1,1.4472928E1,1.1441091E1,1.9968294E1,1.2807054E1,0E0,0E0,8.794001E0,1.208707E1,0E0,2.3294056E1,7.535901E0,0E0,0E0,0E0,0E0,0E0,0E0,0E0,0E0],"parents":[2147483647,0,0,1,1,2,2,3,3,4,4,5,5,8,8,9,9,11,11,12,12],"right_children":[2,4,6,8,10,12,-1,-1,14,16,-1,18,20,-1,-1,-1,-1,-1,-1,-1,-1],"split_conditions":[6.61E0,6.63E0,9.95E0,4.95E0,6.83E0,1.81E2,-1.0195235E-1,-1.09786056E-1,2.263081E-2,6.8E0,1.4460916E-2,1.612E3,8.45E0,-1.6054083E-3,-3.0613804E-2,-1.832548E-1,5.650437E-3,6.5984116E-3,-9.480174E-2,5.2062124E-3,2.7086366E-2],"split_indices":[26,16,25,0,18,35,0,0,6,0,0,32,26,0,0,0,0,0,0,0,0],"split_type":[0,0,0,0,0,0,0,0,0,0,0,0,0,0,0,0,0,0,0,0,0],"sum_hessian":[3.22E2,1.3E2,1.92E2,1.23E2,7E0,1.9E2,2E0,2E0,1.21E2,4E0,3E0,2.6E1,1.64E2,8.4E1,3.7E1,3E0,1E0,1.9E1,7E0,9.9E1,6.5E1],"tree_param":{"num_deleted":"0","num_feature":"36","num_nodes":"21","size_leaf_vector":"1"}},{"base_weights":[-6.549344E-2,-3.6095464E-1,1.3285485E-1,-2.9130343E-1,-2.4473166E0,1.655477E-1,-9.855394E-2,-1.06126525E-1,-2.4427103E-1,5.0387386E-4,-1.6349036E-1,-4.0059224E-1,2.6237714E-1,-8.737321E-3,-6.857147E-2,-7.490111E-2,9.904315E-3,1.8019125E-2,-7.351582E-3],"categories":[],"categories_nodes":[],"categories_segments":[],"categories_sizes":[],"default_left":[0,0,0,0,0,0,0,0,0,0,0,0,0,0,0,0,0,0,0],"id":33,"left_children":[1,3,5,7,9,11,-1,-1,13,-1,-1,15,17,-1,-1,-1,-1,-1,-1],"loss_changes":[1.8684097E1,1.7887749E1,1.3463968E1,1.02474E1,8.117683E0,1.04659E1,0E0,0E0,9.399271E0,0E0,0E0,1.8692955E1,6.5531187E0,0E0,0E0,0E0,0E0,0E0,0E0],"parents":[2147483647,0,0,1,1,2,2,3,3,4,4,5,5,8,8,11,11,12,12],"right_children":[2,4,6,8,10,12,-1,-1,14,-1,-1,16,18,-1,-1,-1,-1,-1,-1],"split_conditions":[6.8E0,6.7E0,9.95E0,4.95E0,6.6E0,1.27E2,-9.855394E-2,-1.06126525E-1,2.2376327E-1,5.0387386E-4,-1.6349036E-1,1.81E2,2.1123646E-2,-8.737321E-3,-6.857147E-2,-7.490111E-2,9.904315E-3,1.8019125E-2,-7.351582E-3],"split_indices":[1,0,25,0,2,4,0,0,10,0,0,35,6,0,0,0,0,0,0],"split_type":[0,0,0,0,0,0,0,0,0,0,0,0,0,0,0,0,0,0,0],"sum_hessian":[3.17E2,1.27E2,1.9E2,1.24E2,3E0,1.88E2,2E0,2E0,1.22E2,1E0,2E0,2.7E1,1.61E2,1.16E2,6E0,9E0,1.8E1,1.3E2,3.1E1],"tree_param":{"num_deleted":"0","num_feature":"36","num_nodes":"19","size_leaf_vector":"1"}},{"base_weights":[-4.086564E-2,-5.120928E-1,6.973786E-2,-1.4720876E0,-2.4142563E-1,-2.596134E-1,2.3496868E-1,-2.8541577E0,-2.5152406E-1,-5.2810572E-2,-1.3386266E0,-1.518496E-1,-1.5952311E-1,2.5553846E-1,-8.154734E-2,8.7131263E-4,-1.7159799E-1,1.2601159E-2,-9.440886E-2,6.6512595E-3,-4.2962033E-2,1.1205388E-3,-1.5804069E-1,-4.1646983E-2,-2.427723E-3,-2.03995E-3,2.046816E-2],"categories":[],"categories_nodes":[],"categories_segments":[],"categories_sizes":[],"default_left":[0,0,0,0,0,0,0,0,0,0,0,0,0,0,0,0,0,0,0,0,0,0,0,0,0,0,0],"id":34,"left_children":[1,3,5,7,9,11,13,15,17,19,21,23,-1,25,-1,-1,-1,-1,-1,-1,-1,-1,-1,-1,-1,-1,-1],"loss_changes":[1.6453316E1,1.5234944E1,1.3992259E1,2.1211872E1,9.862842E0,2.6677721E1,6.9800014E0,1.0015041E1,7.0689216E0,6.40857E0,1.743129E1,5.869234E0,0E0,7.7659883E0,0E0,0E0,0E0,0E0,0E0,0E0,0E0,0E0,0E0,0E0,0E0,0E0,0E0],"parents":[2147483647,0,0,1,1,2,2,3,3,4,4,5,5,6,6,7,7,8,8,9,9,10,10,11,11,13,13],"right_children":[2,4,6,8,10,12,14,16,18,20,22,24,-1,26,-1,-1,-1,-1,-1,-1,-1,-1,-1,-1,-1,-1,-1],"split_conditions":[3.45E2,1.12E2,6.42E0,6.81E0,2.53E2,6.38E0,9.93E0,1.3962471E-2,7.78E0,4.427E3,6.73E0,5.41E0,-1.5952311E-1,9.47E2,-8.154734E-2,8.7131263E-4,-1.7159799E-1,1.2601159E-2,-9.440886E-2,6.6512595E-3,-4.2962033E-2,1.1205388E-3,-1.5804069E-1,-4.1646983E-2,-2.427723E-3,-2.03995E-3,2.046816E-2],"split_indices":[35,34,1,20,35,3,13,6,1,32,14,3,0,32,0,0,0,0,0,0,0,0,0,0,0,0,0],"split_type":[0,0,0,0,0,0,0,0,0,0,0,0,0,0,0,0,0,0,0,0,0,0,0,0,0,0,0],"sum_hessian":[3.14E2,5.9E1,2.55E2,1.2E1,4.7E1,8.5E1,1.7E2,5E0,7E0,4.1E1,6E0,8.3E1,2E0,1.69E2,1E0,1E0,4E0,6E0,1E0,3.4E1,7E0,4E0,2E0,1E1,7.3E1,5.8E1,1.11E2],"tree_param":{"num_deleted":"0","num_feature":"36","num_nodes":"27","size_leaf_vector":"1"}},{"base_weights":[-2.6660891E-2,-4.0997535E-1,9.138996E-2,-2.5482565E-1,-1.9029045E0,1.1512597E-1,-9.387569E-2,-9.903489E-2,-1.749368E-1,2.7081108E-1,-1.800447E-1,4.038526E-3,4.652654E-1,-2.9097674E-2,-3.4075943E-3,3.6712568E-3,2.1574223E-2,2.3902827E-3,-1.3481401E-1,1.8211681E-2,3.467239E-2],"categories":[],"categories_nodes":[],"categories_segments":[],"categories_sizes":[],"default_left":[0,0,0,0,0,0,0,0,0,0,0,0,0,0,0,0,0,0,0,0,0],"id":35,"left_children":[1,3,5,7,9,11,-1,-1,13,15,-1,17,19,-1,-1,-1,-1,-1,-1,-1,-1],"loss_changes":[1.4608161E1,1.7118782E1,1.1759426E1,9.30496E0,2.6811785E1,9.527663E0,0E0,0E0,2.9158397E0,9.5176846E-2,0E0,2.222953E1,1.1075897E0,0E0,0E0,0E0,0E0,0E0,0E0,0E0,0E0],"parents":[2147483647,0,0,1,1,2,2,3,3,4,4,5,5,8,8,9,9,11,11,12,12],"right_children":[2,4,6,8,10,12,-1,-1,14,16,-1,18,20,-1,-1,-1,-1,-1,-1,-1,-1],"split_conditions":[6.06E0,6.08E0,9.8E0,4.95E0,2.1377241E-2,8.79E0,-9.387569E-2,-9.903489E-2,5.41E0,6.2E0,-1.800447E-1,8.8E0,9.47E0,-2.9097674E-2,-3.4075943E-3,3.6712568E-3,2.1574223E-2,2.3902827E-3,-1.3481401E-1,1.8211681E-2,3.467239E-2],"split_indices":[13,9,20,0,6,11,0,0,3,0,0,21,1,0,0,0,0,0,0,0,0],"split_type":[0,0,0,0,0,0,0,0,0,0,0,0,0,0,0,0,0,0,0,0,0],"sum_hessian":[3.21E2,7.5E1,2.46E2,6.9E1,6E0,2.44E2,2E0,2E0,6.7E1,3E0,3E0,1.86E2,5.8E1,1.3E1,5.4E1,2E0,1E0,1.84E2,2E0,4.2E1,1.6E1],"tree_param":{"num_deleted":"0","num_feature":"36","num_nodes":"21","size_leaf_vector":"1"}},{"base_weights":[-1.838351E-2,-2.898221E-1,1.6691253E-1,-9.4502395E-1,-1.6325398E-1,1.9732629E-1,-9.074651E-2,-1.24176264E-1,-2.2633796E0,-1.2832044E-1,-1.0014856E-1,8.553179E-2,5.172751E-1,-6.869735E-2,3.8824081E-3,-1.5091078E-1,3.7646296E-5,-3.6695104E-2,-1.9797012E-3,1.0986671E-2,-1.1961381E-2,2.0776145E-2,3.9819203E-2],"categories":[],"categories_nodes":[],"categories_segments":[],"categories_sizes":[],"default_left":[0,0,0,0,0,0,0,0,0,0,0,0,0,0,0,0,0,0,0,0,0,0,0],"id":36,"left_children":[1,3,5,7,9,11,-1,13,15,17,-1,19,21,-1,-1,-1,-1,-1,-1,-1,-1,-1,-1],"loss_changes":[1.6243845E1,1.0709247E1,1.193099E1,2.2444494E1,6.8767056E0,6.751773E0,0E0,3.637964E0,1.3674664E1,5.881361E0,0E0,6.2413864E0,1.0606823E0,0E0,0E0,0E0,0E0,0E0,0E0,0E0,0E0,0E0,0E0],"parents":[2147483647,0,0,1,1,2,2,3,3,4,4,5,5,7,7,8,8,9,9,11,11,12,12],"right_children":[2,4,6,8,10,12,-1,14,16,18,-1,20,22,-1,-1,-1,-1,-1,-1,-1,-1,-1,-1],"split_conditions":[6.65E0,2.01E2,9.95E0,6.05E0,5.902334E-2,9.02E0,-9.074651E-2,4.94E0,6.8E0,5.51E0,-1.0014856E-1,1.1527505E-2,9.41E0,-6.869735E-2,3.8824081E-3,-1.5091078E-1,3.7646296E-5,-3.6695104E-2,-1.9797012E-3,1.0986671E-2,-1.1961381E-2,2.0776145E-2,3.9819203E-2],"split_indices":[26,32,25,29,5,21,0,0,1,0,0,5,2,0,0,0,0,0,0,0,0,0,0],"split_type":[0,0,0,0,0,0,0,0,0,0,0,0,0,0,0,0,0,0,0,0,0,0,0],"sum_hessian":[3.21E2,1.3E2,1.91E2,2E1,1.1E2,1.89E2,2E0,1.3E1,7E0,1.09E2,1E0,1.41E2,4.8E1,1E0,1.2E1,5E0,2E0,1.3E1,9.6E1,1E2,4.1E1,3.7E1,1.1E1],"tree_param":{"num_deleted":"0","num_feature":"36","num_nodes":"23","size_leaf_vector":"1"}},{"base_weights":[-4.354534E-2,6.332906E-2,-4.2614433E-1,-3.2097653E-1,1.8573384E-1,-5.679667E-1,4.8158664E-1,-5.886451E-1,2.5717634E-1,-2.5603535E-2,3.8654995E-1,-4.4099694E-1,-1.4378585E-1,6.081296E-1,-1.6390165E-2,-1.45157175E-2,-1.369115E-1,1.0936236E-3,2.2385463E-2,4.6501774E-4,-8.179163E-2,2.1070939E-2,-7.489311E-2,-4.415969E-2,-4.493795E-3,5.5218935E-3,3.317258E-2,-2.7008534E-3,1.4715911E-3],"categories":[],"categories_nodes":[],"categories_segments":[],"categories_sizes":[],"default_left":[0,0,0,0,0,0,0,0,0,0,0,0,0,0,0,0,0,0,0,0,0,0,0,0,0,0,0,0,0],"id":37,"left_children":[1,3,5,7,9,11,13,15,17,19,21,23,-1,25,27,-1,-1,-1,-1,-1,-1,-1,-1,-1,-1,-1,-1,-1,-1],"loss_changes":[1.3111799E1,1.1866867E1,9.285088E0,9.591339E0,8.115927E0,1.6605703E1,6.4012194E-1,2.6139118E1,8.868704E-1,5.298321E0,7.070533E0,9.081235E0,0E0,1.4699626E-1,6.7622387E-3,0E0,0E0,0E0,0E0,0E0,0E0,0E0,0E0,0E0,0E0,0E0,0E0,0E0,0E0],"parents":[2147483647,0,0,1,1,2,2,3,3,4,4,5,5,6,6,7,7,8,8,9,9,10,10,11,11,13,13,14,14],"right_children":[2,4,6,8,10,12,14,16,18,20,22,24,-1,26,28,-1,-1,-1,-1,-1,-1,-1,-1,-1,-1,-1,-1,-1,-1],"split_conditions":[2.2689154E-2,5.65E2,8.45E0,1.787E3,6.98E0,8.31E0,8.836E0,7.74E0,6.81E0,7.02E0,9.93E0,6.03E0,-1.4378585E-1,8.37E0,8.71E0,-1.45157175E-2,-1.369115E-1,1.0936236E-3,2.2385463E-2,4.6501774E-4,-8.179163E-2,2.1070939E-2,-7.489311E-2,-4.415969E-2,-4.493795E-3,5.5218935E-3,3.317258E-2,-2.7008534E-3,1.4715911E-3],"split_indices":[6,35,26,31,26,3,8,0,13,0,13,13,0,0,0,0,0,0,0,0,0,0,0,0,0,0,0,0,0],"split_type":[0,0,0,0,0,0,0,0,0,0,0,0,0,0,0,0,0,0,0,0,0,0,0,0,0,0,0,0,0],"sum_hessian":[3.19E2,2.5E2,6.9E1,6E1,1.9E2,6E1,9E0,4.1E1,1.9E1,9.3E1,9.7E1,5.8E1,2E0,7E0,2E0,3.7E1,4E0,9E0,1E1,9.2E1,1E0,9.6E1,1E0,2.5E1,3.3E1,1E0,6E0,1E0,1E0],"tree_param":{"num_deleted":"0","num_feature":"36","num_nodes":"29","size_leaf_vector":"1"}},{"base_weights":[-4.872418E-2,-1.9636403E-1,2.1897489E-1,-1.6568278E-1,-1.1290711E-1,-9.4435416E-2,2.725194E-1,-9.299927E-2,-1.4020419E-1,3.0077913E-1,-7.3020786E-2,-2.670969E-2,-2.6814383E-3,1.853391E-2,-9.030326E-3],"categories":[],"categories_nodes":[],"categories_segments":[],"categories_sizes":[],"default_left":[0,0,0,0,0,0,0,0,0,0,0,0,0,0,0],"id":38,"left_children":[1,3,5,7,-1,-1,9,-1,11,13,-1,-1,-1,-1,-1],"loss_changes":[1.2887991E1,1.2910028E1,1.3605875E1,8.71826E0,0E0,0E0,6.022105E0,0E0,6.9979744E0,3.869216E0,0E0,0E0,0E0,0E0,0E0],"parents":[2147483647,0,0,1,1,2,2,3,3,6,6,8,8,9,9],"right_children":[2,4,6,8,-1,-1,10,-1,12,14,-1,-1,-1,-1,-1],"split_conditions":[7.53E0,7.4E0,-9.9011534E-1,5E0,-1.1290711E-1,-9.4435416E-2,9.98E0,-9.299927E-2,2.92E2,2.4473239E-2,-7.3020786E-2,-2.670969E-2,-2.6814383E-3,1.853391E-2,-9.030326E-3],"split_indices":[15,18,7,12,0,0,13,0,35,6,0,0,0,0,0],"split_type":[0,0,0,0,0,0,0,0,0,0,0,0,0,0,0],"sum_hessian":[3.24E2,2.09E2,1.15E2,2.07E2,2E0,2E0,1.13E2,2E0,2.05E2,1.12E2,1E0,3.6E1,1.69E2,9.8E1,1.4E1],"tree_param":{"num_deleted":"0","num_feature":"36","num_nodes":"15","size_leaf_vector":"1"}},{"base_weights":[-1.3170722E-2,9.3801625E-2,-4.089315E-1,1.1441805E-1,-8.140062E-2,-5.4525805E-1,5.302016E-1,-4.2394612E-2,3.8198242E-1,-3.7856972E-1,-2.269778E0,4.3873787E-3,3.2204084E-2,7.720455E-4,-1.1220024E-1,-8.60257E-2,2.1223014E-2,-1.15100015E-2,-9.0811335E-2,-1.489748E-1,1.4227343E-2],"categories":[],"categories_nodes":[],"categories_segments":[],"categories_sizes":[],"default_left":[0,0,0,0,0,0,0,0,0,0,0,0,0,0,0,0,0,0,0,0,0],"id":39,"left_children":[1,3,5,7,-1,9,11,13,15,17,19,-1,-1,-1,-1,-1,-1,-1,-1,-1,-1],"loss_changes":[1.3331692E1,8.989689E0,8.867024E0,1.0337734E1,0E0,1.6100716E1,3.9696383E-1,1.9898327E1,8.857463E0,1.13136635E1,9.912056E0,0E0,0E0,0E0,0E0,0E0,0E0,0E0,0E0,0E0,0E0],"parents":[2147483647,0,0,1,1,2,2,3,3,5,5,6,6,7,7,8,8,9,9,10,10],"right_children":[2,4,6,8,-1,10,12,14,16,18,20,-1,-1,-1,-1,-1,-1,-1,-1,-1,-1],"split_conditions":[2.2689154E-2,9.95E0,8.45E0,7.47E0,-8.140062E-2,7.84E0,1.6733201E-1,7.31E0,1.8E1,2.2398661E-1,1.5052223E0,4.3873787E-3,3.2204084E-2,7.720455E-4,-1.1220024E-1,-8.60257E-2,2.1223014E-2,-1.15100015E-2,-9.0811335E-2,-1.489748E-1,1.4227343E-2],"split_indices":[6,25,26,25,0,26,10,0,4,10,7,0,0,0,0,0,0,0,0,0,0],"split_type":[0,0,0,0,0,0,0,0,0,0,0,0,0,0,0,0,0,0,0,0,0],"sum_hessian":[3.13E2,2.47E2,6.6E1,2.45E2,2E0,5.8E1,8E0,1.55E2,9E1,5.4E1,4E0,2E0,6E0,1.52E2,3E0,1E0,8.9E1,5E1,4E0,3E0,1E0],"tree_param":{"num_deleted":"0","num_feature":"36","num_nodes":"21","size_leaf_vector":"1"}},{"base_weights":[-3.801817E-2,-1.8616293E-1,2.2284001E-1,-1.3434891E-1,-1.8736337E0,2.6816383E-1,-7.868726E-2,-8.972033E-2,-1.0838688E-1,-1.2086909E-1,2.1127654E-2,-9.0822023E-1,2.972798E-1,-4.491863E-3,-9.360283E-2,-8.387505E-2,1.5758539E-2,1.8424606E-2,-5.396485E-4],"categories":[],"categories_nodes":[],"categories_segments":[],"categories_sizes":[],"default_left":[0,0,0,0,0,0,0,0,0,0,0,0,0,0,0,0,0,0,0],"id":40,"left_children":[1,3,5,7,9,11,-1,-1,13,-1,-1,15,17,-1,-1,-1,-1,-1,-1],"loss_changes":[1.2369166E1,1.7584944E1,9.8676815E0,8.382108E0,8.512751E0,4.174674E0,0E0,0E0,6.2767553E0,0E0,0E0,3.352093E0,2.4610977E0,0E0,0E0,0E0,0E0,0E0,0E0],"parents":[2147483647,0,0,1,1,2,2,3,3,4,4,5,5,8,8,11,11,12,12],"right_children":[2,4,6,8,10,12,-1,-1,14,-1,-1,16,18,-1,-1,-1,-1,-1,-1],"split_conditions":[7.36E0,7.31E0,9.95E0,4.95E0,1.25E3,-9.9011534E-1,-7.868726E-2,-8.972033E-2,5.902334E-2,-1.2086909E-1,2.1127654E-2,8.42E0,1.7910926E-2,-4.491863E-3,-9.360283E-2,-8.387505E-2,1.5758539E-2,1.8424606E-2,-5.396485E-4],"split_indices":[29,0,25,0,4,7,0,0,5,0,0,0,5,0,0,0,0,0,0],"split_type":[0,0,0,0,0,0,0,0,0,0,0,0,0,0,0,0,0,0,0],"sum_hessian":[3.18E2,2.03E2,1.15E2,1.98E2,5E0,1.13E2,2E0,2E0,1.96E2,4E0,1E0,2E0,1.11E2,1.95E2,1E0,1E0,1E0,9E1,2.1E1],"tree_param":{"num_deleted":"0","num_feature":"36","num_nodes":"19","size_leaf_vector":"1"}},{"base_weights":[-3.1227728E-2,-2.066458E-1,1.6182278E-1,-1.6788988E-1,-1.7342882E0,-1.5522816E0,2.1902482E-1,-7.0889455E-1,-6.937904E-2,8.136153E-3,-1.21043324E-1,-1.05923586E-1,1.7811967E-2,2.3893405E-1,-6.7193076E-2,-7.722842E-2,2.901629E-3,-8.719681E-4,-5.2316077E-2,1.6093215E-2,-2.185723E-3],"categories":[],"categories_nodes":[],"categories_segments":[],"categories_sizes":[],"default_left":[0,0,0,0,0,0,0,0,0,0,0,0,0,0,0,0,0,0,0,0,0],"id":41,"left_children":[1,3,5,7,9,11,13,15,17,-1,-1,-1,-1,19,-1,-1,-1,-1,-1,-1,-1],"loss_changes":[1.0734637E1,9.536893E0,1.5145577E1,8.637873E0,5.603716E0,6.15761E0,4.895127E0,1.611216E1,7.0349016E0,0E0,0E0,0E0,0E0,3.436326E0,0E0,0E0,0E0,0E0,0E0,0E0,0E0],"parents":[2147483647,0,0,1,1,2,2,3,3,4,4,5,5,6,6,7,7,8,8,13,13],"right_children":[2,4,6,8,10,12,14,16,18,-1,-1,-1,-1,20,-1,-1,-1,-1,-1,-1,-1],"split_conditions":[7.04E0,7.07E0,1.8E1,2.01E2,-1.342302E-2,1.3072082E-2,9.98E0,5.6E2,2.2398661E-1,8.136153E-3,-1.21043324E-1,-1.05923586E-1,1.7811967E-2,1.4795159E-2,-6.7193076E-2,-7.722842E-2,2.901629E-3,-8.719681E-4,-5.2316077E-2,1.6093215E-2,-2.185723E-3],"split_indices":[25,14,4,32,5,5,13,35,10,0,0,0,0,5,0,0,0,0,0,0,0],"split_type":[0,0,0,0,0,0,0,0,0,0,0,0,0,0,0,0,0,0,0,0,0],"sum_hessian":[3.15E2,1.65E2,1.5E2,1.62E2,3E0,4E0,1.46E2,2.4E1,1.38E2,1E0,2E0,3E0,1E0,1.45E2,1E0,1.1E1,1.3E1,1.32E2,6E0,1.12E2,3.3E1],"tree_param":{"num_deleted":"0","num_feature":"36","num_nodes":"21","size_leaf_vector":"1"}},{"base_weights":[-3.524333E-2,-2.3901767E-1,1.1284687E-1,-1.530761E-1,-1.5076676E-1,1.3793622E-1,-7.317907E-2,-1.18563406E-1,-1.1685597E-1,9.120718E-3,3.2929546E-1,-1.6547292E-2,8.148362E-3,4.337545E-3,-1.4072415E-1,-3.0785276E-2,1.9604566E-2],"categories":[],"categories_nodes":[],"categories_segments":[],"categories_sizes":[],"default_left":[0,0,0,0,0,0,0,0,0,0,0,0,0,0,0,0,0],"id":42,"left_children":[1,3,5,7,-1,9,-1,11,-1,13,15,-1,-1,-1,-1,-1,-1],"loss_changes":[9.683607E0,3.1749569E1,7.558468E0,9.672695E0,0E0,4.5326033E0,0E0,7.886707E0,0E0,2.457501E1,4.6327295E0,0E0,0E0,0E0,0E0,0E0,0E0],"parents":[2147483647,0,0,1,1,2,2,3,3,5,5,7,7,9,9,10,10],"right_children":[2,4,6,8,-1,10,-1,12,-1,14,16,-1,-1,-1,-1,-1,-1],"split_conditions":[6.84E0,6.8E0,9.95E0,6.88E0,-1.5076676E-1,8.31E0,-7.317907E-2,6.06E0,-1.1685597E-1,8.342E0,1.81E2,-1.6547292E-2,8.148362E-3,4.337545E-3,-1.4072415E-1,-3.0785276E-2,1.9604566E-2],"split_indices":[25,20,25,19,0,11,0,13,0,8,35,0,0,0,0,0,0],"split_type":[0,0,0,0,0,0,0,0,0,0,0,0,0,0,0,0,0],"sum_hessian":[3.19E2,1.34E2,1.85E2,1.31E2,3E0,1.83E2,2E0,1.3E2,1E0,1.1E2,7.3E1,7.4E1,5.6E1,1.08E2,2E0,4E0,6.9E1],"tree_param":{"num_deleted":"0","num_feature":"36","num_nodes":"17","size_leaf_vector":"1"}},{"base_weights":[-2.0516897E-2,-4.2998368E-1,5.0311986E-2,-1.7742922E0,-2.9800147E-1,-1.09250925E-1,2.2544417E-1,-1.1625904E-1,-3.0406713E-3,-7.593593E-1,-1.7438418E-1,-7.6736E-2,-1.1815925E-1,2.469387E-1,-6.368377E-2,-6.7590676E-2,-2.5816292E-2,-1.6425623E-2,-4.671362E-3,-9.614747E-3,1.0631184E-2,-3.3963148E-2,1.3719106E-2],"categories":[],"categories_nodes":[],"categories_segments":[],"categories_sizes":[],"default_left":[0,0,0,0,0,0,0,0,0,0,0,0,0,0,0,0,0,0,0,0,0,0,0],"id":43,"left_children":[1,3,5,7,9,11,13,-1,-1,15,17,19,-1,21,-1,-1,-1,-1,-1,-1,-1,-1,-1],"loss_changes":[9.244294E0,7.8102255E0,7.625561E0,3.6343412E0,2.3769786E0,1.0298626E1,4.5034943E0,0E0,0E0,5.9789944E-1,4.185071E-1,4.789096E0,0E0,3.4653144E0,0E0,0E0,0E0,0E0,0E0,0E0,0E0,0E0,0E0],"parents":[2147483647,0,0,1,1,2,2,3,3,4,4,5,5,6,6,9,9,10,10,11,11,13,13],"right_children":[2,4,6,8,10,12,14,-1,-1,16,18,20,-1,22,-1,-1,-1,-1,-1,-1,-1,-1,-1],"split_conditions":[5.98E0,1.5E1,1.787E3,1.445E3,5.21E0,1.656E3,9.93E0,-1.1625904E-1,-3.0406713E-3,4.95E0,5.71E0,1.7317073E0,-1.1815925E-1,1.8E1,-6.368377E-2,-6.7590676E-2,-2.5816292E-2,-1.6425623E-2,-4.671362E-3,-9.614747E-3,1.0631184E-2,-3.3963148E-2,1.3719106E-2],"split_indices":[3,34,35,4,11,35,13,0,0,0,3,7,0,32,0,0,0,0,0,0,0,0,0],"split_type":[0,0,0,0,0,0,0,0,0,0,0,0,0,0,0,0,0,0,0,0,0,0,0],"sum_hessian":[3.17E2,4.6E1,2.71E2,3E0,4.3E1,1.42E2,1.29E2,2E0,1E0,8E0,3.5E1,1.41E2,1E0,1.28E2,1E0,1E0,7E0,1.1E1,2.4E1,1.01E2,4E1,3E0,1.25E2],"tree_param":{"num_deleted":"0","num_feature":"36","num_nodes":"23","size_leaf_vector":"1"}},{"base_weights":[-9.212028E-3,-8.181225E-2,6.263639E-3,1.768758E-2,-8.9806944E-2,3.1126758E-2,-6.9518134E-2,-2.7566894E-3,1.4811288E-2],"categories":[],"categories_nodes":[],"categories_segments":[],"categories_sizes":[],"default_left":[0,0,0,0,0,0,0,0,0],"id":44,"left_children":[1,-1,3,5,-1,7,-1,-1,-1],"loss_changes":[8.017303E0,0E0,6.53838E0,6.0040345E0,0E0,7.173886E0,0E0,0E0,0E0],"parents":[2147483647,0,0,2,2,3,3,5,5],"right_children":[2,-1,4,6,-1,8,-1,-1,-1],"split_conditions":[4.95E0,-8.181225E-2,5.902334E-2,9.95E0,-8.9806944E-2,8.31E0,-6.9518134E-2,-2.7566894E-3,1.4811288E-2],"split_indices":[0,0,5,25,0,11,0,0,0],"split_type":[0,0,0,0,0,0,0,0,0],"sum_hessian":[3.17E2,2E0,3.15E2,3.14E2,1E0,3.12E2,2E0,2.36E2,7.6E1],"tree_param":{"num_deleted":"0","num_feature":"36","num_nodes":"9","size_leaf_vector":"1"}},{"base_weights":[-3.9782498E-2,-2.313687E-1,9.7716615E-2,-1.4833191E-1,-1.4464907E-1,-8.9315915E-1,1.354979E-1,-1.145113E-1,-1.1362528E-1,-1.5117387E0,2.1776326E-2,2.0850761E-1,-1.2707403E-1,-1.583189E-2,7.0931795E-3,7.099533E-3,-9.8033436E-2,2.2567895E-3,1.5264466E-2,-4.708776E-2,1.9970244E-2],"categories":[],"categories_nodes":[],"categories_segments":[],"categories_sizes":[],"default_left":[0,0,0,0,0,0,0,0,0,0,0,0,0,0,0,0,0,0,0,0,0],"id":45,"left_children":[1,3,5,7,-1,9,11,13,-1,15,-1,17,19,-1,-1,-1,-1,-1,-1,-1,-1],"loss_changes":[8.452347E0,2.9186455E1,7.121659E0,9.150923E0,0E0,6.4116864E0,3.4963202E0,6.781539E0,0E0,3.9904404E0,0E0,2.2314405E0,1.753264E1,0E0,0E0,0E0,0E0,0E0,0E0,0E0,0E0],"parents":[2147483647,0,0,1,1,2,2,3,3,5,5,6,6,7,7,9,9,11,11,12,12],"right_children":[2,4,6,8,-1,10,12,14,-1,16,-1,18,20,-1,-1,-1,-1,-1,-1,-1,-1],"split_conditions":[6.84E0,6.8E0,1.8E1,6.88E0,-1.4464907E-1,1.3072082E-2,1.4795159E-2,6.06E0,-1.1362528E-1,7.672E0,2.1776326E-2,7.38E0,2.2043508E-2,-1.583189E-2,7.0931795E-3,7.099533E-3,-9.8033436E-2,2.2567895E-3,1.5264466E-2,-4.708776E-2,1.9970244E-2],"split_indices":[25,20,4,19,0,5,5,13,0,8,0,1,5,0,0,0,0,0,0,0,0],"split_type":[0,0,0,0,0,0,0,0,0,0,0,0,0,0,0,0,0,0,0,0,0],"sum_hessian":[3.19E2,1.33E2,1.86E2,1.3E2,3E0,6E0,1.8E2,1.29E2,1E0,4E0,2E0,1.41E2,3.9E1,7.2E1,5.7E1,1E0,3E0,5.3E1,8.8E1,1.5E1,2.4E1],"tree_param":{"num_deleted":"0","num_feature":"36","num_nodes":"21","size_leaf_vector":"1"}},{"base_weights":[-3.071803E-2,-2.2471575E-1,1.0453022E-1,-1.4422475E-1,-1.3922472E-1,1.2653203E-1,-6.582138E-2,-1.1099094E-1,-1.1078465E-1,-1.0001982E0,1.4393128E-1,-7.855745E-2,-3.781254E-3,2.850902E-3,-7.786577E-2,-1.9684605E-2,9.152328E-3],"categories":[],"categories_nodes":[],"categories_segments":[],"categories_sizes":[],"default_left":[0,0,0,0,0,0,0,0,0,0,0,0,0,0,0,0,0],"id":46,"left_children":[1,3,5,7,-1,9,-1,11,-1,13,15,-1,-1,-1,-1,-1,-1],"loss_changes":[8.498316E0,2.7001616E1,6.137928E0,8.703639E0,0E0,3.8491638E0,0E0,6.5427094E0,0E0,1.8557749E0,4.0045404E0,0E0,0E0,0E0,0E0,0E0,0E0],"parents":[2147483647,0,0,1,1,2,2,3,3,5,5,7,7,9,9,10,10],"right_children":[2,4,6,8,-1,10,-1,12,-1,14,16,-1,-1,-1,-1,-1,-1],"split_conditions":[6.84E0,6.8E0,9.95E0,6.88E0,-1.3922472E-1,5E0,-6.582138E-2,4.95E0,-1.1078465E-1,7.12E0,4.9E1,-7.855745E-2,-3.781254E-3,2.850902E-3,-7.786577E-2,-1.9684605E-2,9.152328E-3],"split_indices":[25,20,25,19,0,31,0,0,0,0,35,0,0,0,0,0,0],"split_type":[0,0,0,0,0,0,0,0,0,0,0,0,0,0,0,0,0],"sum_hessian":[3.22E2,1.32E2,1.9E2,1.29E2,3E0,1.88E2,2E0,1.28E2,1E0,2E0,1.86E2,2E0,1.26E2,1E0,1E0,1.2E1,1.74E2],"tree_param":{"num_deleted":"0","num_feature":"36","num_nodes":"17","size_leaf_vector":"1"}},{"base_weights":[-3.548211E-2,-2.1955605E-1,9.168912E-2,-8.818872E-1,-1.1114964E-1,-4.4529397E-2,2.5567523E-1,-1.7439207E-2,-2.2378142E0,-8.077389E-2,-8.707144E-2,6.769859E-2,-1.385699E0,2.1209483E-1,3.2431226E-2,-5.2412428E-2,8.578303E-3,-1.574844E-1,1.3956706E-3,-2.8153509E-2,-2.6796333E-4,5.487609E-3,-6.362733E-2,5.2915285E-3,-1.4518432E-1,5.5097463E-3,1.3507703E-2],"categories":[],"categories_nodes":[],"categories_segments":[],"categories_sizes":[],"default_left":[0,0,0,0,0,0,0,0,0,0,0,0,0,0,0,0,0,0,0,0,0,0,0,0,0,0,0],"id":47,"left_children":[1,3,5,7,9,11,13,15,17,19,-1,21,23,25,-1,-1,-1,-1,-1,-1,-1,-1,-1,-1,-1,-1,-1],"loss_changes":[7.3939366E0,9.164299E0,4.18858E0,2.1059288E1,5.4056835E0,1.5597037E1,1.3180451E0,2.5177846E0,1.455032E1,4.0342965E0,0E0,5.5504284E0,1.8420284E1,4.3169641E-1,0E0,0E0,0E0,0E0,0E0,0E0,0E0,0E0,0E0,0E0,0E0,0E0,0E0],"parents":[2147483647,0,0,1,1,2,2,3,3,4,4,5,5,6,6,7,7,8,8,9,9,11,11,12,12,13,13],"right_children":[2,4,6,8,10,12,14,16,18,20,-1,22,24,26,-1,-1,-1,-1,-1,-1,-1,-1,-1,-1,-1,-1,-1],"split_conditions":[6.65E0,2.01E2,1.69E-1,6.1E0,5.902334E-2,-8.4889645E-4,9.41E0,4.94E0,6.8E0,5.51E0,-8.707144E-2,9.8E0,1.8605523E-2,8.5264295E-2,3.2431226E-2,-5.2412428E-2,8.578303E-3,-1.574844E-1,1.3956706E-3,-2.8153509E-2,-2.6796333E-4,5.487609E-3,-6.362733E-2,5.2915285E-3,-1.4518432E-1,5.5097463E-3,1.3507703E-2],"split_indices":[26,32,7,29,5,7,3,0,1,0,0,20,6,10,0,0,0,0,0,0,0,0,0,0,0,0,0],"split_type":[0,0,0,0,0,0,0,0,0,0,0,0,0,0,0,0,0,0,0,0,0,0,0,0,0,0,0],"sum_hessian":[3.14E2,1.28E2,1.86E2,1.7E1,1.11E2,1.02E2,8.4E1,1.1E1,6E0,1.1E2,1E0,9.5E1,7E0,7.7E1,7E0,1E0,1E1,4E0,2E0,1.4E1,9.6E1,9.3E1,2E0,4E0,3E0,2.9E1,4.8E1],"tree_param":{"num_deleted":"0","num_feature":"36","num_nodes":"27","size_leaf_vector":"1"}},{"base_weights":[4.0380948E-4,-1.2555157E-1,1.4833526E-1,-9.306085E-2,-1.4912643E0,1.7545809E-1,-6.150642E-2,-3.1012133E-1,-4.0682894E-3,6.8026423E-3,-1.0395272E-1,-9.841984E-1,1.9824092E-1,-1.1444486E-2,-1.0726178E-1,4.996317E-3,-9.652848E-3,2.4419308E-3,-7.625681E-2,-6.5000365E-3,1.2900387E-2],"categories":[],"categories_nodes":[],"categories_segments":[],"categories_sizes":[],"default_left":[0,0,0,0,0,0,0,0,0,0,0,0,0,0,0,0,0,0,0,0,0],"id":48,"left_children":[1,3,5,7,9,11,-1,13,15,-1,-1,17,19,-1,-1,-1,-1,-1,-1,-1,-1],"loss_changes":[6.0370054E0,7.6264925E0,5.786624E0,3.3212223E0,4.108944E0,4.078887E0,0E0,6.962443E0,2.43671E0,0E0,0E0,1.750912E0,2.8781443E0,0E0,0E0,0E0,0E0,0E0,0E0,0E0,0E0],"parents":[2147483647,0,0,1,1,2,2,3,3,4,4,5,5,7,7,8,8,11,11,12,12],"right_children":[2,4,6,8,10,12,-1,14,16,-1,-1,18,20,-1,-1,-1,-1,-1,-1,-1,-1],"split_conditions":[7.04E0,7.07E0,9.95E0,5.98E0,-1.342302E-2,5E0,-6.150642E-2,6.19E0,6.78E0,6.8026423E-3,-1.0395272E-1,7.12E0,1.81E2,-1.1444486E-2,-1.0726178E-1,4.996317E-3,-9.652848E-3,2.4419308E-3,-7.625681E-2,-6.5000365E-3,1.2900387E-2],"split_indices":[25,14,25,3,5,31,0,1,25,0,0,0,35,0,0,0,0,0,0,0,0],"split_type":[0,0,0,0,0,0,0,0,0,0,0,0,0,0,0,0,0,0,0,0,0],"sum_hessian":[3.22E2,1.74E2,1.48E2,1.71E2,3E0,1.46E2,2E0,4.9E1,1.22E2,1E0,2E0,2E0,1.44E2,4.8E1,1E0,7.9E1,4.3E1,1E0,1E0,2.2E1,1.22E2],"tree_param":{"num_deleted":"0","num_feature":"36","num_nodes":"21","size_leaf_vector":"1"}},{"base_weights":[-3.373887E-2,-1.9872735E-1,8.540409E-2,-1.2752803E-1,-1.2671116E-1,1.0528803E-1,-5.9456207E-2,-9.725783E-2,-1.0383661E-1,3.569333E-2,3.5393992E-1,-7.421461E-2,-3.2375627E-3,5.7867453E-3,-1.2337328E-2,1.2730218E-2,2.8639195E-2],"categories":[],"categories_nodes":[],"categories_segments":[],"categories_sizes":[],"default_left":[0,0,0,0,0,0,0,0,0,0,0,0,0,0,0,0,0],"id":49,"left_children":[1,3,5,7,-1,9,-1,11,-1,13,15,-1,-1,-1,-1,-1,-1],"loss_changes":[6.425225E0,2.2457962E1,4.9403024E0,7.7043962E0,0E0,3.2406793E0,0E0,5.9005585E0,0E0,3.3743832E0,7.454653E-1,0E0,0E0,0E0,0E0,0E0,0E0],"parents":[2147483647,0,0,1,1,2,2,3,3,5,5,7,7,9,9,10,10],"right_children":[2,4,6,8,-1,10,-1,12,-1,14,16,-1,-1,-1,-1,-1,-1],"split_conditions":[6.84E0,6.8E0,9.95E0,6.88E0,-1.2671116E-1,8.99E0,-5.9456207E-2,4.95E0,-1.0383661E-1,8.29E0,9.4E0,-7.421461E-2,-3.2375627E-3,5.7867453E-3,-1.2337328E-2,1.2730218E-2,2.8639195E-2],"split_indices":[25,20,25,19,0,11,0,0,0,29,2,0,0,0,0,0,0],"split_type":[0,0,0,0,0,0,0,0,0,0,0,0,0,0,0,0,0],"sum_hessian":[3.25E2,1.36E2,1.89E2,1.33E2,3E0,1.87E2,2E0,1.32E2,1E0,1.47E2,4E1,2E0,1.3E2,1.15E2,3.2E1,2.9E1,1.1E1],"tree_param":{"num_deleted":"0","num_feature":"36","num_nodes":"17","size_leaf_vector":"1"}},{"base_weights":[-2.1869445E-2,-7.174079E-2,-8.512992E-3,2.1443404E-3,-8.493862E-2,-4.868683E-2,2.89084E-1,8.2546676E-4,-3.1923924E-2,-7.3902714E-3,1.7750798E-2],"categories":[],"categories_nodes":[],"categories_segments":[],"categories_sizes":[],"default_left":[0,0,0,0,0,0,0,0,0,0,0],"id":50,"left_children":[1,-1,3,5,-1,7,9,-1,-1,-1,-1],"loss_changes":[6.045682E0,0E0,5.7499995E0,4.652256E0,0E0,1.0431074E1,1.4351115E0,0E0,0E0,0E0,0E0],"parents":[2147483647,0,0,2,2,3,3,5,5,6,6],"right_children":[2,-1,4,6,-1,8,10,-1,-1,-1,-1],"split_conditions":[4.95E0,-7.174079E-2,5.902334E-2,2.2173857E-2,-8.493862E-2,1.4795159E-2,5.84E0,8.2546676E-4,-3.1923924E-2,-7.3902714E-3,1.7750798E-2],"split_indices":[0,0,5,5,0,5,16,0,0,0,0],"split_type":[0,0,0,0,0,0,0,0,0,0,0],"sum_hessian":[3.2E2,2E0,3.18E2,3.17E2,1E0,2.7E2,4.7E1,2.44E2,2.6E1,6E0,4.1E1],"tree_param":{"num_deleted":"0","num_feature":"36","num_nodes":"11","size_leaf_vector":"1"}},{"base_weights":[-3.74819E-2,-3.297911E-1,3.0458568E-2,-1.5389011E0,-2.1794301E-1,-1.5539356E-1,1.3304469E-1,1.6799863E-1,-1.3664168E-1,-2.938723E-2,-7.949796E-1,-7.470217E-2,-1.2890658E-1,1.4673033E-1,-5.4495692E-2,2.2773386E-3,1.0322559E-2,2.3483352E-3,-8.281516E-2,1.0796211E-2,-1.3288955E-1,-2.908363E-2,-2.8914708E-4,8.920551E-3,-1.4131322E-2],"categories":[],"categories_nodes":[],"categories_segments":[],"categories_sizes":[],"default_left":[0,0,0,0,0,0,0,0,0,0,0,0,0,0,0,0,0,0,0,0,0,0,0,0,0],"id":51,"left_children":[1,3,5,7,9,11,13,15,-1,17,19,21,-1,23,-1,-1,-1,-1,-1,-1,-1,-1,-1,-1,-1],"loss_changes":[6.4247036E0,7.914041E0,5.0349927E0,1.0648731E1,6.178443E0,1.8183853E1,3.0052073E0,4.722573E-3,0E0,5.5435343E0,2.6937607E1,3.2111175E0,0E0,2.3492162E0,0E0,0E0,0E0,0E0,0E0,0E0,0E0,0E0,0E0,0E0,0E0],"parents":[2147483647,0,0,1,1,2,2,3,3,4,4,5,5,6,6,7,7,9,9,10,10,11,11,13,13],"right_children":[2,4,6,8,10,12,14,16,-1,18,20,22,-1,24,-1,-1,-1,-1,-1,-1,-1,-1,-1,-1,-1],"split_conditions":[3.45E2,2.1E1,6.42E0,6.14E0,2.121E3,6.38E0,9.93E0,5.97E0,-1.3664168E-1,3.2007E4,6.92E0,5.3E0,-1.2890658E-1,2.4473239E-2,-5.4495692E-2,2.2773386E-3,1.0322559E-2,2.3483352E-3,-8.281516E-2,1.0796211E-2,-1.3288955E-1,-2.908363E-2,-2.8914708E-4,8.920551E-3,-1.4131322E-2],"split_indices":[35,32,1,0,32,3,13,0,0,4,0,3,0,6,0,0,0,0,0,0,0,0,0,0,0],"split_type":[0,0,0,0,0,0,0,0,0,0,0,0,0,0,0,0,0,0,0,0,0,0,0,0,0],"sum_hessian":[3.22E2,6E1,2.62E2,4E0,5.6E1,9.3E1,1.69E2,2E0,2E0,4.3E1,1.3E1,9.1E1,2E0,1.68E2,1E0,1E0,1E0,4.2E1,1E0,9E0,4E0,1E1,8.1E1,1.57E2,1.1E1],"tree_param":{"num_deleted":"0","num_feature":"36","num_nodes":"25","size_leaf_vector":"1"}},{"base_weights":[-7.97302E-3,-7.490235E-2,2.8072184E-1,-5.8358718E-2,-1.10233344E-1,2.133502E-1,2.8378054E-2,-6.890384E-2,-4.2906743E-2,4.1008085E-1,1.35256E-1,-1.5301085E-3,-8.074478E-2,9.413251E-3,2.5619676E-2,1.1776624E-2,-8.672446E-4],"categories":[],"categories_nodes":[],"categories_segments":[],"categories_sizes":[],"default_left":[0,0,0,0,0,0,0,0,0,0,0,0,0,0,0,0,0],"id":52,"left_children":[1,3,5,7,-1,9,-1,-1,11,13,15,-1,-1,-1,-1,-1,-1],"loss_changes":[6.262082E0,9.137891E0,1.057725E0,5.28364E0,0E0,7.280736E-1,0E0,0E0,4.97967E0,2.2125816E-1,5.8557194E-1,0E0,0E0,0E0,0E0,0E0,0E0],"parents":[2147483647,0,0,1,1,2,2,3,3,5,5,8,8,9,9,10,10],"right_children":[2,4,6,8,-1,10,-1,-1,12,14,16,-1,-1,-1,-1,-1,-1],"split_conditions":[8.65E0,8.91E0,9.6E0,4.95E0,-1.10233344E-1,8.8E0,2.8378054E-2,-6.890384E-2,5.902334E-2,-5.6338175E-3,1.1320905E-2,-1.5301085E-3,-8.074478E-2,9.413251E-3,2.5619676E-2,1.1776624E-2,-8.672446E-4],"split_indices":[19,20,1,0,0,26,0,0,5,5,6,0,0,0,0,0,0],"split_type":[0,0,0,0,0,0,0,0,0,0,0,0,0,0,0,0,0],"sum_hessian":[3.22E2,2.62E2,6E1,2.61E2,1E0,5E1,1E1,2E0,2.59E2,1.3E1,3.7E1,2.58E2,1E0,5E0,8E0,2.2E1,1.5E1],"tree_param":{"num_deleted":"0","num_feature":"36","num_nodes":"17","size_leaf_vector":"1"}},{"base_weights":[-9.262649E-3,-6.932923E-1,1.5276729E-2,-6.660704E-2,-2.0165518E-2,2.5617655E-2,-7.8726165E-2,-4.753991E-1,5.8581896E-2,-1.8194047E-3,-7.102625E-2,3.5546988E-3,-5.7688195E-2],"categories":[],"categories_nodes":[],"categories_segments":[],"categories_sizes":[],"default_left":[0,0,0,0,0,0,0,0,0,0,0,0,0],"id":53,"left_children":[1,3,5,-1,-1,7,-1,9,11,-1,-1,-1,-1],"loss_changes":[5.3316464E0,1.5005345E0,5.087416E0,0E0,0E0,5.081635E0,0E0,7.831804E0,4.4506893E0,0E0,0E0,0E0,0E0],"parents":[2147483647,0,0,1,1,2,2,5,5,7,7,8,8],"right_children":[2,4,6,-1,-1,8,-1,10,12,-1,-1,-1,-1],"split_conditions":[5.21E0,4.95E0,5.902334E-2,-6.660704E-2,-2.0165518E-2,4.9E1,-7.8726165E-2,2E1,9.8E0,-1.8194047E-3,-7.102625E-2,3.5546988E-3,-5.7688195E-2],"split_indices":[11,0,5,0,0,35,0,35,20,0,0,0,0],"split_type":[0,0,0,0,0,0,0,0,0,0,0,0,0],"sum_hessian":[3.16E2,1E1,3.06E2,2E0,8E0,3.05E2,1E0,1.8E1,2.87E2,1.3E1,5E0,2.85E2,2E0],"tree_param":{"num_deleted":"0","num_feature":"36","num_nodes":"13","size_leaf_vector":"1"}},{"base_weights":[-4.8830966E-3,7.4595965E-2,-2.7010533E-1,-4.9765967E-2,2.2494084E-1,1.254477E-1,-4.6247974E-1,9.682982E-3,-1.609265E0,-1.4495066E-2,3.011675E-1,2.4361318E-1,-6.776309E-2,-1.0492002E0,-9.9661976E-2,2.2771272E-3,-2.4272902E-2,3.1700134E-4,-1.00737564E-1,-7.1072998E-3,1.741205E-3,1.3375372E-2,2.958535E-2,3.6865403E-3,1.7031362E-2,6.8550888E-3,-8.763174E-2,-2.6399419E-2,5.951566E-3],"categories":[],"categories_nodes":[],"categories_segments":[],"categories_sizes":[],"default_left":[0,0,0,0,0,0,0,0,0,0,0,0,0,0,0,0,0,0,0,0,0,0,0,0,0,0,0,0,0],"id":54,"left_children":[1,3,5,7,9,11,13,15,17,19,21,23,-1,25,27,-1,-1,-1,-1,-1,-1,-1,-1,-1,-1,-1,-1,-1,-1],"loss_changes":[6.765625E0,4.6293974E0,5.6889935E0,1.2624222E1,2.0485215E0,4.704378E0,1.0539065E1,2.3658404E0,3.2883015E0,1.8122794E-1,6.729779E-1,3.7042868E-1,0E0,1.609552E1,3.060355E0,0E0,0E0,0E0,0E0,0E0,0E0,0E0,0E0,0E0,0E0,0E0,0E0,0E0,0E0],"parents":[2147483647,0,0,1,1,2,2,3,3,4,4,5,5,6,6,7,7,8,8,9,9,10,10,11,11,13,13,14,14],"right_children":[2,4,6,8,10,12,14,16,18,20,22,24,-1,26,28,-1,-1,-1,-1,-1,-1,-1,-1,-1,-1,-1,-1,-1,-1],"split_conditions":[2.2689154E-2,1.849E3,4.83E2,1.71E3,6.22E0,8.85E0,1.307E3,9.02E0,6.18E0,-9.290277E-1,9.44E0,2.5941694E-2,-6.776309E-2,-4.3666402E-1,5.51E0,2.2771272E-3,-2.4272902E-2,3.1700134E-4,-1.00737564E-1,-7.1072998E-3,1.741205E-3,1.3375372E-2,2.958535E-2,3.6865403E-3,1.7031362E-2,6.8550888E-3,-8.763174E-2,-2.6399419E-2,5.951566E-3],"split_indices":[6,31,33,31,3,0,33,20,0,7,8,6,0,7,0,0,0,0,0,0,0,0,0,0,0,0,0,0,0],"split_type":[0,0,0,0,0,0,0,0,0,0,0,0,0,0,0,0,0,0,0,0,0,0,0,0,0,0,0,0,0],"sum_hessian":[3.19E2,2.46E2,7.3E1,1.35E2,1.11E2,2.4E1,4.9E1,1.31E2,4E0,2.7E1,8.4E1,2.3E1,1E0,1.8E1,3.1E1,1.23E2,8E0,1E0,3E0,7E0,2E1,7.7E1,7E0,9E0,1.4E1,7E0,1.1E1,1E1,2.1E1],"tree_param":{"num_deleted":"0","num_feature":"36","num_nodes":"29","size_leaf_vector":"1"}},{"base_weights":[-2.310488E-2,-3.148811E-1,2.8038476E-2,-2.4052513E-1,-9.7099185E-2,-8.937169E-2,1.7018908E-1,-6.3984774E-2,-1.6752435E-1,-1.4486527E0,-6.1955802E-2,1.8840969E-1,-5.3140175E-2,-1.534884E-2,-2.9010817E-3,6.921172E-4,-1.0934108E-1,-2.13066E-3,-7.456722E-2,-1.4761026E-3,1.0580442E-2],"categories":[],"categories_nodes":[],"categories_segments":[],"categories_sizes":[],"default_left":[0,0,0,0,0,0,0,0,0,0,0,0,0,0,0,0,0,0,0,0,0],"id":55,"left_children":[1,3,5,7,-1,9,11,-1,13,15,17,19,-1,-1,-1,-1,-1,-1,-1,-1,-1],"loss_changes":[4.903381E0,5.461159E0,4.6883893E0,3.4269116E0,0E0,5.6491957E0,3.0534084E0,0E0,6.846281E-1,3.2689748E0,4.1389594E0,6.4328194E-1,0E0,0E0,0E0,0E0,0E0,0E0,0E0,0E0,0E0],"parents":[2147483647,0,0,1,1,2,2,3,3,5,5,6,6,8,8,9,9,10,10,11,11],"right_children":[2,4,6,8,-1,10,12,-1,14,16,18,20,-1,-1,-1,-1,-1,-1,-1,-1,-1],"split_conditions":[5.98E0,6.19E0,1.83E3,4.95E0,-9.7099185E-2,5.95E0,9.93E0,-6.3984774E-2,5.71E0,5.91E0,5.7466436E-2,6.15E0,-5.3140175E-2,-1.534884E-2,-2.9010817E-3,6.921172E-4,-1.0934108E-1,-2.13066E-3,-7.456722E-2,-1.4761026E-3,1.0580442E-2],"split_indices":[3,1,35,0,0,23,13,0,3,0,5,1,0,0,0,0,0,0,0,0,0],"split_type":[0,0,0,0,0,0,0,0,0,0,0,0,0,0,0,0,0,0,0,0,0],"sum_hessian":[3.27E2,4.8E1,2.79E2,4.7E1,1E0,1.53E2,1.26E2,2E0,4.5E1,2E0,1.51E2,1.25E2,1E0,1.9E1,2.6E1,1E0,1E0,1.5E2,1E0,1.2E1,1.13E2],"tree_param":{"num_deleted":"0","num_feature":"36","num_nodes":"21","size_leaf_vector":"1"}},{"base_weights":[-4.6255868E-2,-5.5160725E-1,-1.9058954E-2,-1.6626406E0,-1.673195E-1,-3.2262126E-1,3.4585606E-2,-5.2588223E-3,-1.0733682E-1,1.4326482E-1,-9.735828E-2,-3.8606673E-2,-1.3128116E0,4.6171065E-2,-7.270303E-2,1.6214729E-3,1.4597421E-2,-6.1302032E-2,5.3247306E-3,1.1518498E-2,-1.1899972E-1,-1.6036537E-2,4.204543E-3],"categories":[],"categories_nodes":[],"categories_segments":[],"categories_sizes":[],"default_left":[0,0,0,0,0,0,0,0,0,0,0,0,0,0,0,0,0,0,0,0,0,0,0],"id":56,"left_children":[1,3,5,7,9,11,13,-1,-1,15,-1,17,19,21,-1,-1,-1,-1,-1,-1,-1,-1,-1],"loss_changes":[4.3051023E0,6.5531116E0,4.8802133E0,2.790062E0,7.46526E0,1.2604599E1,4.465032E0,0E0,0E0,1.8828507E-1,0E0,6.333302E0,1.7016844E1,3.5608318E0,0E0,0E0,0E0,0E0,0E0,0E0,0E0,0E0,0E0],"parents":[2147483647,0,0,1,1,2,2,3,3,4,4,5,5,6,6,9,9,11,11,12,12,13,13],"right_children":[2,4,6,8,10,12,14,-1,-1,16,-1,18,20,22,-1,-1,-1,-1,-1,-1,-1,-1,-1],"split_conditions":[2.1E1,3E1,1.27E2,1.3557591E-2,2.423E3,-7.848255E-1,5.902334E-2,-5.2588223E-3,-1.0733682E-1,2.0182513E-2,-9.735828E-2,3.9E1,2.1E2,5.71E0,-7.270303E-2,1.6214729E-3,1.4597421E-2,-6.1302032E-2,5.3247306E-3,1.1518498E-2,-1.1899972E-1,-1.6036537E-2,4.204543E-3],"split_indices":[32,34,4,6,4,7,5,0,0,6,0,35,33,2,0,0,0,0,0,0,0,0,0],"split_type":[0,0,0,0,0,0,0,0,0,0,0,0,0,0,0,0,0,0,0,0,0,0,0],"sum_hessian":[3.13E2,1.5E1,2.98E2,3E0,1.2E1,4.4E1,2.54E2,1E0,2E0,1.1E1,1E0,3.5E1,9E0,2.53E2,1E0,7E0,4E0,3E0,3.2E1,4E0,5E0,2.3E1,2.3E2],"tree_param":{"num_deleted":"0","num_feature":"36","num_nodes":"23","size_leaf_vector":"1"}},{"base_weights":[-1.7881231E-2,-6.678239E-2,2.609209E-1,-1.4788592E-2,-5.323415E-1,-7.069179E-3,3.5789147E-1,-1.8243095E-1,8.954537E-2,1.9017725E-1,-1.2684443E0,-9.000075E-3,5.645795E-2,2.8449303E-1,5.464764E-1,-4.5076357E-3,-5.373451E-2,5.1760483E-3,-5.1916786E-2,4.8426987E-4,1.7344847E-2,-2.8372541E-2,-1.4395326E-1,-5.138835E-4,5.689196E-3,1.7818663E-2,4.657446E-3,2.8999701E-2,6.958389E-3],"categories":[],"categories_nodes":[],"categories_segments":[],"categories_sizes":[],"default_left":[0,0,0,0,0,0,0,0,0,0,0,0,0,0,0,0,0,0,0,0,0,0,0,0,0,0,0,0,0],"id":57,"left_children":[1,3,5,7,9,11,13,15,17,19,21,-1,23,25,27,-1,-1,-1,-1,-1,-1,-1,-1,-1,-1,-1,-1,-1,-1],"loss_changes":[4.47566E0,6.745653E0,1.2759004E0,4.424016E0,1.5132977E1,1.6396503E-1,3.4283733E-1,7.8897176E0,2.566487E0,4.2093962E-1,1.4172756E1,0E0,4.3251954E-2,3.5191202E-1,4.215169E-2,0E0,0E0,0E0,0E0,0E0,0E0,0E0,0E0,0E0,0E0,0E0,0E0,0E0,0E0],"parents":[2147483647,0,0,1,1,2,2,3,3,4,4,5,5,6,6,7,7,8,8,9,9,10,10,12,12,13,13,14,14],"right_children":[2,4,6,8,10,12,14,16,18,20,22,-1,24,26,28,-1,-1,-1,-1,-1,-1,-1,-1,-1,-1,-1,-1,-1,-1],"split_conditions":[2.2173857E-2,1.4795159E-2,6.19E0,6.82E0,1.04163334E-1,5.29E0,1.6084154E-1,6.31E0,9.98E0,8.27E2,8.32E0,-9.000075E-3,6.04E0,2.218407E-2,9.993E3,-4.5076357E-3,-5.373451E-2,5.1760483E-3,-5.1916786E-2,4.8426987E-4,1.7344847E-2,-2.8372541E-2,-1.4395326E-1,-5.138835E-4,5.689196E-3,1.7818663E-2,4.657446E-3,2.8999701E-2,6.958389E-3],"split_indices":[5,5,1,21,10,12,10,26,13,33,1,0,1,6,35,0,0,0,0,0,0,0,0,0,0,0,0,0,0],"split_type":[0,0,0,0,0,0,0,0,0,0,0,0,0,0,0,0,0,0,0,0,0,0,0,0,0,0,0,0,0],"sum_hessian":[3.26E2,2.78E2,4.8E1,2.51E2,2.7E1,1.3E1,3.5E1,9.6E1,1.55E2,1.4E1,1.3E1,3E0,1E1,2.7E1,8E0,8.8E1,8E0,1.54E2,1E0,7E0,7E0,1E1,3E0,5E0,5E0,1.9E1,8E0,7E0,1E0],"tree_param":{"num_deleted":"0","num_feature":"36","num_nodes":"29","size_leaf_vector":"1"}},{"base_weights":[6.2467195E-3,-5.4825085E-1,3.4420338E-2,9.837832E-2,-1.534591E0,4.5777284E-2,-5.4312427E-2,2.1467991E-1,-1.49360495E-2,-1.9500468E0,1.3567197E-2,-2.4564506E-2,2.620287E-1,7.462978E-4,1.3044345E-2,1.2065363E-3,-5.2567483E-3,2.3860335E-3,-1.2307095E-1,-1.774365E-4,-1.1672628E-1,2.2024108E-2,9.943078E-3],"categories":[],"categories_nodes":[],"categories_segments":[],"categories_sizes":[],"default_left":[0,0,0,0,0,0,0,0,0,0,0,0,0,0,0,0,0,0,0,0,0,0,0],"id":58,"left_children":[1,3,5,7,9,11,-1,13,15,17,-1,19,21,-1,-1,-1,-1,-1,-1,-1,-1,-1,-1],"loss_changes":[4.846131E0,9.717915E0,3.8043022E0,1.349929E-1,5.0308504E0,4.4634094E0,0E0,4.225616E-2,2.3679668E-2,5.2254734E0,0E0,1.0768845E1,7.2401714E-1,0E0,0E0,0E0,0E0,0E0,0E0,0E0,0E0,0E0,0E0],"parents":[2147483647,0,0,1,1,2,2,3,3,4,4,5,5,7,7,8,8,9,9,11,11,12,12],"right_children":[2,4,6,8,10,12,-1,14,16,18,-1,20,22,-1,-1,-1,-1,-1,-1,-1,-1,-1,-1],"split_conditions":[2.1E1,8.288547E-2,9.95E0,6.16E0,8.7777776E-1,8.15E0,-5.4312427E-2,5.18E0,7.11E0,5.97E0,1.3567197E-2,8.29E0,1.025E3,7.462978E-4,1.3044345E-2,1.2065363E-3,-5.2567483E-3,2.3860335E-3,-1.2307095E-1,-1.774365E-4,-1.1672628E-1,2.2024108E-2,9.943078E-3],"split_indices":[32,10,25,1,7,30,0,0,0,0,0,15,35,0,0,0,0,0,0,0,0,0,0],"split_type":[0,0,0,0,0,0,0,0,0,0,0,0,0,0,0,0,0,0,0,0,0,0,0],"sum_hessian":[3.08E2,1.4E1,2.94E2,9E0,5E0,2.92E2,2E0,4E0,5E0,4E0,1E0,2.21E2,7.1E1,1E0,3E0,4E0,1E0,1E0,3E0,2.2E2,1E0,1.7E1,5.4E1],"tree_param":{"num_deleted":"0","num_feature":"36","num_nodes":"23","size_leaf_vector":"1"}},{"base_weights":[-6.1197206E-3,-6.0802615E-1,2.0908516E-2,6.520075E-2,-1.5165288E0,-6.1119504E-2,3.287299E-2,-8.582796E-3,1.078144E-2,6.2881554E-3,-1.1845578E-1,4.2248763E-2,-7.160602E-2,1.2077809E-3,-5.125332E-3,-4.815779E-4,1.3589169E-2],"categories":[],"categories_nodes":[],"categories_segments":[],"categories_sizes":[],"default_left":[0,0,0,0,0,0,0,0,0,0,0,0,0,0,0,0,0],"id":59,"left_children":[1,3,5,7,9,-1,11,13,-1,-1,-1,15,-1,-1,-1,-1,-1],"loss_changes":[5.299966E0,8.661678E0,4.6813126E0,1.0174272E-1,8.699124E0,0E0,4.318493E0,2.4000533E-2,0E0,0E0,0E0,3.6822913E0,0E0,0E0,0E0,0E0,0E0],"parents":[2147483647,0,0,1,1,2,2,3,3,4,4,6,6,7,7,11,11],"right_children":[2,4,6,8,10,-1,12,14,-1,-1,-1,16,-1,-1,-1,-1,-1],"split_conditions":[2.1E1,8.288547E-2,4.95E0,1.8E1,8E0,-6.1119504E-2,5.902334E-2,7.11E0,1.078144E-2,6.2881554E-3,-1.1845578E-1,1.8462064E-2,-7.160602E-2,1.2077809E-3,-5.125332E-3,-4.815779E-4,1.3589169E-2],"split_indices":[32,10,0,32,32,0,5,0,0,0,0,5,0,0,0,0,0],"split_type":[0,0,0,0,0,0,0,0,0,0,0,0,0,0,0,0,0],"sum_hessian":[3.24E2,1.3E1,3.11E2,8E0,5E0,2E0,3.09E2,6E0,2E0,2E0,3E0,3.08E2,1E0,5E0,1E0,2.52E2,5.6E1],"tree_param":{"num_deleted":"0","num_feature":"36","num_nodes":"17","size_leaf_vector":"1"}},{"base_weights":[-3.9603353E-2,-1.4795175E-1,7.878685E-2,-2.2204138E-1,1.6411588E-1,-2.6728898E-1,1.4423043E-1,-1.3423508E-1,-2.1167731E0,-1.4121617E-1,2.6747078E-1,-4.8373938E-2,-1.978028E-1,1.6049343E-1,-4.9249012E-2,-4.8057036E-3,-4.5937866E-2,-9.54682E-3,-1.5159787E-1,-8.973139E-3,-2.4510224E-4,1.726036E-2,4.5458185E-3,-1.3336467E-2,-5.332442E-3,-2.5142005E-2,9.006105E-3],"categories":[],"categories_nodes":[],"categories_segments":[],"categories_sizes":[],"default_left":[0,0,0,0,0,0,0,0,0,0,0,0,0,0,0,0,0,0,0,0,0,0,0,0,0,0,0],"id":60,"left_children":[1,3,5,7,9,11,13,15,17,19,21,-1,23,25,-1,-1,-1,-1,-1,-1,-1,-1,-1,-1,-1,-1,-1],"loss_changes":[4.154903E0,3.943885E0,3.5490599E0,2.250846E1,1.0791708E0,1.024968E0,2.5638142E0,3.85939E0,9.996063E0,4.604225E-2,3.1173265E-1,0E0,1.2234378E-1,1.7832181E0,0E0,0E0,0E0,0E0,0E0,0E0,0E0,0E0,0E0,0E0,0E0,0E0,0E0],"parents":[2147483647,0,0,1,1,2,2,3,3,4,4,5,5,6,6,7,7,8,8,9,9,10,10,12,12,13,13],"right_children":[2,4,6,8,10,12,14,16,18,20,22,-1,24,26,-1,-1,-1,-1,-1,-1,-1,-1,-1,-1,-1,-1,-1],"split_conditions":[1.83E3,3.319E3,5.96E0,2.78E3,6.16E0,4.95E0,9.93E0,2.2398661E-1,8.228001E-2,6.11E0,9.47E2,-4.8373938E-2,5.71E0,1.8E1,-4.9249012E-2,-4.8057036E-3,-4.5937866E-2,-9.54682E-3,-1.5159787E-1,-8.973139E-3,-2.4510224E-4,1.726036E-2,4.5458185E-3,-1.3336467E-2,-5.332442E-3,-2.5142005E-2,9.006105E-3],"split_indices":[35,34,0,34,1,0,13,10,10,1,35,0,2,32,0,0,0,0,0,0,0,0,0,0,0,0,0],"split_type":[0,0,0,0,0,0,0,0,0,0,0,0,0,0,0,0,0,0,0,0,0,0,0,0,0,0,0],"sum_hessian":[3.22E2,1.68E2,1.54E2,1.36E2,3.2E1,2.4E1,1.3E2,1.31E2,5E0,8E0,2.4E1,1E0,2.3E1,1.29E2,1E0,1.26E2,5E0,2E0,3E0,6E0,2E0,1.6E1,8E0,1.2E1,1.1E1,3E0,1.26E2],"tree_param":{"num_deleted":"0","num_feature":"36","num_nodes":"27","size_leaf_vector":"1"}},{"base_weights":[1.36975255E-2,-4.7197172E-1,3.7382677E-2,-1.6107602E0,-5.30446E-2,-9.414945E-2,1.0621942E-1,9.028149E-3,-1.13402784E-1,1.3625883E-1,-5.3384554E-2,-4.203511E-2,-9.346983E-2,-7.308134E-2,1.7720717E-1,2.290829E-3,1.8108297E-2,-7.0738154E-3,6.3663903E-3,-1.9255701E-2,1.3749673E-2,9.963924E-3,-1.1283678E-2],"categories":[],"categories_nodes":[],"categories_segments":[],"categories_sizes":[],"default_left":[0,0,0,0,0,0,0,0,0,0,0,0,0,0,0,0,0,0,0,0,0,0,0],"id":61,"left_children":[1,3,5,7,9,11,13,-1,-1,15,-1,17,-1,19,21,-1,-1,-1,-1,-1,-1,-1,-1],"loss_changes":[3.7101545E0,7.070599E0,2.7896528E0,5.11924E0,2.4503946E0,9.728096E0,2.5840387E0,0E0,0E0,2.0815377E-1,0E0,1.7695453E0,0E0,6.405325E0,1.3343258E0,0E0,0E0,0E0,0E0,0E0,0E0,0E0,0E0],"parents":[2147483647,0,0,1,1,2,2,3,3,4,4,5,5,6,6,9,9,11,11,13,13,14,14],"right_children":[2,4,6,8,10,12,14,-1,-1,16,-1,18,-1,20,22,-1,-1,-1,-1,-1,-1,-1,-1],"split_conditions":[2.1E1,2.92E2,6.38E0,6.14E0,8.4E0,6.32E0,5.63E2,9.028149E-3,-1.13402784E-1,4.101E3,-5.3384554E-2,6.11E0,-9.346983E-2,1.7317073E0,2.4354191E-2,2.290829E-3,1.8108297E-2,-7.0738154E-3,6.3663903E-3,-1.9255701E-2,1.3749673E-2,9.963924E-3,-1.1283678E-2],"split_indices":[32,35,0,0,0,0,31,0,0,34,0,1,0,7,6,0,0,0,0,0,0,0,0],"split_type":[0,0,0,0,0,0,0,0,0,0,0,0,0,0,0,0,0,0,0,0,0,0,0],"sum_hessian":[3.2E2,1.4E1,3.06E2,3E0,1.1E1,1.05E2,2.01E2,1E0,2E0,1E1,1E0,1.03E2,2E0,5.7E1,1.44E2,8E0,2E0,6.5E1,3.8E1,3E1,2.7E1,1.37E2,7E0],"tree_param":{"num_deleted":"0","num_feature":"36","num_nodes":"23","size_leaf_vector":"1"}},{"base_weights":[-3.5904385E-2,-2.7848187E-1,1.4577372E-2,-9.4193876E-1,-9.120995E-2,2.6532449E-2,-5.1917173E-2,-1.7558825E0,-1.0970994E-1,5.850307E-2,-1.2706721E0,8.71454E-2,-2.042792E-1,9.385228E-4,-1.05728365E-1,1.537803E-2,-6.533333E-2,1.7222164E-2,-1.3783236E-2,1.4430046E-3,-1.0733235E-1,-1.2847544E-3,1.0760836E-2,-6.3537695E-2,-7.0029194E-3],"categories":[],"categories_nodes":[],"categories_segments":[],"categories_sizes":[],"default_left":[0,0,0,0,0,0,0,0,0,0,0,0,0,0,0,0,0,0,0,0,0,0,0,0,0],"id":62,"left_children":[1,3,5,7,9,11,-1,13,15,17,19,21,23,-1,-1,-1,-1,-1,-1,-1,-1,-1,-1,-1,-1],"loss_changes":[3.9104497E0,6.747662E0,3.3633032E0,7.9360113E0,7.8438954E0,3.6972182E0,0E0,3.8589363E0,3.8980627E0,3.9170308E0,5.7537394E0,3.025921E0,3.5889635E0,0E0,0E0,0E0,0E0,0E0,0E0,0E0,0E0,0E0,0E0,0E0,0E0],"parents":[2147483647,0,0,1,1,2,2,3,3,4,4,5,5,7,7,8,8,9,9,10,10,11,11,12,12],"right_children":[2,4,6,8,10,12,-1,14,16,18,20,22,24,-1,-1,-1,-1,-1,-1,-1,-1,-1,-1,-1,-1],"split_conditions":[3.45E2,1.12E2,9.95E0,6.81E0,2.53E2,2.2689154E-2,-5.1917173E-2,1.3962471E-2,7.78E0,9.47E2,6.15E0,7.07E0,2.2723466E-2,9.385228E-4,-1.05728365E-1,1.537803E-2,-6.533333E-2,1.7222164E-2,-1.3783236E-2,1.4430046E-3,-1.0733235E-1,-1.2847544E-3,1.0760836E-2,-6.3537695E-2,-7.0029194E-3],"split_indices":[35,34,25,15,35,6,0,6,0,32,0,20,6,0,0,0,0,0,0,0,0,0,0,0,0],"split_type":[0,0,0,0,0,0,0,0,0,0,0,0,0,0,0,0,0,0,0,0,0,0,0,0,0],"sum_hessian":[3.18E2,5.4E1,2.64E2,1.1E1,4.3E1,2.62E2,2E0,5E0,6E0,3.9E1,4E0,2.08E2,5.4E1,1E0,4E0,5E0,1E0,2.1E1,1.8E1,2E0,2E0,1.11E2,9.7E1,2E0,5.2E1],"tree_param":{"num_deleted":"0","num_feature":"36","num_nodes":"25","size_leaf_vector":"1"}},{"base_weights":[-1.668629E-2,-9.21819E-2,1.2622073E-1,1.1719072E-2,-3.8142857E-1,1.5075028E-1,-6.3687466E-2,1.0513382E-1,-2.168885E-1,-1.723014E0,-1.8198927E-1,-3.303906E-2,2.177869E-1,-2.6149522E-3,1.034767E-2,-9.6606895E-2,-6.6996673E-3,-1.3142772E-1,1.8027885E-2,8.446234E-4,-4.7965866E-2,-1.0006565E-2,1.3258229E-3,9.812139E-3,2.8903222E-2],"categories":[],"categories_nodes":[],"categories_segments":[],"categories_sizes":[],"default_left":[0,0,0,0,0,0,0,0,0,0,0,0,0,0,0,0,0,0,0,0,0,0,0,0,0],"id":63,"left_children":[1,3,5,7,9,11,-1,13,15,17,19,21,23,-1,-1,-1,-1,-1,-1,-1,-1,-1,-1,-1,-1],"loss_changes":[3.431702E0,6.255496E0,3.9694858E0,3.3115213E0,1.44025E1,1.3501422E0,0E0,1.7740959E0,6.139471E0,1.415505E1,7.591426E0,3.0384472E-1,5.075083E-1,0E0,0E0,0E0,0E0,0E0,0E0,0E0,0E0,0E0,0E0,0E0,0E0],"parents":[2147483647,0,0,1,1,2,2,3,3,4,4,5,5,7,7,8,8,9,9,10,10,11,11,12,12],"right_children":[2,4,6,8,10,12,-1,14,16,18,20,22,24,-1,-1,-1,-1,-1,-1,-1,-1,-1,-1,-1,-1],"split_conditions":[9.607843E-1,-8.4889645E-4,5.902334E-2,4.46E3,4.83E2,6.14E0,-6.3687466E-2,8.5557E-2,4.549E3,6.81E0,1.1481183E-2,5.78E0,9.5E0,-2.6149522E-3,1.034767E-2,-9.6606895E-2,-6.6996673E-3,-1.3142772E-1,1.8027885E-2,8.446234E-4,-4.7965866E-2,-1.0006565E-2,1.3258229E-3,9.812139E-3,2.8903222E-2],"split_indices":[7,7,5,32,4,0,0,10,32,27,5,2,14,0,0,0,0,0,0,0,0,0,0,0,0],"split_type":[0,0,0,0,0,0,0,0,0,0,0,0,0,0,0,0,0,0,0,0,0,0,0,0,0],"sum_hessian":[3.16E2,2.07E2,1.09E2,1.53E2,5.4E1,1.08E2,1E0,1.09E2,4.4E1,6E0,4.8E1,2.9E1,7.9E1,4.3E1,6.6E1,1E0,4.3E1,4E0,2E0,3.9E1,9E0,7E0,2.2E1,7.6E1,3E0],"tree_param":{"num_deleted":"0","num_feature":"36","num_nodes":"25","size_leaf_vector":"1"}},{"base_weights":[-1.8208167E-2,-5.580277E-2,-7.7610062E-3,7.459521E-5,-6.209528E-2,9.635202E-3,-5.0031353E-2,-7.5963227E-4,1.7838312E-2],"categories":[],"categories_nodes":[],"categories_segments":[],"categories_sizes":[],"default_left":[0,0,0,0,0,0,0,0,0],"id":64,"left_children":[1,-1,3,5,-1,7,-1,-1,-1],"loss_changes":[3.6500728E0,0E0,3.0655665E0,3.0329127E0,0E0,2.7116344E0,0E0,0E0,0E0],"parents":[2147483647,0,0,2,2,3,3,5,5],"right_children":[2,-1,4,6,-1,8,-1,-1,-1],"split_conditions":[4.95E0,-5.580277E-2,5.902334E-2,9.95E0,-6.209528E-2,9.35E0,-5.0031353E-2,-7.5963227E-4,1.7838312E-2],"split_indices":[0,0,5,25,0,20,0,0,0],"split_type":[0,0,0,0,0,0,0,0,0],"sum_hessian":[3.18E2,2E0,3.16E2,3.15E2,1E0,3.13E2,2E0,2.93E2,2E1],"tree_param":{"num_deleted":"0","num_feature":"36","num_nodes":"9","size_leaf_vector":"1"}},{"base_weights":[-6.5948926E-3,-2.0783675E-1,4.9197406E-2,-1.1037437E0,-1.5039031E-1,-1.568025E-1,1.1257331E-1,-7.5065486E-2,2.2238493E-3,-6.91329E-2,-1.10160686E-1,-4.525011E-2,-1.2829903E-1,5.1980566E-2,2.1656962E-1,-1.7947486E-3,-4.1722886E-2,-1.4009011E-2,-3.909801E-3,4.4218614E-3,-7.1180634E-2,1.3591969E-2,-7.1116486E-3],"categories":[],"categories_nodes":[],"categories_segments":[],"categories_sizes":[],"default_left":[0,0,0,0,0,0,0,0,0,0,0,0,0,0,0,0,0,0,0,0,0,0,0],"id":65,"left_children":[1,3,5,7,9,11,13,-1,-1,-1,15,-1,17,19,21,-1,-1,-1,-1,-1,-1,-1,-1],"loss_changes":[3.5694203E0,3.3852072E0,3.268454E0,1.8927469E0,3.1195474E0,1.1421403E0,1.1923144E0,0E0,0E0,0E0,3.4664252E0,0E0,4.1945386E-1,6.6889143E0,1.42683E0,0E0,0E0,0E0,0E0,0E0,0E0,0E0,0E0],"parents":[2147483647,0,0,1,1,2,2,3,3,4,4,5,5,6,6,10,10,12,12,13,13,14,14],"right_children":[2,4,6,8,10,12,14,-1,-1,-1,16,-1,18,20,22,-1,-1,-1,-1,-1,-1,-1,-1],"split_conditions":[3.8E2,5.82E0,6.11E0,1.445E3,5E0,5E0,1.112205E-1,-7.5065486E-2,2.2238493E-3,-6.91329E-2,6.712E3,-4.525011E-2,5.6E0,1.1036304E-1,2.3391E4,-1.7947486E-3,-4.1722886E-2,-1.4009011E-2,-3.909801E-3,4.4218614E-3,-7.1180634E-2,1.3591969E-2,-7.1116486E-3],"split_indices":[32,20,1,4,31,12,10,0,0,0,4,0,1,10,32,0,0,0,0,0,0,0,0],"split_type":[0,0,0,0,0,0,0,0,0,0,0,0,0,0,0,0,0,0,0,0,0,0,0],"sum_hessian":[3.16E2,6.8E1,2.48E2,3E0,6.5E1,5.8E1,1.9E2,2E0,1E0,1E0,6.4E1,1E0,5.7E1,1.21E2,6.9E1,5.9E1,5E0,1.3E1,4.4E1,1.19E2,2E0,6E1,9E0],"tree_param":{"num_deleted":"0","num_feature":"36","num_nodes":"23","size_leaf_vector":"1"}},{"base_weights":[-1.816977E-2,-5.193742E-2,-8.484533E-3,-1.0034327E-3,-5.949983E-2,-4.250167E-2,2.4439926E-1,-1.3980124E-3,-5.0489344E-2,2.0106921E-4,1.5552959E-2],"categories":[],"categories_nodes":[],"categories_segments":[],"categories_sizes":[],"default_left":[0,0,0,0,0,0,0,0,0,0,0],"id":66,"left_children":[1,-1,3,5,-1,7,9,-1,-1,-1,-1],"loss_changes":[3.1542416E0,0E0,2.809611E0,3.2386453E0,0E0,3.797636E0,7.358334E-1,0E0,0E0,0E0,0E0],"parents":[2147483647,0,0,2,2,3,3,5,5,6,6],"right_children":[2,-1,4,6,-1,8,10,-1,-1,-1,-1],"split_conditions":[4.95E0,-5.193742E-2,5.902334E-2,2.2173857E-2,-5.949983E-2,2.1877673E-2,6.19E0,-1.3980124E-3,-5.0489344E-2,2.0106921E-4,1.5552959E-2],"split_indices":[0,0,5,5,0,5,1,0,0,0,0],"split_type":[0,0,0,0,0,0,0,0,0,0,0],"sum_hessian":[3.19E2,2E0,3.17E2,3.16E2,1E0,2.71E2,4.5E1,2.68E2,3E0,1E1,3.5E1],"tree_param":{"num_deleted":"0","num_feature":"36","num_nodes":"11","size_leaf_vector":"1"}},{"base_weights":[-8.413303E-3,-5.0206166E-2,8.6082617E-4,-3.219374E-2,2.2277811E-1,-9.130852E-2,1.1821244E-1,1.4113201E-1,4.1513237E-1,-5.078242E-2,-2.6557252E-3,7.5144344E-3,-3.7758704E-2,1.5798355E-2,4.7678654E-3,1.3184659E-2,2.4281638E-2],"categories":[],"categories_nodes":[],"categories_segments":[],"categories_sizes":[],"default_left":[0,0,0,0,0,0,0,0,0,0,0,0,0,0,0,0,0],"id":67,"left_children":[1,-1,3,5,7,9,11,13,15,-1,-1,-1,-1,-1,-1,-1,-1],"loss_changes":[3.0020256E0,0E0,2.3764997E0,2.51812E0,6.010206E-1,7.112817E0,2.354691E0,2.17964E-1,6.0081482E-5,0E0,0E0,0E0,0E0,0E0,0E0,0E0,0E0],"parents":[2147483647,0,0,2,2,3,3,4,4,5,5,6,6,7,7,8,8],"right_children":[2,-1,4,6,8,10,12,14,16,-1,-1,-1,-1,-1,-1,-1,-1],"split_conditions":[4.95E0,-5.0206166E-2,8.99E0,1.7317073E0,9.51E0,1.02E2,4.777E3,9.8E2,9.39E0,-5.078242E-2,-2.6557252E-3,7.5144344E-3,-3.7758704E-2,1.5798355E-2,4.7678654E-3,1.3184659E-2,2.4281638E-2],"split_indices":[0,0,11,7,1,31,31,35,20,0,0,0,0,0,0,0,0],"split_type":[0,0,0,0,0,0,0,0,0,0,0,0,0,0,0,0,0],"sum_hessian":[3.24E2,2E0,3.22E2,2.81E2,4.1E1,2.02E2,7.9E1,3E1,1.1E1,7E0,1.95E2,7.7E1,2E0,5E0,2.5E1,5E0,6E0],"tree_param":{"num_deleted":"0","num_feature":"36","num_nodes":"17","size_leaf_vector":"1"}},{"base_weights":[-6.5549705E-3,-4.7187895E-2,2.2806743E-1,-2.7540492E-2,-1.1104985E0,1.6016347E-2,3.0637166E-1,3.591414E-2,-2.193657E-1,-8.967995E-2,-5.7232063E-2,-1.3197815E-1,6.83765E-2,3.5575238E-1,1.24188155E-1,-2.830636E-2,2.6853427E-3,-1.794684E-2,1.2833692E-2,-5.4082874E-4,-3.751576E-3,-7.453927E-3,-2.016926E-3,-1.7250836E-3,5.5634263E-3,7.5881826E-3,2.0340404E-2,1.0918752E-2,-2.4069608E-3],"categories":[],"categories_nodes":[],"categories_segments":[],"categories_sizes":[],"default_left":[0,0,0,0,0,0,0,0,0,0,0,0,0,0,0,0,0,0,0,0,0,0,0,0,0,0,0,0,0],"id":68,"left_children":[1,3,5,7,9,11,13,15,17,-1,19,21,23,25,27,-1,-1,-1,-1,-1,-1,-1,-1,-1,-1,-1,-1,-1,-1],"loss_changes":[3.099582E0,5.7563047E0,7.921088E-1,3.3308887E0,3.494782E0,1.1751041E-1,2.7069187E-1,2.2370653E0,4.6101418E0,0E0,1.6669277E-3,2.546832E-4,5.2378137E-2,2.1946025E-1,1.565912E-1,0E0,0E0,0E0,0E0,0E0,0E0,0E0,0E0,0E0,0E0,0E0,0E0,0E0,0E0],"parents":[2147483647,0,0,1,1,2,2,3,3,4,4,5,5,6,6,7,7,8,8,10,10,11,11,12,12,13,13,14,14],"right_children":[2,4,6,8,10,12,14,16,18,-1,20,22,24,26,28,-1,-1,-1,-1,-1,-1,-1,-1,-1,-1,-1,-1,-1,-1],"split_conditions":[2.2173857E-2,2.1877673E-2,6.25E0,2.1554958E-2,1.27E2,5.29E0,4.777E3,-9.9011534E-1,1.7317073E0,-8.967995E-2,5.83E0,5.18E0,2.33E2,1.7843893E-2,2.0246016E-2,-2.830636E-2,2.6853427E-3,-1.794684E-2,1.2833692E-2,-5.4082874E-4,-3.751576E-3,-7.453927E-3,-2.016926E-3,-1.7250836E-3,5.5634263E-3,7.5881826E-3,2.0340404E-2,1.0918752E-2,-2.4069608E-3],"split_indices":[5,5,1,6,4,12,32,7,7,0,0,0,34,6,6,0,0,0,0,0,0,0,0,0,0,0,0,0,0],"split_type":[0,0,0,0,0,0,0,0,0,0,0,0,0,0,0,0,0,0,0,0,0,0,0,0,0,0,0,0,0],"sum_hessian":[3.23E2,2.76E2,4.7E1,2.72E2,4E0,1.3E1,3.4E1,2.05E2,6.7E1,2E0,2E0,3E0,1E1,2.6E1,8E0,5E0,2E2,5.2E1,1.5E1,1E0,1E0,2E0,1E0,3E0,7E0,6E0,2E1,5E0,3E0],"tree_param":{"num_deleted":"0","num_feature":"36","num_nodes":"29","size_leaf_vector":"1"}},{"base_weights":[-1.9227637E-2,-4.772527E-1,2.2109589E-3,-9.5911205E-2,-9.217673E-2,1.2060725E-2,-4.8846807E-2,1.2378801E-1,-6.281506E-2,-8.329836E-2,1.232256E-1,1.4902914E-2,1.058969E-3,-2.6718627E-3,-6.209938E-2,-4.368364E-2,7.215497E-3],"categories":[],"categories_nodes":[],"categories_segments":[],"categories_sizes":[],"default_left":[0,0,0,0,0,0,0,0,0,0,0,0,0,0,0,0,0],"id":69,"left_children":[1,3,5,7,-1,9,-1,11,-1,13,15,-1,-1,-1,-1,-1,-1],"loss_changes":[3.0745318E0,7.117464E0,2.9050937E0,3.2147565E0,0E0,3.1692379E0,0E0,1.9038528E-1,0E0,5.5041904E0,3.026693E0,0E0,0E0,0E0,0E0,0E0,0E0],"parents":[2147483647,0,0,1,1,2,2,3,3,5,5,7,7,9,9,10,10],"right_children":[2,4,6,8,-1,10,-1,12,-1,14,16,-1,-1,-1,-1,-1,-1],"split_conditions":[3.9E1,2E1,9.95E0,7.78E0,-9.217673E-2,7.09E0,-4.8846807E-2,3.21E2,-6.281506E-2,7.02E0,5E0,1.4902914E-2,1.058969E-3,-2.6718627E-3,-6.209938E-2,-4.368364E-2,7.215497E-3],"split_indices":[35,35,25,0,0,25,0,4,0,2,31,0,0,0,0,0,0],"split_type":[0,0,0,0,0,0,0,0,0,0,0,0,0,0,0,0,0],"sum_hessian":[3.12E2,1.3E1,2.99E2,1.1E1,2E0,2.97E2,2E0,1E1,1E0,1.6E2,1.37E2,3E0,7E0,1.57E2,3E0,2E0,1.35E2],"tree_param":{"num_deleted":"0","num_feature":"36","num_nodes":"17","size_leaf_vector":"1"}},{"base_weights":[-3.8278554E-2,-1.0092312E-1,1.353656E-1,-5.536854E-1,-4.1949414E-2,-3.2184103E-1,1.7416409E-1,-1.1098188E-1,-3.3162376E-1,-2.8668176E-2,-4.7218584E-2,-3.1234015E-2,-8.362723E-3,1.0304268E-1,2.809636E-1,-9.6976515E-3,-9.089304E-2,-4.366053E-3,7.862414E-3,2.586638E-3,1.2057613E-2,1.4951712E-2,6.313165E-4],"categories":[],"categories_nodes":[],"categories_segments":[],"categories_sizes":[],"default_left":[0,0,0,0,0,0,0,0,0,0,0,0,0,0,0,0,0,0,0,0,0,0,0],"id":70,"left_children":[1,3,5,7,9,11,13,-1,15,17,-1,-1,-1,19,21,-1,-1,-1,-1,-1,-1,-1,-1],"loss_changes":[3.4837003E0,6.251525E0,1.563862E0,9.252406E0,2.477851E0,2.2322363E-1,5.711119E-1,0E0,4.762704E0,2.2709699E0,0E0,0E0,0E0,3.347577E-1,1.4654398E-1,0E0,0E0,0E0,0E0,0E0,0E0,0E0,0E0],